{"learner":{"attributes":{"best_iteration":"4","best_score":"0.002712038225091"},"feature_names":["model_1_Y_pred","model_3_Y_pred","model_7_Y_pred","model_15_Y_pred","model_30_Y_pred"],"feature_types":["float","float","float","float","float"],"gradient_booster":{"model":{"gbtree_model_param":{"num_parallel_tree":"1","num_trees":"15"},"iteration_indptr":[0,1,2,3,4,5,6,7,8,9,10,11,12,13,14,15],"tree_info":[0,0,0,0,0,0,0,0,0,0,0,0,0,0,0],"trees":[{"base_weights":[-4.7200008E-11,-5.878805E-3,2.2169868E-3,-1.4241245E-2,-4.1178865E-3,6.8377797E-4,7.42856E-3,-6.5529603E-3,-1.2326758E-2,-6.6180564E-3,-3.1423129E-3,-6.171956E-4,2.0189898E-3,5.367556E-3,1.1013002E-2,-4.1406397E-3,-3.1466505E-3,-7.1018343E-3,-5.3562513E-3,-4.036018E-3,-2.3790882E-3,-1.0519641E-3,6.6637926E-6,1.2992964E-3,2.9331201E-3,4.6075126E-3,6.2489985E-3,9.7414E-3,5.171708E-3,-2.1480687E-3,-4.1709663E-4,-1.6678766E-3,-7.3239807E-4,-1.2347994E-3,-1.5829466E-4,-6.6360534E-4,-9.703467E-4,-7.006187E-4,-2.645243E-4,-1.1075895E-3,2.4404973E-5,9.589371E-4,3.5688395E-4,-1.1790501E-3,9.056498E-4,6.7789445E-4,1.4043109E-3,1.640659E-3,2.0963599E-3,7.258357E-4,3.019535E-3],"categories":[],"categories_nodes":[],"categories_segments":[],"categories_sizes":[],"default_left":[0,0,0,0,0,0,0,0,0,0,0,0,0,0,0,0,0,0,0,0,0,0,0,0,0,0,0,0,0,0,0,0,0,0,0,0,0,0,0,0,0,0,0,0,0,0,0,0,0,0,0],"id":0,"left_children":[1,3,5,7,9,11,13,-1,15,17,19,21,23,25,27,-1,-1,29,31,33,35,37,39,41,43,45,47,49,-1,-1,-1,-1,-1,-1,-1,-1,-1,-1,-1,-1,-1,-1,-1,-1,-1,-1,-1,-1,-1,-1,-1],"loss_changes":[2.22738E-2,6.8329275E-3,9.911045E-3,9.09606E-4,9.2557445E-4,1.6688386E-3,2.0241775E-3,0E0,3.6910176E-5,2.7887058E-5,1.8206751E-4,1.3209818E-4,3.0803063E-4,9.246543E-5,6.396035E-4,0E0,0E0,1.5058555E-5,6.5793283E-6,3.3744844E-5,1.4853664E-5,6.063911E-5,5.5823813E-5,5.175665E-5,1.3422442E-4,6.857794E-6,8.474104E-6,1.818575E-4,0E0,0E0,0E0,0E0,0E0,0E0,0E0,0E0,0E0,0E0,0E0,0E0,0E0,0E0,0E0,0E0,0E0,0E0,0E0,0E0,0E0,0E0,0E0],"parents":[2147483647,0,0,1,1,2,2,3,3,4,4,5,5,6,6,8,8,9,9,10,10,11,11,12,12,13,13,14,14,17,17,18,18,19,19,20,20,21,21,22,22,23,23,24,24,25,25,26,26,27,27],"right_children":[2,4,6,8,10,12,14,-1,16,18,20,22,24,26,28,-1,-1,30,32,34,36,38,40,42,44,46,48,50,-1,-1,-1,-1,-1,-1,-1,-1,-1,-1,-1,-1,-1,-1,-1,-1,-1,-1,-1,-1,-1,-1,-1],"split_conditions":[-7.2132796E-4,-6.8379603E-3,4.3505356E-3,-1.6014986E-2,-3.5157092E-3,1.5804134E-3,7.710591E-3,-6.5529603E-3,-9.107344E-3,-4.115984E-3,-1.9930005E-3,7.5782835E-4,3.0209124E-3,5.7311617E-3,1.4715273E-2,-4.1406397E-3,-3.1466505E-3,9.979885E-4,5.928287E-4,2.4029254E-3,1.4687069E-3,-4.587859E-3,-4.742519E-3,-4.742519E-3,-1.1642849E-2,-4.742519E-3,3.5314355E-3,-4.7110617E-3,5.171708E-3,-2.1480687E-3,-4.1709663E-4,-1.6678766E-3,-7.3239807E-4,-1.2347994E-3,-1.5829466E-4,-6.6360534E-4,-9.703467E-4,-7.006187E-4,-2.645243E-4,-1.1075895E-3,2.4404973E-5,9.589371E-4,3.5688395E-4,-1.1790501E-3,9.056498E-4,6.7789445E-4,1.4043109E-3,1.640659E-3,2.0963599E-3,7.258357E-4,3.019535E-3],"split_indices":[2,2,2,2,2,2,2,0,2,2,2,2,2,2,2,0,0,3,4,3,0,1,4,4,1,4,3,1,0,0,0,0,0,0,0,0,0,0,0,0,0,0,0,0,0,0,0,0,0,0,0],"split_type":[0,0,0,0,0,0,0,0,0,0,0,0,0,0,0,0,0,0,0,0,0,0,0,0,0,0,0,0,0,0,0,0,0,0,0,0,0,0,0,0,0,0,0,0,0,0,0,0,0,0,0],"sum_hessian":[1.707E3,4.67E2,1.24E3,8E1,3.87E2,9.59E2,2.81E2,1.4E1,6.6E1,1.07E2,2.8E2,4.86E2,4.73E2,1.8E2,1.01E2,3.3E1,3.3E1,7.4E1,3.3E1,1.27E2,1.53E2,2.86E2,2E2,2.66E2,2.07E2,1E2,8E1,8.6E1,1.5E1,7.3E1,1E0,3E1,3E0,1.24E2,3E0,1.31E2,2.2E1,3.2E1,2.54E2,3E0,1.97E2,1.3E1,2.53E2,2E0,2.05E2,4E0,9.6E1,4.3E1,3.7E1,4E0,8.2E1],"tree_param":{"num_deleted":"0","num_feature":"5","num_nodes":"51","size_leaf_vector":"1"}},{"base_weights":[-4.743745E-6,-3.7112518E-3,1.7731006E-3,-9.858761E-3,-2.5448874E-3,7.103919E-4,5.5022594E-3,-1.5727105E-2,-8.536006E-3,-4.386406E-3,-1.8954101E-3,-1.0686425E-4,1.7005987E-3,4.146588E-3,8.32836E-3,-7.885555E-3,-1.7861707E-2,-9.264818E-3,-6.2554404E-3,-4.434296E-3,2.0406448E-4,-2.5983134E-3,-1.4464174E-3,-3.9030396E-4,4.818049E-4,1.3365096E-3,2.4927913E-3,3.5250243E-3,5.0727986E-3,6.971045E-3,1.171326E-2,-2.664618E-3,-5.849304E-4,-5.583222E-3,-1.5557075E-3,-2.8066249E-3,-6.6947436E-4,-4.027509E-4,-1.9301886E-3,-1.452173E-3,-1.1488094E-3,-9.203669E-4,-5.604155E-4,-3.9135083E-4,-7.546665E-4,-6.755551E-4,-9.776961E-5,1.3758355E-3,9.6257456E-5,-9.706058E-4,4.1924525E-4,-2.93152E-4,7.7538675E-4,6.7209394E-4,1.098683E-3,1.5430454E-3,5.052388E-5,1.0257113E-3,2.305232E-3,1.5876598E-3,3.7345728E-3],"categories":[],"categories_nodes":[],"categories_segments":[],"categories_sizes":[],"default_left":[0,0,0,0,0,0,0,0,0,0,0,0,0,0,0,0,0,0,0,0,0,0,0,0,0,0,0,0,0,0,0,0,0,0,0,0,0,0,0,0,0,0,0,0,0,0,0,0,0,0,0,0,0,0,0,0,0,0,0,0,0],"id":1,"left_children":[1,3,5,7,9,11,13,15,17,19,21,23,25,27,29,31,33,35,37,39,-1,41,43,45,47,49,51,53,55,57,59,-1,-1,-1,-1,-1,-1,-1,-1,-1,-1,-1,-1,-1,-1,-1,-1,-1,-1,-1,-1,-1,-1,-1,-1,-1,-1,-1,-1,-1,-1],"loss_changes":[1.12616075E-2,3.947221E-3,4.5733666E-3,5.488433E-4,5.502291E-4,7.2850904E-4,9.462689E-4,1.1022971E-4,6.504031E-5,3.2376032E-5,1.0575447E-4,8.261305E-5,1.1405873E-4,8.286559E-5,2.9508583E-4,1.2257253E-5,7.93254E-6,1.3531186E-5,9.780808E-6,1.0956079E-5,0E0,4.0219456E-5,2.9187911E-5,3.9310526E-5,1.0488118E-4,8.2855E-5,4.2994274E-5,1.0838965E-5,2.2707507E-5,1.2822822E-4,3.7992606E-5,0E0,0E0,0E0,0E0,0E0,0E0,0E0,0E0,0E0,0E0,0E0,0E0,0E0,0E0,0E0,0E0,0E0,0E0,0E0,0E0,0E0,0E0,0E0,0E0,0E0,0E0,0E0,0E0,0E0,0E0],"parents":[2147483647,0,0,1,1,2,2,3,3,4,4,5,5,6,6,7,7,8,8,9,9,10,10,11,11,12,12,13,13,14,14,15,15,16,16,17,17,18,18,19,19,21,21,22,22,23,23,24,24,25,25,26,26,27,27,28,28,29,29,30,30],"right_children":[2,4,6,8,10,12,14,16,18,20,22,24,26,28,30,32,34,36,38,40,-1,42,44,46,48,50,52,54,56,58,60,-1,-1,-1,-1,-1,-1,-1,-1,-1,-1,-1,-1,-1,-1,-1,-1,-1,-1,-1,-1,-1,-1,-1,-1,-1,-1,-1,-1,-1,-1],"split_conditions":[-2.3081526E-4,-6.4219795E-3,4.6213083E-3,-1.6014986E-2,-3.2297894E-3,2.1205582E-3,8.318409E-3,-1.1337632E-2,-7.5882263E-3,4.731037E-3,-1.7369278E-3,1.2679361E-3,3.6281124E-3,6.356608E-3,1.2173258E-2,4.3351948E-4,1.0374933E-3,-4.433319E-4,-1.1653496E-2,-4.115984E-3,2.0406448E-4,-8.1428885E-4,1.4913268E-3,-9.222573E-3,-7.665855E-3,-1.1642849E-2,-4.742519E-3,3.5843998E-4,1.3090456E-2,3.414316E-3,6.508646E-3,-2.664618E-3,-5.849304E-4,-5.583222E-3,-1.5557075E-3,-2.8066249E-3,-6.6947436E-4,-4.027509E-4,-1.9301886E-3,-1.452173E-3,-1.1488094E-3,-9.203669E-4,-5.604155E-4,-3.9135083E-4,-7.546665E-4,-6.755551E-4,-9.776961E-5,1.3758355E-3,9.6257456E-5,-9.706058E-4,4.1924525E-4,-2.93152E-4,7.7538675E-4,6.7209394E-4,1.098683E-3,1.5430454E-3,5.052388E-5,1.0257113E-3,2.305232E-3,1.5876598E-3,3.7345728E-3],"split_indices":[2,2,2,2,2,2,2,3,2,3,2,2,2,2,2,0,0,4,3,2,0,1,0,1,4,1,4,0,3,3,3,0,0,0,0,0,0,0,0,0,0,0,0,0,0,0,0,0,0,0,0,0,0,0,0,0,0,0,0,0,0],"split_type":[0,0,0,0,0,0,0,0,0,0,0,0,0,0,0,0,0,0,0,0,0,0,0,0,0,0,0,0,0,0,0,0,0,0,0,0,0,0,0,0,0,0,0,0,0,0,0,0,0,0,0,0,0,0,0,0,0,0,0,0,0],"sum_hessian":[1.707E3,5.53E2,1.154E3,8.7E1,4.66E2,8.99E2,2.55E2,1.4E1,7.3E1,1.2E2,3.46E2,4.93E2,4.06E2,1.74E2,8.1E1,4E0,1E1,5.3E1,2E1,1.19E2,1E0,1.33E2,2.13E2,3.33E2,1.6E2,2.8E2,1.26E2,1.07E2,6.7E1,6E1,2.1E1,3E0,1E0,9E0,1E0,5.2E1,1E0,1E0,1.9E1,6.7E1,5.2E1,7.9E1,5.4E1,1.9E2,2.3E1,1E1,3.23E2,5E0,1.55E2,3E0,2.77E2,3E0,1.23E2,1.2E1,9.5E1,6.6E1,1E0,1.1E1,4.9E1,3E0,1.8E1],"tree_param":{"num_deleted":"0","num_feature":"5","num_nodes":"61","size_leaf_vector":"1"}},{"base_weights":[-8.3405885E-6,-3.2601058E-3,1.0114354E-3,-7.78249E-3,-2.348721E-3,2.592068E-4,3.7286757E-3,-1.1701538E-2,-6.549745E-3,-3.4555362E-3,-1.7320995E-3,-4.6322471E-4,8.99702E-4,2.7495855E-3,5.8209766E-3,-3.8640467E-3,-1.5720915E-3,-2.3438255E-3,-1.6731041E-3,-3.2625597E-3,-1.983149E-3,-8.0480985E-4,-1.8963938E-3,-6.6213834E-4,-1.2539147E-5,4.337159E-4,1.4245221E-3,2.445045E-3,3.6249578E-3,4.8876544E-3,8.4412005E-3,-1.0630384E-3,-6.114378E-4,-1.5923666E-5,-4.7929143E-4,-5.955701E-4,-3.7622693E-5,-2.8461948E-4,-9.563068E-5,3.319836E-5,-5.1713106E-4,1.450008E-4,-5.936947E-4,-9.2371803E-4,4.4174504E-4,5.9593155E-4,8.296056E-4,1.5032128E-3,9.385277E-4,2.1840977E-3,1.2397536E-3,1.2304364E-3,2.6731675E-3],"categories":[],"categories_nodes":[],"categories_segments":[],"categories_sizes":[],"default_left":[0,0,0,0,0,0,0,0,0,0,0,0,0,0,0,0,0,0,0,0,0,0,0,0,0,0,0,0,0,0,0,0,0,0,0,0,0,0,0,0,0,0,0,0,0,0,0,0,0,0,0,0,0],"id":2,"left_children":[1,3,5,7,9,11,13,15,17,19,21,23,25,27,29,-1,-1,-1,-1,31,-1,33,35,37,39,41,43,45,47,49,51,-1,-1,-1,-1,-1,-1,-1,-1,-1,-1,-1,-1,-1,-1,-1,-1,-1,-1,-1,-1,-1,-1],"loss_changes":[5.6671486E-3,1.6633468E-3,2.6582587E-3,2.5187898E-4,2.2674236E-4,4.72385E-4,5.6168623E-4,4.6734E-5,2.2770837E-5,5.2101794E-5,3.2142794E-5,4.302249E-5,1.3168852E-4,4.2854575E-5,1.7639296E-4,0E0,0E0,0E0,0E0,3.267557E-5,0E0,2.0774969E-5,2.9172399E-5,3.2467244E-5,3.139274E-5,3.543536E-5,5.9397193E-5,1.6100355E-5,1.7351762E-5,9.277696E-5,8.265371E-6,0E0,0E0,0E0,0E0,0E0,0E0,0E0,0E0,0E0,0E0,0E0,0E0,0E0,0E0,0E0,0E0,0E0,0E0,0E0,0E0,0E0,0E0],"parents":[2147483647,0,0,1,1,2,2,3,3,4,4,5,5,6,6,7,7,8,8,9,9,10,10,11,11,12,12,13,13,14,14,19,19,21,21,22,22,23,23,24,24,25,25,26,26,27,27,28,28,29,29,30,30],"right_children":[2,4,6,8,10,12,14,16,18,20,22,24,26,28,30,-1,-1,-1,-1,32,-1,34,36,38,40,42,44,46,48,50,52,-1,-1,-1,-1,-1,-1,-1,-1,-1,-1,-1,-1,-1,-1,-1,-1,-1,-1,-1,-1,-1,-1],"split_conditions":[-1.2204312E-3,-7.5882263E-3,4.3505356E-3,-1.6014986E-2,-3.5157092E-3,1.2679361E-3,8.159447E-3,7.185638E-4,-1.13043785E-2,1.6815439E-3,-9.147078E-5,1.3880595E-3,2.7091391E-3,6.714415E-3,1.2173258E-2,-3.8640467E-3,-1.5720915E-3,-2.3438255E-3,-1.6731041E-3,7.8655034E-4,-1.983149E-3,-6.493479E-4,2.4701091E-3,6.54906E-5,5.0604525E-3,2.433844E-3,-1.1642849E-2,2.2438075E-3,-4.7533587E-4,7.5135846E-4,6.508646E-3,-1.0630384E-3,-6.114378E-4,-1.5923666E-5,-4.7929143E-4,-5.955701E-4,-3.7622693E-5,-2.8461948E-4,-9.563068E-5,3.319836E-5,-5.1713106E-4,1.450008E-4,-5.936947E-4,-9.2371803E-4,4.4174504E-4,5.9593155E-4,8.296056E-4,1.5032128E-3,9.385277E-4,2.1840977E-3,1.2397536E-3,1.2304364E-3,2.6731675E-3],"split_indices":[2,2,2,2,2,2,2,0,2,0,0,3,2,2,2,0,0,0,0,0,0,3,3,1,3,0,1,3,4,4,3,0,0,0,0,0,0,0,0,0,0,0,0,0,0,0,0,0,0,0,0,0,0],"split_type":[0,0,0,0,0,0,0,0,0,0,0,0,0,0,0,0,0,0,0,0,0,0,0,0,0,0,0,0,0,0,0,0,0,0,0,0,0,0,0,0,0,0,0,0,0,0,0,0,0,0,0,0,0],"sum_hessian":[1.707E3,4.07E2,1.3E3,6.7E1,3.4E2,1.019E3,2.81E2,1.4E1,5.3E1,1.2E2,2.2E2,4.79E2,5.4E2,1.93E2,8.8E1,1.1E1,3E0,2E1,3.3E1,1.15E2,5E0,3.4E1,1.86E2,3.32E2,1.47E2,2.87E2,2.53E2,1.46E2,4.7E1,6.7E1,2.1E1,9.2E1,2.3E1,1.8E1,1.6E1,1.77E2,9E0,1.8E2,1.52E2,1.38E2,9E0,2.82E2,5E0,2E0,2.51E2,6.3E1,8.3E1,1E1,3.7E1,1.4E1,5.3E1,3E0,1.8E1],"tree_param":{"num_deleted":"0","num_feature":"5","num_nodes":"53","size_leaf_vector":"1"}},{"base_weights":[-8.671703E-6,-1.8962071E-3,8.9669914E-4,-5.1311147E-3,-1.282571E-3,4.6014326E-4,3.2280658E-3,-1.0403988E-2,-4.54699E-3,-1.9159422E-3,-8.009599E-4,5.741416E-5,1.1653258E-3,2.9665984E-3,2.377328E-3,-4.0271846E-4,-1.1506731E-2,-7.5591733E-3,-3.913579E-3,-1.0519843E-3,-1.7781025E-3,-8.7037496E-4,4.2323838E-4,2.6603262E-5,2.414974E-3,8.0141233E-4,1.4169121E-3,1.8179106E-3,3.5401173E-3,-4.376725E-3,-1.6643088E-3,-2.4902408E-3,-1.1445917E-3,-1.2438644E-3,-4.864367E-4,-8.621268E-4,-5.039183E-4,-2.3259777E-4,-4.733436E-4,-1.02833925E-4,6.071492E-4,-7.4785894E-5,7.273192E-5,1.0104907E-3,-8.900234E-5,5.086278E-4,2.037833E-4,-4.7361187E-4,4.4053546E-4,1.6385572E-4,7.4660423E-4,2.0337035E-3,9.802262E-4],"categories":[],"categories_nodes":[],"categories_segments":[],"categories_sizes":[],"default_left":[0,0,0,0,0,0,0,0,0,0,0,0,0,0,0,0,0,0,0,0,0,0,0,0,0,0,0,0,0,0,0,0,0,0,0,0,0,0,0,0,0,0,0,0,0,0,0,0,0,0,0,0,0],"id":3,"left_children":[1,3,5,7,9,11,13,15,17,19,21,23,25,27,-1,-1,29,31,33,-1,35,37,39,41,43,45,47,49,51,-1,-1,-1,-1,-1,-1,-1,-1,-1,-1,-1,-1,-1,-1,-1,-1,-1,-1,-1,-1,-1,-1,-1,-1],"loss_changes":[2.9205345E-3,1.0931403E-3,1.1740413E-3,2.2373442E-4,1.4091836E-4,2.7654663E-4,1.9997731E-4,6.449426E-5,1.2496056E-4,3.7835678E-5,2.3057466E-5,4.5044282E-5,3.127515E-5,1.0819454E-4,0E0,0E0,4.763913E-5,4.4252374E-6,3.0069961E-5,0E0,1.5328638E-5,1.5788712E-5,1.9084966E-5,3.662231E-5,2.1680025E-5,1.4899269E-5,3.443184E-5,4.982282E-5,7.9422374E-5,0E0,0E0,0E0,0E0,0E0,0E0,0E0,0E0,0E0,0E0,0E0,0E0,0E0,0E0,0E0,0E0,0E0,0E0,0E0,0E0,0E0,0E0,0E0,0E0],"parents":[2147483647,0,0,1,1,2,2,3,3,4,4,5,5,6,6,7,7,8,8,9,9,10,10,11,11,12,12,13,13,16,16,17,17,18,18,20,20,21,21,22,22,23,23,24,24,25,25,26,26,27,27,28,28],"right_children":[2,4,6,8,10,12,14,16,18,20,22,24,26,28,-1,-1,30,32,34,-1,36,38,40,42,44,46,48,50,52,-1,-1,-1,-1,-1,-1,-1,-1,-1,-1,-1,-1,-1,-1,-1,-1,-1,-1,-1,-1,-1,-1,-1,-1],"split_conditions":[-2.3081526E-4,-6.4219795E-3,5.7311617E-3,-1.6506525E-2,-2.2138245E-3,2.7091391E-3,1.6038295E-2,-1.1337632E-2,-1.3207205E-2,-1.0317927E-2,2.656199E-3,7.8068646E-3,3.602378E-3,3.4611602E-3,2.377328E-3,-4.0271846E-4,-9.6576605E-3,-2.6770916E-3,-8.95201E-4,-1.0519843E-3,-5.8827884E-3,1.4913268E-3,2.9613487E-3,1.0469183E-3,8.0579035E-3,-1.1879392E-3,-1.1642849E-2,1.1098571E-3,3.5860199E-3,-4.376725E-3,-1.6643088E-3,-2.4902408E-3,-1.1445917E-3,-1.2438644E-3,-4.864367E-4,-8.621268E-4,-5.039183E-4,-2.3259777E-4,-4.733436E-4,-1.02833925E-4,6.071492E-4,-7.4785894E-5,7.273192E-5,1.0104907E-3,-8.900234E-5,5.086278E-4,2.037833E-4,-4.7361187E-4,4.4053546E-4,1.6385572E-4,7.4660423E-4,2.0337035E-3,9.802262E-4],"split_indices":[2,2,2,2,2,2,2,3,1,1,3,4,2,3,0,0,3,3,3,0,2,0,1,2,1,4,1,0,3,0,0,0,0,0,0,0,0,0,0,0,0,0,0,0,0,0,0,0,0,0,0,0,0],"split_type":[0,0,0,0,0,0,0,0,0,0,0,0,0,0,0,0,0,0,0,0,0,0,0,0,0,0,0,0,0,0,0,0,0,0,0,0,0,0,0,0,0,0,0,0,0,0,0,0,0,0,0,0,0],"sum_hessian":[1.707E3,5.53E2,1.154E3,8.7E1,4.66E2,9.73E2,1.81E2,7E0,8E1,2E2,2.66E2,6.2E2,3.53E2,1.73E2,8E0,1E0,6E0,1.2E1,6.8E1,1.4E1,1.86E2,2.52E2,1.4E1,6.13E2,7E0,1.46E2,2.07E2,5.9E1,1.14E2,3E0,3E0,9E0,3E0,6.1E1,7E0,1.3E1,1.73E2,2.24E2,2.8E1,1E1,4E0,2.69E2,3.44E2,5E0,2E0,1.6E1,1.3E2,3E0,2.04E2,2.1E1,3.8E1,7E0,1.07E2],"tree_param":{"num_deleted":"0","num_feature":"5","num_nodes":"53","size_leaf_vector":"1"}},{"base_weights":[-9.892241E-6,-1.9306052E-3,4.4630162E-4,-5.3856336E-3,-1.5127256E-3,9.405798E-5,1.99388E-3,-8.088261E-3,-4.4211103E-3,-2.5136317E-3,-1.2119649E-3,-2.3787186E-4,5.101099E-4,1.4976113E-3,3.5225656E-3,-3.4231064E-4,-8.917716E-3,-5.954584E-3,-2.898843E-3,-3.8975917E-3,-2.1721825E-3,-7.5742864E-4,-1.1142831E-3,-4.6964217E-4,-1.5468879E-5,-6.1449024E-4,5.631553E-4,2.6895786E-3,1.3225833E-3,1.8956548E-3,4.6448996E-3,-3.3919618E-3,-1.2898393E-3,-2.300155E-4,-1.896904E-3,-1.5969608E-4,-1.0212049E-3,-1.3619636E-3,-4.434147E-4,-2.8003242E-5,-7.12248E-4,-3.5567713E-4,-1.3142209E-4,-1.6329973E-4,3.7841365E-4,-7.959631E-4,5.3276704E-6,2.1086243E-4,-5.0457456E-4,1.147358E-3,1.6035164E-4,4.351563E-5,9.138526E-4,2.372401E-4,4.7174667E-4,4.898097E-5,7.148541E-4,-8.8349846E-4,1.4837689E-3],"categories":[],"categories_nodes":[],"categories_segments":[],"categories_sizes":[],"default_left":[0,0,0,0,0,0,0,0,0,0,0,0,0,0,0,0,0,0,0,0,0,0,0,0,0,0,0,0,0,0,0,0,0,0,0,0,0,0,0,0,0,0,0,0,0,0,0,0,0,0,0,0,0,0,0,0,0,0,0],"id":4,"left_children":[1,3,5,7,9,11,13,15,17,19,21,23,25,27,29,-1,31,33,35,37,39,-1,41,43,45,47,49,51,53,55,57,-1,-1,-1,-1,-1,-1,-1,-1,-1,-1,-1,-1,-1,-1,-1,-1,-1,-1,-1,-1,-1,-1,-1,-1,-1,-1,-1,-1],"loss_changes":[1.497441E-3,4.6541472E-4,7.5262965E-4,5.547714E-5,8.5457345E-5,1.55622E-4,1.8893613E-4,3.5923906E-5,4.81006E-5,2.3194734E-5,2.642462E-5,3.231234E-5,3.0173484E-5,3.7125254E-5,1.0440295E-4,0E0,2.8613256E-5,1.9999687E-5,1.7316037E-5,1.19383185E-5,2.3291592E-5,0E0,9.799405E-6,4.0378764E-5,2.8181577E-5,3.3524506E-5,4.2618907E-5,2.1335014E-5,2.1614484E-5,2.2399086E-5,9.6808886E-5,0E0,0E0,0E0,0E0,0E0,0E0,0E0,0E0,0E0,0E0,0E0,0E0,0E0,0E0,0E0,0E0,0E0,0E0,0E0,0E0,0E0,0E0,0E0,0E0,0E0,0E0,0E0,0E0],"parents":[2147483647,0,0,1,1,2,2,3,3,4,4,5,5,6,6,7,7,8,8,9,9,10,10,11,11,12,12,13,13,14,14,16,16,17,17,18,18,19,19,20,20,22,22,23,23,24,24,25,25,26,26,27,27,28,28,29,29,30,30],"right_children":[2,4,6,8,10,12,14,16,18,20,22,24,26,28,30,-1,32,34,36,38,40,-1,42,44,46,48,50,52,54,56,58,-1,-1,-1,-1,-1,-1,-1,-1,-1,-1,-1,-1,-1,-1,-1,-1,-1,-1,-1,-1,-1,-1,-1,-1,-1,-1,-1,-1],"split_conditions":[-1.8799603E-3,-1.13043785E-2,4.6213083E-3,-1.6506525E-2,-5.8827884E-3,1.5804134E-3,9.271E-3,-1.1337632E-2,-7.174652E-3,-9.504886E-3,-1.0317927E-2,1.7672777E-4,-2.366377E-3,-1.2857812E-3,5.914733E-3,-3.4231064E-4,-9.6576605E-3,-8.585175E-3,-1.6014986E-2,-2.6044922E-3,-3.8503483E-4,-7.5742864E-4,2.5878195E-3,4.3550944E-3,-4.742519E-3,-4.742519E-3,-7.665855E-3,-4.4799875E-3,2.3710723E-3,2.9743072E-3,-5.5410825E-3,-3.3919618E-3,-1.2898393E-3,-2.300155E-4,-1.896904E-3,-1.5969608E-4,-1.0212049E-3,-1.3619636E-3,-4.434147E-4,-2.8003242E-5,-7.12248E-4,-3.5567713E-4,-1.3142209E-4,-1.6329973E-4,3.7841365E-4,-7.959631E-4,5.3276704E-6,2.1086243E-4,-5.0457456E-4,1.147358E-3,1.6035164E-4,4.351563E-5,9.138526E-4,2.372401E-4,4.7174667E-4,4.898097E-5,7.148541E-4,-8.8349846E-4,1.4837689E-3],"split_indices":[2,2,2,2,2,2,2,3,1,1,1,2,3,4,1,0,3,4,2,3,0,0,1,4,4,4,4,3,3,3,4,0,0,0,0,0,0,0,0,0,0,0,0,0,0,0,0,0,0,0,0,0,0,0,0,0,0,0,0],"split_type":[0,0,0,0,0,0,0,0,0,0,0,0,0,0,0,0,0,0,0,0,0,0,0,0,0,0,0,0,0,0,0,0,0,0,0,0,0,0,0,0,0,0,0,0,0,0,0,0,0,0,0,0,0,0,0,0,0,0,0],"sum_hessian":[1.707E3,3.27E2,1.38E3,3.4E1,2.93E2,1.125E3,2.55E2,7E0,2.7E1,6.6E1,2.27E2,6.26E2,4.99E2,1.94E2,6.1E1,1E0,6E0,1.2E1,1.5E1,1.1E1,5.5E1,1.4E1,2.13E2,3.06E2,3.2E2,2.2E1,4.77E2,2.3E1,1.71E2,2.6E1,3.5E1,3E0,3E0,1E0,1.1E1,3E0,1.2E1,8E0,3E0,5E0,5E1,1.92E2,2.1E1,2.94E2,1.2E1,3E0,3.17E2,1E1,1.2E1,3E0,4.74E2,3E0,2E1,5.6E1,1.15E2,6E0,2E1,1E0,3.4E1],"tree_param":{"num_deleted":"0","num_feature":"5","num_nodes":"59","size_leaf_vector":"1"}},{"base_weights":[-1.1990805E-5,-1.8359695E-3,2.4077373E-4,-4.3892884E-3,-1.4308376E-3,-8.231211E-5,1.1645623E-3,-5.972365E-3,-2.6191305E-3,-1.2942144E-3,-2.5961353E-3,-4.0800552E-4,1.2024015E-4,8.5990544E-4,2.2946813E-3,-3.0449573E-3,-7.260374E-3,-1.0210732E-3,-3.1074176E-3,-1.4380275E-3,4.868477E-4,-2.7333845E-3,-3.943441E-5,-4.5025014E-4,7.823302E-4,-1.5458538E-3,1.3966444E-4,8.255709E-4,1.2226176E-3,1.1009114E-3,2.8932858E-3,-1.6700997E-3,-1.1765608E-4,-2.6646233E-3,-9.038174E-4,-4.5115483E-4,-5.9381782E-5,-2.2787154E-4,-1.0634293E-3,-6.5048237E-4,-3.552672E-4,5.577791E-4,-1.8099605E-4,-8.615054E-4,-7.80878E-5,-2.380969E-4,-9.827298E-5,2.8936814E-5,5.3851964E-4,-5.071297E-4,-8.007083E-5,9.515348E-4,3.9158283E-5,1.5466797E-4,3.192281E-4,-6.9417125E-5,5.136051E-4,1.8734239E-3,7.0327637E-4],"categories":[],"categories_nodes":[],"categories_segments":[],"categories_sizes":[],"default_left":[0,0,0,0,0,0,0,0,0,0,0,0,0,0,0,0,0,0,0,0,0,0,0,0,0,0,0,0,0,0,0,0,0,0,0,0,0,0,0,0,0,0,0,0,0,0,0,0,0,0,0,0,0,0,0,0,0,0,0],"id":5,"left_children":[1,3,5,7,9,11,13,15,17,19,21,23,25,27,29,31,33,35,37,39,41,43,-1,45,47,49,51,53,-1,55,57,-1,-1,-1,-1,-1,-1,-1,-1,-1,-1,-1,-1,-1,-1,-1,-1,-1,-1,-1,-1,-1,-1,-1,-1,-1,-1,-1,-1],"loss_changes":[7.8789354E-4,2.0888139E-4,4.480888E-4,6.282196E-5,2.5456422E-5,7.3473595E-5,1.3195886E-4,3.067986E-5,8.531766E-6,4.2707077E-5,5.729693E-6,2.182406E-5,2.2449061E-5,3.0639378E-5,5.5411656E-5,3.795908E-5,3.523662E-5,1.6892768E-6,8.602539E-6,2.5603833E-5,2.0571857E-5,5.067006E-6,0E0,1.7138402E-5,1.0245988E-5,1.0280874E-6,1.8424656E-5,2.2078471E-5,0E0,2.4007273E-5,8.472384E-5,0E0,0E0,0E0,0E0,0E0,0E0,0E0,0E0,0E0,0E0,0E0,0E0,0E0,0E0,0E0,0E0,0E0,0E0,0E0,0E0,0E0,0E0,0E0,0E0,0E0,0E0,0E0,0E0],"parents":[2147483647,0,0,1,1,2,2,3,3,4,4,5,5,6,6,7,7,8,8,9,9,10,10,11,11,12,12,13,13,14,14,15,15,16,16,17,17,18,18,19,19,20,20,21,21,23,23,24,24,25,25,26,26,27,27,29,29,30,30],"right_children":[2,4,6,8,10,12,14,16,18,20,22,24,26,28,30,32,34,36,38,40,42,44,-1,46,48,50,52,54,-1,56,58,-1,-1,-1,-1,-1,-1,-1,-1,-1,-1,-1,-1,-1,-1,-1,-1,-1,-1,-1,-1,-1,-1,-1,-1,-1,-1,-1,-1],"split_conditions":[-3.2297894E-3,-1.21816695E-2,3.602378E-3,-5.0429814E-3,1.1791214E-3,1.7672777E-4,8.318409E-3,-7.440605E-3,-7.440605E-3,8.934364E-4,3.2899622E-4,4.3550944E-3,-9.71609E-3,1.4482867E-2,4.648216E-3,-6.6159293E-4,-7.7896747E-3,-4.8837196E-3,-1.1337632E-2,-7.5882263E-3,-2.281833E-3,3.5636388E-3,-3.943441E-5,-3.128875E-3,-2.3081526E-4,2.3891702E-3,-1.1653496E-2,9.3881786E-4,1.2226176E-3,3.414316E-3,3.9094095E-3,-1.6700997E-3,-1.1765608E-4,-2.6646233E-3,-9.038174E-4,-4.5115483E-4,-5.9381782E-5,-2.2787154E-4,-1.0634293E-3,-6.5048237E-4,-3.552672E-4,5.577791E-4,-1.8099605E-4,-8.615054E-4,-7.80878E-5,-2.380969E-4,-9.827298E-5,2.8936814E-5,5.3851964E-4,-5.071297E-4,-8.007083E-5,9.515348E-4,3.9158283E-5,1.5466797E-4,3.192281E-4,-6.9417125E-5,5.136051E-4,1.8734239E-3,7.0327637E-4],"split_indices":[2,2,2,1,0,2,2,4,4,0,3,4,1,1,1,0,3,1,3,2,3,1,0,1,2,2,3,0,0,3,3,0,0,0,0,0,0,0,0,0,0,0,0,0,0,0,0,0,0,0,0,0,0,0,0,0,0,0,0],"split_type":[0,0,0,0,0,0,0,0,0,0,0,0,0,0,0,0,0,0,0,0,0,0,0,0,0,0,0,0,0,0,0,0,0,0,0,0,0,0,0,0,0,0,0,0,0,0,0,0,0,0,0,0,0,0,0,0,0,0,0],"sum_hessian":[1.707E3,2.07E2,1.5E3,2.7E1,1.8E2,1.112E3,3.88E2,1.3E1,1.4E1,1.63E2,1.7E1,4.26E2,6.86E2,3.07E2,8.1E1,5E0,8E0,4E0,1E1,1.51E2,1.2E1,1.6E1,1E0,4.12E2,1.4E1,7E0,6.79E2,3.05E2,2E0,2.8E1,5.3E1,2E0,3E0,5E0,3E0,2E0,2E0,2E0,8E0,3.7E1,1.14E2,5E0,7E0,1.5E1,1E0,1.07E2,3.05E2,9E0,5E0,6E0,1E0,1E0,6.78E2,1.34E2,1.71E2,9E0,1.9E1,6E0,4.7E1],"tree_param":{"num_deleted":"0","num_feature":"5","num_nodes":"59","size_leaf_vector":"1"}},{"base_weights":[-1.0392416E-5,-1.5832244E-3,1.4649263E-4,-3.3281457E-3,-1.189154E-3,-1.2462688E-4,7.49739E-4,-4.361697E-3,-1.5866029E-3,-9.327367E-4,-2.5271703E-3,-3.7875297E-4,1.7554787E-5,6.4985186E-4,2.8087492E-3,-2.2732269E-3,-5.5963034E-3,-7.1819476E-4,-8.836654E-4,-1.1770015E-3,6.7645614E-4,-4.0448555E-3,-1.7516181E-3,7.531261E-4,-4.0039467E-4,-3.6895534E-4,3.7737274E-5,5.935283E-4,3.4125955E-3,1.7505778E-3,4.826177E-3,-1.3360798E-3,-2.4125093E-4,-8.073021E-4,-2.1254E-3,-4.7505368E-5,-3.2971348E-4,-6.357958E-4,-2.8333615E-4,-3.812535E-5,4.83883E-4,-1.3191479E-3,-3.4250063E-4,-2.9408114E-4,-9.2947786E-4,-6.882869E-4,-1.09250235E-4,-7.845439E-5,3.584536E-5,9.896344E-5,2.3853806E-4,1.6043021E-3,-6.720357E-4,8.3136454E-4,-1.23706E-4,5.7007273E-4,1.6849508E-3],"categories":[],"categories_nodes":[],"categories_segments":[],"categories_sizes":[],"default_left":[0,0,0,0,0,0,0,0,0,0,0,0,0,0,0,0,0,0,0,0,0,0,0,0,0,0,0,0,0,0,0,0,0,0,0,0,0,0,0,0,0,0,0,0,0,0,0,0,0,0,0,0,0,0,0,0,0],"id":6,"left_children":[1,3,5,7,9,11,13,15,17,19,21,23,25,27,29,31,33,-1,35,37,39,41,43,-1,45,-1,47,49,51,53,55,-1,-1,-1,-1,-1,-1,-1,-1,-1,-1,-1,-1,-1,-1,-1,-1,-1,-1,-1,-1,-1,-1,-1,-1,-1,-1],"loss_changes":[4.2168744E-4,1.02623744E-4,2.5425304E-4,4.3478998E-5,4.1558407E-5,3.877636E-5,9.7307E-5,3.1111762E-5,4.694968E-6,4.3640728E-5,1.6455844E-5,2.5077894E-5,1.7392505E-5,6.9709524E-5,3.8516664E-5,2.2043281E-5,2.4176494E-5,0E0,1.0757076E-6,1.8816121E-5,1.1492562E-5,1.1167285E-6,1.2543798E-5,0E0,2.5442328E-5,0E0,1.6641641E-5,2.381533E-5,1.1042542E-4,3.6463814E-5,5.5143755E-6,0E0,0E0,0E0,0E0,0E0,0E0,0E0,0E0,0E0,0E0,0E0,0E0,0E0,0E0,0E0,0E0,0E0,0E0,0E0,0E0,0E0,0E0,0E0,0E0,0E0,0E0],"parents":[2147483647,0,0,1,1,2,2,3,3,4,4,5,5,6,6,7,7,8,8,9,9,10,10,11,11,12,12,13,13,14,14,15,15,16,16,18,18,19,19,20,20,21,21,22,22,24,24,26,26,27,27,28,28,29,29,30,30],"right_children":[2,4,6,8,10,12,14,16,18,20,22,24,26,28,30,32,34,-1,36,38,40,42,44,-1,46,-1,48,50,52,54,56,-1,-1,-1,-1,-1,-1,-1,-1,-1,-1,-1,-1,-1,-1,-1,-1,-1,-1,-1,-1,-1,-1,-1,-1,-1,-1],"split_conditions":[-4.115984E-3,-1.21816695E-2,3.0859634E-3,-4.587859E-3,-6.3670985E-4,-1.9986788E-4,1.2173258E-2,-7.440605E-3,-1.6506525E-2,-1.8925965E-3,-7.5882263E-3,-8.585175E-3,-9.71609E-3,1.4482867E-2,1.2435094E-3,-6.6159293E-4,-1.4763344E-2,-7.1819476E-4,-7.440605E-3,-1.0317927E-2,3.6783516E-4,3.740942E-3,1.0686014E-3,7.531261E-4,-7.930475E-3,-3.6895534E-4,2.0286813E-4,2.89441E-3,4.597843E-3,1.089789E-3,6.071058E-3,-1.3360798E-3,-2.4125093E-4,-8.073021E-4,-2.1254E-3,-4.7505368E-5,-3.2971348E-4,-6.357958E-4,-2.8333615E-4,-3.812535E-5,4.83883E-4,-1.3191479E-3,-3.4250063E-4,-2.9408114E-4,-9.2947786E-4,-6.882869E-4,-1.09250235E-4,-7.845439E-5,3.584536E-5,9.896344E-5,2.3853806E-4,1.6043021E-3,-6.720357E-4,8.3136454E-4,-1.23706E-4,5.7007273E-4,1.6849508E-3],"split_indices":[2,2,2,1,1,3,2,4,2,1,2,4,1,1,0,0,1,0,4,1,0,1,1,0,4,0,0,1,3,0,1,0,0,0,0,0,0,0,0,0,0,0,0,0,0,0,0,0,0,0,0,0,0,0,0,0,0],"split_type":[0,0,0,0,0,0,0,0,0,0,0,0,0,0,0,0,0,0,0,0,0,0,0,0,0,0,0,0,0,0,0,0,0,0,0,0,0,0,0,0,0,0,0,0,0,0,0,0,0,0,0,0,0,0,0,0,0],"sum_hessian":[1.707E3,1.54E2,1.553E3,2.7E1,1.27E2,1.072E3,4.81E2,1.6E1,1.1E1,1.08E2,1.9E1,3.84E2,6.88E2,4.6E2,2.1E1,7E0,9E0,4E0,7E0,9.4E1,1.4E1,5E0,1.4E1,2E0,3.82E2,1E1,6.78E2,4.52E2,8E0,1.5E1,6E0,2E0,5E0,4E0,5E0,2E0,5E0,1.7E1,7.7E1,8E0,6E0,4E0,1E0,1E1,4E0,6E0,3.76E2,1.45E2,5.33E2,1.97E2,2.55E2,6E0,2E0,1E1,5E0,2E0,4E0],"tree_param":{"num_deleted":"0","num_feature":"5","num_nodes":"57","size_leaf_vector":"1"}},{"base_weights":[-1.0311895E-5,-8.3835947E-4,1.5751923E-4,-2.5298966E-3,-6.536798E-4,6.030325E-5,1.0756238E-3,-3.318484E-3,-1.2019065E-3,-9.2982186E-4,-4.0837258E-4,-8.071072E-5,2.9725736E-4,9.25119E-4,3.0966236E-3,-5.58026E-3,-2.4352279E-3,-5.4582796E-4,-1.9971548E-4,-1.3213502E-3,-4.6016055E-4,-1.3748801E-4,-8.7839685E-4,6.354733E-4,-1.13033784E-4,2.3589087E-4,8.9998223E-4,1.9600252E-3,6.021664E-4,1.2241363E-3,8.4672146E-4,-1.9188978E-3,-4.698093E-4,-8.9633686E-4,-3.6015423E-4,-3.6556594E-4,-1.2004755E-3,-6.415134E-5,-5.250367E-4,5.6683242E-5,-1.8971541E-4,-7.454884E-4,-1.6989921E-4,3.2737714E-4,-5.248073E-4,-7.162323E-5,1.6666336E-5,8.783623E-5,-6.6686154E-4,6.6593406E-4,8.247384E-5,1.5865696E-3,8.45015E-5,9.7738455E-5,6.770597E-4,-1.959472E-4,8.019537E-4],"categories":[],"categories_nodes":[],"categories_segments":[],"categories_sizes":[],"default_left":[0,0,0,0,0,0,0,0,0,0,0,0,0,0,0,0,0,0,0,0,0,0,0,0,0,0,0,0,0,0,0,0,0,0,0,0,0,0,0,0,0,0,0,0,0,0,0,0,0,0,0,0,0,0,0,0,0],"id":7,"left_children":[1,3,5,7,9,11,13,15,17,19,21,23,25,27,29,31,33,-1,-1,35,37,39,41,43,45,47,49,51,53,-1,55,-1,-1,-1,-1,-1,-1,-1,-1,-1,-1,-1,-1,-1,-1,-1,-1,-1,-1,-1,-1,-1,-1,-1,-1,-1,-1],"loss_changes":[2.374965E-4,8.8315326E-5,1.2676569E-4,2.5334113E-5,1.7300343E-5,4.299419E-5,3.8502418E-5,2.0372172E-5,2.762059E-6,2.1826017E-5,1.7704357E-5,1.8753286E-5,1.7541512E-5,4.1600622E-5,1.64667E-5,3.086665E-6,5.964699E-6,0E0,0E0,1.3308221E-5,1.7737333E-5,1.4659002E-5,2.4161767E-5,3.995285E-5,1.6395672E-5,6.178501E-5,3.5688234E-5,1.6610432E-4,4.45386E-5,0E0,1.2703865E-5,0E0,0E0,0E0,0E0,0E0,0E0,0E0,0E0,0E0,0E0,0E0,0E0,0E0,0E0,0E0,0E0,0E0,0E0,0E0,0E0,0E0,0E0,0E0,0E0,0E0,0E0],"parents":[2147483647,0,0,1,1,2,2,3,3,4,4,5,5,6,6,7,7,8,8,9,9,10,10,11,11,12,12,13,13,14,14,15,15,16,16,19,19,20,20,21,21,22,22,23,23,24,24,25,25,26,26,27,27,28,28,30,30],"right_children":[2,4,6,8,10,12,14,16,18,20,22,24,26,28,30,32,34,-1,-1,36,38,40,42,44,46,48,50,52,54,-1,56,-1,-1,-1,-1,-1,-1,-1,-1,-1,-1,-1,-1,-1,-1,-1,-1,-1,-1,-1,-1,-1,-1,-1,-1,-1,-1],"split_conditions":[-2.2138245E-3,-1.21816695E-2,6.714415E-3,-4.587859E-3,-2.6044922E-3,2.3290142E-3,1.6038295E-2,-1.6506525E-2,-1.6506525E-2,4.0139258E-4,6.6233426E-4,-3.0855434E-3,5.8110855E-3,7.5135846E-4,1.3564462E-2,1.6763806E-6,-7.174652E-3,-5.4582796E-4,-1.9971548E-4,-3.0273944E-3,1.641579E-3,-2.189381E-4,7.6819956E-4,4.7221025E-3,4.8983283E-4,5.0604525E-3,2.3385878E-3,1.0535903E-3,9.659703E-3,1.2241363E-3,1.2435094E-3,-1.9188978E-3,-4.698093E-4,-8.9633686E-4,-3.6015423E-4,-3.6556594E-4,-1.2004755E-3,-6.415134E-5,-5.250367E-4,5.6683242E-5,-1.8971541E-4,-7.454884E-4,-1.6989921E-4,3.2737714E-4,-5.248073E-4,-7.162323E-5,1.6666336E-5,8.783623E-5,-6.6686154E-4,6.6593406E-4,8.247384E-5,1.5865696E-3,8.45015E-5,9.7738455E-5,6.770597E-4,-1.959472E-4,8.019537E-4],"split_indices":[2,2,2,1,3,2,2,2,2,0,0,4,3,4,1,0,1,0,0,2,0,4,0,1,1,3,4,0,4,0,0,0,0,0,0,0,0,0,0,0,0,0,0,0,0,0,0,0,0,0,0,0,0,0,0,0,0],"split_type":[0,0,0,0,0,0,0,0,0,0,0,0,0,0,0,0,0,0,0,0,0,0,0,0,0,0,0,0,0,0,0,0,0,0,0,0,0,0,0,0,0,0,0,0,0,0,0,0,0,0,0,0,0,0,0,0,0],"sum_hessian":[1.707E3,2.87E2,1.42E3,2.7E1,2.6E2,1.285E3,1.35E2,1.6E1,1.1E1,1.21E2,1.39E2,8.06E2,4.79E2,1.27E2,8E0,3E0,1.3E1,4E0,7E0,6.5E1,5.6E1,8.9E1,5E1,3.4E1,7.72E2,4.36E2,4.3E1,2.9E1,9.8E1,5E0,3E0,2E0,1E0,8E0,5E0,6.4E1,1E0,4.8E1,8E0,5.4E1,3.5E1,7E0,4.3E1,2.9E1,5E0,4.42E2,3.3E2,4.27E2,9E0,1.3E1,3E1,9E0,2E1,8.5E1,1.3E1,2E0,1E0],"tree_param":{"num_deleted":"0","num_feature":"5","num_nodes":"57","size_leaf_vector":"1"}},{"base_weights":[-9.209791E-6,-4.1883555E-4,1.7393299E-4,-1.7785765E-3,-3.216498E-4,1.2145777E-4,1.119067E-3,-3.1159073E-3,-1.3329615E-3,-5.5436196E-4,-1.7931595E-4,-1.8464925E-5,2.6444462E-4,-9.0492103E-4,1.2363108E-3,-1.3510077E-3,-4.1482926E-4,-6.9048227E-4,-9.6416683E-4,-4.9611955E-4,-9.2847645E-4,-5.8783775E-5,-6.566084E-4,-6.767323E-4,4.9314945E-5,1.6591484E-3,2.435633E-4,3.5977205E-3,9.132894E-4,2.7000264E-4,-3.5867543E-4,-4.2484634E-4,-1.0276601E-4,-6.0744704E-5,3.0852453E-4,-2.5143198E-4,2.019803E-4,-6.6532387E-4,-1.4100209E-4,-8.832649E-6,1.5797291E-4,-2.8444025E-5,5.769778E-4,-1.4943689E-4,8.67262E-5,2.642199E-4,1.6245835E-3,-1.0088147E-3,3.1642415E-4],"categories":[],"categories_nodes":[],"categories_segments":[],"categories_sizes":[],"default_left":[0,0,0,0,0,0,0,0,0,0,0,0,0,0,0,0,0,0,0,0,0,0,0,0,0,0,0,0,0,0,0,0,0,0,0,0,0,0,0,0,0,0,0,0,0,0,0,0,0],"id":8,"left_children":[1,3,5,7,9,11,13,15,17,19,21,23,25,-1,27,-1,-1,-1,29,31,-1,33,35,37,39,41,43,45,47,-1,-1,-1,-1,-1,-1,-1,-1,-1,-1,-1,-1,-1,-1,-1,-1,-1,-1,-1,-1],"loss_changes":[1.28207E-4,6.920179E-5,5.8437083E-5,1.670434E-5,1.6263268E-5,2.2412843E-5,3.3790435E-5,1.301014E-5,7.783354E-6,2.613461E-5,1.7680362E-5,2.533137E-5,1.573017E-5,0E0,4.324419E-5,0E0,0E0,0E0,1.0566919E-5,2.5511563E-5,0E0,3.8796774E-5,1.5529215E-5,1.5841673E-5,1.9373183E-5,3.8882717E-6,1.8613206E-5,2.9798546E-5,3.681489E-5,0E0,0E0,0E0,0E0,0E0,0E0,0E0,0E0,0E0,0E0,0E0,0E0,0E0,0E0,0E0,0E0,0E0,0E0,0E0,0E0],"parents":[2147483647,0,0,1,1,2,2,3,3,4,4,5,5,6,6,7,7,8,8,9,9,10,10,11,11,12,12,14,14,18,18,19,19,21,21,22,22,23,23,24,24,25,25,26,26,27,27,28,28],"right_children":[2,4,6,8,10,12,14,16,18,20,22,24,26,-1,28,-1,-1,-1,30,32,-1,34,36,38,40,42,44,46,48,-1,-1,-1,-1,-1,-1,-1,-1,-1,-1,-1,-1,-1,-1,-1,-1,-1,-1,-1,-1],"split_conditions":[-3.7758425E-4,-1.13043785E-2,9.271E-3,-1.6506525E-2,-8.890638E-4,1.8243953E-3,-5.5410825E-3,-5.0429814E-3,-1.421069E-2,-9.13593E-4,1.202412E-3,-4.378168E-3,-1.6922876E-4,-9.0492103E-4,7.5135846E-4,-1.3510077E-3,-4.1482926E-4,-6.9048227E-4,-1.1653496E-2,-7.845908E-3,-9.2847645E-4,2.322032E-3,-7.2132796E-4,-3.059968E-3,1.7648712E-3,-1.0317927E-2,4.7380105E-4,3.1538894E-3,-1.8286891E-3,2.7000264E-4,-3.5867543E-4,-4.2484634E-4,-1.0276601E-4,-6.0744704E-5,3.0852453E-4,-2.5143198E-4,2.019803E-4,-6.6532387E-4,-1.4100209E-4,-8.832649E-6,1.5797291E-4,-2.8444025E-5,5.769778E-4,-1.4943689E-4,8.67262E-5,2.642199E-4,1.6245835E-3,-1.0088147E-3,3.1642415E-4],"split_indices":[2,2,2,2,4,3,4,1,3,4,0,1,2,0,4,0,0,0,3,1,0,1,2,3,0,1,2,1,0,0,0,0,0,0,0,0,0,0,0,0,0,0,0,0,0,0,0,0,0],"split_type":[0,0,0,0,0,0,0,0,0,0,0,0,0,0,0,0,0,0,0,0,0,0,0,0,0,0,0,0,0,0,0,0,0,0,0,0,0,0,0,0,0,0,0,0,0,0,0,0,0],"sum_hessian":[1.707E3,5.27E2,1.18E3,3.4E1,4.93E2,1.119E3,6.1E1,7E0,2.7E1,1.86E2,3.07E2,5.66E2,5.53E2,1E0,6E1,3E0,4E0,6E0,2.1E1,1.83E2,3E0,2.46E2,6.1E1,5.2E1,5.14E2,7E0,5.46E2,6E0,5.4E1,2E0,1.9E1,2.5E1,1.58E2,2.18E2,2.8E1,5.4E1,7E0,5E0,4.7E1,4.42E2,7.2E1,1E0,6E0,3.1E1,5.15E2,3E0,3E0,1E0,5.3E1],"tree_param":{"num_deleted":"0","num_feature":"5","num_nodes":"49","size_leaf_vector":"1"}},{"base_weights":[-8.602956E-6,-6.588146E-4,5.6256384E-5,-2.4018642E-3,-5.6014425E-4,4.3392793E-6,5.975366E-4,-3.2646954E-3,-2.1685779E-4,-1.6723421E-3,-4.3146434E-4,-7.831397E-5,1.4438674E-4,4.8794923E-4,2.0897198E-3,-2.030153E-5,-1.2141101E-3,3.296067E-6,-2.0915263E-3,-2.6994126E-4,-1.4573941E-3,-9.114818E-5,1.1924184E-3,7.572843E-4,1.3051232E-4,1.251615E-3,2.516066E-4,2.7966544E-3,5.068879E-4,-1.5239726E-4,2.3057353E-4,-7.856612E-4,-2.4884095E-4,-3.0503175E-4,-2.8794175E-5,-4.8526723E-4,1.8980705E-4,-2.0065632E-5,-3.5804947E-4,5.128396E-4,-1.2344903E-4,-3.7187999E-4,4.6233294E-5,1.0861858E-3,1.9175137E-5,-4.661309E-5,3.1027003E-4,9.533326E-4,1.3365755E-4,-3.990176E-4,4.687669E-4],"categories":[],"categories_nodes":[],"categories_segments":[],"categories_sizes":[],"default_left":[0,0,0,0,0,0,0,0,0,0,0,0,0,0,0,0,0,0,0,0,0,0,0,0,0,0,0,0,0,0,0,0,0,0,0,0,0,0,0,0,0,0,0,0,0,0,0,0,0,0,0],"id":9,"left_children":[1,3,5,7,9,11,13,15,-1,17,19,21,23,25,27,-1,-1,29,31,33,35,37,39,-1,41,43,45,47,49,-1,-1,-1,-1,-1,-1,-1,-1,-1,-1,-1,-1,-1,-1,-1,-1,-1,-1,-1,-1,-1,-1],"loss_changes":[7.206734E-5,2.5312649E-5,4.3667453E-5,9.229665E-6,2.045984E-5,1.6436768E-5,2.1219646E-5,1.2231896E-5,0E0,1.05429135E-5,2.1811906E-5,1.4672489E-5,1.7071903E-5,2.2787395E-5,8.653038E-6,0E0,0E0,1.9555462E-6,5.8141886E-6,1.5102964E-5,7.0489987E-6,2.359041E-5,8.167133E-6,0E0,1.7165745E-5,8.417842E-5,3.1693806E-5,3.9606093E-6,9.835116E-6,0E0,0E0,0E0,0E0,0E0,0E0,0E0,0E0,0E0,0E0,0E0,0E0,0E0,0E0,0E0,0E0,0E0,0E0,0E0,0E0,0E0,0E0],"parents":[2147483647,0,0,1,1,2,2,3,3,4,4,5,5,6,6,7,7,9,9,10,10,11,11,12,12,13,13,14,14,17,17,18,18,19,19,20,20,21,21,22,22,24,24,25,25,26,26,27,27,28,28],"right_children":[2,4,6,8,10,12,14,16,-1,18,20,22,24,26,28,-1,-1,30,32,34,36,38,40,-1,42,44,46,48,50,-1,-1,-1,-1,-1,-1,-1,-1,-1,-1,-1,-1,-1,-1,-1,-1,-1,-1,-1,-1,-1,-1],"split_conditions":[-4.115984E-3,-1.6506525E-2,6.714415E-3,1.16162E-4,-6.6159293E-4,2.1205582E-3,1.6038295E-2,-3.51388E-4,-2.1685779E-4,-1.2137163E-3,-2.575703E-4,7.8068646E-3,-1.1653496E-2,7.5135846E-4,1.3564462E-2,-2.030153E-5,-1.2141101E-3,-5.734578E-3,-1.0822322E-3,-1.0317927E-2,3.8407743E-4,5.0012735E-3,8.0579035E-3,7.572843E-4,-4.4799875E-3,1.0535903E-3,1.3010874E-3,8.278629E-3,1.4482867E-2,-1.5239726E-4,2.3057353E-4,-7.856612E-4,-2.4884095E-4,-3.0503175E-4,-2.8794175E-5,-4.8526723E-4,1.8980705E-4,-2.0065632E-5,-3.5804947E-4,5.128396E-4,-1.2344903E-4,-3.7187999E-4,4.6233294E-5,1.0861858E-3,1.9175137E-5,-4.661309E-5,3.1027003E-4,9.533326E-4,1.3365755E-4,-3.990176E-4,4.687669E-4],"split_indices":[2,2,2,0,0,2,2,0,0,0,1,4,3,4,1,0,0,1,4,1,3,3,1,0,3,0,0,4,1,0,0,0,0,0,0,0,0,0,0,0,0,0,0,0,0,0,0,0,0,0,0],"split_type":[0,0,0,0,0,0,0,0,0,0,0,0,0,0,0,0,0,0,0,0,0,0,0,0,0,0,0,0,0,0,0,0,0,0,0,0,0,0,0,0,0,0,0,0,0,0,0,0,0,0,0],"sum_hessian":[1.707E3,1.54E2,1.553E3,7E0,1.47E2,1.418E3,1.35E2,4E0,3E0,1.4E1,1.33E2,8.92E2,5.26E2,1.27E2,8E0,1E0,3E0,3E0,1.1E1,1.16E2,1.7E1,8.84E2,8E0,2E0,5.24E2,2.9E1,9.8E1,5E0,3E0,2E0,1E0,7E0,4E0,2.1E1,9.5E1,1.6E1,1E0,8.66E2,1.8E1,6E0,2E0,8E0,5.16E2,9E0,2E1,6.5E1,3.3E1,4E0,1E0,1E0,2E0],"tree_param":{"num_deleted":"0","num_feature":"5","num_nodes":"51","size_leaf_vector":"1"}},{"base_weights":[-6.0619877E-6,-6.2713324E-4,3.2951855E-5,-1.862714E-3,-5.153058E-4,9.487318E-6,9.0761797E-4,-2.8288336E-3,-2.1518263E-4,-1.3402515E-3,-3.782375E-4,-8.3793554E-4,2.3769748E-5,1.9470032E-3,4.759973E-4,-1.0220949E-3,-1.641579E-4,-3.6105938E-4,-2.1279792E-3,3.9865496E-4,-4.3752533E-4,-3.820147E-4,-1.8160056E-3,1.0436949E-5,8.6663436E-4,-1.2179795E-4,2.4582017E-3,-9.91897E-4,7.122854E-4,-4.6771904E-4,1.2898649E-4,-1.7721001E-4,-7.874252E-4,-2.722894E-4,-8.592112E-5,-3.3095697E-4,-3.48466E-5,-9.321845E-4,-1.2593504E-4,6.0378584E-6,-2.5404606E-4,3.4352328E-4,-1.261395E-4,1.6570531E-3,4.5116662E-4,5.76439E-4,1.5203012E-4],"categories":[],"categories_nodes":[],"categories_segments":[],"categories_sizes":[],"default_left":[0,0,0,0,0,0,0,0,0,0,0,0,0,0,0,0,0,0,0,0,0,0,0,0,0,0,0,0,0,0,0,0,0,0,0,0,0,0,0,0,0,0,0,0,0,0,0],"id":10,"left_children":[1,3,5,7,9,11,13,15,-1,17,19,21,23,25,27,-1,-1,29,31,-1,33,35,37,39,41,-1,43,-1,45,-1,-1,-1,-1,-1,-1,-1,-1,-1,-1,-1,-1,-1,-1,-1,-1,-1,-1],"loss_changes":[4.1406147E-5,1.299549E-5,3.2993394E-5,6.8239933E-6,1.0122012E-5,1.8985724E-5,1.7915281E-5,3.4122386E-6,0E0,9.259051E-6,8.880584E-6,1.0900243E-5,1.7319555E-5,1.5432197E-5,3.0060284E-5,0E0,0E0,7.3037963E-6,3.795296E-6,0E0,5.4235043E-6,3.5147511E-6,1.3118879E-5,1.263412E-5,9.08268E-6,0E0,2.0945896E-5,0E0,6.481516E-6,0E0,0E0,0E0,0E0,0E0,0E0,0E0,0E0,0E0,0E0,0E0,0E0,0E0,0E0,0E0,0E0,0E0,0E0],"parents":[2147483647,0,0,1,1,2,2,3,3,4,4,5,5,6,6,7,7,9,9,10,10,11,11,12,12,13,13,14,14,17,17,18,18,20,20,21,21,22,22,23,23,24,24,26,26,28,28],"right_children":[2,4,6,8,10,12,14,16,-1,18,20,22,24,26,28,-1,-1,30,32,-1,34,36,38,40,42,-1,44,-1,46,-1,-1,-1,-1,-1,-1,-1,-1,-1,-1,-1,-1,-1,-1,-1,-1,-1,-1],"split_conditions":[-5.8827884E-3,-1.6506525E-2,1.1504643E-2,-5.0429814E-3,-1.3207205E-2,-1.0921761E-2,9.2607364E-4,1.6763806E-6,-2.1518263E-4,-1.328513E-4,-1.1642849E-2,1.9873679E-4,1.0720633E-2,4.0976703E-4,9.948462E-4,-1.0220949E-3,-1.641579E-4,-5.7359785E-4,-1.6241666E-2,3.9865496E-4,-6.3176723E-3,-2.8747637E-3,8.3542615E-4,1.0576216E-2,1.0136882E-2,-1.2179795E-4,7.5135846E-4,-9.91897E-4,-6.3176723E-3,-4.6771904E-4,1.2898649E-4,-1.7721001E-4,-7.874252E-4,-2.722894E-4,-8.592112E-5,-3.3095697E-4,-3.48466E-5,-9.321845E-4,-1.2593504E-4,6.0378584E-6,-2.5404606E-4,3.4352328E-4,-1.261395E-4,1.6570531E-3,4.5116662E-4,5.76439E-4,1.5203012E-4],"split_indices":[2,2,1,1,1,1,0,0,0,0,1,4,2,0,0,0,0,0,1,0,4,4,4,1,3,0,4,0,4,0,0,0,0,0,0,0,0,0,0,0,0,0,0,0,0,0,0],"split_type":[0,0,0,0,0,0,0,0,0,0,0,0,0,0,0,0,0,0,0,0,0,0,0,0,0,0,0,0,0,0,0,0,0,0,0,0,0,0,0,0,0,0,0,0,0,0,0],"sum_hessian":[1.707E3,1E2,1.607E3,7E0,9.3E1,1.566E3,4.1E1,3E0,4E0,1.2E1,8.1E1,2.5E1,1.541E3,1.1E1,3E1,2E0,1E0,6E0,6E0,2E0,7.9E1,1.8E1,7E0,1.518E3,2.3E1,2E0,9E0,1E0,2.9E1,2E0,4E0,2E0,4E0,1.8E1,6.1E1,4E0,1.4E1,3E0,4E0,1.502E3,1.6E1,1.9E1,4E0,1E0,8E0,3E0,2.6E1],"tree_param":{"num_deleted":"0","num_feature":"5","num_nodes":"47","size_leaf_vector":"1"}},{"base_weights":[-5.6461136E-6,-1.7937964E-4,9.682151E-5,-8.627961E-4,-1.4755914E-4,7.634729E-5,8.326727E-4,-1.2693107E-3,-2.150007E-4,-1.10313675E-4,-4.564319E-4,6.562329E-5,1.6602541E-3,6.439967E-4,9.173401E-4,-4.0183007E-4,-1.8363642E-3,1.2737182E-4,-4.753666E-4,-1.3198791E-4,9.4993034E-4,-7.6766376E-4,3.98877E-4,8.3923043E-4,4.9647406E-5,2.8737546E-3,-8.431124E-4,2.5841746E-5,9.859805E-4,-5.2036665E-4,9.945129E-5,-1.4175453E-4,-8.000533E-4,-4.029163E-4,-1.0677268E-5,-3.2336375E-5,-4.5869674E-4,-4.6289668E-5,3.637377E-4,-3.2236334E-4,1.0867712E-4,3.943202E-4,-1.394946E-4,-2.84543E-4,3.9469803E-4,-2.828865E-4,1.8417464E-5,1.121144E-3,2.2939417E-4,3.907311E-4,-1.8470583E-4,6.434811E-4,1.1256986E-4],"categories":[],"categories_nodes":[],"categories_segments":[],"categories_sizes":[],"default_left":[0,0,0,0,0,0,0,0,0,0,0,0,0,0,0,0,0,0,0,0,0,0,0,0,0,0,0,0,0,0,0,0,0,0,0,0,0,0,0,0,0,0,0,0,0,0,0,0,0,0,0,0,0],"id":11,"left_children":[1,3,5,7,9,11,13,15,17,19,21,23,25,27,-1,29,31,-1,33,35,37,39,41,43,45,47,-1,49,51,-1,-1,-1,-1,-1,-1,-1,-1,-1,-1,-1,-1,-1,-1,-1,-1,-1,-1,-1,-1,-1,-1,-1,-1],"loss_changes":[3.042329E-5,1.3660063E-5,1.6132351E-5,7.100569E-6,6.9326443E-6,1.7675216E-5,1.0205802E-5,7.6245287E-6,2.200105E-6,1.2603512E-5,1.760916E-5,1.2824109E-5,4.6052104E-5,5.893691E-6,0E0,8.393679E-6,1.0066375E-5,0E0,3.3864922E-6,1.785455E-5,3.3758915E-6,1.7033304E-5,1.484707E-5,1.9133924E-5,1.1959952E-5,8.06832E-6,0E0,9.810577E-6,1.1936088E-5,0E0,0E0,0E0,0E0,0E0,0E0,0E0,0E0,0E0,0E0,0E0,0E0,0E0,0E0,0E0,0E0,0E0,0E0,0E0,0E0,0E0,0E0,0E0,0E0],"parents":[2147483647,0,0,1,1,2,2,3,3,4,4,5,5,6,6,7,7,8,8,9,9,10,10,11,11,12,12,13,13,15,15,16,16,18,18,19,19,20,20,21,21,22,22,23,23,24,24,25,25,27,27,28,28],"right_children":[2,4,6,8,10,12,14,16,18,20,22,24,26,28,-1,30,32,-1,34,36,38,40,42,44,46,48,-1,50,52,-1,-1,-1,-1,-1,-1,-1,-1,-1,-1,-1,-1,-1,-1,-1,-1,-1,-1,-1,-1,-1,-1,-1,-1],"split_conditions":[1.7672777E-4,-1.21816695E-2,1.157669E-2,-4.587859E-3,1.4913268E-3,1.4482867E-2,1.7481223E-3,-7.440605E-3,5.320832E-5,5.1528867E-3,1.0674526E-3,2.9136986E-4,4.597843E-3,8.8328123E-4,9.173401E-4,-6.6159293E-4,-1.4763344E-2,1.2737182E-4,2.426058E-4,4.555505E-3,-3.779158E-4,-7.2132796E-4,-7.2132796E-4,-2.4163518E-3,-1.0921761E-2,1.601167E-3,-8.431124E-4,2.2959765E-3,1.089789E-3,-5.2036665E-4,9.945129E-5,-1.4175453E-4,-8.000533E-4,-4.029163E-4,-1.0677268E-5,-3.2336375E-5,-4.5869674E-4,-4.6289668E-5,3.637377E-4,-3.2236334E-4,1.0867712E-4,3.943202E-4,-1.394946E-4,-2.84543E-4,3.9469803E-4,-2.828865E-4,1.8417464E-5,1.121144E-3,2.2939417E-4,3.907311E-4,-1.8470583E-4,6.434811E-4,1.1256986E-4],"split_indices":[2,2,2,1,0,1,0,4,0,1,3,2,3,0,0,0,1,0,0,1,0,2,2,1,1,0,0,1,0,0,0,0,0,0,0,0,0,0,0,0,0,0,0,0,0,0,0,0,0,0,0,0,0],"split_type":[0,0,0,0,0,0,0,0,0,0,0,0,0,0,0,0,0,0,0,0,0,0,0,0,0,0,0,0,0,0,0,0,0,0,0,0,0,0,0,0,0,0,0,0,0,0,0,0,0,0,0,0,0],"sum_hessian":[1.707E3,6.33E2,1.074E3,2.7E1,6.06E2,1.046E3,2.8E1,1.6E1,1.1E1,5.42E2,6.4E1,1.04E3,6E0,2.7E1,1E0,7E0,9E0,3E0,8E0,5.32E2,1E1,4.7E1,1.7E1,2E1,1.02E3,5E0,1E0,1E1,1.7E1,2E0,5E0,4E0,5E0,2E0,6E0,5.24E2,8E0,2E0,8E0,3.7E1,1E1,8E0,9E0,4E0,1.6E1,1.1E1,1.009E3,3E0,2E0,3E0,7E0,5E0,1.2E1],"tree_param":{"num_deleted":"0","num_feature":"5","num_nodes":"53","size_leaf_vector":"1"}},{"base_weights":[-3.688123E-6,-9.009169E-5,1.3991982E-4,-1.845817E-4,4.1887855E-5,1.2407926E-4,1.5591593E-3,-7.266856E-4,-1.5684529E-4,9.976949E-4,6.3082716E-6,1.0095686E-4,1.0137628E-3,1.0777547E-3,2.7313736E-5,-5.1543623E-4,-5.9128436E-4,3.9828088E-4,-1.8506088E-4,2.2878323E-3,-1.5338396E-3,-2.7967222E-5,9.587464E-4,1.2056694E-4,-8.25466E-4,-7.0285474E-5,1.3809693E-3,2.1995028E-4,-2.062934E-4,-9.864399E-5,-5.6964456E-4,-2.7150914E-4,3.0900678E-4,-8.7987675E-5,-1.1182653E-5,1.2876533E-4,1.1295425E-3,-6.5257645E-4,2.5098535E-4,4.591478E-5,-5.023385E-5,5.498046E-4,5.1747444E-5,4.6357487E-5,-1.3748035E-4,-6.76773E-4,1.828309E-5,2.4634498E-4,-2.814877E-4,5.459858E-4,1.4404371E-5],"categories":[],"categories_nodes":[],"categories_segments":[],"categories_sizes":[],"default_left":[0,0,0,0,0,0,0,0,0,0,0,0,0,0,0,0,0,0,0,0,0,0,0,0,0,0,0,0,0,0,0,0,0,0,0,0,0,0,0,0,0,0,0,0,0,0,0,0,0,0,0],"id":12,"left_children":[1,3,5,7,9,11,13,15,17,19,21,23,25,-1,27,29,-1,31,33,35,37,39,41,43,45,47,49,-1,-1,-1,-1,-1,-1,-1,-1,-1,-1,-1,-1,-1,-1,-1,-1,-1,-1,-1,-1,-1,-1,-1,-1],"loss_changes":[2.120588E-5,1.3314019E-5,1.4239695E-5,9.238429E-6,1.5160923E-5,1.2981207E-5,2.1705386E-5,6.8695917E-6,9.361994E-6,5.576561E-5,1.4096934E-5,1.1381373E-5,6.4661763E-6,0E0,3.0274393E-6,6.346239E-6,0E0,2.4809524E-5,9.026251E-6,2.8587168E-5,1.0942537E-5,1.0554038E-5,9.990919E-6,1.2041366E-5,1.6620957E-5,4.6393384E-6,6.934355E-6,0E0,0E0,0E0,0E0,0E0,0E0,0E0,0E0,0E0,0E0,0E0,0E0,0E0,0E0,0E0,0E0,0E0,0E0,0E0,0E0,0E0,0E0,0E0,0E0],"parents":[2147483647,0,0,1,1,2,2,3,3,4,4,5,5,6,6,7,7,8,8,9,9,10,10,11,11,12,12,14,14,15,15,17,17,18,18,19,19,20,20,21,21,22,22,23,23,24,24,25,25,26,26],"right_children":[2,4,6,8,10,12,14,16,18,20,22,24,26,-1,28,30,-1,32,34,36,38,40,42,44,46,48,50,-1,-1,-1,-1,-1,-1,-1,-1,-1,-1,-1,-1,-1,-1,-1,-1,-1,-1,-1,-1,-1,-1,-1,-1],"split_conditions":[1.8412028E-3,2.851803E-4,2.9626265E-3,-6.3176723E-3,-6.3176723E-3,9.659703E-3,5.496597E-3,-6.864127E-4,-4.118017E-3,5.7849158E-3,2.3910962E-3,2.5563948E-3,9.6898265E-3,1.0777547E-3,3.6237286E-3,-1.2388302E-3,-5.9128436E-4,-1.21816695E-2,-2.4053501E-4,3.6185626E-3,9.826608E-3,2.4902215E-3,-1.3708556E-4,9.286284E-3,7.4635E-3,1.4815671E-2,1.2105178E-2,2.1995028E-4,-2.062934E-4,-9.864399E-5,-5.6964456E-4,-2.7150914E-4,3.0900678E-4,-8.7987675E-5,-1.1182653E-5,1.2876533E-4,1.1295425E-3,-6.5257645E-4,2.5098535E-4,4.591478E-5,-5.023385E-5,5.498046E-4,5.1747444E-5,4.6357487E-5,-1.3748035E-4,-6.76773E-4,1.828309E-5,2.4634498E-4,-2.814877E-4,5.459858E-4,1.4404371E-5],"split_indices":[3,1,0,4,4,4,4,1,4,1,0,0,2,0,3,3,0,2,3,1,1,1,3,3,1,3,1,0,0,0,0,0,0,0,0,0,0,0,0,0,0,0,0,0,0,0,0,0,0,0,0],"split_type":[0,0,0,0,0,0,0,0,0,0,0,0,0,0,0,0,0,0,0,0,0,0,0,0,0,0,0,0,0,0,0,0,0,0,0,0,0,0,0,0,0,0,0,0,0,0,0,0,0,0,0],"sum_hessian":[1.707E3,1.066E3,6.41E2,6.21E2,4.45E2,6.35E2,6E0,2.9E1,5.92E2,1.5E1,4.3E2,6.2E2,1.5E1,2E0,4E0,2.6E1,3E0,2.8E1,5.64E2,1E1,5E0,4.16E2,1.4E1,6.08E2,1.2E1,4E0,1.1E1,2E0,2E0,2.4E1,2E0,9E0,1.9E1,3.25E2,2.39E2,5E0,5E0,4E0,1E0,1.81E2,2.35E2,6E0,8E0,5.75E2,3.3E1,4E0,8E0,2E0,2E0,8E0,3E0],"tree_param":{"num_deleted":"0","num_feature":"5","num_nodes":"51","size_leaf_vector":"1"}},{"base_weights":[-1.996375E-6,-2.5922847E-5,3.265973E-4,-3.8234273E-4,-5.0789745E-6,-2.0153336E-4,6.1799586E-4,-1.3226415E-3,-2.3083718E-4,1.2600241E-3,-1.1827304E-5,9.582027E-5,-1.0482408E-3,1.2526504E-3,1.9065598E-4,-5.873377E-4,-4.850629E-4,-1.0492346E-4,-1.7033288E-3,-2.104441E-4,2.7831034E-3,-1.4993188E-4,2.6381898E-5,2.529097E-4,-7.160928E-4,-1.82026E-5,-1.4109935E-3,9.2474266E-4,1.1686719E-3,-2.8458596E-4,1.0181032E-3,1.7521308E-4,-3.0785816E-4,-1.2761433E-4,6.291268E-5,-8.3974606E-5,-5.7960855E-4,-4.6720228E-4,1.546846E-4,1.4374146E-3,1.5496503E-4,-3.3997436E-5,-2.69677E-4,1.1316273E-4,-2.411267E-6,1.9417364E-5,8.847697E-4,4.925465E-5,-4.97842E-4,3.5534494E-4,3.8199447E-5,-1.6675224E-4,3.5485692E-4,5.780039E-4,-1.6653091E-4],"categories":[],"categories_nodes":[],"categories_segments":[],"categories_sizes":[],"default_left":[0,0,0,0,0,0,0,0,0,0,0,0,0,0,0,0,0,0,0,0,0,0,0,0,0,0,0,0,0,0,0,0,0,0,0,0,0,0,0,0,0,0,0,0,0,0,0,0,0,0,0,0,0,0,0],"id":13,"left_children":[1,3,5,7,9,11,13,15,17,19,21,23,25,27,29,31,-1,33,35,37,39,41,43,45,-1,-1,47,49,-1,51,53,-1,-1,-1,-1,-1,-1,-1,-1,-1,-1,-1,-1,-1,-1,-1,-1,-1,-1,-1,-1,-1,-1,-1,-1],"loss_changes":[1.3436911E-5,1.1832729E-5,1.797654E-5,1.2231211E-5,1.2872126E-5,1.06748475E-5,2.010217E-5,1.646571E-6,1.4097612E-5,1.8502804E-5,7.913977E-6,1.3084364E-5,3.8550506E-6,2.2396645E-5,1.8378667E-5,3.1696816E-6,0E0,7.348703E-6,1.4124016E-6,5.6926237E-6,1.5732494E-5,8.80911E-6,1.4191486E-5,1.5538757E-5,0E0,0E0,3.4036493E-6,5.648535E-6,0E0,1.25990055E-5,2.5368932E-5,0E0,0E0,0E0,0E0,0E0,0E0,0E0,0E0,0E0,0E0,0E0,0E0,0E0,0E0,0E0,0E0,0E0,0E0,0E0,0E0,0E0,0E0,0E0,0E0],"parents":[2147483647,0,0,1,1,2,2,3,3,4,4,5,5,6,6,7,7,8,8,9,9,10,10,11,11,12,12,13,13,14,14,15,15,17,17,18,18,19,19,20,20,21,21,22,22,23,23,26,26,27,27,29,29,30,30],"right_children":[2,4,6,8,10,12,14,16,18,20,22,24,26,28,30,32,-1,34,36,38,40,42,44,46,-1,-1,48,50,-1,52,54,-1,-1,-1,-1,-1,-1,-1,-1,-1,-1,-1,-1,-1,-1,-1,-1,-1,-1,-1,-1,-1,-1,-1,-1],"split_conditions":[8.67991E-3,-4.779175E-4,6.930921E-4,-9.504886E-3,-4.502032E-4,-2.189381E-4,3.989725E-3,-1.1642849E-2,4.597843E-3,4.903106E-4,-1.5537813E-3,9.286284E-3,1.9938461E-3,9.271E-3,9.847997E-3,-1.8286891E-3,-4.850629E-4,-2.4163518E-3,1.0469183E-3,-4.99807E-3,-6.444445E-3,1.7540716E-3,-1.6784593E-3,7.7308402E-3,-7.160928E-4,-1.82026E-5,9.165283E-3,3.269901E-3,1.1686719E-3,1.5921844E-2,1.31097E-2,1.7521308E-4,-3.0785816E-4,-1.2761433E-4,6.291268E-5,-8.3974606E-5,-5.7960855E-4,-4.6720228E-4,1.546846E-4,1.4374146E-3,1.5496503E-4,-3.3997436E-5,-2.69677E-4,1.1316273E-4,-2.411267E-6,1.9417364E-5,8.847697E-4,4.925465E-5,-4.97842E-4,3.5534494E-4,3.8199447E-5,-1.6675224E-4,3.5485692E-4,5.780039E-4,-1.6653091E-4],"split_indices":[1,0,4,1,0,4,3,1,3,4,2,3,2,2,3,0,0,1,2,3,1,0,3,3,0,0,1,3,0,1,1,0,0,0,0,0,0,0,0,0,0,0,0,0,0,0,0,0,0,0,0,0,0,0,0],"split_type":[0,0,0,0,0,0,0,0,0,0,0,0,0,0,0,0,0,0,0,0,0,0,0,0,0,0,0,0,0,0,0,0,0,0,0,0,0,0,0,0,0,0,0,0,0,0,0,0,0,0,0,0,0,0,0],"sum_hessian":[1.707E3,1.592E3,1.15E2,8.7E1,1.505E3,4.1E1,7.4E1,1.1E1,7.6E1,7E0,1.498E3,3.1E1,1E1,2.9E1,4.5E1,4E0,7E0,7.1E1,5E0,4E0,3E0,3.24E2,1.174E3,3E1,1E0,3E0,7E0,2.7E1,2E0,2.9E1,1.6E1,1E0,3E0,3.5E1,3.6E1,1E0,4E0,1E0,3E0,1E0,2E0,3.1E2,1.4E1,1.04E2,1.07E3,2.9E1,1E0,1E0,6E0,2E1,7E0,2.5E1,4E0,1E1,6E0],"tree_param":{"num_deleted":"0","num_feature":"5","num_nodes":"55","size_leaf_vector":"1"}},{"base_weights":[-4.4663966E-7,-5.9330837E-6,1.0359313E-3,-2.4232139E-4,1.4449008E-5,-2.6672846E-5,1.5716789E-3,-5.9654034E-4,-8.689721E-5,7.577115E-4,7.739333E-6,4.1848302E-4,-2.8965782E-4,-9.576744E-5,2.0137045E-3,-1.2721184E-3,-1.1328557E-4,5.439104E-4,-3.5863637E-4,2.808863E-5,1.5364214E-3,-7.760883E-6,2.7223444E-4,7.5121905E-4,7.840433E-6,6.345494E-5,-4.452113E-4,-2.683272E-4,2.8866055E-4,-5.329423E-5,5.7979056E-4,1.9394915E-4,-1.5772558E-4,-1.1224174E-4,2.2394425E-4,-1.1327713E-6,-4.395957E-4,3.6643012E-4,1.1347666E-5],"categories":[],"categories_nodes":[],"categories_segments":[],"categories_sizes":[],"default_left":[0,0,0,0,0,0,0,0,0,0,0,0,0,0,0,0,0,0,0,0,0,0,0,0,0,0,0,0,0,0,0,0,0,0,0,0,0,0,0],"id":14,"left_children":[1,3,5,7,9,11,13,15,17,19,21,-1,-1,-1,23,25,27,29,31,33,-1,35,37,-1,-1,-1,-1,-1,-1,-1,-1,-1,-1,-1,-1,-1,-1,-1,-1],"loss_changes":[9.717885E-6,8.194251E-6,5.1655097E-6,7.3804767E-6,7.803855E-6,6.685609E-6,5.657793E-6,1.3241416E-5,1.6479507E-5,4.4430046E-5,6.3689954E-6,0E0,0E0,0E0,4.807667E-6,5.658878E-6,2.1863227E-5,2.940264E-5,1.1594113E-5,4.035732E-6,0E0,8.521107E-6,1.908886E-5,0E0,0E0,0E0,0E0,0E0,0E0,0E0,0E0,0E0,0E0,0E0,0E0,0E0,0E0,0E0,0E0],"parents":[2147483647,0,0,1,1,2,2,3,3,4,4,5,5,6,6,7,7,8,8,9,9,10,10,14,14,15,15,16,16,17,17,18,18,19,19,21,21,22,22],"right_children":[2,4,6,8,10,12,14,16,18,20,22,-1,-1,-1,24,26,28,30,32,34,-1,36,38,-1,-1,-1,-1,-1,-1,-1,-1,-1,-1,-1,-1,-1,-1,-1,-1],"split_conditions":[1.6038295E-2,-3.742475E-3,1.2435094E-3,1.0046363E-4,-3.4687934E-3,1.089789E-3,6.071058E-3,-7.174652E-3,-7.2708195E-3,3.282167E-3,5.4309946E-3,4.1848302E-4,-2.8965782E-4,-9.576744E-5,8.278629E-3,-8.7247975E-4,-3.1800913E-3,-5.0414624E-3,-4.378399E-3,6.460026E-4,1.5364214E-3,1.4715273E-2,3.2295156E-3,7.5121905E-4,7.840433E-6,6.345494E-5,-4.452113E-4,-2.683272E-4,2.8866055E-4,-5.329423E-5,5.7979056E-4,1.9394915E-4,-1.5772558E-4,-1.1224174E-4,2.2394425E-4,-1.1327713E-6,-4.395957E-4,3.6643012E-4,1.1347666E-5],"split_indices":[2,3,0,0,3,0,1,1,3,1,4,0,0,0,4,0,4,4,4,0,0,2,3,0,0,0,0,0,0,0,0,0,0,0,0,0,0,0,0],"split_type":[0,0,0,0,0,0,0,0,0,0,0,0,0,0,0,0,0,0,0,0,0,0,0,0,0,0,0,0,0,0,0,0,0,0,0,0,0,0,0],"sum_hessian":[1.707E3,1.699E3,8E0,1.34E2,1.565E3,3E0,5E0,4E1,9.4E1,1.3E1,1.552E3,1E0,2E0,1E0,4E0,1.6E1,2.4E1,2.8E1,6.6E1,1.2E1,1E0,1.467E3,8.5E1,3E0,1E0,2E0,1.4E1,1.4E1,1E1,1.9E1,9E0,9E0,5.7E1,8E0,4E0,1.464E3,3E0,1.6E1,6.9E1],"tree_param":{"num_deleted":"0","num_feature":"5","num_nodes":"39","size_leaf_vector":"1"}}]},"name":"gbtree"},"learner_model_param":{"base_score":"5.546115E-4","boost_from_average":"1","num_class":"0","num_feature":"5","num_target":"1"},"objective":{"name":"reg:squarederror","reg_loss_param":{"scale_pos_weight":"1"}}},"version":[2,0,3]}