{"learner":{"attributes":{},"feature_names":["lstm_13_Y_pred","lstm_22_Y_pred","lstm_10_Y_pred","lstm_16_Y_pred","lstm_19_Y_pred","lstm_7_Y_pred","lstm_28_Y_pred","lstm_25_Y_pred","lstm_4_Y_pred","lstm_1_Y_pred"],"feature_types":["float","float","float","float","float","float","float","float","float","float"],"gradient_booster":{"model":{"gbtree_model_param":{"num_parallel_tree":"1","num_trees":"100"},"iteration_indptr":[0,1,2,3,4,5,6,7,8,9,10,11,12,13,14,15,16,17,18,19,20,21,22,23,24,25,26,27,28,29,30,31,32,33,34,35,36,37,38,39,40,41,42,43,44,45,46,47,48,49,50,51,52,53,54,55,56,57,58,59,60,61,62,63,64,65,66,67,68,69,70,71,72,73,74,75,76,77,78,79,80,81,82,83,84,85,86,87,88,89,90,91,92,93,94,95,96,97,98,99,100],"tree_info":[0,0,0,0,0,0,0,0,0,0,0,0,0,0,0,0,0,0,0,0,0,0,0,0,0,0,0,0,0,0,0,0,0,0,0,0,0,0,0,0,0,0,0,0,0,0,0,0,0,0,0,0,0,0,0,0,0,0,0,0,0,0,0,0,0,0,0,0,0,0,0,0,0,0,0,0,0,0,0,0,0,0,0,0,0,0,0,0,0,0,0,0,0,0,0,0,0,0,0,0],"trees":[{"base_weights":[2.927423E-11,-2.3761664E-3,2.731844E-3,-8.434315E-3,-1.6215604E-3,1.7157625E-3,7.3923054E-3,-3.3236889E-3,-1.8062979E-3,-2.9761852E-3,-6.7755574E-4,1.1193437E-3,2.8792468E-3,5.242751E-3,9.59049E-3,-4.0357327E-3,-2.4088027E-3,-1.2927427E-3,-2.5721086E-4,6.03142E-4,1.587408E-3,2.4470638E-3,3.6103807E-3,9.5876685E-4,1.6226707E-3,8.326446E-3,3.573742E-3,1.7697705E-4,-1.2244451E-3,-9.3434664E-4,-6.11152E-4,-4.9178576E-4,-2.7548824E-4,-1.4816146E-4,7.989016E-5,-9.595611E-7,2.2160875E-4,4.5381344E-4,1.0329419E-3,5.411486E-4,8.0193183E-4,9.212971E-4,1.2009267E-3,4.995724E-4,2.529823E-3],"categories":[],"categories_nodes":[],"categories_segments":[],"categories_sizes":[],"default_left":[0,0,0,0,0,0,0,0,0,0,0,0,0,0,0,0,0,0,0,0,0,0,0,0,0,0,0,0,0,0,0,0,0,0,0,0,0,0,0,0,0,0,0,0,0],"id":0,"left_children":[1,3,5,7,9,11,13,-1,-1,15,17,19,21,23,25,27,29,31,33,35,37,39,41,-1,-1,43,-1,-1,-1,-1,-1,-1,-1,-1,-1,-1,-1,-1,-1,-1,-1,-1,-1,-1,-1],"loss_changes":[1.1093659E-2,4.1646883E-3,3.7519662E-3,5.7791406E-4,1.0389041E-3,4.5060331E-4,6.20686E-4,0E0,0E0,1.9106874E-4,1.2404963E-4,1.0390364E-4,6.0997554E-5,7.880386E-6,1.0333257E-4,2.6744907E-5,5.1351148E-5,2.3798348E-5,3.568925E-5,1.709826E-5,2.6257534E-5,1.58248E-5,4.652422E-6,0E0,0E0,1.9944506E-5,0E0,0E0,0E0,0E0,0E0,0E0,0E0,0E0,0E0,0E0,0E0,0E0,0E0,0E0,0E0,0E0,0E0,0E0,0E0],"parents":[2147483647,0,0,1,1,2,2,3,3,4,4,5,5,6,6,9,9,10,10,11,11,12,12,13,13,14,14,15,15,16,16,17,17,18,18,19,19,20,20,21,21,22,22,25,25],"right_children":[2,4,6,8,10,12,14,-1,-1,16,18,20,22,24,26,28,30,32,34,36,38,40,42,-1,-1,44,-1,-1,-1,-1,-1,-1,-1,-1,-1,-1,-1,-1,-1,-1,-1,-1,-1,-1,-1],"split_conditions":[8.315081E-4,-4.427798E-3,4.5749955E-3,-7.090389E-3,-1.1161286E-3,2.4430277E-3,7.129984E-3,-3.3236889E-3,-1.8062979E-3,-2.650519E-3,-3.632009E-4,1.3807938E-3,3.5258136E-3,3.6718976E-3,1.0170862E-2,-9.525955E-3,-2.135694E-3,-3.9554294E-4,7.474646E-4,-9.695403E-4,9.018235E-3,2.0145066E-3,3.4484714E-3,9.5876685E-4,1.6226707E-3,4.447388E-3,3.573742E-3,1.7697705E-4,-1.2244451E-3,-9.3434664E-4,-6.11152E-4,-4.9178576E-4,-2.7548824E-4,-1.4816146E-4,7.989016E-5,-9.595611E-7,2.2160875E-4,4.5381344E-4,1.0329419E-3,5.411486E-4,8.0193183E-4,9.212971E-4,1.2009267E-3,4.995724E-4,2.529823E-3],"split_indices":[4,3,3,4,4,4,3,0,0,4,3,3,4,4,3,1,3,4,3,5,5,3,3,0,0,4,0,0,0,0,0,0,0,0,0,0,0,0,0,0,0,0,0,0,0],"split_type":[0,0,0,0,0,0,0,0,0,0,0,0,0,0,0,0,0,0,0,0,0,0,0,0,0,0,0,0,0,0,0,0,0,0,0,0,0,0,0,0,0,0,0,0,0],"sum_hessian":[1.707E3,9.13E2,7.94E2,1E2,8.13E2,6.53E2,1.41E2,4.6E1,5.4E1,3.33E2,4.8E2,4.33E2,2.2E2,7.3E1,6.8E1,1.14E2,2.19E2,1.94E2,2.86E2,2.07E2,2.26E2,1.41E2,7.9E1,7E0,6.6E1,4.7E1,2.1E1,1E0,1.13E2,7.3E1,1.46E2,9.9E1,9.5E1,1.97E2,8.9E1,3.8E1,1.69E2,2.19E2,7E0,3.9E1,1.02E2,3.7E1,4.2E1,1E0,4.6E1],"tree_param":{"num_deleted":"0","num_feature":"10","num_nodes":"45","size_leaf_vector":"1"}},{"base_weights":[3.3950957E-6,-2.080991E-3,1.5725602E-3,-6.4771534E-3,-1.5333301E-3,9.4636256E-4,5.239294E-3,-7.840931E-3,-1.3083947E-3,-2.4613028E-3,-8.8674086E-4,4.1428415E-4,1.8583855E-3,3.8172165E-3,7.065049E-3,-3.2063492E-3,-2.128259E-3,-3.1667517E-3,-1.9501249E-3,-1.3355147E-3,-5.8115704E-4,4.027859E-5,7.909807E-4,1.5573386E-3,2.5343716E-3,3.3341749E-3,1.3513032E-3,1.8578224E-3,2.7394108E-3,-9.715901E-4,1.5016062E-4,-5.95817E-4,-1.3602142E-4,-4.497103E-4,-1.8834176E-4,-2.128198E-4,-7.222774E-5,6.58634E-5,-1.0321068E-4,-3.176056E-4,2.492791E-4,2.5360592E-4,5.004679E-4,1.7314522E-4,7.779599E-4,3.900452E-4,1.0168599E-3],"categories":[],"categories_nodes":[],"categories_segments":[],"categories_sizes":[],"default_left":[0,0,0,0,0,0,0,0,0,0,0,0,0,0,0,0,0,0,0,0,0,0,0,0,0,0,0,0,0,0,0,0,0,0,0,0,0,0,0,0,0,0,0,0,0,0,0],"id":1,"left_children":[1,3,5,7,9,11,13,15,-1,17,19,21,23,25,27,-1,-1,29,31,33,35,37,39,41,43,45,-1,-1,-1,-1,-1,-1,-1,-1,-1,-1,-1,-1,-1,-1,-1,-1,-1,-1,-1,-1,-1],"loss_changes":[5.589706E-3,1.7572511E-3,2.2337388E-3,1.9953144E-4,3.902287E-4,4.0394353E-4,3.4171552E-4,2.6220689E-5,0E0,9.046798E-5,5.2296265E-5,7.435628E-5,5.8528734E-5,1.2198347E-5,5.340227E-5,0E0,0E0,3.088184E-5,7.596682E-6,1.7111888E-5,9.956799E-6,1.8401466E-5,2.0313702E-5,1.5564088E-5,9.211362E-6,1.4482648E-6,0E0,0E0,0E0,0E0,0E0,0E0,0E0,0E0,0E0,0E0,0E0,0E0,0E0,0E0,0E0,0E0,0E0,0E0,0E0,0E0,0E0],"parents":[2147483647,0,0,1,1,2,2,3,3,4,4,5,5,6,6,7,7,9,9,10,10,11,11,12,12,13,13,14,14,17,17,18,18,19,19,20,20,21,21,22,22,23,23,24,24,25,25],"right_children":[2,4,6,8,10,12,14,16,-1,18,20,22,24,26,28,-1,-1,30,32,34,36,38,40,42,44,46,-1,-1,-1,-1,-1,-1,-1,-1,-1,-1,-1,-1,-1,-1,-1,-1,-1,-1,-1,-1,-1],"split_conditions":[1.6728509E-4,-5.277753E-3,4.5749955E-3,-4.407067E-3,-1.6560778E-3,1.9370262E-3,8.075714E-3,-1.1333132E-2,-1.3083947E-3,-2.7652765E-3,-8.699782E-4,1.177216E-3,3.3223107E-3,6.0145054E-3,1.1700001E-2,-3.2063492E-3,-2.128259E-3,1.2561046E-3,4.0003583E-3,-2.9826537E-4,5.7548285E-5,1.0786839E-3,-5.562082E-4,1.6631903E-3,-1.5537813E-3,2.8797337E-3,1.3513032E-3,1.8578224E-3,2.7394108E-3,-9.715901E-4,1.5016062E-4,-5.95817E-4,-1.3602142E-4,-4.497103E-4,-1.8834176E-4,-2.128198E-4,-7.222774E-5,6.58634E-5,-1.0321068E-4,-3.176056E-4,2.492791E-4,2.5360592E-4,5.004679E-4,1.7314522E-4,7.779599E-4,3.900452E-4,1.0168599E-3],"split_indices":[4,3,3,7,3,3,4,4,0,4,4,4,4,3,3,0,0,0,5,3,3,1,3,4,5,4,0,0,0,0,0,0,0,0,0,0,0,0,0,0,0,0,0,0,0,0,0],"split_type":[0,0,0,0,0,0,0,0,0,0,0,0,0,0,0,0,0,0,0,0,0,0,0,0,0,0,0,0,0,0,0,0,0,0,0,0,0,0,0,0,0,0,0,0,0,0,0],"sum_hessian":[1.707E3,7.33E2,9.74E2,8E1,6.53E2,8.33E2,1.41E2,4.7E1,3.3E1,2.67E2,3.86E2,5.27E2,3.06E2,8.1E1,6E1,7E0,4E1,1.1E2,1.57E2,1.55E2,2.31E2,2.65E2,2.62E2,2.14E2,9.2E1,5.1E1,3E1,4.5E1,1.5E1,1.08E2,2E0,1.53E2,4E0,1.25E2,3E1,1.67E2,6.4E1,1.81E2,8.4E1,5E0,2.57E2,3E1,1.84E2,3E0,8.9E1,2E0,4.9E1],"tree_param":{"num_deleted":"0","num_feature":"10","num_nodes":"47","size_leaf_vector":"1"}},{"base_weights":[2.280308E-6,-1.2961264E-3,1.2780903E-3,-3.838182E-3,-8.1299373E-4,8.58507E-4,4.1688033E-3,-5.828872E-3,-2.9386403E-3,-1.4412296E-3,-4.5791798E-4,3.928507E-4,1.4922614E-3,2.616988E-3,4.8982333E-3,-1.8363453E-3,-7.5006986E-4,-3.4686169E-3,-2.2455172E-3,-1.8558587E-3,-1.2398612E-3,-7.5993687E-4,-2.478241E-4,1.2320299E-4,5.663848E-4,1.2742404E-3,2.184566E-3,1.0300154E-3,2.2319541E-3,4.242933E-3,1.8956513E-3,-1.0532935E-3,-1.962295E-4,-1.1939858E-4,-6.9720554E-4,-5.8053073E-4,-7.4546326E-5,2.9616902E-4,-3.7746865E-4,4.1489088E-4,-2.3366796E-4,-1.0956354E-4,1.3172591E-7,5.354691E-5,-1.2809943E-4,1.6121891E-4,5.8989227E-4,6.422829E-4,3.5757088E-4,3.080031E-4,6.980714E-4,3.050607E-4,7.176297E-4,3.4247682E-4,1.2841861E-3],"categories":[],"categories_nodes":[],"categories_segments":[],"categories_sizes":[],"default_left":[0,0,0,0,0,0,0,0,0,0,0,0,0,0,0,0,0,0,0,0,0,0,0,0,0,0,0,0,0,0,0,0,0,0,0,0,0,0,0,0,0,0,0,0,0,0,0,0,0,0,0,0,0,0,0],"id":2,"left_children":[1,3,5,7,9,11,13,15,17,19,21,23,25,27,29,-1,-1,31,33,35,37,39,41,43,45,47,49,-1,51,53,-1,-1,-1,-1,-1,-1,-1,-1,-1,-1,-1,-1,-1,-1,-1,-1,-1,-1,-1,-1,-1,-1,-1,-1,-1],"loss_changes":[2.8309934E-3,1.0371229E-3,1.0419366E-3,2.2461661E-4,1.5838986E-4,2.21928E-4,1.10562774E-4,2.4584238E-5,2.7108414E-5,1.9156781E-5,2.8809394E-5,2.0332001E-5,4.536513E-5,3.967434E-6,4.1146995E-5,0E0,0E0,3.9032893E-6,5.4565025E-6,9.963784E-6,8.441682E-6,8.673429E-6,7.897925E-6,5.30825E-6,9.697447E-6,1.4931924E-5,9.971933E-6,0E0,3.0160445E-6,1.3081008E-6,0E0,0E0,0E0,0E0,0E0,0E0,0E0,0E0,0E0,0E0,0E0,0E0,0E0,0E0,0E0,0E0,0E0,0E0,0E0,0E0,0E0,0E0,0E0,0E0,0E0],"parents":[2147483647,0,0,1,1,2,2,3,3,4,4,5,5,6,6,7,7,8,8,9,9,10,10,11,11,12,12,13,13,14,14,17,17,18,18,19,19,20,20,21,21,22,22,23,23,24,24,25,25,26,26,28,28,29,29],"right_children":[2,4,6,8,10,12,14,16,18,20,22,24,26,28,30,-1,-1,32,34,36,38,40,42,44,46,48,50,-1,52,54,-1,-1,-1,-1,-1,-1,-1,-1,-1,-1,-1,-1,-1,-1,-1,-1,-1,-1,-1,-1,-1,-1,-1,-1,-1],"split_conditions":[5.0379336E-4,-3.7960187E-3,5.499721E-3,-7.880241E-3,-1.3391022E-3,2.0939424E-3,6.5558515E-3,3.3981986E-3,-4.220646E-3,-2.6736967E-3,-5.7368726E-4,1.194967E-3,3.9527677E-3,3.3051893E-3,1.0726734E-2,-1.8363453E-3,-7.5006986E-4,-1.038257E-3,-5.973529E-3,2.9959446E-3,-9.525955E-3,-3.7398115E-3,5.119955E-4,5.165618E-3,9.018235E-3,1.0211729E-3,1.3693273E-3,1.0300154E-3,6.3417144E-3,-5.209036E-4,1.8956513E-3,-1.0532935E-3,-1.962295E-4,-1.1939858E-4,-6.9720554E-4,-5.8053073E-4,-7.4546326E-5,2.9616902E-4,-3.7746865E-4,4.1489088E-4,-2.3366796E-4,-1.0956354E-4,1.3172591E-7,5.354691E-5,-1.2809943E-4,1.6121891E-4,5.8989227E-4,6.422829E-4,3.5757088E-4,3.080031E-4,6.980714E-4,3.050607E-4,7.176297E-4,3.4247682E-4,1.2841861E-3],"split_indices":[3,3,4,4,4,4,3,8,4,3,3,3,3,6,4,0,0,0,0,2,1,3,4,5,5,7,5,0,1,9,0,0,0,0,0,0,0,0,0,0,0,0,0,0,0,0,0,0,0,0,0,0,0,0,0],"split_type":[0,0,0,0,0,0,0,0,0,0,0,0,0,0,0,0,0,0,0,0,0,0,0,0,0,0,0,0,0,0,0,0,0,0,0,0,0,0,0,0,0,0,0,0,0,0,0,0,0,0,0,0,0,0,0],"sum_hessian":[1.707E3,8.46E2,8.61E2,1.34E2,7.12E2,7.53E2,1.08E2,4E1,9.4E1,2.56E2,4.56E2,4.35E2,3.18E2,3.6E1,7.2E1,3.6E1,4E0,5.1E1,4.3E1,8.1E1,1.75E2,1.86E2,2.7E2,1.71E2,2.64E2,2.44E2,7.4E1,9E0,2.7E1,5.2E1,2E1,5E1,1E0,2E0,4.1E1,7.7E1,4E0,1E0,1.74E2,1E0,1.85E2,1.83E2,8.7E1,1.56E2,1.5E1,2.6E2,4E0,1.9E1,2.25E2,9E0,6.5E1,4E0,2.3E1,1E0,5.1E1],"tree_param":{"num_deleted":"0","num_feature":"10","num_nodes":"55","size_leaf_vector":"1"}},{"base_weights":[3.3177512E-6,-8.6757954E-4,9.5862924E-4,-2.600735E-3,-5.033813E-4,6.6705013E-4,3.1354867E-3,-4.005341E-3,-1.952385E-3,-9.874608E-4,-2.6616306E-4,3.7452322E-4,1.1894258E-3,2.748103E-3,1.4701943E-3,-6.2754713E-3,-3.4646974E-3,-2.0048195E-3,1.6532998E-4,3.2846443E-4,-1.0005898E-3,-4.3696212E-4,-9.360912E-5,2.7611005E-4,7.245178E-4,9.3471614E-4,1.4980237E-3,2.0692912E-3,3.0676776E-3,-2.0084565E-3,-5.0096837E-4,-1.0521326E-3,-2.6523814E-4,2.5174365E-4,-6.1196904E-4,-4.0669122E-4,-2.681561E-4,1.0966381E-4,-1.4368819E-4,-1.3993499E-5,-2.3238263E-4,-1.07941196E-4,9.486285E-5,-1.7269826E-4,2.2697964E-4,1.87703E-4,3.3395638E-4,4.1352859E-4,5.991539E-4,4.0007042E-4,7.334438E-4,9.586024E-4,4.6052714E-4],"categories":[],"categories_nodes":[],"categories_segments":[],"categories_sizes":[],"default_left":[0,0,0,0,0,0,0,0,0,0,0,0,0,0,0,0,0,0,0,0,0,0,0,0,0,0,0,0,0,0,0,0,0,0,0,0,0,0,0,0,0,0,0,0,0,0,0,0,0,0,0,0,0],"id":3,"left_children":[1,3,5,7,9,11,13,15,17,19,21,23,25,27,-1,29,31,33,-1,-1,35,37,39,41,43,45,47,49,51,-1,-1,-1,-1,-1,-1,-1,-1,-1,-1,-1,-1,-1,-1,-1,-1,-1,-1,-1,-1,-1,-1,-1,-1],"loss_changes":[1.4218504E-3,5.6299445E-4,5.152102E-4,1.3333501E-4,8.471325E-5,1.09577E-4,5.2176765E-5,3.716926E-5,1.5281956E-5,7.738927E-6,1.4636178E-5,1.5747559E-5,1.8879335E-5,1.1223543E-5,0E0,4.272355E-6,1.3865065E-6,1.2286182E-5,0E0,0E0,7.959214E-6,8.601117E-6,7.927522E-6,9.3701965E-6,4.6483583E-6,7.2457915E-6,4.1121384E-6,4.751797E-6,5.4645934E-6,0E0,0E0,0E0,0E0,0E0,0E0,0E0,0E0,0E0,0E0,0E0,0E0,0E0,0E0,0E0,0E0,0E0,0E0,0E0,0E0,0E0,0E0,0E0,0E0],"parents":[2147483647,0,0,1,1,2,2,3,3,4,4,5,5,6,6,7,7,8,8,9,9,10,10,11,11,12,12,13,13,15,15,16,16,17,17,20,20,21,21,22,22,23,23,24,24,25,25,26,26,27,27,28,28],"right_children":[2,4,6,8,10,12,14,16,18,20,22,24,26,28,-1,30,32,34,-1,-1,36,38,40,42,44,46,48,50,52,-1,-1,-1,-1,-1,-1,-1,-1,-1,-1,-1,-1,-1,-1,-1,-1,-1,-1,-1,-1,-1,-1,-1,-1],"split_conditions":[7.363898E-4,-3.399197E-3,6.09643E-3,-7.090389E-3,-1.4262758E-3,2.419278E-3,1.1700001E-2,-1.1333132E-2,1.2561046E-3,-6.742757E-3,-2.0553917E-4,2.236389E-3,3.5220012E-3,6.5558515E-3,1.4701943E-3,-7.7825375E-3,5.0998367E-3,-9.525955E-3,1.6532998E-4,3.2846443E-4,-2.990853E-3,-2.2464693E-3,5.582832E-3,-4.9672127E-3,-4.6925992E-4,3.1001233E-3,5.7035573E-3,3.4997612E-4,1.0624394E-2,-2.0084565E-3,-5.0096837E-4,-1.0521326E-3,-2.6523814E-4,2.5174365E-4,-6.1196904E-4,-4.0669122E-4,-2.681561E-4,1.0966381E-4,-1.4368819E-4,-1.3993499E-5,-2.3238263E-4,-1.07941196E-4,9.486285E-5,-1.7269826E-4,2.2697964E-4,1.87703E-4,3.3395638E-4,4.1352859E-4,5.991539E-4,4.0007042E-4,7.334438E-4,9.586024E-4,4.6052714E-4],"split_indices":[4,4,4,4,3,3,3,4,0,0,3,4,3,3,0,0,8,1,0,0,0,0,5,8,3,5,3,9,0,0,0,0,0,0,0,0,0,0,0,0,0,0,0,0,0,0,0,0,0,0,0,0,0],"split_type":[0,0,0,0,0,0,0,0,0,0,0,0,0,0,0,0,0,0,0,0,0,0,0,0,0,0,0,0,0,0,0,0,0,0,0,0,0,0,0,0,0,0,0,0,0,0,0,0,0,0,0,0,0],"sum_hessian":[1.707E3,8.93E2,8.14E2,1.54E2,7.39E2,7.19E2,9.5E1,4.7E1,1.07E2,2.42E2,4.97E2,4.62E2,2.57E2,8E1,1.5E1,7E0,4E1,1.05E2,2E0,1E0,2.41E2,2.49E2,2.48E2,3.62E2,1E2,1.43E2,1.14E2,2.8E1,5.2E1,6E0,1E0,3.9E1,1E0,1E0,1.04E2,5.3E1,1.88E2,1.2E1,2.37E2,2.33E2,1.5E1,2.1E1,3.41E2,2E0,9.8E1,5.4E1,8.9E1,9.5E1,1.9E1,1.1E1,1.7E1,4.7E1,5E0],"tree_param":{"num_deleted":"0","num_feature":"10","num_nodes":"53","size_leaf_vector":"1"}},{"base_weights":[2.8785726E-6,-7.746096E-4,5.514627E-4,-2.3727422E-3,-5.4652855E-4,2.9566864E-4,1.7502707E-3,-1.4119524E-3,-2.1129537E-3,-9.5709594E-4,-3.763939E-4,7.5494834E-5,5.544639E-4,1.4140577E-3,3.0184863E-3,-2.2607269E-3,1.1100006E-4,-1.0593452E-4,-1.0389908E-3,-5.6903466E-4,-2.6098065E-4,-1.7787325E-4,1.7629116E-4,6.554495E-4,1.5506503E-4,1.1521002E-3,1.7387217E-3,2.2112036E-3,1.0873239E-3,-7.542563E-4,-5.122874E-4,1.7683164E-4,-3.4217903E-4,1.2950569E-4,-2.8068983E-4,-3.823322E-4,-2.6983596E-4,3.9288067E-4,-1.7657832E-4,1.842112E-4,-8.478587E-5,1.04256804E-4,-8.8880915E-5,4.717833E-5,4.935327E-4,3.2999457E-4,1.7391033E-4,-3.561736E-5,1.8653068E-4,4.3761145E-4,2.3535233E-4,2.4916815E-5,5.294796E-4,7.5361173E-4,2.7798733E-4],"categories":[],"categories_nodes":[],"categories_segments":[],"categories_sizes":[],"default_left":[0,0,0,0,0,0,0,0,0,0,0,0,0,0,0,0,0,0,0,0,0,0,0,0,0,0,0,0,0,0,0,0,0,0,0,0,0,0,0,0,0,0,0,0,0,0,0,0,0,0,0,0,0,0,0],"id":4,"left_children":[1,3,5,7,9,11,13,-1,15,17,19,21,23,25,27,29,31,33,35,37,39,41,43,45,47,49,51,53,-1,-1,-1,-1,-1,-1,-1,-1,-1,-1,-1,-1,-1,-1,-1,-1,-1,-1,-1,-1,-1,-1,-1,-1,-1,-1,-1],"loss_changes":[7.2891935E-4,2.5640748E-4,3.0674378E-4,4.340848E-5,4.294784E-5,4.7080553E-5,7.077644E-5,0E0,2.6870868E-5,1.2506687E-5,9.634146E-6,1.1472639E-5,1.5225101E-5,9.988638E-6,9.595242E-6,6.361137E-6,4.265186E-6,7.986961E-6,4.274625E-6,6.7971123E-6,5.4183765E-6,8.065204E-6,8.713785E-6,9.5651485E-6,1.0040554E-5,7.984789E-6,2.5005284E-6,4.628324E-6,0E0,0E0,0E0,0E0,0E0,0E0,0E0,0E0,0E0,0E0,0E0,0E0,0E0,0E0,0E0,0E0,0E0,0E0,0E0,0E0,0E0,0E0,0E0,0E0,0E0,0E0,0E0],"parents":[2147483647,0,0,1,1,2,2,3,3,4,4,5,5,6,6,8,8,9,9,10,10,11,11,12,12,13,13,14,14,15,15,16,16,17,17,18,18,19,19,20,20,21,21,22,22,23,23,24,24,25,25,26,26,27,27],"right_children":[2,4,6,8,10,12,14,-1,16,18,20,22,24,26,28,30,32,34,36,38,40,42,44,46,48,50,52,54,-1,-1,-1,-1,-1,-1,-1,-1,-1,-1,-1,-1,-1,-1,-1,-1,-1,-1,-1,-1,-1,-1,-1,-1,-1,-1,-1],"split_conditions":[1.1279993E-4,-4.769968E-3,4.2554103E-3,-1.1333132E-2,-2.0702556E-3,1.6631903E-3,9.055216E-3,-1.4119524E-3,-2.7490035E-3,-3.8305782E-3,-1.2733787E-3,8.5011125E-6,3.1617172E-3,6.09643E-3,9.084638E-3,-3.8305782E-3,3.7635723E-3,-9.067394E-4,-3.399197E-3,-3.7398115E-3,-3.8305782E-3,2.3163483E-4,3.4768358E-3,1.2027435E-3,3.3223107E-3,4.490707E-3,3.6780573E-3,1.0720633E-2,1.0873239E-3,-7.542563E-4,-5.122874E-4,1.7683164E-4,-3.4217903E-4,1.2950569E-4,-2.8068983E-4,-3.823322E-4,-2.6983596E-4,3.9288067E-4,-1.7657832E-4,1.842112E-4,-8.478587E-5,1.04256804E-4,-8.8880915E-5,4.717833E-5,4.935327E-4,3.2999457E-4,1.7391033E-4,-3.561736E-5,1.8653068E-4,4.3761145E-4,2.3535233E-4,2.4916815E-5,5.294796E-4,7.5361173E-4,2.7798733E-4],"split_indices":[4,4,4,4,4,4,3,0,3,7,3,5,7,4,6,7,2,3,4,3,7,7,7,7,4,7,1,5,0,0,0,0,0,0,0,0,0,0,0,0,0,0,0,0,0,0,0,0,0,0,0,0,0,0,0],"split_type":[0,0,0,0,0,0,0,0,0,0,0,0,0,0,0,0,0,0,0,0,0,0,0,0,0,0,0,0,0,0,0,0,0,0,0,0,0,0,0,0,0,0,0,0,0,0,0,0,0,0,0,0,0,0,0],"sum_hessian":[1.707E3,7.06E2,1.001E3,8.7E1,6.19E2,8.26E2,1.75E2,7E0,8E1,1.8E2,4.39E2,4.47E2,3.79E2,1.4E2,3.5E1,7.5E1,5E0,1.6E1,1.64E2,1.63E2,2.76E2,1.27E2,3.2E2,3.02E2,7.7E1,8E1,6E1,1.7E1,1.8E1,4.9E1,2.6E1,4E0,1E0,1E1,6E0,5.8E1,1.06E2,1E0,1.62E2,6E0,2.7E2,2.3E1,1.04E2,3.17E2,3E0,4.2E1,2.6E2,4.9E1,2.8E1,4.2E1,3.8E1,1E0,5.9E1,1.3E1,4E0],"tree_param":{"num_deleted":"0","num_feature":"10","num_nodes":"55","size_leaf_vector":"1"}},{"base_weights":[2.7326435E-6,-3.874592E-4,5.624484E-4,-1.3359016E-3,-2.1466201E-4,4.162625E-4,1.7610814E-3,-2.0064916E-3,-8.912499E-4,-4.029247E-4,-4.1147192E-5,2.3782247E-4,7.108906E-4,1.4026416E-3,2.3596333E-3,-3.47105E-3,-1.7523628E-3,2.4028406E-4,-9.177727E-4,-3.7427605E-4,-9.712769E-4,5.662361E-4,-7.559281E-5,2.1578596E-4,1.1516227E-3,5.3288E-4,8.334425E-4,6.9494854E-5,1.4724571E-3,4.028897E-4,7.944957E-4,-1.2147246E-3,-3.473909E-4,-4.0694815E-4,-6.3795317E-4,-2.8349584E-4,6.6808614E-5,-1.1998368E-4,8.875082E-5,-5.696854E-4,-2.0359605E-4,-4.0669514E-5,2.5895625E-4,-1.2541072E-4,-1.44957085E-5,6.819018E-5,-2.1074493E-4,-3.2525038E-4,4.6998527E-4,2.2281618E-4,1.07546904E-4,4.6383785E-4,2.3152046E-4,4.589835E-4,3.579641E-5],"categories":[],"categories_nodes":[],"categories_segments":[],"categories_sizes":[],"default_left":[0,0,0,0,0,0,0,0,0,0,0,0,0,0,0,0,0,0,0,0,0,0,0,0,0,0,0,0,0,0,0,0,0,0,0,0,0,0,0,0,0,0,0,0,0,0,0,0,0,0,0,0,0,0,0],"id":5,"left_children":[1,3,5,7,9,11,13,15,17,19,21,23,25,27,29,31,33,-1,35,37,39,41,43,45,47,49,51,-1,53,-1,-1,-1,-1,-1,-1,-1,-1,-1,-1,-1,-1,-1,-1,-1,-1,-1,-1,-1,-1,-1,-1,-1,-1,-1,-1],"loss_changes":[3.7323922E-4,1.647486E-4,1.2227365E-4,4.44295E-5,2.784783E-5,3.2794487E-5,1.299569E-5,1.6620848E-5,4.9988594E-6,6.2960244E-6,9.352958E-6,7.645192E-6,4.704336E-6,3.7465652E-6,4.36783E-6,6.0075618E-6,5.1135285E-6,0E0,3.1278323E-6,6.844086E-6,3.868996E-6,5.118638E-6,3.921159E-6,4.21991E-6,1.004905E-5,3.3565666E-6,4.8757574E-6,0E0,3.4735203E-6,0E0,0E0,0E0,0E0,0E0,0E0,0E0,0E0,0E0,0E0,0E0,0E0,0E0,0E0,0E0,0E0,0E0,0E0,0E0,0E0,0E0,0E0,0E0,0E0,0E0,0E0],"parents":[2147483647,0,0,1,1,2,2,3,3,4,4,5,5,6,6,7,7,8,8,9,9,10,10,11,11,12,12,13,13,14,14,15,15,16,16,18,18,19,19,20,20,21,21,22,22,23,23,24,24,25,25,26,26,28,28],"right_children":[2,4,6,8,10,12,14,16,18,20,22,24,26,28,30,32,34,-1,36,38,40,42,44,46,48,50,52,-1,54,-1,-1,-1,-1,-1,-1,-1,-1,-1,-1,-1,-1,-1,-1,-1,-1,-1,-1,-1,-1,-1,-1,-1,-1,-1,-1],"split_conditions":[1.1120997E-3,-3.5567135E-3,6.5558515E-3,-5.296208E-3,-3.9554294E-4,2.6011919E-3,9.829464E-3,-1.1333132E-2,-7.906143E-3,2.2107735E-3,-5.690418E-4,9.018235E-3,3.2603648E-3,5.499721E-3,6.4291814E-3,-9.098377E-3,-6.8838308E-3,2.4028406E-4,-8.35903E-4,1.9575432E-3,-3.3717752E-3,-1.3374798E-3,-9.726621E-4,6.8821786E-3,1.108598E-3,2.8900579E-3,-5.642511E-4,6.9494854E-5,1.08733885E-2,4.028897E-4,7.944957E-4,-1.2147246E-3,-3.473909E-4,-4.0694815E-4,-6.3795317E-4,-2.8349584E-4,6.6808614E-5,-1.1998368E-4,8.875082E-5,-5.696854E-4,-2.0359605E-4,-4.0669514E-5,2.5895625E-4,-1.2541072E-4,-1.44957085E-5,6.819018E-5,-2.1074493E-4,-3.2525038E-4,4.6998527E-4,2.2281618E-4,1.07546904E-4,4.6383785E-4,2.3152046E-4,4.589835E-4,3.579641E-5],"split_indices":[3,3,3,4,4,4,4,4,1,9,7,5,3,4,2,0,6,0,1,9,0,1,6,2,4,1,6,0,1,0,0,0,0,0,0,0,0,0,0,0,0,0,0,0,0,0,0,0,0,0,0,0,0,0,0],"split_type":[0,0,0,0,0,0,0,0,0,0,0,0,0,0,0,0,0,0,0,0,0,0,0,0,0,0,0,0,0,0,0,0,0,0,0,0,0,0,0,0,0,0,0,0,0,0,0,0,0,0,0,0,0,0,0],"sum_hessian":[1.707E3,1.006E3,7.01E2,1.54E2,8.52E2,6.26E2,7.5E1,6E1,9.4E1,4.08E2,4.44E2,3.91E2,2.35E2,4.9E1,2.6E1,7E0,5.3E1,1E0,9.3E1,3.9E2,1.8E1,2.3E1,4.21E2,3.83E2,8E0,9.8E1,1.37E2,3E0,4.6E1,7E0,1.9E1,5E0,2E0,2.8E1,2.5E1,9.1E1,2E0,3.76E2,1.4E1,3E0,1.5E1,7E0,1.6E1,3E1,3.91E2,3.79E2,4E0,1E0,7E0,4.3E1,5.5E1,9E0,1.28E2,4.4E1,2E0],"tree_param":{"num_deleted":"0","num_feature":"10","num_nodes":"55","size_leaf_vector":"1"}},{"base_weights":[1.6084088E-6,-3.373391E-4,3.3465587E-4,-1.235343E-3,-2.329158E-4,1.6454732E-4,8.4264466E-4,-2.237714E-3,-1.0154659E-3,-4.901362E-4,-1.4142154E-4,1.3124979E-4,5.510979E-4,6.927886E-4,1.5726809E-3,-1.0865037E-3,-1.4052104E-3,-1.1021051E-3,1.5012857E-4,-4.4739406E-4,-1.3427596E-3,2.3121781E-4,-1.7430354E-4,1.5619432E-4,-2.618079E-4,-2.4842538E-4,6.242907E-4,1.2792182E-3,6.473183E-4,1.1837464E-3,6.297931E-4,-4.6515185E-4,7.1619174E-6,-3.025909E-4,-7.1064424E-4,2.6764514E-4,-1.33176E-4,-5.0371536E-6,-1.6018524E-4,-5.7566963E-4,1.3474551E-4,-4.838969E-5,1.6180729E-4,-1.2690037E-4,-2.6381116E-5,2.8755741E-5,8.7396664E-5,-1.7814556E-5,-2.888629E-4,1.2515273E-4,5.4221525E-4,6.587415E-5,4.4075635E-4,1.4560163E-4,2.5526862E-4,-6.789537E-5,3.7743823E-4],"categories":[],"categories_nodes":[],"categories_segments":[],"categories_sizes":[],"default_left":[0,0,0,0,0,0,0,0,0,0,0,0,0,0,0,0,0,0,0,0,0,0,0,0,0,0,0,0,0,0,0,0,0,0,0,0,0,0,0,0,0,0,0,0,0,0,0,0,0,0,0,0,0,0,0,0,0],"id":6,"left_children":[1,3,5,7,9,11,13,15,17,19,21,23,25,27,29,-1,31,33,35,37,39,41,43,45,47,-1,49,51,53,55,-1,-1,-1,-1,-1,-1,-1,-1,-1,-1,-1,-1,-1,-1,-1,-1,-1,-1,-1,-1,-1,-1,-1,-1,-1,-1,-1],"loss_changes":[1.9292149E-4,7.91376E-5,7.434957E-5,1.712273E-5,1.7816667E-5,8.2553215E-6,2.2540946E-5,1.2193115E-5,7.638431E-6,6.6514003E-6,6.926558E-6,5.8942624E-6,5.665228E-6,3.9983206E-6,4.8886286E-6,0E0,2.3210523E-6,5.7801662E-6,3.0408255E-6,7.109913E-6,1.015339E-5,5.6506997E-6,1.1067523E-5,4.5545494E-6,5.051745E-6,0E0,1.1252785E-5,2.092982E-6,5.1928364E-6,2.6970229E-6,0E0,0E0,0E0,0E0,0E0,0E0,0E0,0E0,0E0,0E0,0E0,0E0,0E0,0E0,0E0,0E0,0E0,0E0,0E0,0E0,0E0,0E0,0E0,0E0,0E0,0E0,0E0],"parents":[2147483647,0,0,1,1,2,2,3,3,4,4,5,5,6,6,7,7,8,8,9,9,10,10,11,11,12,12,13,13,14,14,16,16,17,17,18,18,19,19,20,20,21,21,22,22,23,23,24,24,26,26,27,27,28,28,29,29],"right_children":[2,4,6,8,10,12,14,16,18,20,22,24,26,28,30,-1,32,34,36,38,40,42,44,46,48,-1,50,52,54,56,-1,-1,-1,-1,-1,-1,-1,-1,-1,-1,-1,-1,-1,-1,-1,-1,-1,-1,-1,-1,-1,-1,-1,-1,-1,-1,-1],"split_conditions":[5.0379336E-4,-4.769968E-3,3.5258136E-3,-1.0790452E-2,-1.8747551E-3,7.4027292E-3,9.055216E-3,-1.4104284E-2,-2.7490035E-3,8.1255287E-4,-1.7219968E-3,6.2598996E-3,-7.645041E-4,2.8192215E-3,1.1414784E-2,-1.0865037E-3,-5.973529E-3,7.710591E-3,-5.9961956E-3,-3.5809018E-3,1.829125E-3,-5.4810196E-5,-9.340355E-4,2.1186178E-3,2.7731527E-3,-2.4842538E-4,8.608501E-3,-1.7884653E-3,5.499721E-3,8.075714E-3,6.297931E-4,-4.6515185E-4,7.1619174E-6,-3.025909E-4,-7.1064424E-4,2.6764514E-4,-1.33176E-4,-5.0371536E-6,-1.6018524E-4,-5.7566963E-4,1.3474551E-4,-4.838969E-5,1.6180729E-4,-1.2690037E-4,-2.6381116E-5,2.8755741E-5,8.7396664E-5,-1.7814556E-5,-2.888629E-4,1.2515273E-4,5.4221525E-4,6.587415E-5,4.4075635E-4,1.4560163E-4,2.5526862E-4,-6.789537E-5,3.7743823E-4],"split_indices":[3,4,4,4,4,8,3,5,3,0,1,8,9,1,4,0,0,5,6,1,0,5,4,4,3,0,5,6,4,4,0,0,0,0,0,0,0,0,0,0,0,0,0,0,0,0,0,0,0,0,0,0,0,0,0,0,0],"split_type":[0,0,0,0,0,0,0,0,0,0,0,0,0,0,0,0,0,0,0,0,0,0,0,0,0,0,0,0,0,0,0,0,0,0,0,0,0,0,0,0,0,0,0,0,0,0,0,0,0,0,0,0,0,0,0,0,0],"sum_hessian":[1.707E3,8.46E2,8.61E2,8.7E1,7.59E2,6.46E2,2.15E2,1.4E1,7.3E1,1.98E2,5.61E2,5.96E2,5E1,1.8E2,3.5E1,4E0,1E1,6.8E1,5E0,1.9E2,8E0,4.5E1,5.16E2,5.61E2,3.5E1,2E0,4.8E1,1.1E1,1.69E2,2.2E1,1.3E1,9E0,1E0,6.5E1,3E0,2E0,3E0,3.2E1,1.58E2,6E0,2E0,2E1,2.5E1,1.32E2,3.84E2,3.89E2,1.72E2,2.8E1,7E0,4.2E1,6E0,2E0,9E0,9.6E1,7.3E1,1E0,2.1E1],"tree_param":{"num_deleted":"0","num_feature":"10","num_nodes":"57","size_leaf_vector":"1"}},{"base_weights":[5.438942E-7,-2.1518774E-4,2.7313654E-4,-8.102004E-4,-1.334715E-4,2.0448313E-4,9.5272704E-4,-1.5365848E-3,-6.411027E-4,-1.0298212E-4,-4.4309013E-4,1.4252475E-4,4.291659E-4,8.266886E-4,5.1033875E-4,-8.796614E-4,-1.235351E-3,-6.8694097E-4,1.7203555E-4,-2.1103145E-4,5.155342E-5,-3.5129636E-4,-3.503853E-4,2.0189199E-4,-6.253589E-5,5.607495E-4,1.6004703E-4,1.0142099E-3,6.124999E-4,-4.180444E-4,-8.81976E-5,-1.8392065E-4,-4.93079E-4,-8.5571126E-5,-2.57448E-6,2.3608413E-4,7.484767E-6,-1.739553E-4,-1.7940147E-5,5.0860875E-5,2.3341799E-4,-2.59032E-4,-4.0999103E-6,1.8661196E-4,-1.000931E-4,7.400025E-6,2.6031304E-4,3.3556E-4,7.440632E-5,9.112229E-5,3.6915587E-4],"categories":[],"categories_nodes":[],"categories_segments":[],"categories_sizes":[],"default_left":[0,0,0,0,0,0,0,0,0,0,0,0,0,0,0,0,0,0,0,0,0,0,0,0,0,0,0,0,0,0,0,0,0,0,0,0,0,0,0,0,0,0,0,0,0,0,0,0,0,0,0],"id":7,"left_children":[1,3,5,7,9,11,13,15,17,19,21,23,25,27,-1,-1,29,31,-1,33,35,37,-1,39,41,43,45,47,49,-1,-1,-1,-1,-1,-1,-1,-1,-1,-1,-1,-1,-1,-1,-1,-1,-1,-1,-1,-1,-1,-1],"loss_changes":[1.0050089E-4,4.6277433E-5,3.5030607E-5,1.31403285E-5,7.884037E-6,9.502548E-6,5.1022944E-6,5.206268E-6,5.682865E-6,1.2801137E-5,4.5800316E-6,6.5865233E-6,5.151176E-6,1.8288556E-6,0E0,0E0,2.4186174E-6,5.494021E-6,0E0,6.772887E-6,6.162767E-6,4.4956714E-6,0E0,7.679233E-6,4.7632557E-6,5.6344907E-6,4.768777E-6,2.200457E-6,5.541633E-6,0E0,0E0,0E0,0E0,0E0,0E0,0E0,0E0,0E0,0E0,0E0,0E0,0E0,0E0,0E0,0E0,0E0,0E0,0E0,0E0,0E0,0E0],"parents":[2147483647,0,0,1,1,2,2,3,3,4,4,5,5,6,6,7,7,8,8,9,9,10,10,11,11,12,12,13,13,16,16,17,17,19,19,20,20,21,21,23,23,24,24,25,25,26,26,27,27,28,28],"right_children":[2,4,6,8,10,12,14,16,18,20,22,24,26,28,-1,-1,30,32,-1,34,36,38,-1,40,42,44,46,48,50,-1,-1,-1,-1,-1,-1,-1,-1,-1,-1,-1,-1,-1,-1,-1,-1,-1,-1,-1,-1,-1,-1],"split_conditions":[9.7207306E-4,-4.046889E-3,7.5450013E-3,-9.502866E-3,1.0786839E-3,3.5258136E-3,1.8116299E-2,-1.7526008E-2,9.2532113E-4,-3.9554294E-4,1.9976646E-3,2.6854537E-3,5.69864E-3,8.458022E-3,5.1033875E-4,-8.796614E-4,-5.054746E-3,4.374181E-3,1.7203555E-4,9.909384E-4,-2.2464693E-3,6.728368E-4,-3.503853E-4,1.7954856E-3,-4.6925992E-4,1.0151554E-2,6.7301802E-3,1.0082077E-2,1.3559759E-3,-4.180444E-4,-8.81976E-5,-1.8392065E-4,-4.93079E-4,-8.5571126E-5,-2.57448E-6,2.3608413E-4,7.484767E-6,-1.739553E-4,-1.7940147E-5,5.0860875E-5,2.3341799E-4,-2.59032E-4,-4.0999103E-6,1.8661196E-4,-1.000931E-4,7.400025E-6,2.6031304E-4,3.3556E-4,7.440632E-5,9.112229E-5,3.6915587E-4],"split_indices":[4,4,4,4,1,4,2,2,0,4,9,7,1,7,0,0,5,2,0,8,0,4,0,6,3,8,0,5,9,0,0,0,0,0,0,0,0,0,0,0,0,0,0,0,0,0,0,0,0,0,0],"split_type":[0,0,0,0,0,0,0,0,0,0,0,0,0,0,0,0,0,0,0,0,0,0,0,0,0,0,0,0,0,0,0,0,0,0,0,0,0,0,0,0,0,0,0,0,0,0,0,0,0,0,0],"sum_hessian":[1.707E3,9.53E2,7.54E2,1.14E2,8.39E2,6.86E2,6.8E1,2E1,9.4E1,7.65E2,7.4E1,5.39E2,1.47E2,6E1,8E0,2E0,1.8E1,9.1E1,3E0,4.5E2,3.15E2,6.7E1,7E0,4.18E2,1.21E2,9.8E1,4.9E1,3E1,3E1,1.5E1,3E0,8.6E1,5E0,3.29E2,1.21E2,1E1,3.05E2,3.7E1,3E1,3.97E2,2.1E1,6E0,1.15E2,9.2E1,6E0,4.2E1,7E0,2.6E1,4E0,2.1E1,9E0],"tree_param":{"num_deleted":"0","num_feature":"10","num_nodes":"51","size_leaf_vector":"1"}},{"base_weights":[7.523411E-8,-1.398709E-4,2.2140986E-4,-5.225404E-4,-7.0254595E-5,1.553402E-4,6.0932746E-4,-1.1416047E-3,-4.2663337E-4,-1.8104388E-4,-1.3894231E-5,7.847926E-5,2.545994E-4,5.2721525E-4,1.3444991E-3,-2.3457638E-3,-8.9138985E-4,-3.7532314E-4,-1.2327506E-3,-1.482305E-4,-7.1664073E-4,-4.874709E-4,5.3406147E-6,1.4343568E-5,2.74764E-4,4.886144E-4,1.9861282E-4,1.5490025E-3,4.601182E-4,-7.0944574E-5,4.7150455E-4,-1.6177422E-4,-8.938195E-4,-3.0046934E-4,-6.8353234E-5,-1.8519395E-4,-7.1249204E-5,4.2242806E-5,-5.1422167E-4,2.3610909E-4,-4.9338047E-5,-2.8259383E-4,1.9467984E-4,-6.9120164E-5,-4.9528654E-4,1.4875026E-4,-2.6658797E-6,2.1649843E-4,-1.9824597E-6,1.1961714E-4,1.4187333E-5,8.2891944E-5,2.907955E-4,1.8542096E-5,9.4054485E-5,6.108528E-4,1.6364842E-4,-1.7528929E-6,1.8766607E-4],"categories":[],"categories_nodes":[],"categories_segments":[],"categories_sizes":[],"default_left":[0,0,0,0,0,0,0,0,0,0,0,0,0,0,0,0,0,0,0,0,0,0,0,0,0,0,0,0,0,0,0,0,0,0,0,0,0,0,0,0,0,0,0,0,0,0,0,0,0,0,0,0,0,0,0,0,0,0,0],"id":8,"left_children":[1,3,5,7,9,11,13,15,17,19,21,23,25,27,29,31,33,35,37,39,41,43,45,47,49,51,53,55,57,-1,-1,-1,-1,-1,-1,-1,-1,-1,-1,-1,-1,-1,-1,-1,-1,-1,-1,-1,-1,-1,-1,-1,-1,-1,-1,-1,-1,-1,-1],"loss_changes":[5.293614E-5,2.7855409E-5,1.687213E-5,9.071948E-6,5.5360224E-6,4.3057516E-6,5.0863455E-6,4.236279E-6,5.369373E-6,5.148622E-6,5.3679073E-6,4.0370824E-6,3.1390737E-6,5.3204585E-6,3.6042202E-6,1.8273804E-6,1.1608108E-6,4.322621E-6,5.53035E-6,4.4250805E-6,5.842463E-6,6.4988576E-6,3.9610413E-6,3.6059218E-6,2.2087456E-6,4.5288625E-6,3.140197E-6,1.3336894E-6,6.4789147E-6,0E0,0E0,0E0,0E0,0E0,0E0,0E0,0E0,0E0,0E0,0E0,0E0,0E0,0E0,0E0,0E0,0E0,0E0,0E0,0E0,0E0,0E0,0E0,0E0,0E0,0E0,0E0,0E0,0E0,0E0],"parents":[2147483647,0,0,1,1,2,2,3,3,4,4,5,5,6,6,7,7,8,8,9,9,10,10,11,11,12,12,13,13,14,14,15,15,16,16,17,17,18,18,19,19,20,20,21,21,22,22,23,23,24,24,25,25,26,26,27,27,28,28],"right_children":[2,4,6,8,10,12,14,16,18,20,22,24,26,28,30,32,34,36,38,40,42,44,46,48,50,52,54,56,58,-1,-1,-1,-1,-1,-1,-1,-1,-1,-1,-1,-1,-1,-1,-1,-1,-1,-1,-1,-1,-1,-1,-1,-1,-1,-1,-1,-1,-1,-1],"split_conditions":[1.2229774E-3,-3.3077896E-3,6.09643E-3,-9.502866E-3,-1.0911338E-3,3.3018254E-3,9.3058385E-3,-1.7526008E-2,4.374181E-3,1.7873831E-3,-2.6736967E-3,2.9789037E-3,2.5870027E-3,4.0090494E-3,3.6780573E-3,-1.1777375E-2,-5.054746E-3,-6.16489E-3,-8.184111E-3,-5.7809316E-3,3.1184535E-3,-8.956194E-4,-2.5931448E-3,-1.0685883E-3,2.6942082E-3,4.3947473E-3,2.5858954E-3,5.376689E-3,6.5558515E-3,-7.0944574E-5,4.7150455E-4,-1.6177422E-4,-8.938195E-4,-3.0046934E-4,-6.8353234E-5,-1.8519395E-4,-7.1249204E-5,4.2242806E-5,-5.1422167E-4,2.3610909E-4,-4.9338047E-5,-2.8259383E-4,1.9467984E-4,-6.9120164E-5,-4.9528654E-4,1.4875026E-4,-2.6658797E-6,2.1649843E-4,-1.9824597E-6,1.1961714E-4,1.4187333E-5,8.2891944E-5,2.907955E-4,1.8542096E-5,9.4054485E-5,6.108528E-4,1.6364842E-4,-1.7528929E-6,1.8766607E-4],"split_indices":[3,4,4,4,5,5,8,2,2,1,3,4,2,7,1,0,5,5,6,0,4,1,7,7,0,5,0,1,3,0,0,0,0,0,0,0,0,0,0,0,0,0,0,0,0,0,0,0,0,0,0,0,0,0,0,0,0,0,0],"split_type":[0,0,0,0,0,0,0,0,0,0,0,0,0,0,0,0,0,0,0,0,0,0,0,0,0,0,0,0,0,0,0,0,0,0,0,0,0,0,0,0,0,0,0,0,0,0,0,0,0,0,0,0,0,0,0,0,0,0,0],"sum_hessian":[1.707E3,1.046E3,6.61E2,1.6E2,8.86E2,5.66E2,9.5E1,2E1,1.4E2,2.98E2,5.88E2,3.2E2,2.46E2,8.7E1,8E0,2E0,1.8E1,1.33E2,7E0,2.82E2,1.6E1,2.2E1,5.66E2,2.42E2,7.8E1,4.6E1,2E2,4E0,8.3E1,1E0,7E0,1E0,1E0,1.5E1,3E0,4.7E1,8.6E1,2E0,5E0,4E0,2.78E2,1.4E1,2E0,1.9E1,3E0,1.5E1,5.51E2,6E0,2.36E2,5E1,2.8E1,3.3E1,1.3E1,9.2E1,1.08E2,2E0,2E0,2.2E1,6.1E1],"tree_param":{"num_deleted":"0","num_feature":"10","num_nodes":"59","size_leaf_vector":"1"}},{"base_weights":[-1.09357615E-7,-1.5709166E-4,1.1610882E-4,-7.164205E-4,-1.2861606E-4,6.510072E-5,3.4933284E-4,-8.315225E-4,4.2148902E-5,-1.0124572E-4,-3.9149798E-4,2.8836992E-4,3.2388903E-5,-2.1364163E-5,4.1960907E-4,9.291172E-6,-9.6044637E-4,-2.1711501E-4,-2.0433177E-7,-8.8624906E-4,-2.6275718E-4,5.755393E-4,1.2547981E-4,-1.6050883E-4,6.305999E-5,6.9781265E-5,-2.7390826E-4,3.7947108E-4,2.992064E-4,-5.981698E-4,-2.3940425E-4,1.8404445E-4,-6.922018E-5,-6.585661E-5,1.5604477E-5,-9.581906E-5,-3.3080849E-4,-2.6575677E-5,-1.4085704E-4,1.1526725E-4,2.978428E-4,9.524476E-6,1.5371524E-4,-2.7255184E-5,-2.090551E-4,1.664945E-5,2.4413211E-4,-1.1398906E-4,1.8162985E-4,2.0619441E-4,9.295625E-5],"categories":[],"categories_nodes":[],"categories_segments":[],"categories_sizes":[],"default_left":[0,0,0,0,0,0,0,0,0,0,0,0,0,0,0,0,0,0,0,0,0,0,0,0,0,0,0,0,0,0,0,0,0,0,0,0,0,0,0,0,0,0,0,0,0,0,0,0,0,0,0],"id":9,"left_children":[1,3,5,7,9,11,13,15,-1,17,19,21,23,25,27,-1,29,31,33,35,37,39,41,43,45,-1,47,49,-1,-1,-1,-1,-1,-1,-1,-1,-1,-1,-1,-1,-1,-1,-1,-1,-1,-1,-1,-1,-1,-1,-1],"loss_changes":[3.1179326E-5,1.14869545E-5,1.1659439E-5,3.5689754E-6,4.9466125E-6,5.884617E-6,4.5939723E-6,3.47682E-6,0E0,7.3640326E-6,3.907284E-6,4.745817E-6,4.181172E-6,1.9237204E-6,3.0535866E-6,0E0,2.9412222E-6,3.455917E-6,3.8709472E-6,1.2428081E-6,1.867086E-6,2.572253E-6,2.4134974E-6,3.5606683E-6,3.411987E-6,0E0,1.6289237E-6,2.7873884E-6,0E0,0E0,0E0,0E0,0E0,0E0,0E0,0E0,0E0,0E0,0E0,0E0,0E0,0E0,0E0,0E0,0E0,0E0,0E0,0E0,0E0,0E0,0E0],"parents":[2147483647,0,0,1,1,2,2,3,3,4,4,5,5,6,6,7,7,9,9,10,10,11,11,12,12,13,13,14,14,16,16,17,17,18,18,19,19,20,20,21,21,22,22,23,23,24,24,26,26,27,27],"right_children":[2,4,6,8,10,12,14,16,-1,18,20,22,24,26,28,-1,30,32,34,36,38,40,42,44,46,-1,48,50,-1,-1,-1,-1,-1,-1,-1,-1,-1,-1,-1,-1,-1,-1,-1,-1,-1,-1,-1,-1,-1,-1,-1],"split_conditions":[1.5407614E-4,-9.028409E-3,4.2554103E-3,3.3981986E-3,4.6450272E-4,2.750717E-4,2.6370957E-4,-4.1502155E-4,4.2148902E-5,-1.6687429E-3,-5.4521486E-4,2.8441474E-4,6.728368E-4,3.4147575E-3,1.2320381E-2,9.291172E-6,-1.7526008E-2,-1.6506525E-2,-2.3379177E-3,-3.0273944E-3,8.1985444E-4,-9.161979E-5,7.4027292E-3,5.5696107E-3,1.0082077E-2,6.9781265E-5,7.4693E-3,2.6687756E-3,2.992064E-4,-5.981698E-4,-2.3940425E-4,1.8404445E-4,-6.922018E-5,-6.585661E-5,1.5604477E-5,-9.581906E-5,-3.3080849E-4,-2.6575677E-5,-1.4085704E-4,1.1526725E-4,2.978428E-4,9.524476E-6,1.5371524E-4,-2.7255184E-5,-2.090551E-4,1.664945E-5,2.4413211E-4,-1.1398906E-4,1.8162985E-4,2.0619441E-4,9.295625E-5],"split_indices":[4,3,4,8,1,7,9,9,0,4,6,0,4,0,1,0,2,5,5,5,1,8,8,8,5,0,0,6,0,0,0,0,0,0,0,0,0,0,0,0,0,0,0,0,0,0,0,0,0,0,0],"split_type":[0,0,0,0,0,0,0,0,0,0,0,0,0,0,0,0,0,0,0,0,0,0,0,0,0,0,0,0,0,0,0,0,0,0,0,0,0,0,0,0,0,0,0,0,0,0,0,0,0,0,0],"sum_hessian":[1.707E3,7.26E2,9.81E2,3.4E1,6.92E2,8.06E2,1.75E2,3E1,4E0,6.28E2,6.4E1,1.02E2,7.04E2,2.8E1,1.47E2,4E0,2.6E1,2.92E2,3.36E2,1.2E1,5.2E1,3.6E1,6.6E1,9.6E1,6.08E2,1.4E1,1.4E1,1.39E2,8E0,2E0,2.4E1,4E0,2.88E2,6.4E1,2.72E2,4E0,8E0,2.9E1,2.3E1,2.6E1,1E1,5.4E1,1.2E1,8.6E1,1E1,6.03E2,5E0,1.3E1,1E0,2.4E1,1.15E2],"tree_param":{"num_deleted":"0","num_feature":"10","num_nodes":"51","size_leaf_vector":"1"}},{"base_weights":[-6.428055E-8,-6.8195885E-5,1.4160047E-4,-2.8797166E-4,-3.0718144E-5,1.0800958E-4,4.0696003E-4,-5.673831E-4,-1.933004E-4,-3.5557896E-5,2.780762E-4,3.0857715E-4,5.042402E-5,2.3142542E-4,6.752471E-4,-1.5186046E-3,-4.552736E-4,-2.1844673E-4,6.345614E-4,-2.4477251E-5,-1.625974E-4,3.8518175E-4,2.064894E-6,-7.8989324E-5,1.1518627E-4,8.047472E-4,1.2344436E-4,-9.52567E-5,2.1966491E-4,-4.7782578E-5,-5.755868E-4,-1.5707366E-4,1.6167464E-4,-5.7105244E-5,-3.0412103E-4,3.6995028E-4,-1.741886E-4,6.0085687E-5,-1.1179753E-5,1.0602135E-4,4.7247074E-4,-7.1380455E-5,1.2055051E-4,-1.1829149E-4,3.698676E-6,4.273982E-5,-5.4806183E-5,3.0032458E-4,-2.6538923E-5,1.2647985E-4,-1.7504792E-5],"categories":[],"categories_nodes":[],"categories_segments":[],"categories_sizes":[],"default_left":[0,0,0,0,0,0,0,0,0,0,0,0,0,0,0,0,0,0,0,0,0,0,0,0,0,0,0,0,0,0,0,0,0,0,0,0,0,0,0,0,0,0,0,0,0,0,0,0,0,0,0],"id":10,"left_children":[1,3,5,7,9,11,13,15,17,19,-1,21,23,25,27,29,31,33,35,37,-1,39,41,43,45,47,49,-1,-1,-1,-1,-1,-1,-1,-1,-1,-1,-1,-1,-1,-1,-1,-1,-1,-1,-1,-1,-1,-1,-1,-1],"loss_changes":[1.6495009E-5,9.496304E-6,4.903126E-6,4.3343E-6,4.6074415E-6,5.690039E-6,2.7635379E-6,3.7875388E-6,2.7824653E-6,5.502945E-6,0E0,2.5820336E-6,3.2358219E-6,2.3150667E-6,1.5898704E-6,1.8694363E-6,2.9305884E-6,2.5777404E-6,3.6256938E-6,2.7755107E-6,0E0,2.7703572E-6,2.3023392E-6,3.7192963E-6,2.1143903E-6,1.1407678E-6,1.8674921E-6,0E0,0E0,0E0,0E0,0E0,0E0,0E0,0E0,0E0,0E0,0E0,0E0,0E0,0E0,0E0,0E0,0E0,0E0,0E0,0E0,0E0,0E0,0E0,0E0],"parents":[2147483647,0,0,1,1,2,2,3,3,4,4,5,5,6,6,7,7,8,8,9,9,11,11,12,12,13,13,14,14,15,15,16,16,17,17,18,18,19,19,21,21,22,22,23,23,24,24,25,25,26,26],"right_children":[2,4,6,8,10,12,14,16,18,20,-1,22,24,26,28,30,32,34,36,38,-1,40,42,44,46,48,50,-1,-1,-1,-1,-1,-1,-1,-1,-1,-1,-1,-1,-1,-1,-1,-1,-1,-1,-1,-1,-1,-1,-1,-1],"split_conditions":[1.6631903E-3,-3.3378005E-3,8.075714E-3,-6.9822483E-3,3.4768358E-3,1.7502345E-3,6.5474473E-3,-1.1333132E-2,-8.039251E-4,2.347853E-3,2.780762E-4,5.2596647E-3,2.4799155E-3,-1.6922876E-4,8.573681E-4,-1.1777375E-2,1.0374933E-3,7.710591E-3,-1.3467893E-3,-2.880115E-3,-1.625974E-4,3.7772208E-3,8.063326E-3,1.1856109E-3,7.0748664E-3,8.045733E-3,5.2721053E-4,-9.52567E-5,2.1966491E-4,-4.7782578E-5,-5.755868E-4,-1.5707366E-4,1.6167464E-4,-5.7105244E-5,-3.0412103E-4,3.6995028E-4,-1.741886E-4,6.0085687E-5,-1.1179753E-5,1.0602135E-4,4.7247074E-4,-7.1380455E-5,1.2055051E-4,-1.1829149E-4,3.698676E-6,4.273982E-5,-5.4806183E-5,3.0032458E-4,-2.6538923E-5,1.2647985E-4,-1.7504792E-5],"split_indices":[4,3,4,8,7,7,8,4,6,1,0,2,4,5,5,0,9,5,0,1,0,0,2,5,1,0,9,0,0,0,0,0,0,0,0,0,0,0,0,0,0,0,0,0,0,0,0,0,0,0,0],"split_type":[0,0,0,0,0,0,0,0,0,0,0,0,0,0,0,0,0,0,0,0,0,0,0,0,0,0,0,0,0,0,0,0,0,0,0,0,0,0,0,0,0,0,0,0,0,0,0,0,0,0,0],"sum_hessian":[1.707E3,1.153E3,5.54E2,1.67E2,9.86E2,4.93E2,6.1E1,4.1E1,1.26E2,9.82E2,4E0,1.09E2,3.84E2,3.8E1,2.3E1,3E0,3.8E1,1.23E2,3E0,9.62E2,2E1,8.7E1,2.2E1,1.28E2,2.56E2,5E0,3.3E1,1E0,2.2E1,1E0,2E0,3.6E1,2E0,1.2E2,3E0,2E0,1E0,5.1E1,9.11E2,8.6E1,1E0,1.4E1,8E0,2.8E1,1E2,2.35E2,2.1E1,4E0,1E0,1.2E1,2.1E1],"tree_param":{"num_deleted":"0","num_feature":"10","num_nodes":"51","size_leaf_vector":"1"}},{"base_weights":[1.8237192E-7,-1.0552467E-4,5.751969E-5,-8.988245E-5,-6.071652E-4,3.678894E-5,2.4718235E-4,-3.9586902E-4,-6.236432E-5,-6.958867E-4,2.0521333E-5,2.8929493E-4,2.596651E-5,4.694679E-4,1.607355E-4,-2.455086E-4,-1.2414791E-3,-4.650821E-5,-5.44639E-4,-1.13059315E-4,-2.903403E-4,-1.0178138E-4,4.5195554E-4,-2.830197E-5,7.679086E-5,4.627032E-4,2.4508912E-4,-1.5704148E-4,2.9972993E-4,-5.097396E-5,-2.7635598E-4,-4.72098E-4,1.12740985E-4,-3.8239996E-5,3.6479391E-6,-3.0544278E-4,-5.8141777E-5,-1.4163895E-5,1.8407342E-4,-3.261624E-6,-2.0561232E-4,-2.6130598E-4,2.5880103E-5,1.7519158E-4,9.398793E-6,-1.072187E-5,-2.3548248E-4,2.2714444E-4,4.7331487E-5],"categories":[],"categories_nodes":[],"categories_segments":[],"categories_sizes":[],"default_left":[0,0,0,0,0,0,0,0,0,0,0,0,0,0,0,0,0,0,0,0,0,0,0,0,0,0,0,0,0,0,0,0,0,0,0,0,0,0,0,0,0,0,0,0,0,0,0,0,0],"id":11,"left_children":[1,3,5,7,9,11,13,15,17,19,-1,21,23,25,27,29,31,33,35,-1,-1,-1,37,39,41,-1,43,45,47,-1,-1,-1,-1,-1,-1,-1,-1,-1,-1,-1,-1,-1,-1,-1,-1,-1,-1,-1,-1],"loss_changes":[1.0358186E-5,4.6613354E-6,4.3473947E-6,4.8926972E-6,1.1264774E-6,2.7252167E-6,2.0190723E-6,5.79823E-6,4.0811087E-6,1.0232179E-6,0E0,4.3452974E-6,2.6500072E-6,6.843907E-6,3.5806088E-6,1.98876E-6,4.3519995E-6,2.476128E-6,2.6267307E-6,0E0,0E0,0E0,2.6913044E-6,5.3180547E-6,4.53001E-6,0E0,1.8651324E-6,1.8760836E-6,3.5168641E-6,0E0,0E0,0E0,0E0,0E0,0E0,0E0,0E0,0E0,0E0,0E0,0E0,0E0,0E0,0E0,0E0,0E0,0E0,0E0,0E0],"parents":[2147483647,0,0,1,1,2,2,3,3,4,4,5,5,6,6,7,7,8,8,9,9,11,11,12,12,13,13,14,14,15,15,16,16,17,17,18,18,22,22,23,23,24,24,26,26,27,27,28,28],"right_children":[2,4,6,8,10,12,14,16,18,20,-1,22,24,26,28,30,32,34,36,-1,-1,-1,38,40,42,-1,44,46,48,-1,-1,-1,-1,-1,-1,-1,-1,-1,-1,-1,-1,-1,-1,-1,-1,-1,-1,-1,-1],"split_conditions":[-2.5042612E-4,5.143024E-4,5.499721E-3,-8.273739E-3,5.723648E-4,-6.27473E-4,3.6854371E-3,-8.906193E-3,2.37225E-3,-4.334785E-4,2.0521333E-5,-1.8950142E-3,1.5427358E-3,4.045589E-3,6.5461695E-3,-6.3985586E-4,-2.202019E-3,-2.1858094E-3,-1.792524E-3,-1.13059315E-4,-2.903403E-4,-1.0178138E-4,-1.9432865E-3,5.588699E-3,-7.551871E-4,4.627032E-4,2.9136986E-4,1.1236183E-3,5.2721053E-4,-5.097396E-5,-2.7635598E-4,-4.72098E-4,1.12740985E-4,-3.8239996E-5,3.6479391E-6,-3.0544278E-4,-5.8141777E-5,-1.4163895E-5,1.8407342E-4,-3.261624E-6,-2.0561232E-4,-2.6130598E-4,2.5880103E-5,1.7519158E-4,9.398793E-6,-1.072187E-5,-2.3548248E-4,2.2714444E-4,4.7331487E-5],"split_indices":[4,1,4,8,0,7,5,8,9,5,0,7,5,6,5,4,1,4,7,0,0,0,8,8,0,0,5,9,9,0,0,0,0,0,0,0,0,0,0,0,0,0,0,0,0,0,0,0,0],"split_type":[0,0,0,0,0,0,0,0,0,0,0,0,0,0,0,0,0,0,0,0,0,0,0,0,0,0,0,0,0,0,0,0,0,0,0,0,0,0,0,0,0,0,0,0,0,0,0,0,0],"sum_hessian":[1.707E3,6E2,1.107E3,5.83E2,1.7E1,9.99E2,1.08E2,4.7E1,5.36E2,1.5E1,2E0,4E1,9.59E2,2.9E1,7.9E1,4.1E1,6E0,5.2E2,1.6E1,8E0,7E0,8E0,3.2E1,4.64E2,4.95E2,4E0,2.5E1,2.4E1,5.5E1,3.8E1,3E0,5E0,1E0,2.18E2,3.02E2,6E0,1E1,8E0,2.4E1,4.53E2,1.1E1,4E0,4.91E2,9E0,1.6E1,2.1E1,3E0,1.2E1,4.3E1],"tree_param":{"num_deleted":"0","num_feature":"10","num_nodes":"49","size_leaf_vector":"1"}},{"base_weights":[-5.563671E-7,-6.358419E-5,5.1619132E-5,-5.3552954E-5,-5.354669E-4,-4.2126924E-4,5.926485E-5,-6.607689E-5,3.8972052E-4,-6.944144E-4,3.4493798E-5,1.3131305E-4,-1.5416699E-4,1.8377975E-4,5.1903007E-5,-6.8582594E-4,-5.921341E-5,1.5396456E-4,-1.5669582E-4,-3.734182E-4,-1.2145436E-4,3.446587E-5,1.9939638E-4,-3.9304072E-5,-2.9775323E-4,-1.0208243E-5,-6.832007E-5,3.900625E-5,3.2493796E-7,4.8645346E-5,1.6242504E-4],"categories":[],"categories_nodes":[],"categories_segments":[],"categories_sizes":[],"default_left":[0,0,0,0,0,0,0,0,0,0,0,0,0,0,0,0,0,0,0,0,0,0,0,0,0,0,0,0,0,0,0],"id":12,"left_children":[1,3,5,7,9,11,13,15,17,19,-1,-1,-1,-1,21,23,25,-1,-1,-1,-1,27,29,-1,-1,-1,-1,-1,-1,-1,-1],"loss_changes":[5.620054E-6,3.6351046E-6,3.4055258E-6,4.2393626E-6,1.7340326E-6,1.4183242E-6,3.7199534E-6,3.1028273E-6,2.6333362E-6,1.5676537E-6,0E0,0E0,0E0,0E0,2.3335224E-6,1.2311875E-6,3.0991062E-6,0E0,0E0,0E0,0E0,2.599617E-6,1.1351171E-6,0E0,0E0,0E0,0E0,0E0,0E0,0E0,0E0],"parents":[2147483647,0,0,1,1,2,2,3,3,4,4,5,5,6,6,7,7,8,8,9,9,14,14,15,15,16,16,21,21,22,22],"right_children":[2,4,6,8,10,12,14,16,18,20,-1,-1,-1,-1,22,24,26,-1,-1,-1,-1,28,30,-1,-1,-1,-1,-1,-1,-1,-1],"split_conditions":[2.975855E-4,4.450567E-3,-2.072276E-3,3.4156898E-3,5.0998367E-3,-2.5358982E-3,-1.6276566E-3,-1.1333132E-2,1.8849596E-3,-6.879553E-3,3.4493798E-5,1.3131305E-4,-1.5416699E-4,1.8377975E-4,5.7035573E-3,-8.017256E-3,3.8231537E-4,1.5396456E-4,-1.5669582E-4,-3.734182E-4,-1.2145436E-4,1.2027435E-3,1.2320381E-2,-3.9304072E-5,-2.9775323E-4,-1.0208243E-5,-6.832007E-5,3.900625E-5,3.2493796E-7,4.8645346E-5,1.6242504E-4],"split_indices":[4,2,2,2,8,0,2,4,9,1,0,0,0,0,3,6,1,0,0,0,0,7,1,0,0,0,0,0,0,0,0],"split_type":[0,0,0,0,0,0,0,0,0,0,0,0,0,0,0,0,0,0,0,0,0,0,0,0,0,0,0,0,0,0,0],"sum_hessian":[1.707E3,7.73E2,9.34E2,7.58E2,1.5E1,1.4E1,9.2E2,7.38E2,2E1,1.2E1,3E0,1E0,1.3E1,1.1E1,9.09E2,7E0,7.31E2,1.8E1,2E0,3E0,9E0,8.14E2,9.5E1,3E0,4E0,6.37E2,9.4E1,2.1E2,6.04E2,8.7E1,8E0],"tree_param":{"num_deleted":"0","num_feature":"10","num_nodes":"31","size_leaf_vector":"1"}},{"base_weights":[-6.6312776E-7,-8.469786E-5,2.7414568E-5,-3.4276437E-4,-5.423512E-5,-2.9799298E-4,3.5990255E-5,6.3144624E-5,-4.332762E-4,1.7641607E-4,-6.598587E-5,9.882454E-5,-6.7219837E-4,4.4226996E-4,3.1026542E-5,5.191667E-5,-5.075157E-4,4.0756342E-5,-1.4451574E-4,-9.059819E-4,-7.794668E-5,-2.550944E-5,2.1432716E-4,-2.313697E-4,3.9776394E-5,-2.8341627E-4,-9.595202E-5,2.2321832E-5,-1.424387E-4,-4.9574384E-5,1.8466903E-4,-5.9027352E-5,-3.29722E-4,2.5967634E-5,-1.340786E-4,7.726375E-5,9.780628E-6],"categories":[],"categories_nodes":[],"categories_segments":[],"categories_sizes":[],"default_left":[0,0,0,0,0,0,0,0,0,0,0,0,0,0,0,0,0,0,0,0,0,0,0,0,0,0,0,0,0,0,0,0,0,0,0,0,0],"id":13,"left_children":[1,3,5,7,9,11,13,-1,15,-1,17,-1,19,21,23,-1,25,27,29,31,-1,-1,-1,33,35,-1,-1,-1,-1,-1,-1,-1,-1,-1,-1,-1,-1],"loss_changes":[4.0323503E-6,3.346095E-6,3.5854755E-6,2.3445868E-6,2.9369962E-6,7.969156E-6,2.5050813E-6,0E0,1.8433648E-6,0E0,3.1744564E-6,0E0,1.789148E-6,2.2133552E-6,2.8446748E-6,0E0,2.5696881E-6,2.8283882E-6,3.536989E-6,1.5640344E-6,0E0,0E0,0E0,2.7799788E-6,1.8601662E-6,0E0,0E0,0E0,0E0,0E0,0E0,0E0,0E0,0E0,0E0,0E0,0E0],"parents":[2147483647,0,0,1,1,2,2,3,3,4,4,5,5,6,6,8,8,10,10,12,12,13,13,14,14,16,16,17,17,18,18,19,19,23,23,24,24],"right_children":[2,4,6,8,10,12,14,-1,16,-1,18,-1,20,22,24,-1,26,28,30,32,-1,-1,-1,34,36,-1,-1,-1,-1,-1,-1,-1,-1,-1,-1,-1,-1],"split_conditions":[-1.0911338E-3,-4.8420243E-3,-6.587345E-3,-1.6506525E-2,-4.353568E-3,5.2937865E-4,-6.8838308E-3,6.3144624E-5,-4.1502155E-4,1.7641607E-4,3.106743E-4,9.882454E-5,2.2682059E-3,-8.503739E-3,-2.9275604E-3,5.191667E-5,-1.4104284E-2,2.2750013E-3,3.3051893E-3,-9.906411E-3,-7.794668E-5,-2.550944E-5,2.1432716E-4,1.4158711E-4,-2.3339055E-3,-2.8341627E-4,-9.595202E-5,2.2321832E-5,-1.424387E-4,-4.9574384E-5,1.8466903E-4,-5.9027352E-5,-3.29722E-4,2.5967634E-5,-1.340786E-4,7.726375E-5,9.780628E-6],"split_indices":[5,1,8,5,1,5,6,0,9,0,9,0,4,1,3,0,5,7,6,8,0,0,0,5,1,0,0,0,0,0,0,0,0,0,0,0,0],"split_type":[0,0,0,0,0,0,0,0,0,0,0,0,0,0,0,0,0,0,0,0,0,0,0,0,0,0,0,0,0,0,0,0,0,0,0,0,0],"sum_hessian":[1.707E3,4.27E2,1.28E3,4.4E1,3.83E2,3.2E1,1.248E3,6E0,3.8E1,6E0,3.77E2,1.2E1,2E1,1.4E1,1.234E3,4E0,3.4E1,1.6E2,2.17E2,1.2E1,8E0,5E0,9E0,3.9E1,1.195E3,9E0,2.5E1,1.51E2,9E0,2.12E2,5E0,3E0,9E0,1.6E1,2.3E1,3.7E1,1.158E3],"tree_param":{"num_deleted":"0","num_feature":"10","num_nodes":"37","size_leaf_vector":"1"}},{"base_weights":[-6.2404223E-7,-4.5258606E-5,3.4616885E-5,-3.1470994E-5,-5.2501337E-4,2.5357891E-5,4.261298E-4,-2.6229387E-5,-6.630809E-4,-4.140956E-4,-2.4256986E-4,3.033816E-4,1.643069E-5,-2.3619785E-4,5.2140513E-4,-3.6321697E-5,2.27736E-4,1.676113E-5,-3.1095726E-4,8.8015564E-5,-1.1351204E-4,4.84261E-4,-9.4818E-4,-1.0016734E-4,2.230333E-5,1.1431431E-4,8.810955E-4,-1.1982106E-5,1.8153564E-4,2.0038038E-4,1.4759015E-5,-7.9067837E-7,1.8009427E-4,-4.0590178E-4,3.9944694E-5,2.562533E-5,-1.2055789E-7,1.2045708E-4,-1.4660486E-4,4.307037E-4,1.0772809E-4],"categories":[],"categories_nodes":[],"categories_segments":[],"categories_sizes":[],"default_left":[0,0,0,0,0,0,0,0,0,0,0,0,0,0,0,0,0,0,0,0,0,0,0,0,0,0,0,0,0,0,0,0,0,0,0,0,0,0,0,0,0],"id":14,"left_children":[1,3,5,7,9,11,13,15,17,-1,19,21,23,-1,25,27,29,-1,-1,-1,-1,31,33,-1,35,37,39,-1,-1,-1,-1,-1,-1,-1,-1,-1,-1,-1,-1,-1,-1],"loss_changes":[2.6881883E-6,4.970941E-6,3.451084E-6,2.4126252E-6,4.7382596E-6,2.3131788E-6,2.9539892E-6,1.8767698E-6,1.6688366E-6,0E0,1.348348E-6,7.024236E-6,1.8713736E-6,0E0,2.9742378E-6,1.6536171E-6,2.1677367E-6,0E0,0E0,0E0,0E0,1.4707366E-6,1.9311517E-6,0E0,1.2782928E-6,2.1012677E-6,2.6688867E-6,0E0,0E0,0E0,0E0,0E0,0E0,0E0,0E0,0E0,0E0,0E0,0E0,0E0,0E0],"parents":[2147483647,0,0,1,1,2,2,3,3,4,4,5,5,6,6,7,7,8,8,10,10,11,11,12,12,14,14,15,15,16,16,21,21,22,22,24,24,25,25,26,26],"right_children":[2,4,6,8,10,12,14,16,18,-1,20,22,24,-1,26,28,30,-1,-1,-1,-1,32,34,-1,36,38,40,-1,-1,-1,-1,-1,-1,-1,-1,-1,-1,-1,-1,-1,-1],"split_conditions":[-2.1353178E-4,-2.9178523E-4,9.690952E-3,1.6738139E-3,-1.4828183E-3,3.2859296E-4,-7.645041E-4,-4.0117465E-4,1.9303672E-3,-4.140956E-4,-1.445964E-3,2.0765858E-3,-5.592471E-4,-2.3619785E-4,8.007053E-3,1.485791E-3,4.7832727E-5,1.676113E-5,-3.1095726E-4,8.8015564E-5,-1.1351204E-4,-1.2478791E-4,1.877658E-4,-1.0016734E-4,5.1007234E-4,4.045589E-3,3.6780573E-3,-1.1982106E-5,1.8153564E-4,2.0038038E-4,1.4759015E-5,-7.9067837E-7,1.8009427E-4,-4.0590178E-4,3.9944694E-5,2.562533E-5,-1.2055789E-7,1.2045708E-4,-1.4660486E-4,4.307037E-4,1.0772809E-4],"split_indices":[6,6,8,7,2,7,9,6,8,0,0,2,4,0,5,7,5,0,0,0,0,6,0,0,6,6,1,0,0,0,0,0,0,0,0,0,0,0,0,0,0],"split_type":[0,0,0,0,0,0,0,0,0,0,0,0,0,0,0,0,0,0,0,0,0,0,0,0,0,0,0,0,0,0,0,0,0,0,0,0,0,0,0,0,0],"sum_hessian":[1.707E3,7.53E2,9.54E2,7.33E2,2E1,9.33E2,2.1E1,7.28E2,5E0,4E0,1.6E1,2.8E1,9.05E2,1E0,2E1,7.01E2,2.7E1,2E0,3E0,3E0,1.3E1,2.5E1,3E0,1.4E1,8.91E2,1E1,1E1,6.98E2,3E0,7E0,2E1,5E0,2E1,2E0,1E0,2.35E2,6.56E2,7E0,3E0,4E0,6E0],"tree_param":{"num_deleted":"0","num_feature":"10","num_nodes":"41","size_leaf_vector":"1"}},{"base_weights":[-6.325617E-7,-2.4064037E-5,5.460988E-5,-1.7240407E-6,-1.1677242E-4,1.88471E-4,4.7672638E-5,-1.4953718E-4,1.45323E-5,-5.4223776E-5,-2.8841104E-4,1.4990628E-4,2.4479916E-5,-9.511738E-5,-5.614068E-4,7.318061E-5,2.3536656E-6,-3.7276672E-4,-2.5509255E-6,-5.525356E-4,-8.230622E-5,5.205885E-5,3.4392183E-4,-3.7702528E-4,4.377971E-5,-8.037974E-5,8.620437E-6,-2.2526823E-4,-1.2624159E-5,-1.7698288E-4,3.0888714E-6,-1.674862E-5,-1.9099515E-4,1.9526033E-5,-8.540263E-5,-3.2734903E-4,-8.0494574E-5,8.453273E-6,-1.4175652E-4,1.19944E-4,-1.7378856E-6,4.5808512E-5,2.933229E-4,-2.1145967E-4,-3.4447564E-6,1.5012632E-4,1.02680915E-5],"categories":[],"categories_nodes":[],"categories_segments":[],"categories_sizes":[],"default_left":[0,0,0,0,0,0,0,0,0,0,0,0,0,0,0,0,0,0,0,0,0,0,0,0,0,0,0,0,0,0,0,0,0,0,0,0,0,0,0,0,0,0,0,0,0,0,0],"id":15,"left_children":[1,3,5,7,9,-1,11,13,15,17,19,21,23,25,27,-1,29,31,33,35,37,39,41,43,45,-1,-1,-1,-1,-1,-1,-1,-1,-1,-1,-1,-1,-1,-1,-1,-1,-1,-1,-1,-1,-1,-1],"loss_changes":[2.2121699E-6,2.4851245E-6,1.9955587E-6,2.328181E-6,2.4857939E-6,0E0,1.1913529E-6,2.0983316E-6,2.4384271E-6,2.8301727E-6,3.3296378E-6,1.7476004E-6,3.2090807E-6,1.848402E-6,1.050865E-6,0E0,3.9106917E-6,1.9716922E-6,2.861784E-6,3.840627E-6,1.5653642E-6,1.2697641E-6,3.6080148E-6,2.2688594E-6,1.7015695E-6,0E0,0E0,0E0,0E0,0E0,0E0,0E0,0E0,0E0,0E0,0E0,0E0,0E0,0E0,0E0,0E0,0E0,0E0,0E0,0E0,0E0,0E0],"parents":[2147483647,0,0,1,1,2,2,3,3,4,4,6,6,7,7,8,8,9,9,10,10,11,11,12,12,13,13,14,14,16,16,17,17,18,18,19,19,20,20,21,21,22,22,23,23,24,24],"right_children":[2,4,6,8,10,-1,12,14,16,18,20,22,24,26,28,-1,30,32,34,36,38,40,42,44,46,-1,-1,-1,-1,-1,-1,-1,-1,-1,-1,-1,-1,-1,-1,-1,-1,-1,-1,-1,-1,-1,-1],"split_conditions":[1.8252791E-3,2.1571587E-3,-3.2220483E-3,-4.220646E-3,1.3249703E-3,1.88471E-4,2.0955391E-3,-2.4898835E-3,-2.5931448E-3,7.056594E-4,3.5782978E-3,7.528607E-4,2.1804757E-3,-9.107344E-3,-2.959799E-3,7.318061E-5,-2.9132403E-3,-2.1353178E-4,5.906295E-3,8.315081E-4,4.450567E-3,-4.9084425E-4,4.3154396E-3,2.2071227E-3,1.8626363E-3,-8.037974E-5,8.620437E-6,-2.2526823E-4,-1.2624159E-5,-1.7698288E-4,3.0888714E-6,-1.674862E-5,-1.9099515E-4,1.9526033E-5,-8.540263E-5,-3.2734903E-4,-8.0494574E-5,8.453273E-6,-1.4175652E-4,1.19944E-4,-1.7378856E-6,4.5808512E-5,2.933229E-4,-2.1145967E-4,-3.4447564E-6,1.5012632E-4,1.02680915E-5],"split_indices":[4,2,6,4,9,0,1,7,7,5,5,6,1,5,1,0,6,6,8,4,2,5,8,0,4,0,0,0,0,0,0,0,0,0,0,0,0,0,0,0,0,0,0,0,0,0,0],"split_type":[0,0,0,0,0,0,0,0,0,0,0,0,0,0,0,0,0,0,0,0,0,0,0,0,0,0,0,0,0,0,0,0,0,0,0,0,0,0,0,0,0,0,0,0,0,0,0],"sum_hessian":[1.707E3,1.199E3,5.08E2,9.67E2,2.32E2,5E0,5.03E2,9.5E1,8.72E2,1.71E2,6.1E1,9.2E1,4.11E2,8.5E1,1E1,4.3E1,8.29E2,2.3E1,1.48E2,2.6E1,3.5E1,6.2E1,3E1,1.8E1,3.93E2,3.5E1,5E1,7E0,3E0,1E1,8.19E2,1.1E1,1.2E1,1.2E2,2.8E1,8E0,1.8E1,2.8E1,7E0,8E0,5.4E1,2.4E1,6E0,9E0,9E0,7E0,3.86E2],"tree_param":{"num_deleted":"0","num_feature":"10","num_nodes":"47","size_leaf_vector":"1"}},{"base_weights":[-8.138881E-7,-9.613466E-6,1.1365943E-4,-6.394898E-6,-1.9322372E-4,2.8150505E-4,-6.809834E-6,-1.8024384E-5,7.980866E-5,-1.452342E-4,3.5696442E-4,1.609353E-4,-1.9902308E-4,-9.02483E-6,-3.0729515E-4,3.4683102E-4,4.048536E-5,-2.5093706E-5,4.7440146E-4,4.403217E-5,1.4866535E-4,-6.6883245E-4,-7.4462776E-5,-3.747425E-6,4.6618408E-4,-1.416591E-4,-2.9452E-6,1.8654246E-4,-5.4166212E-5,-1.3348207E-4,1.944229E-5,7.7326345E-5,-1.9656861E-4,1.07901265E-4,2.6949972E-4,1.06780666E-4,-3.8914884E-5,-1.08197155E-5,-2.744178E-4,-1.9308164E-4,3.3003824E-5],"categories":[],"categories_nodes":[],"categories_segments":[],"categories_sizes":[],"default_left":[0,0,0,0,0,0,0,0,0,0,0,0,0,0,0,0,0,0,0,0,0,0,0,0,0,0,0,0,0,0,0,0,0,0,0,0,0,0,0,0,0],"id":16,"left_children":[1,3,5,7,-1,9,11,13,15,-1,17,19,21,23,25,27,29,31,33,35,-1,37,39,-1,-1,-1,-1,-1,-1,-1,-1,-1,-1,-1,-1,-1,-1,-1,-1,-1,-1],"loss_changes":[1.72159E-6,3.236648E-6,2.468786E-6,1.5853934E-6,0E0,3.1192408E-6,2.3535142E-6,3.6236345E-6,1.9599963E-6,0E0,2.1206902E-6,1.5037677E-6,1.9398635E-6,7.3447836E-6,2.0556595E-6,3.5927221E-6,1.9769336E-6,2.3076784E-6,1.4278594E-6,1.6719525E-6,0E0,1.056163E-6,3.0106057E-6,0E0,0E0,0E0,0E0,0E0,0E0,0E0,0E0,0E0,0E0,0E0,0E0,0E0,0E0,0E0,0E0,0E0,0E0],"parents":[2147483647,0,0,1,1,2,2,3,3,5,5,6,6,7,7,8,8,10,10,11,11,12,12,13,13,14,14,15,15,16,16,17,17,18,18,19,19,21,21,22,22],"right_children":[2,4,6,8,-1,10,12,14,16,-1,18,20,22,24,26,28,30,32,34,36,-1,38,40,-1,-1,-1,-1,-1,-1,-1,-1,-1,-1,-1,-1,-1,-1,-1,-1,-1,-1],"split_conditions":[7.4027292E-3,7.091511E-3,1.0763407E-3,3.3223107E-3,-1.9322372E-4,-1.328513E-4,5.8602868E-3,2.9930733E-3,2.4999268E-3,-1.452342E-4,3.232967E-3,2.9672794E-3,3.8391873E-3,4.887756E-3,1.30748E-3,1.5004091E-3,2.7124677E-3,6.2067807E-4,9.3058385E-3,1.5245229E-3,1.4866535E-4,7.606782E-4,1.2148693E-3,-3.747425E-6,4.6618408E-4,-1.416591E-4,-2.9452E-6,1.8654246E-4,-5.4166212E-5,-1.3348207E-4,1.944229E-5,7.7326345E-5,-1.9656861E-4,1.07901265E-4,2.6949972E-4,1.06780666E-4,-3.8914884E-5,-1.08197155E-5,-2.744178E-4,-1.9308164E-4,3.3003824E-5],"split_indices":[8,8,9,4,0,9,2,1,3,0,5,0,3,0,9,9,3,9,8,9,0,0,9,0,0,0,0,0,0,0,0,0,0,0,0,0,0,0,0,0,0],"split_type":[0,0,0,0,0,0,0,0,0,0,0,0,0,0,0,0,0,0,0,0,0,0,0,0,0,0,0,0,0,0,0,0,0,0,0,0,0,0,0,0,0],"sum_hessian":[1.707E3,1.586E3,1.21E2,1.579E3,7E0,5E1,7.1E1,1.392E3,1.87E2,4E0,4.6E1,3.8E1,3.3E1,1.351E3,4.1E1,2.3E1,1.64E2,1.1E1,3.5E1,2.9E1,9E0,6E0,2.7E1,1.349E3,2E0,2.6E1,1.5E1,1.5E1,8E0,7E0,1.57E2,8E0,3E0,2.9E1,6E0,1E1,1.9E1,2E0,4E0,6E0,2.1E1],"tree_param":{"num_deleted":"0","num_feature":"10","num_nodes":"41","size_leaf_vector":"1"}},{"base_weights":[-5.53854E-7,-6.662615E-5,1.1355968E-5,-7.749759E-6,-2.820174E-4,1.6977955E-4,1.228062E-6,-6.064442E-5,1.4226195E-4,-1.9560325E-4,-8.589731E-4,8.451694E-4,1.3559694E-4,3.156818E-4,-3.1735843E-7,-4.287805E-5,-2.1351664E-4,2.396861E-4,-9.311185E-5,-2.874913E-4,6.0209448E-5,-3.3850697E-4,-3.710286E-5,3.6203844E-4,-3.5955993E-5,-1.0302092E-4,2.844199E-4,-1.2653519E-4,1.5303924E-5,-2.3019233E-5,8.743733E-5,3.38024E-5,3.1394442E-4,-5.1448453E-5,-2.0426049E-4,4.1396255E-5,-8.6360575E-5,1.9793937E-4,5.0284823E-5,-2.6340154E-5,-1.4078821E-4,-2.455583E-4,5.622763E-6],"categories":[],"categories_nodes":[],"categories_segments":[],"categories_sizes":[],"default_left":[0,0,0,0,0,0,0,0,0,0,0,0,0,0,0,0,0,0,0,0,0,0,0,0,0,0,0,0,0,0,0,0,0,0,0,0,0,0,0,0,0,0,0],"id":17,"left_children":[1,3,5,7,9,11,13,15,17,19,21,23,25,-1,27,29,-1,31,-1,33,-1,-1,-1,-1,-1,35,37,39,41,-1,-1,-1,-1,-1,-1,-1,-1,-1,-1,-1,-1,-1,-1],"loss_changes":[1.3447975E-6,3.3076753E-6,2.3231062E-6,1.6432002E-6,2.623981E-6,1.8939304E-6,2.2126383E-6,1.7392774E-6,2.4556598E-6,1.8784674E-6,1.2469868E-6,1.5405451E-6,3.0122935E-6,0E0,2.6853986E-6,1.7200905E-6,0E0,4.4933377E-6,0E0,1.7540785E-6,0E0,0E0,0E0,0E0,0E0,1.509867E-6,2.1693772E-6,1.9502943E-6,3.4904247E-6,0E0,0E0,0E0,0E0,0E0,0E0,0E0,0E0,0E0,0E0,0E0,0E0,0E0,0E0],"parents":[2147483647,0,0,1,1,2,2,3,3,4,4,5,5,6,6,7,7,8,8,9,9,10,10,11,11,12,12,14,14,15,15,17,17,19,19,25,25,26,26,27,27,28,28],"right_children":[2,4,6,8,10,12,14,16,18,20,22,24,26,-1,28,30,-1,32,-1,34,-1,-1,-1,-1,-1,36,38,40,42,-1,-1,-1,-1,-1,-1,-1,-1,-1,-1,-1,-1,-1,-1],"split_conditions":[-2.1858094E-3,-2.2445135E-3,-1.6352348E-3,-3.3077896E-3,-1.9977018E-3,-7.3726512E-3,-3.7398115E-3,-9.067394E-4,-1.2914203E-3,-1.8008053E-4,4.3154396E-3,-1.833979E-3,-5.4810196E-5,3.156818E-4,-8.699782E-4,-2.7490035E-3,-2.1351664E-4,-1.6359743E-3,-9.311185E-5,-1.1418648E-3,6.0209448E-5,-3.3850697E-4,-3.710286E-5,3.6203844E-4,-3.5955993E-5,8.7310374E-4,-1.3107844E-3,2.0765858E-3,-2.4654642E-3,-2.3019233E-5,8.743733E-5,3.38024E-5,3.1394442E-4,-5.1448453E-5,-2.0426049E-4,4.1396255E-5,-8.6360575E-5,1.9793937E-4,5.0284823E-5,-2.6340154E-5,-1.4078821E-4,-2.455583E-4,5.622763E-6],"split_indices":[4,1,1,4,3,8,3,3,7,2,8,0,5,0,4,3,0,6,0,7,0,0,0,0,0,9,3,2,3,0,0,0,0,0,0,0,0,0,0,0,0,0,0],"split_type":[0,0,0,0,0,0,0,0,0,0,0,0,0,0,0,0,0,0,0,0,0,0,0,0,0,0,0,0,0,0,0,0,0,0,0,0,0,0,0,0,0,0,0],"sum_hessian":[1.707E3,2.6E2,1.447E3,2.05E2,5.5E1,8.6E1,1.361E3,1.52E2,5.3E1,4.9E1,6E0,3E0,8.3E1,1E0,1.36E3,1.49E2,3E0,4.4E1,9E0,4E1,9E0,4E0,2E0,2E0,1E0,3.2E1,5.1E1,1.49E2,1.211E3,1.36E2,1.3E1,3.9E1,5E0,3.2E1,8E0,1.4E1,1.8E1,1.1E1,4E1,1.35E2,1.4E1,4E0,1.207E3],"tree_param":{"num_deleted":"0","num_feature":"10","num_nodes":"43","size_leaf_vector":"1"}},{"base_weights":[-4.0387314E-7,3.6233064E-4,-2.1096182E-6,-6.861985E-6,2.2597588E-4,-3.9048507E-4,3.338265E-7,1.064199E-4,-2.53173E-4],"categories":[],"categories_nodes":[],"categories_segments":[],"categories_sizes":[],"default_left":[0,0,0,0,0,0,0,0,0],"id":18,"left_children":[1,3,5,-1,-1,7,-1,-1,-1],"loss_changes":[1.0575596E-6,1.2219078E-6,2.12922E-6,0E0,0E0,5.0299677E-6,0E0,0E0,0E0],"parents":[2147483647,0,0,1,1,2,2,5,5],"right_children":[2,4,6,-1,-1,8,-1,-1,-1],"split_conditions":[-1.6506525E-2,-7.906143E-3,-1.4104284E-2,-6.861985E-6,2.2597588E-4,-1.1777375E-2,3.338265E-7,1.064199E-4,-2.53173E-4],"split_indices":[5,1,5,0,0,0,0,0,0],"split_type":[0,0,0,0,0,0,0,0,0],"sum_hessian":[1.707E3,7E0,1.7E3,4E0,3E0,1.3E1,1.687E3,5E0,8E0],"tree_param":{"num_deleted":"0","num_feature":"10","num_nodes":"9","size_leaf_vector":"1"}},{"base_weights":[-2.4016117E-7],"categories":[],"categories_nodes":[],"categories_segments":[],"categories_sizes":[],"default_left":[0],"id":19,"left_children":[-1],"loss_changes":[0E0],"parents":[2147483647],"right_children":[-1],"split_conditions":[-7.204835E-8],"split_indices":[0],"split_type":[0],"sum_hessian":[1.707E3],"tree_param":{"num_deleted":"0","num_feature":"10","num_nodes":"1","size_leaf_vector":"1"}},{"base_weights":[-1.6818161E-7],"categories":[],"categories_nodes":[],"categories_segments":[],"categories_sizes":[],"default_left":[0],"id":20,"left_children":[-1],"loss_changes":[0E0],"parents":[2147483647],"right_children":[-1],"split_conditions":[-5.0454485E-8],"split_indices":[0],"split_type":[0],"sum_hessian":[1.707E3],"tree_param":{"num_deleted":"0","num_feature":"10","num_nodes":"1","size_leaf_vector":"1"}},{"base_weights":[-1.1778036E-7],"categories":[],"categories_nodes":[],"categories_segments":[],"categories_sizes":[],"default_left":[0],"id":21,"left_children":[-1],"loss_changes":[0E0],"parents":[2147483647],"right_children":[-1],"split_conditions":[-3.533411E-8],"split_indices":[0],"split_type":[0],"sum_hessian":[1.707E3],"tree_param":{"num_deleted":"0","num_feature":"10","num_nodes":"1","size_leaf_vector":"1"}},{"base_weights":[-8.242637E-8],"categories":[],"categories_nodes":[],"categories_segments":[],"categories_sizes":[],"default_left":[0],"id":22,"left_children":[-1],"loss_changes":[0E0],"parents":[2147483647],"right_children":[-1],"split_conditions":[-2.4727912E-8],"split_indices":[0],"split_type":[0],"sum_hessian":[1.707E3],"tree_param":{"num_deleted":"0","num_feature":"10","num_nodes":"1","size_leaf_vector":"1"}},{"base_weights":[-5.7715944E-8],"categories":[],"categories_nodes":[],"categories_segments":[],"categories_sizes":[],"default_left":[0],"id":23,"left_children":[-1],"loss_changes":[0E0],"parents":[2147483647],"right_children":[-1],"split_conditions":[-1.7314784E-8],"split_indices":[0],"split_type":[0],"sum_hessian":[1.707E3],"tree_param":{"num_deleted":"0","num_feature":"10","num_nodes":"1","size_leaf_vector":"1"}},{"base_weights":[-4.041617E-8],"categories":[],"categories_nodes":[],"categories_segments":[],"categories_sizes":[],"default_left":[0],"id":24,"left_children":[-1],"loss_changes":[0E0],"parents":[2147483647],"right_children":[-1],"split_conditions":[-1.2124852E-8],"split_indices":[0],"split_type":[0],"sum_hessian":[1.707E3],"tree_param":{"num_deleted":"0","num_feature":"10","num_nodes":"1","size_leaf_vector":"1"}},{"base_weights":[-2.831206E-8],"categories":[],"categories_nodes":[],"categories_segments":[],"categories_sizes":[],"default_left":[0],"id":25,"left_children":[-1],"loss_changes":[0E0],"parents":[2147483647],"right_children":[-1],"split_conditions":[-8.493618E-9],"split_indices":[0],"split_type":[0],"sum_hessian":[1.707E3],"tree_param":{"num_deleted":"0","num_feature":"10","num_nodes":"1","size_leaf_vector":"1"}},{"base_weights":[-1.9872406E-8],"categories":[],"categories_nodes":[],"categories_segments":[],"categories_sizes":[],"default_left":[0],"id":26,"left_children":[-1],"loss_changes":[0E0],"parents":[2147483647],"right_children":[-1],"split_conditions":[-5.9617222E-9],"split_indices":[0],"split_type":[0],"sum_hessian":[1.707E3],"tree_param":{"num_deleted":"0","num_feature":"10","num_nodes":"1","size_leaf_vector":"1"}},{"base_weights":[-1.3911204E-8],"categories":[],"categories_nodes":[],"categories_segments":[],"categories_sizes":[],"default_left":[0],"id":27,"left_children":[-1],"loss_changes":[0E0],"parents":[2147483647],"right_children":[-1],"split_conditions":[-4.173361E-9],"split_indices":[0],"split_type":[0],"sum_hessian":[1.707E3],"tree_param":{"num_deleted":"0","num_feature":"10","num_nodes":"1","size_leaf_vector":"1"}},{"base_weights":[-9.756729E-9],"categories":[],"categories_nodes":[],"categories_segments":[],"categories_sizes":[],"default_left":[0],"id":28,"left_children":[-1],"loss_changes":[0E0],"parents":[2147483647],"right_children":[-1],"split_conditions":[-2.9270188E-9],"split_indices":[0],"split_type":[0],"sum_hessian":[1.707E3],"tree_param":{"num_deleted":"0","num_feature":"10","num_nodes":"1","size_leaf_vector":"1"}},{"base_weights":[-6.835907E-9],"categories":[],"categories_nodes":[],"categories_segments":[],"categories_sizes":[],"default_left":[0],"id":29,"left_children":[-1],"loss_changes":[0E0],"parents":[2147483647],"right_children":[-1],"split_conditions":[-2.0507722E-9],"split_indices":[0],"split_type":[0],"sum_hessian":[1.707E3],"tree_param":{"num_deleted":"0","num_feature":"10","num_nodes":"1","size_leaf_vector":"1"}},{"base_weights":[-4.8016053E-9],"categories":[],"categories_nodes":[],"categories_segments":[],"categories_sizes":[],"default_left":[0],"id":30,"left_children":[-1],"loss_changes":[0E0],"parents":[2147483647],"right_children":[-1],"split_conditions":[-1.4404816E-9],"split_indices":[0],"split_type":[0],"sum_hessian":[1.707E3],"tree_param":{"num_deleted":"0","num_feature":"10","num_nodes":"1","size_leaf_vector":"1"}},{"base_weights":[-3.3615963E-9],"categories":[],"categories_nodes":[],"categories_segments":[],"categories_sizes":[],"default_left":[0],"id":31,"left_children":[-1],"loss_changes":[0E0],"parents":[2147483647],"right_children":[-1],"split_conditions":[-1.008479E-9],"split_indices":[0],"split_type":[0],"sum_hessian":[1.707E3],"tree_param":{"num_deleted":"0","num_feature":"10","num_nodes":"1","size_leaf_vector":"1"}},{"base_weights":[-2.3800135E-9],"categories":[],"categories_nodes":[],"categories_segments":[],"categories_sizes":[],"default_left":[0],"id":32,"left_children":[-1],"loss_changes":[0E0],"parents":[2147483647],"right_children":[-1],"split_conditions":[-7.140041E-10],"split_indices":[0],"split_type":[0],"sum_hessian":[1.707E3],"tree_param":{"num_deleted":"0","num_feature":"10","num_nodes":"1","size_leaf_vector":"1"}},{"base_weights":[-1.6345116E-9],"categories":[],"categories_nodes":[],"categories_segments":[],"categories_sizes":[],"default_left":[0],"id":33,"left_children":[-1],"loss_changes":[0E0],"parents":[2147483647],"right_children":[-1],"split_conditions":[-4.9035354E-10],"split_indices":[0],"split_type":[0],"sum_hessian":[1.707E3],"tree_param":{"num_deleted":"0","num_feature":"10","num_nodes":"1","size_leaf_vector":"1"}},{"base_weights":[-1.1349642E-9],"categories":[],"categories_nodes":[],"categories_segments":[],"categories_sizes":[],"default_left":[0],"id":34,"left_children":[-1],"loss_changes":[0E0],"parents":[2147483647],"right_children":[-1],"split_conditions":[-3.4048928E-10],"split_indices":[0],"split_type":[0],"sum_hessian":[1.707E3],"tree_param":{"num_deleted":"0","num_feature":"10","num_nodes":"1","size_leaf_vector":"1"}},{"base_weights":[-8.2653046E-10],"categories":[],"categories_nodes":[],"categories_segments":[],"categories_sizes":[],"default_left":[0],"id":35,"left_children":[-1],"loss_changes":[0E0],"parents":[2147483647],"right_children":[-1],"split_conditions":[-2.4795915E-10],"split_indices":[0],"split_type":[0],"sum_hessian":[1.707E3],"tree_param":{"num_deleted":"0","num_feature":"10","num_nodes":"1","size_leaf_vector":"1"}},{"base_weights":[-5.759737E-10],"categories":[],"categories_nodes":[],"categories_segments":[],"categories_sizes":[],"default_left":[0],"id":36,"left_children":[-1],"loss_changes":[0E0],"parents":[2147483647],"right_children":[-1],"split_conditions":[-1.7279211E-10],"split_indices":[0],"split_type":[0],"sum_hessian":[1.707E3],"tree_param":{"num_deleted":"0","num_feature":"10","num_nodes":"1","size_leaf_vector":"1"}},{"base_weights":[-4.353418E-10],"categories":[],"categories_nodes":[],"categories_segments":[],"categories_sizes":[],"default_left":[0],"id":37,"left_children":[-1],"loss_changes":[0E0],"parents":[2147483647],"right_children":[-1],"split_conditions":[-1.3060254E-10],"split_indices":[0],"split_type":[0],"sum_hessian":[1.707E3],"tree_param":{"num_deleted":"0","num_feature":"10","num_nodes":"1","size_leaf_vector":"1"}},{"base_weights":[-3.0985706E-10],"categories":[],"categories_nodes":[],"categories_segments":[],"categories_sizes":[],"default_left":[0],"id":38,"left_children":[-1],"loss_changes":[0E0],"parents":[2147483647],"right_children":[-1],"split_conditions":[-9.295712E-11],"split_indices":[0],"split_type":[0],"sum_hessian":[1.707E3],"tree_param":{"num_deleted":"0","num_feature":"10","num_nodes":"1","size_leaf_vector":"1"}},{"base_weights":[-2.512181E-10],"categories":[],"categories_nodes":[],"categories_segments":[],"categories_sizes":[],"default_left":[0],"id":39,"left_children":[-1],"loss_changes":[0E0],"parents":[2147483647],"right_children":[-1],"split_conditions":[-7.5365436E-11],"split_indices":[0],"split_type":[0],"sum_hessian":[1.707E3],"tree_param":{"num_deleted":"0","num_feature":"10","num_nodes":"1","size_leaf_vector":"1"}},{"base_weights":[-2.0173956E-10],"categories":[],"categories_nodes":[],"categories_segments":[],"categories_sizes":[],"default_left":[0],"id":40,"left_children":[-1],"loss_changes":[0E0],"parents":[2147483647],"right_children":[-1],"split_conditions":[-6.052187E-11],"split_indices":[0],"split_type":[0],"sum_hessian":[1.707E3],"tree_param":{"num_deleted":"0","num_feature":"10","num_nodes":"1","size_leaf_vector":"1"}},{"base_weights":[-1.5528132E-10],"categories":[],"categories_nodes":[],"categories_segments":[],"categories_sizes":[],"default_left":[0],"id":41,"left_children":[-1],"loss_changes":[0E0],"parents":[2147483647],"right_children":[-1],"split_conditions":[-4.6584396E-11],"split_indices":[0],"split_type":[0],"sum_hessian":[1.707E3],"tree_param":{"num_deleted":"0","num_feature":"10","num_nodes":"1","size_leaf_vector":"1"}},{"base_weights":[-1.4066709E-10],"categories":[],"categories_nodes":[],"categories_segments":[],"categories_sizes":[],"default_left":[0],"id":42,"left_children":[-1],"loss_changes":[0E0],"parents":[2147483647],"right_children":[-1],"split_conditions":[-4.220013E-11],"split_indices":[0],"split_type":[0],"sum_hessian":[1.707E3],"tree_param":{"num_deleted":"0","num_feature":"10","num_nodes":"1","size_leaf_vector":"1"}},{"base_weights":[-1.279576E-10],"categories":[],"categories_nodes":[],"categories_segments":[],"categories_sizes":[],"default_left":[0],"id":43,"left_children":[-1],"loss_changes":[0E0],"parents":[2147483647],"right_children":[-1],"split_conditions":[-3.8387283E-11],"split_indices":[0],"split_type":[0],"sum_hessian":[1.707E3],"tree_param":{"num_deleted":"0","num_feature":"10","num_nodes":"1","size_leaf_vector":"1"}},{"base_weights":[-1.1583597E-10],"categories":[],"categories_nodes":[],"categories_segments":[],"categories_sizes":[],"default_left":[0],"id":44,"left_children":[-1],"loss_changes":[0E0],"parents":[2147483647],"right_children":[-1],"split_conditions":[-3.4750793E-11],"split_indices":[0],"split_type":[0],"sum_hessian":[1.707E3],"tree_param":{"num_deleted":"0","num_feature":"10","num_nodes":"1","size_leaf_vector":"1"}},{"base_weights":[-1.041659E-10],"categories":[],"categories_nodes":[],"categories_segments":[],"categories_sizes":[],"default_left":[0],"id":45,"left_children":[-1],"loss_changes":[0E0],"parents":[2147483647],"right_children":[-1],"split_conditions":[-3.124977E-11],"split_indices":[0],"split_type":[0],"sum_hessian":[1.707E3],"tree_param":{"num_deleted":"0","num_feature":"10","num_nodes":"1","size_leaf_vector":"1"}},{"base_weights":[-9.224875E-11],"categories":[],"categories_nodes":[],"categories_segments":[],"categories_sizes":[],"default_left":[0],"id":46,"left_children":[-1],"loss_changes":[0E0],"parents":[2147483647],"right_children":[-1],"split_conditions":[-2.7674626E-11],"split_indices":[0],"split_type":[0],"sum_hessian":[1.707E3],"tree_param":{"num_deleted":"0","num_feature":"10","num_nodes":"1","size_leaf_vector":"1"}},{"base_weights":[-8.807615E-11],"categories":[],"categories_nodes":[],"categories_segments":[],"categories_sizes":[],"default_left":[0],"id":47,"left_children":[-1],"loss_changes":[0E0],"parents":[2147483647],"right_children":[-1],"split_conditions":[-2.6422847E-11],"split_indices":[0],"split_type":[0],"sum_hessian":[1.707E3],"tree_param":{"num_deleted":"0","num_feature":"10","num_nodes":"1","size_leaf_vector":"1"}},{"base_weights":[-8.419908E-11],"categories":[],"categories_nodes":[],"categories_segments":[],"categories_sizes":[],"default_left":[0],"id":48,"left_children":[-1],"loss_changes":[0E0],"parents":[2147483647],"right_children":[-1],"split_conditions":[-2.5259725E-11],"split_indices":[0],"split_type":[0],"sum_hessian":[1.707E3],"tree_param":{"num_deleted":"0","num_feature":"10","num_nodes":"1","size_leaf_vector":"1"}},{"base_weights":[-8.004565E-11],"categories":[],"categories_nodes":[],"categories_segments":[],"categories_sizes":[],"default_left":[0],"id":49,"left_children":[-1],"loss_changes":[0E0],"parents":[2147483647],"right_children":[-1],"split_conditions":[-2.4013696E-11],"split_indices":[0],"split_type":[0],"sum_hessian":[1.707E3],"tree_param":{"num_deleted":"0","num_feature":"10","num_nodes":"1","size_leaf_vector":"1"}},{"base_weights":[-7.625112E-11],"categories":[],"categories_nodes":[],"categories_segments":[],"categories_sizes":[],"default_left":[0],"id":50,"left_children":[-1],"loss_changes":[0E0],"parents":[2147483647],"right_children":[-1],"split_conditions":[-2.2875335E-11],"split_indices":[0],"split_type":[0],"sum_hessian":[1.707E3],"tree_param":{"num_deleted":"0","num_feature":"10","num_nodes":"1","size_leaf_vector":"1"}},{"base_weights":[-7.2097155E-11],"categories":[],"categories_nodes":[],"categories_segments":[],"categories_sizes":[],"default_left":[0],"id":51,"left_children":[-1],"loss_changes":[0E0],"parents":[2147483647],"right_children":[-1],"split_conditions":[-2.1629146E-11],"split_indices":[0],"split_type":[0],"sum_hessian":[1.707E3],"tree_param":{"num_deleted":"0","num_feature":"10","num_nodes":"1","size_leaf_vector":"1"}},{"base_weights":[-6.878293E-11],"categories":[],"categories_nodes":[],"categories_segments":[],"categories_sizes":[],"default_left":[0],"id":52,"left_children":[-1],"loss_changes":[0E0],"parents":[2147483647],"right_children":[-1],"split_conditions":[-2.063488E-11],"split_indices":[0],"split_type":[0],"sum_hessian":[1.707E3],"tree_param":{"num_deleted":"0","num_feature":"10","num_nodes":"1","size_leaf_vector":"1"}},{"base_weights":[-6.557574E-11],"categories":[],"categories_nodes":[],"categories_segments":[],"categories_sizes":[],"default_left":[0],"id":53,"left_children":[-1],"loss_changes":[0E0],"parents":[2147483647],"right_children":[-1],"split_conditions":[-1.9672722E-11],"split_indices":[0],"split_type":[0],"sum_hessian":[1.707E3],"tree_param":{"num_deleted":"0","num_feature":"10","num_nodes":"1","size_leaf_vector":"1"}},{"base_weights":[-6.241381E-11],"categories":[],"categories_nodes":[],"categories_segments":[],"categories_sizes":[],"default_left":[0],"id":54,"left_children":[-1],"loss_changes":[0E0],"parents":[2147483647],"right_children":[-1],"split_conditions":[-1.8724144E-11],"split_indices":[0],"split_type":[0],"sum_hessian":[1.707E3],"tree_param":{"num_deleted":"0","num_feature":"10","num_nodes":"1","size_leaf_vector":"1"}},{"base_weights":[-5.8876466E-11],"categories":[],"categories_nodes":[],"categories_segments":[],"categories_sizes":[],"default_left":[0],"id":55,"left_children":[-1],"loss_changes":[0E0],"parents":[2147483647],"right_children":[-1],"split_conditions":[-1.766294E-11],"split_indices":[0],"split_type":[0],"sum_hessian":[1.707E3],"tree_param":{"num_deleted":"0","num_feature":"10","num_nodes":"1","size_leaf_vector":"1"}},{"base_weights":[-5.5806658E-11],"categories":[],"categories_nodes":[],"categories_segments":[],"categories_sizes":[],"default_left":[0],"id":56,"left_children":[-1],"loss_changes":[0E0],"parents":[2147483647],"right_children":[-1],"split_conditions":[-1.6741998E-11],"split_indices":[0],"split_type":[0],"sum_hessian":[1.707E3],"tree_param":{"num_deleted":"0","num_feature":"10","num_nodes":"1","size_leaf_vector":"1"}},{"base_weights":[-5.2702235E-11],"categories":[],"categories_nodes":[],"categories_segments":[],"categories_sizes":[],"default_left":[0],"id":57,"left_children":[-1],"loss_changes":[0E0],"parents":[2147483647],"right_children":[-1],"split_conditions":[-1.581067E-11],"split_indices":[0],"split_type":[0],"sum_hessian":[1.707E3],"tree_param":{"num_deleted":"0","num_feature":"10","num_nodes":"1","size_leaf_vector":"1"}},{"base_weights":[-4.9613254E-11],"categories":[],"categories_nodes":[],"categories_segments":[],"categories_sizes":[],"default_left":[0],"id":58,"left_children":[-1],"loss_changes":[0E0],"parents":[2147483647],"right_children":[-1],"split_conditions":[-1.4883978E-11],"split_indices":[0],"split_type":[0],"sum_hessian":[1.707E3],"tree_param":{"num_deleted":"0","num_feature":"10","num_nodes":"1","size_leaf_vector":"1"}},{"base_weights":[-4.6673904E-11],"categories":[],"categories_nodes":[],"categories_segments":[],"categories_sizes":[],"default_left":[0],"id":59,"left_children":[-1],"loss_changes":[0E0],"parents":[2147483647],"right_children":[-1],"split_conditions":[-1.4002172E-11],"split_indices":[0],"split_type":[0],"sum_hessian":[1.707E3],"tree_param":{"num_deleted":"0","num_feature":"10","num_nodes":"1","size_leaf_vector":"1"}},{"base_weights":[-4.538794E-11],"categories":[],"categories_nodes":[],"categories_segments":[],"categories_sizes":[],"default_left":[0],"id":60,"left_children":[-1],"loss_changes":[0E0],"parents":[2147483647],"right_children":[-1],"split_conditions":[-1.3616382E-11],"split_indices":[0],"split_type":[0],"sum_hessian":[1.707E3],"tree_param":{"num_deleted":"0","num_feature":"10","num_nodes":"1","size_leaf_vector":"1"}},{"base_weights":[-4.4388455E-11],"categories":[],"categories_nodes":[],"categories_segments":[],"categories_sizes":[],"default_left":[0],"id":61,"left_children":[-1],"loss_changes":[0E0],"parents":[2147483647],"right_children":[-1],"split_conditions":[-1.3316537E-11],"split_indices":[0],"split_type":[0],"sum_hessian":[1.707E3],"tree_param":{"num_deleted":"0","num_feature":"10","num_nodes":"1","size_leaf_vector":"1"}},{"base_weights":[-4.332507E-11],"categories":[],"categories_nodes":[],"categories_segments":[],"categories_sizes":[],"default_left":[0],"id":62,"left_children":[-1],"loss_changes":[0E0],"parents":[2147483647],"right_children":[-1],"split_conditions":[-1.29975215E-11],"split_indices":[0],"split_type":[0],"sum_hessian":[1.707E3],"tree_param":{"num_deleted":"0","num_feature":"10","num_nodes":"1","size_leaf_vector":"1"}},{"base_weights":[-4.1873498E-11],"categories":[],"categories_nodes":[],"categories_segments":[],"categories_sizes":[],"default_left":[0],"id":63,"left_children":[-1],"loss_changes":[0E0],"parents":[2147483647],"right_children":[-1],"split_conditions":[-1.25620495E-11],"split_indices":[0],"split_type":[0],"sum_hessian":[1.707E3],"tree_param":{"num_deleted":"0","num_feature":"10","num_nodes":"1","size_leaf_vector":"1"}},{"base_weights":[-4.080745E-11],"categories":[],"categories_nodes":[],"categories_segments":[],"categories_sizes":[],"default_left":[0],"id":64,"left_children":[-1],"loss_changes":[0E0],"parents":[2147483647],"right_children":[-1],"split_conditions":[-1.2242236E-11],"split_indices":[0],"split_type":[0],"sum_hessian":[1.707E3],"tree_param":{"num_deleted":"0","num_feature":"10","num_nodes":"1","size_leaf_vector":"1"}},{"base_weights":[-3.9587514E-11],"categories":[],"categories_nodes":[],"categories_segments":[],"categories_sizes":[],"default_left":[0],"id":65,"left_children":[-1],"loss_changes":[0E0],"parents":[2147483647],"right_children":[-1],"split_conditions":[-1.1876254E-11],"split_indices":[0],"split_type":[0],"sum_hessian":[1.707E3],"tree_param":{"num_deleted":"0","num_feature":"10","num_nodes":"1","size_leaf_vector":"1"}},{"base_weights":[-3.8469814E-11],"categories":[],"categories_nodes":[],"categories_segments":[],"categories_sizes":[],"default_left":[0],"id":66,"left_children":[-1],"loss_changes":[0E0],"parents":[2147483647],"right_children":[-1],"split_conditions":[-1.1540944E-11],"split_indices":[0],"split_type":[0],"sum_hessian":[1.707E3],"tree_param":{"num_deleted":"0","num_feature":"10","num_nodes":"1","size_leaf_vector":"1"}},{"base_weights":[-3.7293543E-11],"categories":[],"categories_nodes":[],"categories_segments":[],"categories_sizes":[],"default_left":[0],"id":67,"left_children":[-1],"loss_changes":[0E0],"parents":[2147483647],"right_children":[-1],"split_conditions":[-1.11880635E-11],"split_indices":[0],"split_type":[0],"sum_hessian":[1.707E3],"tree_param":{"num_deleted":"0","num_feature":"10","num_nodes":"1","size_leaf_vector":"1"}},{"base_weights":[-3.62669E-11],"categories":[],"categories_nodes":[],"categories_segments":[],"categories_sizes":[],"default_left":[0],"id":68,"left_children":[-1],"loss_changes":[0E0],"parents":[2147483647],"right_children":[-1],"split_conditions":[-1.088007E-11],"split_indices":[0],"split_type":[0],"sum_hessian":[1.707E3],"tree_param":{"num_deleted":"0","num_feature":"10","num_nodes":"1","size_leaf_vector":"1"}},{"base_weights":[-3.5478814E-11],"categories":[],"categories_nodes":[],"categories_segments":[],"categories_sizes":[],"default_left":[0],"id":69,"left_children":[-1],"loss_changes":[0E0],"parents":[2147483647],"right_children":[-1],"split_conditions":[-1.0643645E-11],"split_indices":[0],"split_type":[0],"sum_hessian":[1.707E3],"tree_param":{"num_deleted":"0","num_feature":"10","num_nodes":"1","size_leaf_vector":"1"}},{"base_weights":[-3.4618308E-11],"categories":[],"categories_nodes":[],"categories_segments":[],"categories_sizes":[],"default_left":[0],"id":70,"left_children":[-1],"loss_changes":[0E0],"parents":[2147483647],"right_children":[-1],"split_conditions":[-1.0385493E-11],"split_indices":[0],"split_type":[0],"sum_hessian":[1.707E3],"tree_param":{"num_deleted":"0","num_feature":"10","num_nodes":"1","size_leaf_vector":"1"}},{"base_weights":[-3.343032E-11],"categories":[],"categories_nodes":[],"categories_segments":[],"categories_sizes":[],"default_left":[0],"id":71,"left_children":[-1],"loss_changes":[0E0],"parents":[2147483647],"right_children":[-1],"split_conditions":[-1.00290965E-11],"split_indices":[0],"split_type":[0],"sum_hessian":[1.707E3],"tree_param":{"num_deleted":"0","num_feature":"10","num_nodes":"1","size_leaf_vector":"1"}},{"base_weights":[-3.2533073E-11],"categories":[],"categories_nodes":[],"categories_segments":[],"categories_sizes":[],"default_left":[0],"id":72,"left_children":[-1],"loss_changes":[0E0],"parents":[2147483647],"right_children":[-1],"split_conditions":[-9.759922E-12],"split_indices":[0],"split_type":[0],"sum_hessian":[1.707E3],"tree_param":{"num_deleted":"0","num_feature":"10","num_nodes":"1","size_leaf_vector":"1"}},{"base_weights":[-3.1729543E-11],"categories":[],"categories_nodes":[],"categories_segments":[],"categories_sizes":[],"default_left":[0],"id":73,"left_children":[-1],"loss_changes":[0E0],"parents":[2147483647],"right_children":[-1],"split_conditions":[-9.518863E-12],"split_indices":[0],"split_type":[0],"sum_hessian":[1.707E3],"tree_param":{"num_deleted":"0","num_feature":"10","num_nodes":"1","size_leaf_vector":"1"}},{"base_weights":[-3.095104E-11],"categories":[],"categories_nodes":[],"categories_segments":[],"categories_sizes":[],"default_left":[0],"id":74,"left_children":[-1],"loss_changes":[0E0],"parents":[2147483647],"right_children":[-1],"split_conditions":[-9.285312E-12],"split_indices":[0],"split_type":[0],"sum_hessian":[1.707E3],"tree_param":{"num_deleted":"0","num_feature":"10","num_nodes":"1","size_leaf_vector":"1"}},{"base_weights":[-2.9859434E-11],"categories":[],"categories_nodes":[],"categories_segments":[],"categories_sizes":[],"default_left":[0],"id":75,"left_children":[-1],"loss_changes":[0E0],"parents":[2147483647],"right_children":[-1],"split_conditions":[-8.957831E-12],"split_indices":[0],"split_type":[0],"sum_hessian":[1.707E3],"tree_param":{"num_deleted":"0","num_feature":"10","num_nodes":"1","size_leaf_vector":"1"}},{"base_weights":[-2.8723099E-11],"categories":[],"categories_nodes":[],"categories_segments":[],"categories_sizes":[],"default_left":[0],"id":76,"left_children":[-1],"loss_changes":[0E0],"parents":[2147483647],"right_children":[-1],"split_conditions":[-8.61693E-12],"split_indices":[0],"split_type":[0],"sum_hessian":[1.707E3],"tree_param":{"num_deleted":"0","num_feature":"10","num_nodes":"1","size_leaf_vector":"1"}},{"base_weights":[-2.792596E-11],"categories":[],"categories_nodes":[],"categories_segments":[],"categories_sizes":[],"default_left":[0],"id":77,"left_children":[-1],"loss_changes":[0E0],"parents":[2147483647],"right_children":[-1],"split_conditions":[-8.377788E-12],"split_indices":[0],"split_type":[0],"sum_hessian":[1.707E3],"tree_param":{"num_deleted":"0","num_feature":"10","num_nodes":"1","size_leaf_vector":"1"}},{"base_weights":[-2.7124561E-11],"categories":[],"categories_nodes":[],"categories_segments":[],"categories_sizes":[],"default_left":[0],"id":78,"left_children":[-1],"loss_changes":[0E0],"parents":[2147483647],"right_children":[-1],"split_conditions":[-8.137368E-12],"split_indices":[0],"split_type":[0],"sum_hessian":[1.707E3],"tree_param":{"num_deleted":"0","num_feature":"10","num_nodes":"1","size_leaf_vector":"1"}},{"base_weights":[-2.5994084E-11],"categories":[],"categories_nodes":[],"categories_segments":[],"categories_sizes":[],"default_left":[0],"id":79,"left_children":[-1],"loss_changes":[0E0],"parents":[2147483647],"right_children":[-1],"split_conditions":[-7.798226E-12],"split_indices":[0],"split_type":[0],"sum_hessian":[1.707E3],"tree_param":{"num_deleted":"0","num_feature":"10","num_nodes":"1","size_leaf_vector":"1"}},{"base_weights":[-2.5259777E-11],"categories":[],"categories_nodes":[],"categories_segments":[],"categories_sizes":[],"default_left":[0],"id":80,"left_children":[-1],"loss_changes":[0E0],"parents":[2147483647],"right_children":[-1],"split_conditions":[-7.577933E-12],"split_indices":[0],"split_type":[0],"sum_hessian":[1.707E3],"tree_param":{"num_deleted":"0","num_feature":"10","num_nodes":"1","size_leaf_vector":"1"}},{"base_weights":[-2.4552629E-11],"categories":[],"categories_nodes":[],"categories_segments":[],"categories_sizes":[],"default_left":[0],"id":81,"left_children":[-1],"loss_changes":[0E0],"parents":[2147483647],"right_children":[-1],"split_conditions":[-7.365789E-12],"split_indices":[0],"split_type":[0],"sum_hessian":[1.707E3],"tree_param":{"num_deleted":"0","num_feature":"10","num_nodes":"1","size_leaf_vector":"1"}},{"base_weights":[-2.3615445E-11],"categories":[],"categories_nodes":[],"categories_segments":[],"categories_sizes":[],"default_left":[0],"id":82,"left_children":[-1],"loss_changes":[0E0],"parents":[2147483647],"right_children":[-1],"split_conditions":[-7.0846337E-12],"split_indices":[0],"split_type":[0],"sum_hessian":[1.707E3],"tree_param":{"num_deleted":"0","num_feature":"10","num_nodes":"1","size_leaf_vector":"1"}},{"base_weights":[-2.3257611E-11],"categories":[],"categories_nodes":[],"categories_segments":[],"categories_sizes":[],"default_left":[0],"id":83,"left_children":[-1],"loss_changes":[0E0],"parents":[2147483647],"right_children":[-1],"split_conditions":[-6.9772838E-12],"split_indices":[0],"split_type":[0],"sum_hessian":[1.707E3],"tree_param":{"num_deleted":"0","num_feature":"10","num_nodes":"1","size_leaf_vector":"1"}},{"base_weights":[-2.2942377E-11],"categories":[],"categories_nodes":[],"categories_segments":[],"categories_sizes":[],"default_left":[0],"id":84,"left_children":[-1],"loss_changes":[0E0],"parents":[2147483647],"right_children":[-1],"split_conditions":[-6.8827136E-12],"split_indices":[0],"split_type":[0],"sum_hessian":[1.707E3],"tree_param":{"num_deleted":"0","num_feature":"10","num_nodes":"1","size_leaf_vector":"1"}},{"base_weights":[-2.2635662E-11],"categories":[],"categories_nodes":[],"categories_segments":[],"categories_sizes":[],"default_left":[0],"id":85,"left_children":[-1],"loss_changes":[0E0],"parents":[2147483647],"right_children":[-1],"split_conditions":[-6.790699E-12],"split_indices":[0],"split_type":[0],"sum_hessian":[1.707E3],"tree_param":{"num_deleted":"0","num_feature":"10","num_nodes":"1","size_leaf_vector":"1"}},{"base_weights":[-2.2373143E-11],"categories":[],"categories_nodes":[],"categories_segments":[],"categories_sizes":[],"default_left":[0],"id":86,"left_children":[-1],"loss_changes":[0E0],"parents":[2147483647],"right_children":[-1],"split_conditions":[-6.711943E-12],"split_indices":[0],"split_type":[0],"sum_hessian":[1.707E3],"tree_param":{"num_deleted":"0","num_feature":"10","num_nodes":"1","size_leaf_vector":"1"}},{"base_weights":[-2.2140446E-11],"categories":[],"categories_nodes":[],"categories_segments":[],"categories_sizes":[],"default_left":[0],"id":87,"left_children":[-1],"loss_changes":[0E0],"parents":[2147483647],"right_children":[-1],"split_conditions":[-6.642134E-12],"split_indices":[0],"split_type":[0],"sum_hessian":[1.707E3],"tree_param":{"num_deleted":"0","num_feature":"10","num_nodes":"1","size_leaf_vector":"1"}},{"base_weights":[-2.1732024E-11],"categories":[],"categories_nodes":[],"categories_segments":[],"categories_sizes":[],"default_left":[0],"id":88,"left_children":[-1],"loss_changes":[0E0],"parents":[2147483647],"right_children":[-1],"split_conditions":[-6.5196073E-12],"split_indices":[0],"split_type":[0],"sum_hessian":[1.707E3],"tree_param":{"num_deleted":"0","num_feature":"10","num_nodes":"1","size_leaf_vector":"1"}},{"base_weights":[-2.1468442E-11],"categories":[],"categories_nodes":[],"categories_segments":[],"categories_sizes":[],"default_left":[0],"id":89,"left_children":[-1],"loss_changes":[0E0],"parents":[2147483647],"right_children":[-1],"split_conditions":[-6.4405326E-12],"split_indices":[0],"split_type":[0],"sum_hessian":[1.707E3],"tree_param":{"num_deleted":"0","num_feature":"10","num_nodes":"1","size_leaf_vector":"1"}},{"base_weights":[-2.1150545E-11],"categories":[],"categories_nodes":[],"categories_segments":[],"categories_sizes":[],"default_left":[0],"id":90,"left_children":[-1],"loss_changes":[0E0],"parents":[2147483647],"right_children":[-1],"split_conditions":[-6.3451635E-12],"split_indices":[0],"split_type":[0],"sum_hessian":[1.707E3],"tree_param":{"num_deleted":"0","num_feature":"10","num_nodes":"1","size_leaf_vector":"1"}},{"base_weights":[-2.068355E-11],"categories":[],"categories_nodes":[],"categories_segments":[],"categories_sizes":[],"default_left":[0],"id":91,"left_children":[-1],"loss_changes":[0E0],"parents":[2147483647],"right_children":[-1],"split_conditions":[-6.2050655E-12],"split_indices":[0],"split_type":[0],"sum_hessian":[1.707E3],"tree_param":{"num_deleted":"0","num_feature":"10","num_nodes":"1","size_leaf_vector":"1"}},{"base_weights":[-2.0411447E-11],"categories":[],"categories_nodes":[],"categories_segments":[],"categories_sizes":[],"default_left":[0],"id":92,"left_children":[-1],"loss_changes":[0E0],"parents":[2147483647],"right_children":[-1],"split_conditions":[-6.1234342E-12],"split_indices":[0],"split_type":[0],"sum_hessian":[1.707E3],"tree_param":{"num_deleted":"0","num_feature":"10","num_nodes":"1","size_leaf_vector":"1"}},{"base_weights":[-1.9951906E-11],"categories":[],"categories_nodes":[],"categories_segments":[],"categories_sizes":[],"default_left":[0],"id":93,"left_children":[-1],"loss_changes":[0E0],"parents":[2147483647],"right_children":[-1],"split_conditions":[-5.9855723E-12],"split_indices":[0],"split_type":[0],"sum_hessian":[1.707E3],"tree_param":{"num_deleted":"0","num_feature":"10","num_nodes":"1","size_leaf_vector":"1"}},{"base_weights":[-1.9714948E-11],"categories":[],"categories_nodes":[],"categories_segments":[],"categories_sizes":[],"default_left":[0],"id":94,"left_children":[-1],"loss_changes":[0E0],"parents":[2147483647],"right_children":[-1],"split_conditions":[-5.9144846E-12],"split_indices":[0],"split_type":[0],"sum_hessian":[1.707E3],"tree_param":{"num_deleted":"0","num_feature":"10","num_nodes":"1","size_leaf_vector":"1"}},{"base_weights":[-1.9362971E-11],"categories":[],"categories_nodes":[],"categories_segments":[],"categories_sizes":[],"default_left":[0],"id":95,"left_children":[-1],"loss_changes":[0E0],"parents":[2147483647],"right_children":[-1],"split_conditions":[-5.8088916E-12],"split_indices":[0],"split_type":[0],"sum_hessian":[1.707E3],"tree_param":{"num_deleted":"0","num_feature":"10","num_nodes":"1","size_leaf_vector":"1"}},{"base_weights":[-1.9087142E-11],"categories":[],"categories_nodes":[],"categories_segments":[],"categories_sizes":[],"default_left":[0],"id":96,"left_children":[-1],"loss_changes":[0E0],"parents":[2147483647],"right_children":[-1],"split_conditions":[-5.7261427E-12],"split_indices":[0],"split_type":[0],"sum_hessian":[1.707E3],"tree_param":{"num_deleted":"0","num_feature":"10","num_nodes":"1","size_leaf_vector":"1"}},{"base_weights":[-1.8834741E-11],"categories":[],"categories_nodes":[],"categories_segments":[],"categories_sizes":[],"default_left":[0],"id":97,"left_children":[-1],"loss_changes":[0E0],"parents":[2147483647],"right_children":[-1],"split_conditions":[-5.6504224E-12],"split_indices":[0],"split_type":[0],"sum_hessian":[1.707E3],"tree_param":{"num_deleted":"0","num_feature":"10","num_nodes":"1","size_leaf_vector":"1"}},{"base_weights":[-1.8512051E-11],"categories":[],"categories_nodes":[],"categories_segments":[],"categories_sizes":[],"default_left":[0],"id":98,"left_children":[-1],"loss_changes":[0E0],"parents":[2147483647],"right_children":[-1],"split_conditions":[-5.5536157E-12],"split_indices":[0],"split_type":[0],"sum_hessian":[1.707E3],"tree_param":{"num_deleted":"0","num_feature":"10","num_nodes":"1","size_leaf_vector":"1"}},{"base_weights":[-1.822983E-11],"categories":[],"categories_nodes":[],"categories_segments":[],"categories_sizes":[],"default_left":[0],"id":99,"left_children":[-1],"loss_changes":[0E0],"parents":[2147483647],"right_children":[-1],"split_conditions":[-5.4689495E-12],"split_indices":[0],"split_type":[0],"sum_hessian":[1.707E3],"tree_param":{"num_deleted":"0","num_feature":"10","num_nodes":"1","size_leaf_vector":"1"}}]},"name":"gbtree"},"learner_model_param":{"base_score":"5.5253156E-4","boost_from_average":"1","num_class":"0","num_feature":"10","num_target":"1"},"objective":{"name":"reg:squarederror","reg_loss_param":{"scale_pos_weight":"1"}}},"version":[2,0,3]}