{"learner":{"attributes":{},"feature_names":["lstm_13_Y_pred","lstm_22_Y_pred","lstm_10_Y_pred","lstm_16_Y_pred","lstm_19_Y_pred","lstm_7_Y_pred","lstm_28_Y_pred","lstm_25_Y_pred","lstm_4_Y_pred","lstm_1_Y_pred"],"feature_types":["float","float","float","float","float","float","float","float","float","float"],"gradient_booster":{"model":{"gbtree_model_param":{"num_parallel_tree":"1","num_trees":"100"},"iteration_indptr":[0,1,2,3,4,5,6,7,8,9,10,11,12,13,14,15,16,17,18,19,20,21,22,23,24,25,26,27,28,29,30,31,32,33,34,35,36,37,38,39,40,41,42,43,44,45,46,47,48,49,50,51,52,53,54,55,56,57,58,59,60,61,62,63,64,65,66,67,68,69,70,71,72,73,74,75,76,77,78,79,80,81,82,83,84,85,86,87,88,89,90,91,92,93,94,95,96,97,98,99,100],"tree_info":[0,0,0,0,0,0,0,0,0,0,0,0,0,0,0,0,0,0,0,0,0,0,0,0,0,0,0,0,0,0,0,0,0,0,0,0,0,0,0,0,0,0,0,0,0,0,0,0,0,0,0,0,0,0,0,0,0,0,0,0,0,0,0,0,0,0,0,0,0,0,0,0,0,0,0,0,0,0,0,0,0,0,0,0,0,0,0,0,0,0,0,0,0,0,0,0,0,0,0,0],"trees":[{"base_weights":[1.3580651E-11,-1.5294509E-3,2.9082936E-3,-5.572836E-3,-9.1285224E-4,1.704957E-3,6.6842553E-3,-2.2958796E-3,-4.296473E-3,-1.994578E-3,-1.764509E-4,1.1968134E-3,2.5447393E-3,5.283713E-3,2.770379E-3,-1.4467079E-3,-1.0497152E-3,-7.96025E-4,-1.6712599E-3,-6.973208E-4,2.0927159E-4,9.993869E-4,1.4283432E-3,2.1124613E-3,3.0525976E-3,1.3262262E-3,1.7034266E-3,-5.82088E-4,-4.4462422E-4,-2.6048513E-4,-1.3965485E-4,-2.175779E-5,1.14753675E-4,3.061586E-4,-1.6152968E-5,4.3895256E-4,1.8666015E-4,6.440859E-4,-1.6429035E-4,9.365029E-4,1.0624686E-4],"categories":[],"categories_nodes":[],"categories_segments":[],"categories_sizes":[],"default_left":[0,0,0,0,0,0,0,0,0,0,0,0,0,0,0,0,0,0,0,0,0,0,0,0,0,0,0,0,0,0,0,0,0,0,0,0,0,0,0,0,0],"id":0,"left_children":[1,3,5,7,9,11,13,-1,15,17,19,21,23,25,-1,-1,-1,-1,27,29,31,33,35,37,39,-1,-1,-1,-1,-1,-1,-1,-1,-1,-1,-1,-1,-1,-1,-1,-1],"loss_changes":[7.60179E-3,2.7872357E-3,2.6648743E-3,3.6005303E-4,7.747245E-4,1.881296E-4,4.5841094E-4,0E0,2.2545573E-5,7.9493155E-5,1.1667443E-4,1.1417083E-5,3.0433526E-5,6.8896916E-6,0E0,0E0,0E0,0E0,1.0713411E-5,9.384414E-6,1.6333215E-5,3.5063422E-6,2.6557245E-6,9.800395E-6,1.287472E-5,0E0,0E0,0E0,0E0,0E0,0E0,0E0,0E0,0E0,0E0,0E0,0E0,0E0,0E0,0E0,0E0],"parents":[2147483647,0,0,1,1,2,2,3,3,4,4,5,5,6,6,8,8,9,9,10,10,11,11,12,12,13,13,18,18,19,19,20,20,21,21,22,22,23,23,24,24],"right_children":[2,4,6,8,10,12,14,-1,16,18,20,22,24,26,-1,-1,-1,-1,28,30,32,34,36,38,40,-1,-1,-1,-1,-1,-1,-1,-1,-1,-1,-1,-1,-1,-1,-1,-1],"split_conditions":[7.804148E-4,-3.2220483E-3,3.768243E-3,-6.2628575E-3,-9.726621E-4,1.8279571E-3,6.61687E-3,-2.2958796E-3,-3.909111E-3,-2.0795558E-3,-1.0295585E-4,1.3167579E-3,2.5695357E-3,4.8151407E-3,2.770379E-3,-1.4467079E-3,-1.0497152E-3,-7.96025E-4,-1.6359743E-3,-5.1095895E-4,2.3179501E-4,5.7890536E-3,4.92498E-3,5.992178E-3,6.733665E-3,1.3262262E-3,1.7034266E-3,-5.82088E-4,-4.4462422E-4,-2.6048513E-4,-1.3965485E-4,-2.175779E-5,1.14753675E-4,3.061586E-4,-1.6152968E-5,4.3895256E-4,1.8666015E-4,6.440859E-4,-1.6429035E-4,9.365029E-4,1.0624686E-4],"split_indices":[6,6,6,6,6,6,6,0,6,6,6,6,6,6,0,0,0,0,6,6,6,2,2,1,4,0,0,0,0,0,0,0,0,0,0,0,0,0,0,0,0],"split_type":[0,0,0,0,0,0,0,0,0,0,0,0,0,0,0,0,0,0,0,0,0,0,0,0,0,0,0,0,0,0,0,0,0,0,0,0,0,0,0,0,0],"sum_hessian":[1.707E3,1.119E3,5.88E2,1.47E2,9.72E2,4.47E2,1.41E2,5.4E1,9.3E1,3.93E2,5.79E2,2.8E2,1.67E2,9.3E1,4.8E1,5.3E1,4E1,1.27E2,2.66E2,2.46E2,3.33E2,1.54E2,1.26E2,9.3E1,7.4E1,3.3E1,6E1,1.06E2,1.6E2,1.4E2,1.06E2,1.27E2,2.06E2,1.51E2,3E0,1.2E2,6E0,9.2E1,1E0,7.2E1,2E0],"tree_param":{"num_deleted":"0","num_feature":"10","num_nodes":"41","size_leaf_vector":"1"}},{"base_weights":[7.7050925E-7,-1.1934385E-3,1.8572379E-3,-4.0125153E-3,-7.504572E-4,1.0838582E-3,4.719824E-3,-1.559983E-3,-2.8671417E-3,-1.4833402E-3,-2.5912165E-4,7.132856E-4,1.7502486E-3,3.880549E-3,2.1249691E-3,-1.5085704E-4,-8.6779223E-4,-1.8742603E-3,-1.2272176E-3,-5.358255E-4,5.455209E-5,4.7048018E-4,8.551819E-4,1.4714265E-3,2.1507216E-3,1.0183206E-3,1.3286824E-3,-5.7298393E-4,-2.7548295E-4,-3.5261706E-4,-5.8981235E-4,-2.030294E-4,-1.05880674E-4,-2.2421656E-5,4.4751076E-5,1.731918E-4,9.097445E-5,2.626883E-4,1.386041E-7,4.4780603E-4,-1.396468E-4,6.594006E-4,8.499749E-5],"categories":[],"categories_nodes":[],"categories_segments":[],"categories_sizes":[],"default_left":[0,0,0,0,0,0,0,0,0,0,0,0,0,0,0,0,0,0,0,0,0,0,0,0,0,0,0,0,0,0,0,0,0,0,0,0,0,0,0,0,0,0,0],"id":1,"left_children":[1,3,5,7,9,11,13,-1,15,17,19,21,23,25,-1,-1,-1,27,29,31,33,35,37,39,41,-1,-1,-1,-1,-1,-1,-1,-1,-1,-1,-1,-1,-1,-1,-1,-1,-1,-1],"loss_changes":[3.7888703E-3,1.295739E-3,1.4759607E-3,1.7685792E-4,3.2369792E-4,1.2913905E-4,2.5417702E-4,0E0,3.0066585E-6,3.3844553E-5,4.6898385E-5,1.13461865E-5,1.7827551E-5,1.3492419E-5,0E0,0E0,0E0,3.0563679E-6,6.151531E-6,7.15896E-6,3.1183997E-6,2.1116139E-6,3.7393183E-6,5.3892436E-6,5.9990853E-6,0E0,0E0,0E0,0E0,0E0,0E0,0E0,0E0,0E0,0E0,0E0,0E0,0E0,0E0,0E0,0E0,0E0,0E0],"parents":[2147483647,0,0,1,1,2,2,3,3,4,4,5,5,6,6,8,8,9,9,10,10,11,11,12,12,13,13,17,17,18,18,19,19,20,20,21,21,22,22,23,23,24,24],"right_children":[2,4,6,8,10,12,14,-1,16,18,20,22,24,26,-1,-1,-1,28,30,32,34,36,38,40,42,-1,-1,-1,-1,-1,-1,-1,-1,-1,-1,-1,-1,-1,-1,-1,-1,-1,-1],"split_conditions":[5.3959154E-4,-3.3675088E-3,3.768243E-3,-5.4809963E-3,-1.0900237E-3,1.7432999E-3,8.0727115E-3,-1.559983E-3,-1.6506525E-2,-2.0362753E-3,-1.0295585E-4,9.457879E-4,2.5695357E-3,5.4950267E-3,2.1249691E-3,-1.5085704E-4,-8.6779223E-4,2.2816993E-3,3.0471757E-4,-5.7331193E-4,1.7793849E-4,9.880923E-4,5.7890536E-3,5.992178E-3,6.733665E-3,1.0183206E-3,1.3286824E-3,-5.7298393E-4,-2.7548295E-4,-3.5261706E-4,-5.8981235E-4,-2.030294E-4,-1.05880674E-4,-2.2421656E-5,4.4751076E-5,1.731918E-4,9.097445E-5,2.626883E-4,1.386041E-7,4.4780603E-4,-1.396468E-4,6.594006E-4,8.499749E-5],"split_indices":[6,6,6,6,6,6,6,0,5,6,6,6,6,6,0,0,0,0,7,6,6,9,2,1,4,0,0,0,0,0,0,0,0,0,0,0,0,0,0,0,0,0,0],"split_type":[0,0,0,0,0,0,0,0,0,0,0,0,0,0,0,0,0,0,0,0,0,0,0,0,0,0,0,0,0,0,0,0,0,0,0,0,0,0,0,0,0,0,0],"sum_hessian":[1.707E3,1.039E3,6.68E2,1.4E2,8.99E2,5.27E2,1.41E2,6.7E1,7.3E1,3.6E2,5.39E2,3.4E2,1.87E2,1.06E2,3.5E1,1E0,7.2E1,1.4E2,2.2E2,2.86E2,2.53E2,1.27E2,2.13E2,1.13E2,7.4E1,6E1,4.6E1,1.34E2,6E0,2.08E2,1.2E1,1.6E2,1.26E2,1.07E2,1.46E2,7.6E1,5.1E1,2.08E2,5E0,1.12E2,1E0,7.2E1,2E0],"tree_param":{"num_deleted":"0","num_feature":"10","num_nodes":"43","size_leaf_vector":"1"}},{"base_weights":[1.3563246E-6,-5.3681113E-4,2.0539686E-3,-2.3509525E-3,-1.8278816E-4,1.2644106E-3,3.5515314E-3,-3.593671E-3,-1.7009196E-3,-7.2023435E-4,2.1276904E-4,1.0548708E-3,1.8413858E-3,8.485524E-4,1.458412E-3,-4.0815976E-3,-8.7582704E-4,-2.0875235E-3,-1.5368852E-3,-9.6131186E-4,-4.898619E-4,-2.2018137E-5,4.6551466E-4,2.397507E-4,1.0825552E-3,1.8905828E-3,2.0030509E-4,-1.2595471E-3,-3.6043805E-4,-1.2822848E-4,-6.355021E-4,-4.7527213E-4,-2.7573475E-4,-3.0280687E-4,-1.8794683E-4,-1.3848422E-4,-3.8387874E-4,-4.7259255E-5,2.42333E-5,1.2053771E-4,2.0861563E-4,1.9946907E-4,-7.359994E-5,5.6248833E-4,3.124899E-4,2.4755066E-4,5.8010797E-4],"categories":[],"categories_nodes":[],"categories_segments":[],"categories_sizes":[],"default_left":[0,0,0,0,0,0,0,0,0,0,0,0,0,0,0,0,0,0,0,0,0,0,0,0,0,0,0,0,0,0,0,0,0,0,0,0,0,0,0,0,0,0,0,0,0,0,0],"id":2,"left_children":[1,3,5,7,9,11,13,15,17,19,21,23,25,-1,-1,27,-1,29,31,33,35,37,39,41,43,45,-1,-1,-1,-1,-1,-1,-1,-1,-1,-1,-1,-1,-1,-1,-1,-1,-1,-1,-1,-1,-1],"loss_changes":[1.8878434E-3,8.691738E-4,4.1526603E-4,1.7241295E-4,2.4123112E-4,2.6347989E-5,1.0178925E-4,1.2757897E-5,6.1139E-6,2.6242691E-5,3.8819548E-5,3.6669662E-6,2.2599852E-6,0E0,0E0,8.759089E-6,0E0,1.1920638E-6,1.6741396E-6,3.1318486E-6,4.9417795E-6,4.748972E-6,4.334688E-6,1.6067419E-6,3.4947152E-6,1.0683143E-6,0E0,0E0,0E0,0E0,0E0,0E0,0E0,0E0,0E0,0E0,0E0,0E0,0E0,0E0,0E0,0E0,0E0,0E0,0E0,0E0,0E0],"parents":[2147483647,0,0,1,1,2,2,3,3,4,4,5,5,6,6,7,7,8,8,9,9,10,10,11,11,12,12,15,15,17,17,18,18,19,19,20,20,21,21,22,22,23,23,24,24,25,25],"right_children":[2,4,6,8,10,12,14,16,18,20,22,24,26,-1,-1,28,-1,30,32,34,36,38,40,42,44,46,-1,-1,-1,-1,-1,-1,-1,-1,-1,-1,-1,-1,-1,-1,-1,-1,-1,-1,-1,-1,-1],"split_conditions":[1.5898384E-3,-2.3474712E-3,4.3011513E-3,-4.921017E-3,-4.1723717E-4,3.0273106E-3,7.4891504E-3,-7.1959933E-3,-3.79821E-3,-1.2937542E-3,5.3959154E-4,-9.6650794E-5,1.0797384E-2,8.485524E-4,1.458412E-3,4.080683E-3,-8.7582704E-4,-1.00240465E-2,4.593419E-3,3.543485E-3,1.3359748E-3,7.1132556E-5,3.8090646E-3,-6.32029E-4,1.5363619E-3,-4.300475E-5,2.0030509E-4,-1.2595471E-3,-3.6043805E-4,-1.2822848E-4,-6.355021E-4,-4.7527213E-4,-2.7573475E-4,-3.0280687E-4,-1.8794683E-4,-1.3848422E-4,-3.8387874E-4,-4.7259255E-5,2.42333E-5,1.2053771E-4,2.0861563E-4,1.9946907E-4,-7.359994E-5,5.6248833E-4,3.124899E-4,2.4755066E-4,5.8010797E-4],"split_indices":[6,6,6,6,6,6,6,6,6,6,6,4,2,0,0,5,0,2,2,5,7,6,5,5,1,9,0,0,0,0,0,0,0,0,0,0,0,0,0,0,0,0,0,0,0,0,0],"split_type":[0,0,0,0,0,0,0,0,0,0,0,0,0,0,0,0,0,0,0,0,0,0,0,0,0,0,0,0,0,0,0,0,0,0,0,0,0,0,0,0,0,0,0,0,0,0,0],"sum_hessian":[1.707E3,1.353E3,3.54E2,2.2E2,1.133E3,2.33E2,1.21E2,7.4E1,1.46E2,4.8E2,6.53E2,1.73E2,6E1,8E1,4.1E1,4E1,3.4E1,4E1,1.06E2,2.33E2,2.47E2,3.39E2,3.14E2,6E0,1.67E2,5.7E1,3E0,3.8E1,2E0,1E0,3.9E1,9.7E1,9E0,2.02E2,3.1E1,2.4E2,7E0,1.46E2,1.93E2,2.48E2,6.6E1,3E0,3E0,6E0,1.61E2,3E0,5.4E1],"tree_param":{"num_deleted":"0","num_feature":"10","num_nodes":"47","size_leaf_vector":"1"}},{"base_weights":[7.2591797E-7,-5.11631E-4,1.0833003E-3,-1.8516461E-3,-2.7327985E-4,6.7552365E-4,2.5049816E-3,-2.7608986E-3,-1.4230466E-3,-6.2229985E-4,-6.6640973E-6,4.7326062E-4,1.0549858E-3,2.0233311E-3,3.5993871E-3,-8.490313E-4,-3.513005E-4,-1.6940095E-3,-1.186943E-3,-7.884454E-4,-4.6386351E-4,-1.3121922E-4,1.3051144E-4,3.8829303E-4,5.824054E-4,8.8513177E-4,1.3904079E-3,1.8340559E-3,7.5925805E-4,2.09457E-4,3.66233E-3,-4.2226477E-4,-6.8591436E-4,-1.5263415E-4,-3.7330965E-4,-2.7191892E-4,-1.9278693E-4,-1.1714477E-4,-2.3584507E-4,-2.7821017E-5,-2.1483965E-4,2.8883122E-4,3.3286182E-5,1.2828386E-4,-9.6986325E-5,1.532133E-4,2.6984635E-4,2.78393E-4,-1.1575503E-4,1.7500588E-5,4.341168E-4,5.5927265E-4,1.7060176E-4,5.033704E-4,1.1387808E-3],"categories":[],"categories_nodes":[],"categories_segments":[],"categories_sizes":[],"default_left":[0,0,0,0,0,0,0,0,0,0,0,0,0,0,0,0,0,0,0,0,0,0,0,0,0,0,0,0,0,0,0,0,0,0,0,0,0,0,0,0,0,0,0,0,0,0,0,0,0,0,0,0,0,0,0],"id":3,"left_children":[1,3,5,7,9,11,13,15,17,19,21,23,25,27,29,-1,-1,31,33,35,37,39,41,43,45,47,49,51,-1,-1,53,-1,-1,-1,-1,-1,-1,-1,-1,-1,-1,-1,-1,-1,-1,-1,-1,-1,-1,-1,-1,-1,-1,-1,-1],"loss_changes":[9.479213E-4,3.6999123E-4,3.1657872E-4,6.4269465E-5,9.174732E-5,3.2350188E-5,5.7025987E-5,2.7375936E-6,5.7303405E-6,1.0874399E-5,9.585238E-6,2.379791E-6,7.2012917E-6,3.7157151E-6,4.016998E-6,0E0,0E0,5.9451268E-6,2.014931E-6,2.9779185E-6,4.9196096E-6,6.551207E-6,4.239114E-6,4.6428977E-6,2.291319E-6,5.858019E-6,3.537636E-6,1.499051E-6,0E0,0E0,2.910383E-6,0E0,0E0,0E0,0E0,0E0,0E0,0E0,0E0,0E0,0E0,0E0,0E0,0E0,0E0,0E0,0E0,0E0,0E0,0E0,0E0,0E0,0E0,0E0,0E0],"parents":[2147483647,0,0,1,1,2,2,3,3,4,4,5,5,6,6,7,7,8,8,9,9,10,10,11,11,12,12,13,13,14,14,17,17,18,18,19,19,20,20,21,21,22,22,23,23,24,24,25,25,26,26,27,27,30,30],"right_children":[2,4,6,8,10,12,14,16,18,20,22,24,26,28,30,-1,-1,32,34,36,38,40,42,44,46,48,50,52,-1,-1,54,-1,-1,-1,-1,-1,-1,-1,-1,-1,-1,-1,-1,-1,-1,-1,-1,-1,-1,-1,-1,-1,-1,-1,-1],"split_conditions":[9.294823E-4,-2.772103E-3,4.3011513E-3,-6.2628575E-3,-7.730108E-4,2.0495635E-3,8.0727115E-3,5.165618E-3,-3.909111E-3,-1.6359743E-3,1.7793849E-4,1.4456101E-3,3.3051893E-3,6.1702E-3,-4.6963803E-3,-8.490313E-4,-3.513005E-4,1.1791214E-3,-6.386567E-3,-1.2160055E-3,2.197139E-4,2.5599492E-3,-6.855065E-4,2.8900579E-3,3.6718976E-3,6.547854E-3,7.181093E-4,9.293128E-3,7.5925805E-4,2.09457E-4,1.5874356E-3,-4.2226477E-4,-6.8591436E-4,-1.5263415E-4,-3.7330965E-4,-2.7191892E-4,-1.9278693E-4,-1.1714477E-4,-2.3584507E-4,-2.7821017E-5,-2.1483965E-4,2.8883122E-4,3.3286182E-5,1.2828386E-4,-9.6986325E-5,1.532133E-4,2.6984635E-4,2.78393E-4,-1.1575503E-4,1.7500588E-5,4.341168E-4,5.5927265E-4,1.7060176E-4,5.033704E-4,1.1387808E-3],"split_indices":[6,6,6,6,6,6,6,5,6,6,6,6,6,6,8,0,0,9,3,0,1,4,4,1,4,4,3,7,0,0,0,0,0,0,0,0,0,0,0,0,0,0,0,0,0,0,0,0,0,0,0,0,0,0,0],"split_type":[0,0,0,0,0,0,0,0,0,0,0,0,0,0,0,0,0,0,0,0,0,0,0,0,0,0,0,0,0,0,0,0,0,0,0,0,0,0,0,0,0,0,0,0,0,0,0,0,0,0,0,0,0,0,0],"sum_hessian":[1.707E3,1.159E3,5.48E2,1.74E2,9.85E2,4.27E2,1.21E2,5.4E1,1.2E2,4.26E2,5.59E2,2.8E2,1.47E2,8.6E1,3.5E1,5.1E1,3E0,5.3E1,6.7E1,2.06E2,2.2E2,2.93E2,2.66E2,1.6E2,1.2E2,1E2,4.7E1,6.6E1,2E1,1E0,3.4E1,3.8E1,1.5E1,6E0,6.1E1,1.11E2,9.5E1,1.81E2,3.9E1,2.76E2,1.7E1,5E0,2.61E2,1.52E2,8E0,1E2,2E1,9.7E1,3E0,2E0,4.5E1,6.4E1,2E0,3E0,3.1E1],"tree_param":{"num_deleted":"0","num_feature":"10","num_nodes":"55","size_leaf_vector":"1"}},{"base_weights":[9.979997E-7,-3.8132703E-4,7.2799803E-4,-1.3371481E-3,-2.1242959E-4,4.694863E-4,1.8620912E-3,-1.954453E-3,-1.0275962E-3,-4.7917594E-4,-4.00579E-5,3.3986915E-4,8.523152E-4,1.6865722E-3,3.6249058E-3,-2.2777112E-3,-1.5062918E-3,-9.132094E-4,-1.3174389E-3,-4.3136065E-4,-7.040413E-4,-1.5625132E-4,5.4837536E-5,2.2145822E-4,4.1475316E-4,-8.906331E-7,8.815811E-4,1.341646E-3,2.0394775E-3,2.6424523E-4,1.1573444E-3,-8.3820714E-4,-4.953934E-4,-2.449412E-4,-5.152393E-4,-2.8557205E-4,-7.35128E-5,-4.9300084E-4,-2.6459573E-4,-1.6340191E-4,-7.612186E-5,-3.2788215E-4,-1.5072883E-4,-3.7759946E-5,-2.3287434E-4,1.2994216E-5,1.9520427E-4,8.593603E-5,-5.680054E-5,1.0299477E-4,1.8684687E-4,3.0915946E-4,2.0661652E-4,4.5705805E-4,2.9498534E-4,6.3092733E-4,2.4418678E-4],"categories":[],"categories_nodes":[],"categories_segments":[],"categories_sizes":[],"default_left":[0,0,0,0,0,0,0,0,0,0,0,0,0,0,0,0,0,0,0,0,0,0,0,0,0,0,0,0,0,0,0,0,0,0,0,0,0,0,0,0,0,0,0,0,0,0,0,0,0,0,0,0,0,0,0,0,0],"id":4,"left_children":[1,3,5,7,9,11,13,15,17,19,21,23,25,27,29,31,33,35,37,39,41,43,45,47,49,-1,51,53,55,-1,-1,-1,-1,-1,-1,-1,-1,-1,-1,-1,-1,-1,-1,-1,-1,-1,-1,-1,-1,-1,-1,-1,-1,-1,-1,-1,-1],"loss_changes":[4.7501677E-4,1.8052399E-4,1.7180669E-4,3.0094408E-5,4.379929E-5,2.3578104E-5,2.7611764E-5,4.537069E-6,2.5764748E-6,3.7175487E-6,6.4037795E-6,3.1091658E-6,3.031324E-6,9.558105E-6,2.3540706E-6,5.0887465E-6,2.3851935E-6,1.9645377E-6,2.8079921E-6,6.1211977E-6,4.468904E-6,4.8191428E-6,2.1689975E-6,3.845579E-6,3.056237E-6,0E0,2.6512498E-6,2.0216103E-6,2.0302396E-6,0E0,0E0,0E0,0E0,0E0,0E0,0E0,0E0,0E0,0E0,0E0,0E0,0E0,0E0,0E0,0E0,0E0,0E0,0E0,0E0,0E0,0E0,0E0,0E0,0E0,0E0,0E0,0E0],"parents":[2147483647,0,0,1,1,2,2,3,3,4,4,5,5,6,6,7,7,8,8,9,9,10,10,11,11,12,12,13,13,14,14,15,15,16,16,17,17,18,18,19,19,20,20,21,21,22,22,23,23,24,24,26,26,27,27,28,28],"right_children":[2,4,6,8,10,12,14,16,18,20,22,24,26,28,30,32,34,36,38,40,42,44,46,48,50,-1,52,54,56,-1,-1,-1,-1,-1,-1,-1,-1,-1,-1,-1,-1,-1,-1,-1,-1,-1,-1,-1,-1,-1,-1,-1,-1,-1,-1,-1,-1],"split_conditions":[7.804148E-4,-2.8466303E-3,4.8151407E-3,-6.2628575E-3,-9.726621E-4,2.334686E-3,1.3521817E-2,5.455576E-4,1.1791214E-3,-1.8433854E-4,-7.1117654E-5,1.5427358E-3,-3.3717602E-5,6.1702E-3,1.432705E-2,-7.732205E-3,-9.753823E-3,4.959222E-3,-3.909111E-3,-1.6359743E-3,-1.111377E-3,1.485791E-3,8.318409E-3,2.5142827E-3,1.8279571E-3,-8.906331E-7,4.090123E-3,8.5481405E-3,1.0624394E-2,2.6424523E-4,1.1573444E-3,-8.3820714E-4,-4.953934E-4,-2.449412E-4,-5.152393E-4,-2.8557205E-4,-7.35128E-5,-4.9300084E-4,-2.6459573E-4,-1.6340191E-4,-7.612186E-5,-3.2788215E-4,-1.5072883E-4,-3.7759946E-5,-2.3287434E-4,1.2994216E-5,1.9520427E-4,8.593603E-5,-5.680054E-5,1.0299477E-4,1.8684687E-4,3.0915946E-4,2.0661652E-4,4.5705805E-4,2.9498534E-4,6.3092733E-4,2.4418678E-4],"split_indices":[6,6,6,6,6,6,3,9,9,1,6,5,0,6,2,6,0,8,6,6,0,7,5,4,6,0,1,1,0,0,0,0,0,0,0,0,0,0,0,0,0,0,0,0,0,0,0,0,0,0,0,0,0,0,0,0,0],"split_type":[0,0,0,0,0,0,0,0,0,0,0,0,0,0,0,0,0,0,0,0,0,0,0,0,0,0,0,0,0,0,0,0,0,0,0,0,0,0,0,0,0,0,0,0,0,0,0,0,0,0,0,0,0,0,0,0,0],"sum_hessian":[1.707E3,1.119E3,5.88E2,1.67E2,9.52E2,4.8E2,1.08E2,5.4E1,1.13E2,3.73E2,5.79E2,3.6E2,1.2E2,1E2,8E0,2.9E1,2.5E1,8.4E1,2.9E1,3.1E2,6.3E1,2.6E2,3.19E2,1.41E2,2.19E2,4E0,1.16E2,5.3E1,4.7E1,1E0,7E0,1.4E1,1.5E1,7E0,1.8E1,7.9E1,5E0,1.5E1,1.4E1,1.88E2,1.22E2,2E1,4.3E1,2.49E2,1.1E1,3.14E2,5E0,1.22E2,1.9E1,1.65E2,5.4E1,6.3E1,5.3E1,3.3E1,2E1,4.4E1,3E0],"tree_param":{"num_deleted":"0","num_feature":"10","num_nodes":"57","size_leaf_vector":"1"}},{"base_weights":[6.351275E-7,-2.0433293E-4,6.9615495E-4,-8.457158E-4,-7.035341E-5,4.8586493E-4,1.4775351E-3,-1.3129327E-3,-6.126834E-4,-2.3047636E-4,7.859748E-5,3.6054885E-4,7.95058E-4,1.3094511E-3,8.0861663E-4,-1.6104217E-3,-1.1120447E-3,-3.635214E-4,-5.886304E-4,-4.0672396E-4,-1.6251138E-4,4.9544324E-6,1.5042709E-4,3.7253066E-4,-1.9029206E-4,3.211794E-4,8.8803057E-4,5.8107846E-4,1.3889344E-3,-6.035091E-4,-3.1963616E-4,-6.3044085E-5,-3.502504E-4,-7.6008604E-5,-1.9147836E-4,-1.3233794E-6,-1.2900434E-4,-4.3396034E-5,-2.2549824E-4,8.391591E-6,-1.540059E-4,4.8378766E-5,-1.9694938E-4,1.0072831E-4,2.5506402E-4,-2.521822E-4,1.641577E-4,4.6850616E-4,2.2689371E-4,2.175324E-5,2.4698314E-4,3.6873875E-4,5.085091E-4],"categories":[],"categories_nodes":[],"categories_segments":[],"categories_sizes":[],"default_left":[0,0,0,0,0,0,0,0,0,0,0,0,0,0,0,0,0,0,0,0,0,0,0,0,0,0,0,0,0,0,0,0,0,0,0,0,0,0,0,0,0,0,0,0,0,0,0,0,0,0,0,0,0],"id":5,"left_children":[1,3,5,7,9,11,13,15,17,19,21,23,25,27,-1,29,31,-1,33,35,37,39,41,43,-1,45,47,49,51,-1,-1,-1,-1,-1,-1,-1,-1,-1,-1,-1,-1,-1,-1,-1,-1,-1,-1,-1,-1,-1,-1,-1,-1],"loss_changes":[2.4363362E-4,1.13370974E-4,6.3201194E-5,2.4019479E-5,2.6086665E-5,1.1647382E-5,1.3256053E-5,2.6912894E-6,1.5057267E-6,6.246657E-6,2.9985438E-6,2.8706581E-6,3.5918601E-6,3.4770346E-6,0E0,3.9797233E-6,2.1554297E-6,0E0,2.3342363E-6,1.366132E-6,3.9102906E-6,3.366734E-6,2.615227E-6,3.5610956E-6,0E0,4.661234E-6,5.296377E-6,1.0488732E-6,1.145032E-6,0E0,0E0,0E0,0E0,0E0,0E0,0E0,0E0,0E0,0E0,0E0,0E0,0E0,0E0,0E0,0E0,0E0,0E0,0E0,0E0,0E0,0E0,0E0,0E0],"parents":[2147483647,0,0,1,1,2,2,3,3,4,4,5,5,6,6,7,7,8,8,9,9,10,10,11,11,12,12,13,13,15,15,16,16,18,18,19,19,20,20,21,21,22,22,23,23,25,25,26,26,27,27,28,28],"right_children":[2,4,6,8,10,12,14,16,18,20,22,24,26,28,-1,30,32,-1,34,36,38,40,42,44,-1,46,48,50,52,-1,-1,-1,-1,-1,-1,-1,-1,-1,-1,-1,-1,-1,-1,-1,-1,-1,-1,-1,-1,-1,-1,-1,-1],"split_conditions":[1.4456101E-3,-2.3121536E-3,5.4950267E-3,-4.921017E-3,-2.1353178E-4,3.3051893E-3,1.3521817E-2,-7.732205E-3,-7.090389E-3,-3.5292916E-3,5.243309E-4,6.733665E-3,2.952017E-3,1.3813414E-3,8.0861663E-4,5.455576E-4,-2.0272657E-4,-3.635214E-4,-6.8379603E-3,-6.1674807E-3,1.3568439E-3,1.9510426E-3,3.3448972E-3,5.261097E-3,-1.9029206E-4,1.039423E-3,2.6837867E-3,1.2640734E-3,6.814819E-3,-6.035091E-4,-3.1963616E-4,-6.3044085E-5,-3.502504E-4,-7.6008604E-5,-1.9147836E-4,-1.3233794E-6,-1.2900434E-4,-4.3396034E-5,-2.2549824E-4,8.391591E-6,-1.540059E-4,4.8378766E-5,-1.9694938E-4,1.0072831E-4,2.5506402E-4,-2.521822E-4,1.641577E-4,4.6850616E-4,2.2689371E-4,2.175324E-5,2.4698314E-4,3.6873875E-4,5.085091E-4],"split_indices":[6,6,6,6,6,6,3,6,4,8,6,4,1,0,0,9,9,0,5,2,7,7,1,3,0,3,4,2,8,0,0,0,0,0,0,0,0,0,0,0,0,0,0,0,0,0,0,0,0,0,0,0,0],"split_type":[0,0,0,0,0,0,0,0,0,0,0,0,0,0,0,0,0,0,0,0,0,0,0,0,0,0,0,0,0,0,0,0,0,0,0,0,0,0,0,0,0,0,0,0,0,0,0,0,0,0,0,0,0],"sum_hessian":[1.707E3,1.319E3,3.88E2,2.27E2,1.092E3,3.07E2,8.1E1,7.4E1,1.53E2,5.26E2,5.66E2,2.2E2,8.7E1,7.3E1,8E0,2.7E1,4.7E1,4E0,1.49E2,1.45E2,3.81E2,2.8E2,2.86E2,2.18E2,2E0,1.5E1,7.2E1,8E0,6.5E1,1.4E1,1.3E1,3E0,4.4E1,2E1,1.29E2,8E0,1.37E2,3.71E2,1E1,2.69E2,1.1E1,2.83E2,3E0,2.04E2,1.4E1,2E0,1.3E1,1E1,6.2E1,3E0,5E0,4.6E1,1.9E1],"tree_param":{"num_deleted":"0","num_feature":"10","num_nodes":"53","size_leaf_vector":"1"}},{"base_weights":[4.835911E-7,-1.7151603E-4,4.2231605E-4,-7.1393425E-4,-9.203836E-5,2.5071998E-4,9.0722647E-4,-1.0848031E-3,-5.7550333E-4,-2.4385586E-4,7.5800313E-6,2.7022386E-5,2.9698948E-4,7.364907E-4,1.4705742E-3,-8.2006434E-4,-1.4890129E-3,5.9650094E-5,-5.980198E-4,-3.7135638E-4,-2.0017677E-4,-1.5414436E-4,3.3934408E-5,1.7457668E-4,-1.966964E-5,-1.4241265E-4,3.1397186E-4,7.8009465E-4,2.0408434E-4,1.1284323E-3,7.1540166E-4,-3.5837147E-4,-1.7985149E-4,-5.566001E-4,-1.1559145E-4,-3.1121777E-4,-1.6196883E-4,-1.0441623E-5,-1.4578186E-4,-1.1211097E-5,-7.447858E-5,-2.5115256E-5,-1.9569794E-4,1.0598355E-4,5.6249046E-6,-5.2616957E-5,3.9498555E-5,2.7853177E-5,-1.9084105E-4,8.981749E-5,3.2817444E-4,4.1649364E-5,2.4448574E-4,1.5893299E-4,-4.872744E-5,1.1181627E-4,3.9529367E-4],"categories":[],"categories_nodes":[],"categories_segments":[],"categories_sizes":[],"default_left":[0,0,0,0,0,0,0,0,0,0,0,0,0,0,0,0,0,0,0,0,0,0,0,0,0,0,0,0,0,0,0,0,0,0,0,0,0,0,0,0,0,0,0,0,0,0,0,0,0,0,0,0,0,0,0,0,0],"id":6,"left_children":[1,3,5,7,9,11,13,15,17,19,21,23,25,27,29,31,33,-1,35,37,39,41,43,-1,45,47,49,51,53,55,-1,-1,-1,-1,-1,-1,-1,-1,-1,-1,-1,-1,-1,-1,-1,-1,-1,-1,-1,-1,-1,-1,-1,-1,-1,-1,-1],"loss_changes":[1.2399642E-4,5.227E-5,4.0960855E-5,7.3333504E-6,1.6033093E-5,3.790563E-6,1.1324621E-5,3.1663221E-6,2.1239757E-6,2.264689E-6,2.737266E-6,1.6696479E-6,2.3131906E-6,2.1855121E-6,6.3788466E-6,1.5140777E-6,5.349797E-6,0E0,2.3001667E-6,4.070773E-6,2.4567235E-6,3.1030745E-6,2.6701082E-6,0E0,1.4370144E-6,1.4528836E-6,3.004412E-6,1.965691E-6,1.1603718E-6,2.7976712E-6,0E0,0E0,0E0,0E0,0E0,0E0,0E0,0E0,0E0,0E0,0E0,0E0,0E0,0E0,0E0,0E0,0E0,0E0,0E0,0E0,0E0,0E0,0E0,0E0,0E0,0E0,0E0],"parents":[2147483647,0,0,1,1,2,2,3,3,4,4,5,5,6,6,7,7,8,8,9,9,10,10,11,11,12,12,13,13,14,14,15,15,16,16,18,18,19,19,20,20,21,21,22,22,24,24,25,25,26,26,27,27,28,28,29,29],"right_children":[2,4,6,8,10,12,14,16,18,20,22,24,26,28,30,32,34,-1,36,38,40,42,44,-1,46,48,50,52,54,56,-1,-1,-1,-1,-1,-1,-1,-1,-1,-1,-1,-1,-1,-1,-1,-1,-1,-1,-1,-1,-1,-1,-1,-1,-1,-1,-1],"split_conditions":[1.1099391E-3,-3.0675773E-3,4.045589E-3,-7.1959933E-3,-8.484032E-4,-2.3677014E-3,9.084638E-3,-2.7486645E-3,-1.6506525E-2,-2.616182E-3,-1.4333166E-3,6.35501E-4,-4.0039793E-4,1.0170862E-2,8.42889E-3,-1.8527359E-4,2.6907958E-3,5.9650094E-5,-9.51859E-3,-5.295978E-3,-1.8309206E-3,1.4807172E-3,-1.4828183E-3,1.7457668E-4,1.5399959E-3,1.1557266E-3,1.1704247E-2,-6.210413E-3,9.829464E-3,1.0635879E-2,7.1540166E-4,-3.5837147E-4,-1.7985149E-4,-5.566001E-4,-1.1559145E-4,-3.1121777E-4,-1.6196883E-4,-1.0441623E-5,-1.4578186E-4,-1.1211097E-5,-7.447858E-5,-2.5115256E-5,-1.9569794E-4,1.0598355E-4,5.6249046E-6,-5.2616957E-5,3.9498555E-5,2.7853177E-5,-1.9084105E-4,8.981749E-5,3.2817444E-4,4.1649364E-5,2.4448574E-4,1.5893299E-4,-4.872744E-5,1.1181627E-4,3.9529367E-4],"split_indices":[6,6,6,6,6,8,6,5,5,0,5,1,9,3,8,9,5,0,8,2,3,9,2,0,6,0,8,8,4,1,0,0,0,0,0,0,0,0,0,0,0,0,0,0,0,0,0,0,0,0,0,0,0,0,0,0,0],"split_type":[0,0,0,0,0,0,0,0,0,0,0,0,0,0,0,0,0,0,0,0,0,0,0,0,0,0,0,0,0,0,0,0,0,0,0,0,0,0,0,0,0,0,0,0,0,0,0,0,0,0,0,0,0,0,0,0,0],"sum_hessian":[1.707E3,1.213E3,4.94E2,1.54E2,1.059E3,3.66E2,1.28E2,4E1,1.14E2,4.19E2,6.4E2,6.3E1,3.03E2,1E2,2.8E1,2.6E1,1.4E1,3E0,1.11E2,1.05E2,3.14E2,8.9E1,5.51E2,4E0,5.9E1,1.1E1,2.92E2,9.2E1,8E0,2.2E1,6E0,8E0,1.8E1,1E1,4E0,1.1E1,1E2,2.7E1,7.8E1,7.2E1,2.42E2,7.9E1,1E1,2.4E1,5.27E2,2.9E1,3E1,8E0,3E0,2.88E2,4E0,5E0,8.7E1,4E0,4E0,5E0,1.7E1],"tree_param":{"num_deleted":"0","num_feature":"10","num_nodes":"57","size_leaf_vector":"1"}},{"base_weights":[3.737851E-7,-6.711502E-5,5.666102E-4,-3.2489008E-4,3.0979303E-5,4.114644E-4,9.083407E-4,-6.936574E-4,-2.4424904E-4,-4.4994915E-5,1.1467957E-4,5.6727784E-4,3.2202984E-4,7.8210735E-4,5.0407334E-4,-5.747929E-4,-1.0381285E-3,-2.8645428E-4,-7.907003E-5,-2.0533542E-5,-2.1763805E-4,9.516644E-5,3.4987283E-4,1.9323408E-4,8.5878343E-4,9.975061E-6,4.1317815E-4,9.3848514E-4,4.2334542E-4,-2.0634326E-4,-5.1139315E-5,-3.668168E-4,-9.409185E-5,-1.2774461E-4,-7.271233E-5,1.2135873E-4,-4.3752203E-5,-8.628223E-6,1.4979552E-4,-4.7631394E-5,-3.53604E-4,-3.5682493E-5,3.420861E-5,1.0265373E-5,1.5555744E-4,2.513955E-4,-2.3295713E-6,1.3513013E-4,3.4423673E-4,1.876992E-4,8.761155E-5,2.93275E-4,-5.2762964E-5,-2.1662972E-5,1.7441358E-4],"categories":[],"categories_nodes":[],"categories_segments":[],"categories_sizes":[],"default_left":[0,0,0,0,0,0,0,0,0,0,0,0,0,0,0,0,0,0,0,0,0,0,0,0,0,0,0,0,0,0,0,0,0,0,0,0,0,0,0,0,0,0,0,0,0,0,0,0,0,0,0,0,0,0,0],"id":7,"left_children":[1,3,5,7,9,11,13,15,17,19,21,23,25,27,-1,29,31,33,35,37,39,41,43,45,47,-1,49,51,53,-1,-1,-1,-1,-1,-1,-1,-1,-1,-1,-1,-1,-1,-1,-1,-1,-1,-1,-1,-1,-1,-1,-1,-1,-1,-1],"loss_changes":[6.5308595E-5,3.8622202E-5,9.275533E-6,1.2350174E-5,7.044642E-6,1.5870792E-6,4.1425046E-6,2.4741967E-6,2.3964312E-6,2.4491455E-6,2.3852958E-6,4.7406684E-6,2.1709684E-6,2.4078145E-6,0E0,2.5331428E-6,2.023764E-6,1.5922669E-6,2.3838934E-6,2.1955937E-6,3.8861454E-6,1.984382E-6,2.1116903E-6,2.7279914E-6,2.430128E-6,0E0,1.4389316E-6,1.653294E-6,1.3733229E-6,0E0,0E0,0E0,0E0,0E0,0E0,0E0,0E0,0E0,0E0,0E0,0E0,0E0,0E0,0E0,0E0,0E0,0E0,0E0,0E0,0E0,0E0,0E0,0E0,0E0,0E0],"parents":[2147483647,0,0,1,1,2,2,3,3,4,4,5,5,6,6,7,7,8,8,9,9,10,10,11,11,12,12,13,13,15,15,16,16,17,17,18,18,19,19,20,20,21,21,22,22,23,23,24,24,26,26,27,27,28,28],"right_children":[2,4,6,8,10,12,14,16,18,20,22,24,26,28,-1,30,32,34,36,38,40,42,44,46,48,-1,50,52,54,-1,-1,-1,-1,-1,-1,-1,-1,-1,-1,-1,-1,-1,-1,-1,-1,-1,-1,-1,-1,-1,-1,-1,-1,-1,-1],"split_conditions":[3.0273106E-3,-1.4380086E-3,6.1702E-3,-4.921017E-3,4.569888E-4,4.621133E-3,9.066086E-3,-3.7280591E-3,2.3891702E-3,1.7481223E-3,7.091511E-3,2.952017E-3,5.8188215E-3,1.4072098E-3,5.0407334E-4,1.0763407E-3,2.8579794E-3,-5.249452E-3,-2.1340214E-3,3.4484714E-3,1.7071031E-3,-5.902909E-4,1.7120726E-3,2.8003193E-3,3.6743283E-3,9.975061E-6,4.344646E-3,1.6038295E-2,2.3693107E-3,-2.0634326E-4,-5.1139315E-5,-3.668168E-4,-9.409185E-5,-1.2774461E-4,-7.271233E-5,1.2135873E-4,-4.3752203E-5,-8.628223E-6,1.4979552E-4,-4.7631394E-5,-3.53604E-4,-3.5682493E-5,3.420861E-5,1.0265373E-5,1.5555744E-4,2.513955E-4,-2.3295713E-6,1.3513013E-4,3.4423673E-4,1.876992E-4,8.761155E-5,2.93275E-4,-5.2762964E-5,-2.1662972E-5,1.7441358E-4],"split_indices":[6,6,6,6,6,7,8,4,5,9,8,1,7,9,0,9,5,8,0,3,7,0,3,7,6,0,0,5,8,0,0,0,0,0,0,0,0,0,0,0,0,0,0,0,0,0,0,0,0,0,0,0,0,0,0],"split_type":[0,0,0,0,0,0,0,0,0,0,0,0,0,0,0,0,0,0,0,0,0,0,0,0,0,0,0,0,0,0,0,0,0,0,0,0,0,0,0,0,0,0,0,0,0,0,0,0,0,0,0,0,0,0,0],"sum_hessian":[1.707E3,1.526E3,1.81E2,4.2E2,1.106E3,1.26E2,5.5E1,7.4E1,3.46E2,5.8E2,5.26E2,4.4E1,8.2E1,4.9E1,6E0,5.7E1,1.7E1,2.75E2,7.1E1,5.09E2,7.1E1,4.87E2,3.9E1,2E1,2.4E1,2E1,6.2E1,3.3E1,1.6E1,4.4E1,1.3E1,1.3E1,4E0,6.4E1,2.11E2,8E0,6.3E1,5.02E2,7E0,6.8E1,3E0,3.9E1,4.48E2,1.4E1,2.5E1,4E0,1.6E1,1.1E1,1.3E1,2.1E1,4.1E1,3.2E1,1E0,4E0,1.2E1],"tree_param":{"num_deleted":"0","num_feature":"10","num_nodes":"55","size_leaf_vector":"1"}},{"base_weights":[8.3196E-7,-5.493189E-5,3.6122353E-4,-3.2236575E-4,-6.224904E-6,3.038114E-4,8.876098E-4,-7.273791E-4,-2.7992515E-4,-6.4308E-5,6.576776E-5,2.9319926E-4,2.8918756E-4,1.0621389E-3,7.35527E-5,-3.9831866E-4,-9.9709956E-5,-2.453073E-4,-5.6145305E-4,-5.7291305E-5,-4.5831583E-4,2.710723E-4,5.1981777E-5,1.1125995E-4,3.4436188E-4,1.1472094E-3,-4.4848493E-5,-6.550129E-5,-2.263343E-4,-2.226186E-4,1.3154327E-5,-1.9509618E-5,1.8118907E-4,-2.238784E-4,1.9628233E-4,1.4862657E-4,1.6821452E-5,1.2565567E-5,1.0554623E-4,5.2964882E-5,-2.0511255E-4,1.7867686E-4,8.0031146E-5,1.1259355E-4,3.8894085E-4],"categories":[],"categories_nodes":[],"categories_segments":[],"categories_sizes":[],"default_left":[0,0,0,0,0,0,0,0,0,0,0,0,0,0,0,0,0,0,0,0,0,0,0,0,0,0,0,0,0,0,0,0,0,0,0,0,0,0,0,0,0,0,0,0,0],"id":8,"left_children":[1,3,5,7,9,11,13,15,17,19,21,-1,23,25,-1,-1,-1,27,29,31,33,35,37,39,41,43,-1,-1,-1,-1,-1,-1,-1,-1,-1,-1,-1,-1,-1,-1,-1,-1,-1,-1,-1],"loss_changes":[3.4345216E-5,1.9276322E-5,6.6509347E-6,3.7154841E-6,5.2437204E-6,1.7660514E-6,2.2063068E-6,4.5387687E-6,1.889417E-6,1.8923972E-6,1.5708911E-6,0E0,1.9741783E-6,1.9237668E-6,0E0,0E0,0E0,2.4030378E-6,2.4376382E-6,3.5352875E-6,4.3326436E-6,1.6604574E-6,1.5776454E-6,2.715869E-6,2.8820396E-6,1.3568351E-6,0E0,0E0,0E0,0E0,0E0,0E0,0E0,0E0,0E0,0E0,0E0,0E0,0E0,0E0,0E0,0E0,0E0,0E0,0E0],"parents":[2147483647,0,0,1,1,2,2,3,3,4,4,5,5,6,6,7,7,8,8,9,9,10,10,12,12,13,13,17,17,18,18,19,19,20,20,21,21,22,22,23,23,24,24,25,25],"right_children":[2,4,6,8,10,12,14,16,18,20,22,-1,24,26,-1,-1,-1,28,30,32,34,36,38,40,42,44,-1,-1,-1,-1,-1,-1,-1,-1,-1,-1,-1,-1,-1,-1,-1,-1,-1,-1,-1],"split_conditions":[2.334686E-3,-2.3121536E-3,1.1072222E-2,-8.017256E-3,2.6372634E-4,1.8883906E-3,1.4072098E-3,-4.2009316E-3,-9.757243E-4,2.6638731E-3,3.8231537E-4,2.9319926E-4,1.4301054E-3,1.6038295E-2,7.35527E-5,-3.9831866E-4,-9.9709956E-5,5.1217163E-3,2.310928E-3,3.6416687E-3,4.9370863E-3,-1.8961728E-4,4.5749955E-3,5.28818E-3,2.4429448E-3,5.159937E-4,-4.4848493E-5,-6.550129E-5,-2.263343E-4,-2.226186E-4,1.3154327E-5,-1.9509618E-5,1.8118907E-4,-2.238784E-4,1.9628233E-4,1.4862657E-4,1.6821452E-5,1.2565567E-5,1.0554623E-4,5.2964882E-5,-2.0511255E-4,1.7867686E-4,8.0031146E-5,1.1259355E-4,3.8894085E-4],"split_indices":[6,6,7,6,6,7,9,8,1,1,1,0,0,5,0,0,0,2,0,3,1,3,3,5,0,8,0,0,0,0,0,0,0,0,0,0,0,0,0,0,0,0,0,0,0],"split_type":[0,0,0,0,0,0,0,0,0,0,0,0,0,0,0,0,0,0,0,0,0,0,0,0,0,0,0,0,0,0,0,0,0,0,0,0,0,0,0,0,0,0,0,0,0],"sum_hessian":[1.707E3,1.479E3,2.28E2,2.27E2,1.252E3,2.07E2,2.1E1,2E1,2.07E2,6.93E2,5.59E2,3E0,2.04E2,1.6E1,5E0,7E0,1.3E1,1.86E2,2.1E1,6.82E2,1.1E1,3.4E1,5.25E2,4.9E1,1.55E2,1.5E1,1E0,1.78E2,8E0,1.6E1,5E0,6.75E2,7E0,9E0,2E0,1.6E1,1.8E1,5.09E2,1.6E1,4.6E1,3E0,3.5E1,1.2E2,3E0,1.2E1],"tree_param":{"num_deleted":"0","num_feature":"10","num_nodes":"45","size_leaf_vector":"1"}},{"base_weights":[7.862933E-7,-3.4791676E-5,2.9928502E-4,-1.6181201E-4,2.3595692E-5,2.0765781E-4,5.017381E-4,-3.3930075E-4,-1.10125926E-4,6.948686E-6,1.4096766E-4,3.8738915E-4,1.5291167E-4,4.1533966E-4,3.1415798E-4,-2.3902043E-4,-5.3322193E-4,-8.63788E-5,-4.121212E-4,-1.6571656E-4,1.06168945E-5,1.8761845E-4,-2.2919632E-4,1.4641596E-4,8.3059666E-4,-8.462604E-5,1.7905081E-4,2.0927005E-4,9.820311E-5,-9.617351E-5,9.205571E-5,-2.7504764E-4,-8.296218E-5,-3.305848E-5,2.6928716E-5,-1.4858006E-4,1.2543992E-4,1.9384383E-6,1.2818677E-4,3.9773393E-5,1.5010487E-4,-1.2522293E-4,1.1782291E-4,7.719814E-5,-1.08468164E-4,4.8107328E-4,8.107101E-5,1.6071448E-4,4.1893054E-5],"categories":[],"categories_nodes":[],"categories_segments":[],"categories_sizes":[],"default_left":[0,0,0,0,0,0,0,0,0,0,0,0,0,0,0,0,0,0,0,0,0,0,0,0,0,0,0,0,0,0,0,0,0,0,0,0,0,0,0,0,0,0,0,0,0,0,0,0,0],"id":9,"left_children":[1,3,5,7,9,11,13,15,17,19,21,23,25,27,-1,29,31,33,35,-1,37,39,41,43,45,-1,47,-1,-1,-1,-1,-1,-1,-1,-1,-1,-1,-1,-1,-1,-1,-1,-1,-1,-1,-1,-1,-1,-1],"loss_changes":[1.8149336E-5,1.1328634E-5,3.2719508E-6,4.3751834E-6,2.044745E-6,1.1903921E-6,2.2041404E-6,1.9727677E-6,2.6465495E-6,1.8893854E-6,2.2878992E-6,2.9756206E-6,1.1761858E-6,1.0133981E-6,0E0,3.3483489E-6,3.2911603E-6,1.4697521E-6,2.0709526E-6,0E0,1.5780569E-6,1.9303575E-6,1.9197946E-6,1.2198448E-6,3.8981298E-6,0E0,1.2463763E-6,0E0,0E0,0E0,0E0,0E0,0E0,0E0,0E0,0E0,0E0,0E0,0E0,0E0,0E0,0E0,0E0,0E0,0E0,0E0,0E0,0E0,0E0],"parents":[2147483647,0,0,1,1,2,2,3,3,4,4,5,5,6,6,7,7,8,8,9,9,10,10,11,11,12,12,13,13,15,15,16,16,17,17,18,18,20,20,21,21,22,22,23,23,24,24,26,26],"right_children":[2,4,6,8,10,12,14,16,18,20,22,24,26,28,-1,30,32,34,36,-1,38,40,42,44,46,-1,48,-1,-1,-1,-1,-1,-1,-1,-1,-1,-1,-1,-1,-1,-1,-1,-1,-1,-1,-1,-1,-1,-1],"split_conditions":[3.0273106E-3,-1.1742245E-3,6.1702E-3,-3.909111E-3,4.466079E-3,2.6837867E-3,9.066086E-3,8.166507E-4,-1.0044873E-4,-4.641759E-3,4.125692E-3,2.3843916E-3,-6.210413E-3,4.7264993E-4,3.1415798E-4,-4.9084425E-4,2.4783127E-3,3.3691823E-3,8.352165E-3,-1.6571656E-4,5.261097E-3,2.0049475E-3,9.663893E-3,2.1641771E-3,1.5729778E-3,-8.462604E-5,9.6739084E-4,2.0927005E-4,9.820311E-5,-9.617351E-5,9.205571E-5,-2.7504764E-4,-8.296218E-5,-3.305848E-5,2.6928716E-5,-1.4858006E-4,1.2543992E-4,1.9384383E-6,1.2818677E-4,3.9773393E-5,1.5010487E-4,-1.2522293E-4,1.1782291E-4,7.719814E-5,-1.08468164E-4,4.8107328E-4,8.107101E-5,1.6071448E-4,4.1893054E-5],"split_indices":[6,6,6,6,5,4,8,5,7,2,0,4,8,9,0,5,5,5,2,0,3,6,2,4,8,0,2,0,0,0,0,0,0,0,0,0,0,0,0,0,0,0,0,0,0,0,0,0,0],"split_type":[0,0,0,0,0,0,0,0,0,0,0,0,0,0,0,0,0,0,0,0,0,0,0,0,0,0,0,0,0,0,0,0,0,0,0,0,0,0,0,0,0,0,0,0,0,0,0,0,0],"sum_hessian":[1.707E3,1.526E3,1.81E2,4.8E2,1.046E3,1.26E2,5.5E1,1.07E2,3.73E2,9.17E2,1.29E2,2.8E1,9.8E1,4.9E1,6E0,7.2E1,3.5E1,3.47E2,2.6E1,5E0,9.12E2,1.15E2,1.4E1,1.9E1,9E0,5E0,9.3E1,1E1,3.9E1,6.3E1,9E0,1.3E1,2.2E1,3.06E2,4.1E1,2.4E1,2E0,9.04E2,8E0,9.9E1,1.6E1,1.1E1,3E0,1.6E1,3E0,3E0,6E0,8E0,8.5E1],"tree_param":{"num_deleted":"0","num_feature":"10","num_nodes":"49","size_leaf_vector":"1"}},{"base_weights":[1.1510699E-6,-4.7864807E-5,1.2136142E-4,-2.2539428E-4,-2.45133E-5,9.422976E-5,4.117522E-4,-1.9073131E-4,-5.821268E-4,-4.6363775E-6,-1.09259796E-4,4.7914818E-4,8.625107E-5,5.7801026E-5,6.668163E-4,-2.737237E-4,-3.3229477E-5,-4.3863157E-4,-1.1076303E-4,-5.2016097E-5,5.0769355E-5,-3.0360881E-5,-2.5348613E-4,-1.5683701E-5,2.7442374E-4,6.1511586E-5,2.16051E-4,2.3741768E-4,5.4258857E-7,-3.3101616E-5,-1.08251E-4,1.1056165E-4,-3.82532E-5,-7.050359E-6,-7.1785056E-5,2.3976285E-5,-3.705231E-5,-2.6660578E-5,1.419907E-4,-1.7973695E-4,-4.560543E-5,-1.6140539E-5,2.5870719E-5,1.0383801E-4,-2.623096E-6],"categories":[],"categories_nodes":[],"categories_segments":[],"categories_sizes":[],"default_left":[0,0,0,0,0,0,0,0,0,0,0,0,0,0,0,0,0,0,0,0,0,0,0,0,0,0,0,0,0,0,0,0,0,0,0,0,0,0,0,0,0,0,0,0,0],"id":10,"left_children":[1,3,5,7,9,11,13,15,17,19,21,23,25,-1,27,29,31,-1,-1,33,35,37,39,-1,-1,41,43,-1,-1,-1,-1,-1,-1,-1,-1,-1,-1,-1,-1,-1,-1,-1,-1,-1,-1],"loss_changes":[1.0069713E-5,5.02721E-6,3.861199E-6,1.6324925E-6,1.8086462E-6,1.352973E-6,2.2184836E-6,1.6901936E-6,1.7085213E-6,2.2891097E-6,2.3136815E-6,2.1312176E-6,1.4188984E-6,0E0,1.5726027E-6,1.1699858E-6,1.7894355E-6,0E0,0E0,2.504135E-6,2.0522134E-6,3.96133E-6,2.434042E-6,0E0,0E0,1.0766248E-6,2.0790887E-6,0E0,0E0,0E0,0E0,0E0,0E0,0E0,0E0,0E0,0E0,0E0,0E0,0E0,0E0,0E0,0E0,0E0,0E0],"parents":[2147483647,0,0,1,1,2,2,3,3,4,4,5,5,6,6,7,7,8,8,9,9,10,10,11,11,12,12,14,14,15,15,16,16,19,19,20,20,21,21,22,22,25,25,26,26],"right_children":[2,4,6,8,10,12,14,16,18,20,22,24,26,-1,28,30,32,-1,-1,34,36,38,40,-1,-1,42,44,-1,-1,-1,-1,-1,-1,-1,-1,-1,-1,-1,-1,-1,-1,-1,-1,-1,-1],"split_conditions":[1.1099391E-3,-2.82095E-3,9.368302E-3,4.374181E-3,1.4256686E-3,1.2604296E-3,6.5474473E-3,-4.9084425E-4,4.528583E-3,1.6728509E-4,2.0765858E-3,1.5407614E-4,4.8151407E-3,5.7801026E-5,1.6038295E-2,-1.13043785E-2,1.4158711E-4,-4.3863157E-4,-1.1076303E-4,1.6198494E-3,2.5142827E-3,2.982203E-3,2.2218153E-3,-1.5683701E-5,2.7442374E-4,-2.3677014E-3,8.132126E-3,2.3741768E-4,5.4258857E-7,-3.3101616E-5,-1.08251E-4,1.1056165E-4,-3.82532E-5,-7.050359E-6,-7.1785056E-5,2.3976285E-5,-3.705231E-5,-2.6660578E-5,1.419907E-4,-1.7973695E-4,-4.560543E-5,-1.6140539E-5,2.5870719E-5,1.0383801E-4,-2.623096E-6],"split_indices":[6,7,4,2,9,7,8,5,2,4,2,4,6,0,5,5,5,0,0,2,4,5,5,0,0,8,1,0,0,0,0,0,0,0,0,0,0,0,0,0,0,0,0,0,0],"split_type":[0,0,0,0,0,0,0,0,0,0,0,0,0,0,0,0,0,0,0,0,0,0,0,0,0,0,0,0,0,0,0,0,0,0,0,0,0,0,0,0,0,0,0,0,0],"sum_hessian":[1.707E3,1.213E3,4.94E2,1.4E2,1.073E3,4.53E2,4.1E1,1.29E2,1.1E1,8.7E2,2.03E2,8E0,4.45E2,2.3E1,1.8E1,8.4E1,4.5E1,1E0,1E1,4.69E2,4.01E2,1.32E2,7.1E1,4E0,4E0,3.75E2,7E1,1.5E1,3E0,3E1,5.4E1,8E0,3.7E1,4.08E2,6.1E1,3.44E2,5.7E1,1.19E2,1.3E1,1.5E1,5.6E1,6.6E1,3.09E2,4.4E1,2.6E1],"tree_param":{"num_deleted":"0","num_feature":"10","num_nodes":"45","size_leaf_vector":"1"}},{"base_weights":[7.150504E-7,-7.4374715E-5,4.1444506E-5,-2.5031576E-4,-5.8996477E-5,2.898276E-5,2.750297E-4,-1.9233978E-4,-3.1675273E-4,1.3191093E-4,-6.525907E-5,2.778877E-4,2.7249298E-5,6.468676E-5,2.2024578E-4,-6.846293E-5,1.1935989E-4,-1.3257773E-4,-5.6001743E-5,-8.645796E-5,4.267526E-5,-6.8827026E-6,-4.0064384E-5,9.2555616E-5,-3.4755187E-5,-1.9544772E-4,1.3690239E-5],"categories":[],"categories_nodes":[],"categories_segments":[],"categories_sizes":[],"default_left":[0,0,0,0,0,0,0,0,0,0,0,0,0,0,0,0,0,0,0,0,0,0,0,0,0,0,0],"id":11,"left_children":[1,3,5,7,9,11,13,15,-1,-1,17,-1,19,-1,-1,-1,-1,-1,21,23,25,-1,-1,-1,-1,-1,-1],"loss_changes":[5.22677E-6,1.6113361E-6,3.2172834E-6,2.0385773E-6,1.7589207E-6,1.6126501E-6,1.3691115E-6,1.0646479E-6,0E0,0E0,1.8860867E-6,0E0,1.8489438E-6,0E0,0E0,0E0,0E0,0E0,1.3710423E-6,1.4985278E-6,1.933743E-6,0E0,0E0,0E0,0E0,0E0,0E0],"parents":[2147483647,0,0,1,1,2,2,3,3,4,4,5,5,6,6,7,7,10,10,12,12,18,18,19,19,20,20],"right_children":[2,4,6,8,10,12,14,16,-1,-1,18,-1,20,-1,-1,-1,-1,-1,22,24,26,-1,-1,-1,-1,-1,-1],"split_conditions":[-7.730108E-4,-6.879553E-3,6.1702E-3,-1.9275993E-3,-6.4122193E-3,-3.7398115E-3,1.1556637E-2,9.2532113E-4,-3.1675273E-4,1.3191093E-4,-5.9961956E-3,2.778877E-4,-1.3032928E-3,6.468676E-5,2.2024578E-4,-6.846293E-5,1.1935989E-4,-1.3257773E-4,-6.6526607E-4,-6.73363E-4,-2.7490035E-3,-6.8827026E-6,-4.0064384E-5,9.2555616E-5,-3.4755187E-5,-1.9544772E-4,1.3690239E-5],"split_indices":[6,1,6,3,7,3,0,0,0,0,6,0,5,0,0,0,0,0,7,6,3,0,0,0,0,0,0],"split_type":[0,0,0,0,0,0,0,0,0,0,0,0,0,0,0,0,0,0,0,0,0,0,0,0,0,0,0],"sum_hessian":[1.707E3,6E2,1.107E3,4.7E1,5.53E2,1.052E3,5.5E1,4.5E1,2E0,6E0,5.47E2,1E0,1.051E3,5E1,5E0,4.3E1,2E0,1.2E1,5.35E2,1.25E2,9.26E2,3.76E2,1.59E2,8E0,1.17E2,3E0,9.23E2],"tree_param":{"num_deleted":"0","num_feature":"10","num_nodes":"27","size_leaf_vector":"1"}},{"base_weights":[5.7393913E-7,-2.8750728E-5,6.598516E-5,-1.2244594E-4,-9.9634235E-6,5.1687908E-5,2.442919E-4,-1.9989639E-4,-1.0187226E-4,1.3251932E-4,-1.31862225E-5,8.996047E-5,1.2971138E-5,3.341957E-4,-2.7756068E-5,1.098971E-6,-1.6145148E-4,-2.0165027E-5,1.8727241E-4,-1.1186147E-4,1.1874499E-4,-3.935893E-5,4.2276813E-5,-3.3835938E-6,-7.904874E-5,2.9692462E-6,-2.3701727E-5,1.2969994E-4,-4.068678E-5],"categories":[],"categories_nodes":[],"categories_segments":[],"categories_sizes":[],"default_left":[0,0,0,0,0,0,0,0,0,0,0,0,0,0,0,0,0,0,0,0,0,0,0,0,0,0,0,0,0],"id":12,"left_children":[1,3,5,7,9,11,13,-1,15,-1,17,-1,-1,19,-1,21,23,25,27,-1,-1,-1,-1,-1,-1,-1,-1,-1,-1],"loss_changes":[3.2781181E-6,2.0759112E-6,1.3359509E-6,2.1364551E-6,1.438254E-6,1.0168178E-6,1.2118664E-6,0E0,1.1719517E-6,0E0,1.3719607E-6,0E0,0E0,1.4982627E-6,0E0,1.3318493E-6,1.8512669E-6,1.6741617E-6,2.6698867E-6,0E0,0E0,0E0,0E0,0E0,0E0,0E0,0E0,0E0,0E0],"parents":[2147483647,0,0,1,1,2,2,3,3,4,4,5,5,6,6,8,8,10,10,13,13,15,15,16,16,17,17,18,18],"right_children":[2,4,6,8,10,12,14,-1,16,-1,18,-1,-1,20,-1,22,24,26,28,-1,-1,-1,-1,-1,-1,-1,-1,-1,-1],"split_conditions":[9.907298E-4,-4.6963803E-3,1.0720633E-2,-8.017256E-3,-1.015906E-2,6.546043E-4,1.6038295E-2,-1.9989639E-4,5.320832E-5,1.3251932E-4,3.4147575E-3,8.996047E-5,1.2971138E-5,2.2251476E-3,-2.7756068E-5,-6.9822483E-3,-6.587345E-3,1.5468262E-3,1.1512041E-3,-1.1186147E-4,1.1874499E-4,-3.935893E-5,4.2276813E-5,-3.3835938E-6,-7.904874E-5,2.9692462E-6,-2.3701727E-5,1.2969994E-4,-4.068678E-5],"split_indices":[6,8,5,6,5,1,5,0,9,0,0,0,0,6,0,8,8,2,9,0,0,0,0,0,0,0,0,0,0],"split_type":[0,0,0,0,0,0,0,0,0,0,0,0,0,0,0,0,0,0,0,0,0,0,0,0,0,0,0,0,0],"sum_hessian":[1.707E3,1.179E3,5.28E2,1.96E2,9.83E2,4.9E2,3.8E1,6E0,1.9E2,6E0,9.77E2,1.5E1,4.75E2,3E1,8E0,7E1,1.2E2,9.45E2,3.2E1,2E0,2.8E1,3.6E1,3.4E1,4.9E1,7.1E1,6.26E2,3.19E2,1.8E1,1.4E1],"tree_param":{"num_deleted":"0","num_feature":"10","num_nodes":"29","size_leaf_vector":"1"}},{"base_weights":[4.0376864E-7,-7.212379E-5,1.8086686E-5,-9.537131E-5,9.6904085E-5,7.5846474E-6,1.3521488E-4,-6.452165E-5,-2.3829336E-4,3.133826E-4,-4.3820248E-5,-7.5672644E-5,1.21846515E-5,-5.4505337E-5,1.9835218E-4,2.1881435E-5,-1.20714736E-4,-1.09685505E-4,-1.8557019E-5,2.5075562E-5,1.9080749E-4,1.6316431E-4,3.836425E-6,1.7973349E-5,-1.5092612E-4,1.1579782E-4,7.184967E-5,-3.16547E-5,5.14322E-5,-4.6349385E-5,5.0295857E-5,8.977325E-5,-4.7393274E-5,-5.5164346E-5,3.027094E-6,-1.4751384E-4,4.267953E-5],"categories":[],"categories_nodes":[],"categories_segments":[],"categories_sizes":[],"default_left":[0,0,0,0,0,0,0,0,0,0,0,0,0,0,0,0,0,0,0,0,0,0,0,0,0,0,0,0,0,0,0,0,0,0,0,0,0],"id":13,"left_children":[1,3,5,7,9,11,13,15,17,19,-1,-1,21,23,25,27,29,-1,-1,-1,-1,31,33,-1,-1,-1,35,-1,-1,-1,-1,-1,-1,-1,-1,-1,-1],"loss_changes":[2.1918124E-6,1.3256173E-6,1.6891108E-6,1.2853088E-6,2.2022982E-6,1.5114213E-6,1.3643732E-6,1.1873238E-6,1.1455534E-6,1.5779697E-6,0E0,0E0,1.5635457E-6,1.5185701E-6,1.9899112E-6,1.8662704E-6,1.4677155E-6,0E0,0E0,0E0,0E0,2.887835E-6,1.3836117E-6,0E0,0E0,0E0,2.1334947E-6,0E0,0E0,0E0,0E0,0E0,0E0,0E0,0E0,0E0,0E0],"parents":[2147483647,0,0,1,1,2,2,3,3,4,4,5,5,6,6,7,7,8,8,9,9,12,12,13,13,14,14,15,15,16,16,21,21,22,22,26,26],"right_children":[2,4,6,8,10,12,14,16,18,20,-1,-1,22,24,26,28,30,-1,-1,-1,-1,32,34,-1,-1,-1,36,-1,-1,-1,-1,-1,-1,-1,-1,-1,-1],"split_conditions":[-1.7698221E-3,3.8840622E-4,7.091511E-3,-1.7219968E-3,1.8984973E-3,-2.990853E-3,3.543485E-3,-4.317502E-3,-2.0795558E-3,1.2799818E-4,-4.3820248E-5,-7.5672644E-5,-1.7007934E-3,1.601167E-3,2.410967E-3,-4.4667367E-3,4.039962E-3,-1.09685505E-4,-1.8557019E-5,2.5075562E-5,1.9080749E-4,-7.730108E-4,-1.452595E-3,1.7973349E-5,-1.5092612E-4,1.1579782E-4,1.3951622E-3,-3.16547E-5,5.14322E-5,-4.6349385E-5,5.0295857E-5,8.977325E-5,-4.7393274E-5,-5.5164346E-5,3.027094E-6,-1.4751384E-4,4.267953E-5],"split_indices":[6,3,8,1,3,0,5,2,6,4,0,0,4,9,1,4,5,0,0,0,0,6,4,0,0,0,6,0,0,0,0,0,0,0,0,0,0],"split_type":[0,0,0,0,0,0,0,0,0,0,0,0,0,0,0,0,0,0,0,0,0,0,0,0,0,0,0,0,0,0,0,0,0,0,0,0,0],"sum_hessian":[1.707E3,3.34E2,1.373E3,2.94E2,4E1,1.261E3,1.12E2,2.43E2,5.1E1,2.1E1,1.9E1,2.1E1,1.24E3,2.8E1,8.4E1,9.6E1,1.47E2,2.9E1,2.2E1,1.3E1,8E0,6.4E1,1.176E3,2.3E1,5E0,3.3E1,5.1E1,5.2E1,4.4E1,1.32E2,1.5E1,4.5E1,1.9E1,3.7E1,1.139E3,5E0,4.6E1],"tree_param":{"num_deleted":"0","num_feature":"10","num_nodes":"37","size_leaf_vector":"1"}},{"base_weights":[2.0073213E-7,-5.0543393E-5,6.444179E-6,-2.655106E-6,1.07626336E-4,-7.477492E-8,-3.0037985E-4,2.595271E-4,2.5210875E-5,-8.7049215E-5,8.724746E-6,6.9624686E-5,-1.4499802E-4,-1.28720185E-5,-8.266536E-5,7.860009E-5,1.4856242E-6],"categories":[],"categories_nodes":[],"categories_segments":[],"categories_sizes":[],"default_left":[0,0,0,0,0,0,0,0,0,0,0,0,0,0,0,0,0],"id":14,"left_children":[1,-1,3,5,7,9,11,-1,-1,13,15,-1,-1,-1,-1,-1,-1],"loss_changes":[1.799843E-6,0E0,1.517575E-6,1.1623073E-6,2.3574366E-6,1.1495249E-6,1.378531E-6,0E0,0E0,1.1364675E-6,1.3020374E-6,0E0,0E0,0E0,0E0,0E0,0E0],"parents":[2147483647,0,0,2,2,3,3,4,4,5,5,6,6,9,9,10,10],"right_children":[2,-1,4,6,8,10,12,-1,-1,14,16,-1,-1,-1,-1,-1,-1],"split_conditions":[-7.0421025E-4,-5.0543393E-5,3.8873963E-3,6.547854E-3,2.6837867E-3,-2.82095E-3,-1.2736917E-3,2.595271E-4,2.5210875E-5,-3.385771E-3,-7.5882263E-3,6.9624686E-5,-1.4499802E-4,-1.28720185E-5,-8.266536E-5,7.860009E-5,1.4856242E-6],"split_indices":[9,0,6,4,4,7,8,0,0,7,5,0,0,0,0,0,0],"split_type":[0,0,0,0,0,0,0,0,0,0,0,0,0,0,0,0,0],"sum_hessian":[1.707E3,6E1,1.647E3,1.512E3,1.35E2,1.5E3,1.2E1,3E0,1.32E2,1.37E2,1.363E3,3E0,9E0,1.12E2,2.5E1,1.9E1,1.344E3],"tree_param":{"num_deleted":"0","num_feature":"10","num_nodes":"17","size_leaf_vector":"1"}},{"base_weights":[2.244441E-7,-4.246086E-5,1.694383E-5,3.699971E-5,-7.788777E-5,3.9357064E-6,7.084636E-5,-5.8678797E-6,1.1105973E-4,-4.8764596E-5,-2.3432716E-4,-1.05810796E-4,1.6199945E-5,-1.2376886E-4,4.115339E-5,-6.234157E-6,-3.374561E-4,-4.2118376E-5,2.3391422E-5,-2.2072383E-4,-3.326283E-5,-5.0905695E-5,3.20274E-5,-1.3434576E-4,-5.0299595E-6],"categories":[],"categories_nodes":[],"categories_segments":[],"categories_sizes":[],"default_left":[0,0,0,0,0,0,0,0,0,0,0,0,0,0,0,0,0,0,0,0,0,0,0,0,0],"id":15,"left_children":[1,3,5,7,9,-1,-1,11,-1,13,15,-1,17,19,21,-1,23,-1,-1,-1,-1,-1,-1,-1,-1],"loss_changes":[1.2196713E-6,1.3569177E-6,1.026505E-6,2.130407E-6,1.5057253E-6,0E0,0E0,1.0236809E-6,0E0,1.9069666E-6,1.1381749E-6,0E0,1.2297539E-6,1.1334957E-6,1.8024449E-6,0E0,1.2312216E-6,0E0,0E0,0E0,0E0,0E0,0E0,0E0,0E0],"parents":[2147483647,0,0,1,1,2,2,3,3,4,4,7,7,9,9,10,10,12,12,13,13,14,14,16,16],"right_children":[2,4,6,8,10,-1,-1,12,-1,14,16,-1,18,20,22,-1,24,-1,-1,-1,-1,-1,-1,-1,-1],"split_conditions":[-2.3677014E-3,4.0322542E-5,1.1072222E-2,-2.818454E-3,-2.818454E-3,3.9357064E-6,7.084636E-5,-7.674549E-3,1.1105973E-4,6.9572404E-4,-1.0911338E-3,-1.05810796E-4,-6.6159293E-4,-8.017256E-3,-2.1340214E-3,-6.234157E-6,1.9938461E-3,-4.2118376E-5,2.3391422E-5,-2.2072383E-4,-3.326283E-5,-5.0905695E-5,3.20274E-5,-1.3434576E-4,-5.0299595E-6],"split_indices":[8,9,7,8,8,0,0,7,0,9,5,0,9,6,0,0,5,0,0,0,0,0,0,0,0],"split_type":[0,0,0,0,0,0,0,0,0,0,0,0,0,0,0,0,0,0,0,0,0,0,0,0,0],"sum_hessian":[1.707E3,4.8E2,1.227E3,1.48E2,3.32E2,1.207E3,2E1,1.32E2,1.6E1,2.81E2,5.1E1,7E0,1.25E2,1.53E2,1.28E2,1.7E1,3.4E1,3.5E1,9E1,2E0,1.51E2,3E1,9.8E1,2.5E1,9E0],"tree_param":{"num_deleted":"0","num_feature":"10","num_nodes":"25","size_leaf_vector":"1"}},{"base_weights":[-5.2016958E-8],"categories":[],"categories_nodes":[],"categories_segments":[],"categories_sizes":[],"default_left":[0],"id":16,"left_children":[-1],"loss_changes":[0E0],"parents":[2147483647],"right_children":[-1],"split_conditions":[-1.5605089E-8],"split_indices":[0],"split_type":[0],"sum_hessian":[1.707E3],"tree_param":{"num_deleted":"0","num_feature":"10","num_nodes":"1","size_leaf_vector":"1"}},{"base_weights":[-3.6391814E-8],"categories":[],"categories_nodes":[],"categories_segments":[],"categories_sizes":[],"default_left":[0],"id":17,"left_children":[-1],"loss_changes":[0E0],"parents":[2147483647],"right_children":[-1],"split_conditions":[-1.0917544E-8],"split_indices":[0],"split_type":[0],"sum_hessian":[1.707E3],"tree_param":{"num_deleted":"0","num_feature":"10","num_nodes":"1","size_leaf_vector":"1"}},{"base_weights":[-2.5478883E-8],"categories":[],"categories_nodes":[],"categories_segments":[],"categories_sizes":[],"default_left":[0],"id":18,"left_children":[-1],"loss_changes":[0E0],"parents":[2147483647],"right_children":[-1],"split_conditions":[-7.643665E-9],"split_indices":[0],"split_type":[0],"sum_hessian":[1.707E3],"tree_param":{"num_deleted":"0","num_feature":"10","num_nodes":"1","size_leaf_vector":"1"}},{"base_weights":[-1.785099E-8],"categories":[],"categories_nodes":[],"categories_segments":[],"categories_sizes":[],"default_left":[0],"id":19,"left_children":[-1],"loss_changes":[0E0],"parents":[2147483647],"right_children":[-1],"split_conditions":[-5.355297E-9],"split_indices":[0],"split_type":[0],"sum_hessian":[1.707E3],"tree_param":{"num_deleted":"0","num_feature":"10","num_nodes":"1","size_leaf_vector":"1"}},{"base_weights":[-1.24645325E-8],"categories":[],"categories_nodes":[],"categories_segments":[],"categories_sizes":[],"default_left":[0],"id":20,"left_children":[-1],"loss_changes":[0E0],"parents":[2147483647],"right_children":[-1],"split_conditions":[-3.73936E-9],"split_indices":[0],"split_type":[0],"sum_hessian":[1.707E3],"tree_param":{"num_deleted":"0","num_feature":"10","num_nodes":"1","size_leaf_vector":"1"}},{"base_weights":[-8.739924E-9],"categories":[],"categories_nodes":[],"categories_segments":[],"categories_sizes":[],"default_left":[0],"id":21,"left_children":[-1],"loss_changes":[0E0],"parents":[2147483647],"right_children":[-1],"split_conditions":[-2.6219773E-9],"split_indices":[0],"split_type":[0],"sum_hessian":[1.707E3],"tree_param":{"num_deleted":"0","num_feature":"10","num_nodes":"1","size_leaf_vector":"1"}},{"base_weights":[-6.0917618E-9],"categories":[],"categories_nodes":[],"categories_segments":[],"categories_sizes":[],"default_left":[0],"id":22,"left_children":[-1],"loss_changes":[0E0],"parents":[2147483647],"right_children":[-1],"split_conditions":[-1.8275286E-9],"split_indices":[0],"split_type":[0],"sum_hessian":[1.707E3],"tree_param":{"num_deleted":"0","num_feature":"10","num_nodes":"1","size_leaf_vector":"1"}},{"base_weights":[-4.245866E-9],"categories":[],"categories_nodes":[],"categories_segments":[],"categories_sizes":[],"default_left":[0],"id":23,"left_children":[-1],"loss_changes":[0E0],"parents":[2147483647],"right_children":[-1],"split_conditions":[-1.2737598E-9],"split_indices":[0],"split_type":[0],"sum_hessian":[1.707E3],"tree_param":{"num_deleted":"0","num_feature":"10","num_nodes":"1","size_leaf_vector":"1"}},{"base_weights":[-2.9892337E-9],"categories":[],"categories_nodes":[],"categories_segments":[],"categories_sizes":[],"default_left":[0],"id":24,"left_children":[-1],"loss_changes":[0E0],"parents":[2147483647],"right_children":[-1],"split_conditions":[-8.9677016E-10],"split_indices":[0],"split_type":[0],"sum_hessian":[1.707E3],"tree_param":{"num_deleted":"0","num_feature":"10","num_nodes":"1","size_leaf_vector":"1"}},{"base_weights":[-2.073921E-9],"categories":[],"categories_nodes":[],"categories_segments":[],"categories_sizes":[],"default_left":[0],"id":25,"left_children":[-1],"loss_changes":[0E0],"parents":[2147483647],"right_children":[-1],"split_conditions":[-6.221763E-10],"split_indices":[0],"split_type":[0],"sum_hessian":[1.707E3],"tree_param":{"num_deleted":"0","num_feature":"10","num_nodes":"1","size_leaf_vector":"1"}},{"base_weights":[-1.4526786E-9],"categories":[],"categories_nodes":[],"categories_segments":[],"categories_sizes":[],"default_left":[0],"id":26,"left_children":[-1],"loss_changes":[0E0],"parents":[2147483647],"right_children":[-1],"split_conditions":[-4.3580362E-10],"split_indices":[0],"split_type":[0],"sum_hessian":[1.707E3],"tree_param":{"num_deleted":"0","num_feature":"10","num_nodes":"1","size_leaf_vector":"1"}},{"base_weights":[-1.0191372E-9],"categories":[],"categories_nodes":[],"categories_segments":[],"categories_sizes":[],"default_left":[0],"id":27,"left_children":[-1],"loss_changes":[0E0],"parents":[2147483647],"right_children":[-1],"split_conditions":[-3.0574118E-10],"split_indices":[0],"split_type":[0],"sum_hessian":[1.707E3],"tree_param":{"num_deleted":"0","num_feature":"10","num_nodes":"1","size_leaf_vector":"1"}},{"base_weights":[-7.094064E-10],"categories":[],"categories_nodes":[],"categories_segments":[],"categories_sizes":[],"default_left":[0],"id":28,"left_children":[-1],"loss_changes":[0E0],"parents":[2147483647],"right_children":[-1],"split_conditions":[-2.1282194E-10],"split_indices":[0],"split_type":[0],"sum_hessian":[1.707E3],"tree_param":{"num_deleted":"0","num_feature":"10","num_nodes":"1","size_leaf_vector":"1"}},{"base_weights":[-5.153912E-10],"categories":[],"categories_nodes":[],"categories_segments":[],"categories_sizes":[],"default_left":[0],"id":29,"left_children":[-1],"loss_changes":[0E0],"parents":[2147483647],"right_children":[-1],"split_conditions":[-1.5461736E-10],"split_indices":[0],"split_type":[0],"sum_hessian":[1.707E3],"tree_param":{"num_deleted":"0","num_feature":"10","num_nodes":"1","size_leaf_vector":"1"}},{"base_weights":[-3.7573472E-10],"categories":[],"categories_nodes":[],"categories_segments":[],"categories_sizes":[],"default_left":[0],"id":30,"left_children":[-1],"loss_changes":[0E0],"parents":[2147483647],"right_children":[-1],"split_conditions":[-1.1272042E-10],"split_indices":[0],"split_type":[0],"sum_hessian":[1.707E3],"tree_param":{"num_deleted":"0","num_feature":"10","num_nodes":"1","size_leaf_vector":"1"}},{"base_weights":[-3.0052144E-10],"categories":[],"categories_nodes":[],"categories_segments":[],"categories_sizes":[],"default_left":[0],"id":31,"left_children":[-1],"loss_changes":[0E0],"parents":[2147483647],"right_children":[-1],"split_conditions":[-9.015644E-11],"split_indices":[0],"split_type":[0],"sum_hessian":[1.707E3],"tree_param":{"num_deleted":"0","num_feature":"10","num_nodes":"1","size_leaf_vector":"1"}},{"base_weights":[-2.3105905E-10],"categories":[],"categories_nodes":[],"categories_segments":[],"categories_sizes":[],"default_left":[0],"id":32,"left_children":[-1],"loss_changes":[0E0],"parents":[2147483647],"right_children":[-1],"split_conditions":[-6.931772E-11],"split_indices":[0],"split_type":[0],"sum_hessian":[1.707E3],"tree_param":{"num_deleted":"0","num_feature":"10","num_nodes":"1","size_leaf_vector":"1"}},{"base_weights":[-1.7553514E-10],"categories":[],"categories_nodes":[],"categories_segments":[],"categories_sizes":[],"default_left":[0],"id":33,"left_children":[-1],"loss_changes":[0E0],"parents":[2147483647],"right_children":[-1],"split_conditions":[-5.2660546E-11],"split_indices":[0],"split_type":[0],"sum_hessian":[1.707E3],"tree_param":{"num_deleted":"0","num_feature":"10","num_nodes":"1","size_leaf_vector":"1"}},{"base_weights":[-1.5498418E-10],"categories":[],"categories_nodes":[],"categories_segments":[],"categories_sizes":[],"default_left":[0],"id":34,"left_children":[-1],"loss_changes":[0E0],"parents":[2147483647],"right_children":[-1],"split_conditions":[-4.6495256E-11],"split_indices":[0],"split_type":[0],"sum_hessian":[1.707E3],"tree_param":{"num_deleted":"0","num_feature":"10","num_nodes":"1","size_leaf_vector":"1"}},{"base_weights":[-1.3551205E-10],"categories":[],"categories_nodes":[],"categories_segments":[],"categories_sizes":[],"default_left":[0],"id":35,"left_children":[-1],"loss_changes":[0E0],"parents":[2147483647],"right_children":[-1],"split_conditions":[-4.0653616E-11],"split_indices":[0],"split_type":[0],"sum_hessian":[1.707E3],"tree_param":{"num_deleted":"0","num_feature":"10","num_nodes":"1","size_leaf_vector":"1"}},{"base_weights":[-1.1839991E-10],"categories":[],"categories_nodes":[],"categories_segments":[],"categories_sizes":[],"default_left":[0],"id":36,"left_children":[-1],"loss_changes":[0E0],"parents":[2147483647],"right_children":[-1],"split_conditions":[-3.5519976E-11],"split_indices":[0],"split_type":[0],"sum_hessian":[1.707E3],"tree_param":{"num_deleted":"0","num_feature":"10","num_nodes":"1","size_leaf_vector":"1"}},{"base_weights":[-1.0261688E-10],"categories":[],"categories_nodes":[],"categories_segments":[],"categories_sizes":[],"default_left":[0],"id":37,"left_children":[-1],"loss_changes":[0E0],"parents":[2147483647],"right_children":[-1],"split_conditions":[-3.0785065E-11],"split_indices":[0],"split_type":[0],"sum_hessian":[1.707E3],"tree_param":{"num_deleted":"0","num_feature":"10","num_nodes":"1","size_leaf_vector":"1"}},{"base_weights":[-8.702235E-11],"categories":[],"categories_nodes":[],"categories_segments":[],"categories_sizes":[],"default_left":[0],"id":38,"left_children":[-1],"loss_changes":[0E0],"parents":[2147483647],"right_children":[-1],"split_conditions":[-2.6106705E-11],"split_indices":[0],"split_type":[0],"sum_hessian":[1.707E3],"tree_param":{"num_deleted":"0","num_feature":"10","num_nodes":"1","size_leaf_vector":"1"}},{"base_weights":[-8.218307E-11],"categories":[],"categories_nodes":[],"categories_segments":[],"categories_sizes":[],"default_left":[0],"id":39,"left_children":[-1],"loss_changes":[0E0],"parents":[2147483647],"right_children":[-1],"split_conditions":[-2.4654922E-11],"split_indices":[0],"split_type":[0],"sum_hessian":[1.707E3],"tree_param":{"num_deleted":"0","num_feature":"10","num_nodes":"1","size_leaf_vector":"1"}},{"base_weights":[-7.68752E-11],"categories":[],"categories_nodes":[],"categories_segments":[],"categories_sizes":[],"default_left":[0],"id":40,"left_children":[-1],"loss_changes":[0E0],"parents":[2147483647],"right_children":[-1],"split_conditions":[-2.306256E-11],"split_indices":[0],"split_type":[0],"sum_hessian":[1.707E3],"tree_param":{"num_deleted":"0","num_feature":"10","num_nodes":"1","size_leaf_vector":"1"}},{"base_weights":[-7.1838896E-11],"categories":[],"categories_nodes":[],"categories_segments":[],"categories_sizes":[],"default_left":[0],"id":41,"left_children":[-1],"loss_changes":[0E0],"parents":[2147483647],"right_children":[-1],"split_conditions":[-2.155167E-11],"split_indices":[0],"split_type":[0],"sum_hessian":[1.707E3],"tree_param":{"num_deleted":"0","num_feature":"10","num_nodes":"1","size_leaf_vector":"1"}},{"base_weights":[-6.727652E-11],"categories":[],"categories_nodes":[],"categories_segments":[],"categories_sizes":[],"default_left":[0],"id":42,"left_children":[-1],"loss_changes":[0E0],"parents":[2147483647],"right_children":[-1],"split_conditions":[-2.0182956E-11],"split_indices":[0],"split_type":[0],"sum_hessian":[1.707E3],"tree_param":{"num_deleted":"0","num_feature":"10","num_nodes":"1","size_leaf_vector":"1"}},{"base_weights":[-6.3439386E-11],"categories":[],"categories_nodes":[],"categories_segments":[],"categories_sizes":[],"default_left":[0],"id":43,"left_children":[-1],"loss_changes":[0E0],"parents":[2147483647],"right_children":[-1],"split_conditions":[-1.9031816E-11],"split_indices":[0],"split_type":[0],"sum_hessian":[1.707E3],"tree_param":{"num_deleted":"0","num_feature":"10","num_nodes":"1","size_leaf_vector":"1"}},{"base_weights":[-5.950747E-11],"categories":[],"categories_nodes":[],"categories_segments":[],"categories_sizes":[],"default_left":[0],"id":44,"left_children":[-1],"loss_changes":[0E0],"parents":[2147483647],"right_children":[-1],"split_conditions":[-1.785224E-11],"split_indices":[0],"split_type":[0],"sum_hessian":[1.707E3],"tree_param":{"num_deleted":"0","num_feature":"10","num_nodes":"1","size_leaf_vector":"1"}},{"base_weights":[-5.5481838E-11],"categories":[],"categories_nodes":[],"categories_segments":[],"categories_sizes":[],"default_left":[0],"id":45,"left_children":[-1],"loss_changes":[0E0],"parents":[2147483647],"right_children":[-1],"split_conditions":[-1.6644552E-11],"split_indices":[0],"split_type":[0],"sum_hessian":[1.707E3],"tree_param":{"num_deleted":"0","num_feature":"10","num_nodes":"1","size_leaf_vector":"1"}},{"base_weights":[-5.1344384E-11],"categories":[],"categories_nodes":[],"categories_segments":[],"categories_sizes":[],"default_left":[0],"id":46,"left_children":[-1],"loss_changes":[0E0],"parents":[2147483647],"right_children":[-1],"split_conditions":[-1.5403316E-11],"split_indices":[0],"split_type":[0],"sum_hessian":[1.707E3],"tree_param":{"num_deleted":"0","num_feature":"10","num_nodes":"1","size_leaf_vector":"1"}},{"base_weights":[-4.730597E-11],"categories":[],"categories_nodes":[],"categories_segments":[],"categories_sizes":[],"default_left":[0],"id":47,"left_children":[-1],"loss_changes":[0E0],"parents":[2147483647],"right_children":[-1],"split_conditions":[-1.4191792E-11],"split_indices":[0],"split_type":[0],"sum_hessian":[1.707E3],"tree_param":{"num_deleted":"0","num_feature":"10","num_nodes":"1","size_leaf_vector":"1"}},{"base_weights":[-4.614727E-11],"categories":[],"categories_nodes":[],"categories_segments":[],"categories_sizes":[],"default_left":[0],"id":48,"left_children":[-1],"loss_changes":[0E0],"parents":[2147483647],"right_children":[-1],"split_conditions":[-1.3844182E-11],"split_indices":[0],"split_type":[0],"sum_hessian":[1.707E3],"tree_param":{"num_deleted":"0","num_feature":"10","num_nodes":"1","size_leaf_vector":"1"}},{"base_weights":[-4.4903373E-11],"categories":[],"categories_nodes":[],"categories_segments":[],"categories_sizes":[],"default_left":[0],"id":49,"left_children":[-1],"loss_changes":[0E0],"parents":[2147483647],"right_children":[-1],"split_conditions":[-1.34710125E-11],"split_indices":[0],"split_type":[0],"sum_hessian":[1.707E3],"tree_param":{"num_deleted":"0","num_feature":"10","num_nodes":"1","size_leaf_vector":"1"}},{"base_weights":[-4.344328E-11],"categories":[],"categories_nodes":[],"categories_segments":[],"categories_sizes":[],"default_left":[0],"id":50,"left_children":[-1],"loss_changes":[0E0],"parents":[2147483647],"right_children":[-1],"split_conditions":[-1.3032984E-11],"split_indices":[0],"split_type":[0],"sum_hessian":[1.707E3],"tree_param":{"num_deleted":"0","num_feature":"10","num_nodes":"1","size_leaf_vector":"1"}},{"base_weights":[-4.217276E-11],"categories":[],"categories_nodes":[],"categories_segments":[],"categories_sizes":[],"default_left":[0],"id":51,"left_children":[-1],"loss_changes":[0E0],"parents":[2147483647],"right_children":[-1],"split_conditions":[-1.2651828E-11],"split_indices":[0],"split_type":[0],"sum_hessian":[1.707E3],"tree_param":{"num_deleted":"0","num_feature":"10","num_nodes":"1","size_leaf_vector":"1"}},{"base_weights":[-4.1138662E-11],"categories":[],"categories_nodes":[],"categories_segments":[],"categories_sizes":[],"default_left":[0],"id":52,"left_children":[-1],"loss_changes":[0E0],"parents":[2147483647],"right_children":[-1],"split_conditions":[-1.2341599E-11],"split_indices":[0],"split_type":[0],"sum_hessian":[1.707E3],"tree_param":{"num_deleted":"0","num_feature":"10","num_nodes":"1","size_leaf_vector":"1"}},{"base_weights":[-3.977016E-11],"categories":[],"categories_nodes":[],"categories_segments":[],"categories_sizes":[],"default_left":[0],"id":53,"left_children":[-1],"loss_changes":[0E0],"parents":[2147483647],"right_children":[-1],"split_conditions":[-1.1931048E-11],"split_indices":[0],"split_type":[0],"sum_hessian":[1.707E3],"tree_param":{"num_deleted":"0","num_feature":"10","num_nodes":"1","size_leaf_vector":"1"}},{"base_weights":[-3.8348408E-11],"categories":[],"categories_nodes":[],"categories_segments":[],"categories_sizes":[],"default_left":[0],"id":54,"left_children":[-1],"loss_changes":[0E0],"parents":[2147483647],"right_children":[-1],"split_conditions":[-1.1504523E-11],"split_indices":[0],"split_type":[0],"sum_hessian":[1.707E3],"tree_param":{"num_deleted":"0","num_feature":"10","num_nodes":"1","size_leaf_vector":"1"}},{"base_weights":[-3.689151E-11],"categories":[],"categories_nodes":[],"categories_segments":[],"categories_sizes":[],"default_left":[0],"id":55,"left_children":[-1],"loss_changes":[0E0],"parents":[2147483647],"right_children":[-1],"split_conditions":[-1.1067453E-11],"split_indices":[0],"split_type":[0],"sum_hessian":[1.707E3],"tree_param":{"num_deleted":"0","num_feature":"10","num_nodes":"1","size_leaf_vector":"1"}},{"base_weights":[-3.571577E-11],"categories":[],"categories_nodes":[],"categories_segments":[],"categories_sizes":[],"default_left":[0],"id":56,"left_children":[-1],"loss_changes":[0E0],"parents":[2147483647],"right_children":[-1],"split_conditions":[-1.0714731E-11],"split_indices":[0],"split_type":[0],"sum_hessian":[1.707E3],"tree_param":{"num_deleted":"0","num_feature":"10","num_nodes":"1","size_leaf_vector":"1"}},{"base_weights":[-3.468061E-11],"categories":[],"categories_nodes":[],"categories_segments":[],"categories_sizes":[],"default_left":[0],"id":57,"left_children":[-1],"loss_changes":[0E0],"parents":[2147483647],"right_children":[-1],"split_conditions":[-1.0404183E-11],"split_indices":[0],"split_type":[0],"sum_hessian":[1.707E3],"tree_param":{"num_deleted":"0","num_feature":"10","num_nodes":"1","size_leaf_vector":"1"}},{"base_weights":[-3.3355773E-11],"categories":[],"categories_nodes":[],"categories_segments":[],"categories_sizes":[],"default_left":[0],"id":58,"left_children":[-1],"loss_changes":[0E0],"parents":[2147483647],"right_children":[-1],"split_conditions":[-1.0006732E-11],"split_indices":[0],"split_type":[0],"sum_hessian":[1.707E3],"tree_param":{"num_deleted":"0","num_feature":"10","num_nodes":"1","size_leaf_vector":"1"}},{"base_weights":[-3.2205592E-11],"categories":[],"categories_nodes":[],"categories_segments":[],"categories_sizes":[],"default_left":[0],"id":59,"left_children":[-1],"loss_changes":[0E0],"parents":[2147483647],"right_children":[-1],"split_conditions":[-9.661678E-12],"split_indices":[0],"split_type":[0],"sum_hessian":[1.707E3],"tree_param":{"num_deleted":"0","num_feature":"10","num_nodes":"1","size_leaf_vector":"1"}},{"base_weights":[-3.1437738E-11],"categories":[],"categories_nodes":[],"categories_segments":[],"categories_sizes":[],"default_left":[0],"id":60,"left_children":[-1],"loss_changes":[0E0],"parents":[2147483647],"right_children":[-1],"split_conditions":[-9.431322E-12],"split_indices":[0],"split_type":[0],"sum_hessian":[1.707E3],"tree_param":{"num_deleted":"0","num_feature":"10","num_nodes":"1","size_leaf_vector":"1"}},{"base_weights":[-3.0228983E-11],"categories":[],"categories_nodes":[],"categories_segments":[],"categories_sizes":[],"default_left":[0],"id":61,"left_children":[-1],"loss_changes":[0E0],"parents":[2147483647],"right_children":[-1],"split_conditions":[-9.0686954E-12],"split_indices":[0],"split_type":[0],"sum_hessian":[1.707E3],"tree_param":{"num_deleted":"0","num_feature":"10","num_nodes":"1","size_leaf_vector":"1"}},{"base_weights":[-2.9047919E-11],"categories":[],"categories_nodes":[],"categories_segments":[],"categories_sizes":[],"default_left":[0],"id":62,"left_children":[-1],"loss_changes":[0E0],"parents":[2147483647],"right_children":[-1],"split_conditions":[-8.714376E-12],"split_indices":[0],"split_type":[0],"sum_hessian":[1.707E3],"tree_param":{"num_deleted":"0","num_feature":"10","num_nodes":"1","size_leaf_vector":"1"}},{"base_weights":[-2.7779525E-11],"categories":[],"categories_nodes":[],"categories_segments":[],"categories_sizes":[],"default_left":[0],"id":63,"left_children":[-1],"loss_changes":[0E0],"parents":[2147483647],"right_children":[-1],"split_conditions":[-8.333858E-12],"split_indices":[0],"split_type":[0],"sum_hessian":[1.707E3],"tree_param":{"num_deleted":"0","num_feature":"10","num_nodes":"1","size_leaf_vector":"1"}},{"base_weights":[-2.6798676E-11],"categories":[],"categories_nodes":[],"categories_segments":[],"categories_sizes":[],"default_left":[0],"id":64,"left_children":[-1],"loss_changes":[0E0],"parents":[2147483647],"right_children":[-1],"split_conditions":[-8.039603E-12],"split_indices":[0],"split_type":[0],"sum_hessian":[1.707E3],"tree_param":{"num_deleted":"0","num_feature":"10","num_nodes":"1","size_leaf_vector":"1"}},{"base_weights":[-2.5737955E-11],"categories":[],"categories_nodes":[],"categories_segments":[],"categories_sizes":[],"default_left":[0],"id":65,"left_children":[-1],"loss_changes":[0E0],"parents":[2147483647],"right_children":[-1],"split_conditions":[-7.721387E-12],"split_indices":[0],"split_type":[0],"sum_hessian":[1.707E3],"tree_param":{"num_deleted":"0","num_feature":"10","num_nodes":"1","size_leaf_vector":"1"}},{"base_weights":[-2.4574995E-11],"categories":[],"categories_nodes":[],"categories_segments":[],"categories_sizes":[],"default_left":[0],"id":66,"left_children":[-1],"loss_changes":[0E0],"parents":[2147483647],"right_children":[-1],"split_conditions":[-7.3724984E-12],"split_indices":[0],"split_type":[0],"sum_hessian":[1.707E3],"tree_param":{"num_deleted":"0","num_feature":"10","num_nodes":"1","size_leaf_vector":"1"}},{"base_weights":[-2.3599471E-11],"categories":[],"categories_nodes":[],"categories_segments":[],"categories_sizes":[],"default_left":[0],"id":67,"left_children":[-1],"loss_changes":[0E0],"parents":[2147483647],"right_children":[-1],"split_conditions":[-7.0798415E-12],"split_indices":[0],"split_type":[0],"sum_hessian":[1.707E3],"tree_param":{"num_deleted":"0","num_feature":"10","num_nodes":"1","size_leaf_vector":"1"}},{"base_weights":[-2.3331096E-11],"categories":[],"categories_nodes":[],"categories_segments":[],"categories_sizes":[],"default_left":[0],"id":68,"left_children":[-1],"loss_changes":[0E0],"parents":[2147483647],"right_children":[-1],"split_conditions":[-6.999329E-12],"split_indices":[0],"split_type":[0],"sum_hessian":[1.707E3],"tree_param":{"num_deleted":"0","num_feature":"10","num_nodes":"1","size_leaf_vector":"1"}},{"base_weights":[-2.304568E-11],"categories":[],"categories_nodes":[],"categories_segments":[],"categories_sizes":[],"default_left":[0],"id":69,"left_children":[-1],"loss_changes":[0E0],"parents":[2147483647],"right_children":[-1],"split_conditions":[-6.9137044E-12],"split_indices":[0],"split_type":[0],"sum_hessian":[1.707E3],"tree_param":{"num_deleted":"0","num_feature":"10","num_nodes":"1","size_leaf_vector":"1"}},{"base_weights":[-2.2709145E-11],"categories":[],"categories_nodes":[],"categories_segments":[],"categories_sizes":[],"default_left":[0],"id":70,"left_children":[-1],"loss_changes":[0E0],"parents":[2147483647],"right_children":[-1],"split_conditions":[-6.812744E-12],"split_indices":[0],"split_type":[0],"sum_hessian":[1.707E3],"tree_param":{"num_deleted":"0","num_feature":"10","num_nodes":"1","size_leaf_vector":"1"}},{"base_weights":[-2.245781E-11],"categories":[],"categories_nodes":[],"categories_segments":[],"categories_sizes":[],"default_left":[0],"id":71,"left_children":[-1],"loss_changes":[0E0],"parents":[2147483647],"right_children":[-1],"split_conditions":[-6.7373433E-12],"split_indices":[0],"split_type":[0],"sum_hessian":[1.707E3],"tree_param":{"num_deleted":"0","num_feature":"10","num_nodes":"1","size_leaf_vector":"1"}},{"base_weights":[-2.2257593E-11],"categories":[],"categories_nodes":[],"categories_segments":[],"categories_sizes":[],"default_left":[0],"id":72,"left_children":[-1],"loss_changes":[0E0],"parents":[2147483647],"right_children":[-1],"split_conditions":[-6.677278E-12],"split_indices":[0],"split_type":[0],"sum_hessian":[1.707E3],"tree_param":{"num_deleted":"0","num_feature":"10","num_nodes":"1","size_leaf_vector":"1"}},{"base_weights":[-2.1921059E-11],"categories":[],"categories_nodes":[],"categories_segments":[],"categories_sizes":[],"default_left":[0],"id":73,"left_children":[-1],"loss_changes":[0E0],"parents":[2147483647],"right_children":[-1],"split_conditions":[-6.576318E-12],"split_indices":[0],"split_type":[0],"sum_hessian":[1.707E3],"tree_param":{"num_deleted":"0","num_feature":"10","num_nodes":"1","size_leaf_vector":"1"}},{"base_weights":[-2.1703802E-11],"categories":[],"categories_nodes":[],"categories_segments":[],"categories_sizes":[],"default_left":[0],"id":74,"left_children":[-1],"loss_changes":[0E0],"parents":[2147483647],"right_children":[-1],"split_conditions":[-6.511141E-12],"split_indices":[0],"split_type":[0],"sum_hessian":[1.707E3],"tree_param":{"num_deleted":"0","num_feature":"10","num_nodes":"1","size_leaf_vector":"1"}},{"base_weights":[-2.1426907E-11],"categories":[],"categories_nodes":[],"categories_segments":[],"categories_sizes":[],"default_left":[0],"id":75,"left_children":[-1],"loss_changes":[0E0],"parents":[2147483647],"right_children":[-1],"split_conditions":[-6.4280725E-12],"split_indices":[0],"split_type":[0],"sum_hessian":[1.707E3],"tree_param":{"num_deleted":"0","num_feature":"10","num_nodes":"1","size_leaf_vector":"1"}},{"base_weights":[-2.125225E-11],"categories":[],"categories_nodes":[],"categories_segments":[],"categories_sizes":[],"default_left":[0],"id":76,"left_children":[-1],"loss_changes":[0E0],"parents":[2147483647],"right_children":[-1],"split_conditions":[-6.375675E-12],"split_indices":[0],"split_type":[0],"sum_hessian":[1.707E3],"tree_param":{"num_deleted":"0","num_feature":"10","num_nodes":"1","size_leaf_vector":"1"}},{"base_weights":[-2.1009434E-11],"categories":[],"categories_nodes":[],"categories_segments":[],"categories_sizes":[],"default_left":[0],"id":77,"left_children":[-1],"loss_changes":[0E0],"parents":[2147483647],"right_children":[-1],"split_conditions":[-6.3028302E-12],"split_indices":[0],"split_type":[0],"sum_hessian":[1.707E3],"tree_param":{"num_deleted":"0","num_feature":"10","num_nodes":"1","size_leaf_vector":"1"}},{"base_weights":[-2.0746384E-11],"categories":[],"categories_nodes":[],"categories_segments":[],"categories_sizes":[],"default_left":[0],"id":78,"left_children":[-1],"loss_changes":[0E0],"parents":[2147483647],"right_children":[-1],"split_conditions":[-6.2239155E-12],"split_indices":[0],"split_type":[0],"sum_hessian":[1.707E3],"tree_param":{"num_deleted":"0","num_feature":"10","num_nodes":"1","size_leaf_vector":"1"}},{"base_weights":[-2.0498242E-11],"categories":[],"categories_nodes":[],"categories_segments":[],"categories_sizes":[],"default_left":[0],"id":79,"left_children":[-1],"loss_changes":[0E0],"parents":[2147483647],"right_children":[-1],"split_conditions":[-6.149473E-12],"split_indices":[0],"split_type":[0],"sum_hessian":[1.707E3],"tree_param":{"num_deleted":"0","num_feature":"10","num_nodes":"1","size_leaf_vector":"1"}},{"base_weights":[-2.0252232E-11],"categories":[],"categories_nodes":[],"categories_segments":[],"categories_sizes":[],"default_left":[0],"id":80,"left_children":[-1],"loss_changes":[0E0],"parents":[2147483647],"right_children":[-1],"split_conditions":[-6.07567E-12],"split_indices":[0],"split_type":[0],"sum_hessian":[1.707E3],"tree_param":{"num_deleted":"0","num_feature":"10","num_nodes":"1","size_leaf_vector":"1"}},{"base_weights":[-1.9889073E-11],"categories":[],"categories_nodes":[],"categories_segments":[],"categories_sizes":[],"default_left":[0],"id":81,"left_children":[-1],"loss_changes":[0E0],"parents":[2147483647],"right_children":[-1],"split_conditions":[-5.9667223E-12],"split_indices":[0],"split_type":[0],"sum_hessian":[1.707E3],"tree_param":{"num_deleted":"0","num_feature":"10","num_nodes":"1","size_leaf_vector":"1"}},{"base_weights":[-1.97879E-11],"categories":[],"categories_nodes":[],"categories_segments":[],"categories_sizes":[],"default_left":[0],"id":82,"left_children":[-1],"loss_changes":[0E0],"parents":[2147483647],"right_children":[-1],"split_conditions":[-5.9363703E-12],"split_indices":[0],"split_type":[0],"sum_hessian":[1.707E3],"tree_param":{"num_deleted":"0","num_feature":"10","num_nodes":"1","size_leaf_vector":"1"}},{"base_weights":[-1.948012E-11],"categories":[],"categories_nodes":[],"categories_segments":[],"categories_sizes":[],"default_left":[0],"id":83,"left_children":[-1],"loss_changes":[0E0],"parents":[2147483647],"right_children":[-1],"split_conditions":[-5.8440366E-12],"split_indices":[0],"split_type":[0],"sum_hessian":[1.707E3],"tree_param":{"num_deleted":"0","num_feature":"10","num_nodes":"1","size_leaf_vector":"1"}},{"base_weights":[-1.9263929E-11],"categories":[],"categories_nodes":[],"categories_segments":[],"categories_sizes":[],"default_left":[0],"id":84,"left_children":[-1],"loss_changes":[0E0],"parents":[2147483647],"right_children":[-1],"split_conditions":[-5.779179E-12],"split_indices":[0],"split_type":[0],"sum_hessian":[1.707E3],"tree_param":{"num_deleted":"0","num_feature":"10","num_nodes":"1","size_leaf_vector":"1"}},{"base_weights":[-1.8981709E-11],"categories":[],"categories_nodes":[],"categories_segments":[],"categories_sizes":[],"default_left":[0],"id":85,"left_children":[-1],"loss_changes":[0E0],"parents":[2147483647],"right_children":[-1],"split_conditions":[-5.694513E-12],"split_indices":[0],"split_type":[0],"sum_hessian":[1.707E3],"tree_param":{"num_deleted":"0","num_feature":"10","num_nodes":"1","size_leaf_vector":"1"}},{"base_weights":[-1.863346E-11],"categories":[],"categories_nodes":[],"categories_segments":[],"categories_sizes":[],"default_left":[0],"id":86,"left_children":[-1],"loss_changes":[0E0],"parents":[2147483647],"right_children":[-1],"split_conditions":[-5.590038E-12],"split_indices":[0],"split_type":[0],"sum_hessian":[1.707E3],"tree_param":{"num_deleted":"0","num_feature":"10","num_nodes":"1","size_leaf_vector":"1"}},{"base_weights":[-1.8479036E-11],"categories":[],"categories_nodes":[],"categories_segments":[],"categories_sizes":[],"default_left":[0],"id":87,"left_children":[-1],"loss_changes":[0E0],"parents":[2147483647],"right_children":[-1],"split_conditions":[-5.543711E-12],"split_indices":[0],"split_type":[0],"sum_hessian":[1.707E3],"tree_param":{"num_deleted":"0","num_feature":"10","num_nodes":"1","size_leaf_vector":"1"}},{"base_weights":[-1.8326745E-11],"categories":[],"categories_nodes":[],"categories_segments":[],"categories_sizes":[],"default_left":[0],"id":88,"left_children":[-1],"loss_changes":[0E0],"parents":[2147483647],"right_children":[-1],"split_conditions":[-5.4980235E-12],"split_indices":[0],"split_type":[0],"sum_hessian":[1.707E3],"tree_param":{"num_deleted":"0","num_feature":"10","num_nodes":"1","size_leaf_vector":"1"}},{"base_weights":[-1.8006185E-11],"categories":[],"categories_nodes":[],"categories_segments":[],"categories_sizes":[],"default_left":[0],"id":89,"left_children":[-1],"loss_changes":[0E0],"parents":[2147483647],"right_children":[-1],"split_conditions":[-5.4018556E-12],"split_indices":[0],"split_type":[0],"sum_hessian":[1.707E3],"tree_param":{"num_deleted":"0","num_feature":"10","num_nodes":"1","size_leaf_vector":"1"}},{"base_weights":[-1.7811292E-11],"categories":[],"categories_nodes":[],"categories_segments":[],"categories_sizes":[],"default_left":[0],"id":90,"left_children":[-1],"loss_changes":[0E0],"parents":[2147483647],"right_children":[-1],"split_conditions":[-5.343388E-12],"split_indices":[0],"split_type":[0],"sum_hessian":[1.707E3],"tree_param":{"num_deleted":"0","num_feature":"10","num_nodes":"1","size_leaf_vector":"1"}},{"base_weights":[-1.7494993E-11],"categories":[],"categories_nodes":[],"categories_segments":[],"categories_sizes":[],"default_left":[0],"id":91,"left_children":[-1],"loss_changes":[0E0],"parents":[2147483647],"right_children":[-1],"split_conditions":[-5.2484983E-12],"split_indices":[0],"split_type":[0],"sum_hessian":[1.707E3],"tree_param":{"num_deleted":"0","num_feature":"10","num_nodes":"1","size_leaf_vector":"1"}},{"base_weights":[-1.737252E-11],"categories":[],"categories_nodes":[],"categories_segments":[],"categories_sizes":[],"default_left":[0],"id":92,"left_children":[-1],"loss_changes":[0E0],"parents":[2147483647],"right_children":[-1],"split_conditions":[-5.2117564E-12],"split_indices":[0],"split_type":[0],"sum_hessian":[1.707E3],"tree_param":{"num_deleted":"0","num_feature":"10","num_nodes":"1","size_leaf_vector":"1"}},{"base_weights":[-1.7166978E-11],"categories":[],"categories_nodes":[],"categories_segments":[],"categories_sizes":[],"default_left":[0],"id":93,"left_children":[-1],"loss_changes":[0E0],"parents":[2147483647],"right_children":[-1],"split_conditions":[-5.1500935E-12],"split_indices":[0],"split_type":[0],"sum_hessian":[1.707E3],"tree_param":{"num_deleted":"0","num_feature":"10","num_nodes":"1","size_leaf_vector":"1"}},{"base_weights":[-1.6903928E-11],"categories":[],"categories_nodes":[],"categories_segments":[],"categories_sizes":[],"default_left":[0],"id":94,"left_children":[-1],"loss_changes":[0E0],"parents":[2147483647],"right_children":[-1],"split_conditions":[-5.0711787E-12],"split_indices":[0],"split_type":[0],"sum_hessian":[1.707E3],"tree_param":{"num_deleted":"0","num_feature":"10","num_nodes":"1","size_leaf_vector":"1"}},{"base_weights":[-1.6740985E-11],"categories":[],"categories_nodes":[],"categories_segments":[],"categories_sizes":[],"default_left":[0],"id":95,"left_children":[-1],"loss_changes":[0E0],"parents":[2147483647],"right_children":[-1],"split_conditions":[-5.022296E-12],"split_indices":[0],"split_type":[0],"sum_hessian":[1.707E3],"tree_param":{"num_deleted":"0","num_feature":"10","num_nodes":"1","size_leaf_vector":"1"}},{"base_weights":[-1.6512014E-11],"categories":[],"categories_nodes":[],"categories_segments":[],"categories_sizes":[],"default_left":[0],"id":96,"left_children":[-1],"loss_changes":[0E0],"parents":[2147483647],"right_children":[-1],"split_conditions":[-4.9536044E-12],"split_indices":[0],"split_type":[0],"sum_hessian":[1.707E3],"tree_param":{"num_deleted":"0","num_feature":"10","num_nodes":"1","size_leaf_vector":"1"}},{"base_weights":[-1.6344813E-11],"categories":[],"categories_nodes":[],"categories_segments":[],"categories_sizes":[],"default_left":[0],"id":97,"left_children":[-1],"loss_changes":[0E0],"parents":[2147483647],"right_children":[-1],"split_conditions":[-4.903444E-12],"split_indices":[0],"split_type":[0],"sum_hessian":[1.707E3],"tree_param":{"num_deleted":"0","num_feature":"10","num_nodes":"1","size_leaf_vector":"1"}},{"base_weights":[-1.625216E-11],"categories":[],"categories_nodes":[],"categories_segments":[],"categories_sizes":[],"default_left":[0],"id":98,"left_children":[-1],"loss_changes":[0E0],"parents":[2147483647],"right_children":[-1],"split_conditions":[-4.875648E-12],"split_indices":[0],"split_type":[0],"sum_hessian":[1.707E3],"tree_param":{"num_deleted":"0","num_feature":"10","num_nodes":"1","size_leaf_vector":"1"}},{"base_weights":[-1.6046617E-11],"categories":[],"categories_nodes":[],"categories_segments":[],"categories_sizes":[],"default_left":[0],"id":99,"left_children":[-1],"loss_changes":[0E0],"parents":[2147483647],"right_children":[-1],"split_conditions":[-4.813985E-12],"split_indices":[0],"split_type":[0],"sum_hessian":[1.707E3],"tree_param":{"num_deleted":"0","num_feature":"10","num_nodes":"1","size_leaf_vector":"1"}}]},"name":"gbtree"},"learner_model_param":{"base_score":"5.641976E-4","boost_from_average":"1","num_class":"0","num_feature":"10","num_target":"1"},"objective":{"name":"reg:squarederror","reg_loss_param":{"scale_pos_weight":"1"}}},"version":[2,0,3]}