{"learner":{"attributes":{},"feature_names":["lstm_13_Y_pred","lstm_22_Y_pred","lstm_10_Y_pred","lstm_16_Y_pred","lstm_19_Y_pred","lstm_7_Y_pred","lstm_28_Y_pred","lstm_25_Y_pred","lstm_4_Y_pred","lstm_1_Y_pred"],"feature_types":["float","float","float","float","float","float","float","float","float","float"],"gradient_booster":{"model":{"gbtree_model_param":{"num_parallel_tree":"1","num_trees":"100"},"iteration_indptr":[0,1,2,3,4,5,6,7,8,9,10,11,12,13,14,15,16,17,18,19,20,21,22,23,24,25,26,27,28,29,30,31,32,33,34,35,36,37,38,39,40,41,42,43,44,45,46,47,48,49,50,51,52,53,54,55,56,57,58,59,60,61,62,63,64,65,66,67,68,69,70,71,72,73,74,75,76,77,78,79,80,81,82,83,84,85,86,87,88,89,90,91,92,93,94,95,96,97,98,99,100],"tree_info":[0,0,0,0,0,0,0,0,0,0,0,0,0,0,0,0,0,0,0,0,0,0,0,0,0,0,0,0,0,0,0,0,0,0,0,0,0,0,0,0,0,0,0,0,0,0,0,0,0,0,0,0,0,0,0,0,0,0,0,0,0,0,0,0,0,0,0,0,0,0,0,0,0,0,0,0,0,0,0,0,0,0,0,0,0,0,0,0,0,0,0,0,0,0,0,0,0,0,0,0],"trees":[{"base_weights":[2.8183686E-11,-3.1882136E-3,2.360317E-3,-9.323889E-3,-2.2623409E-3,1.3236143E-3,7.100424E-3,-3.8041824E-3,-7.2450526E-3,-3.6026994E-3,-1.4010208E-3,6.76243E-4,2.682983E-3,5.504321E-3,1.0422353E-2,-2.2348345E-3,-2.4700656E-3,-4.379471E-3,-2.914978E-3,-2.0296946E-3,-1.007501E-3,1.3372496E-4,1.2425538E-3,2.3249884E-3,3.2235389E-3,1.4448168E-3,2.0189437E-3,2.5981301E-3,3.8254987E-3,-8.703843E-4,-1.7646306E-4,-1.3697711E-3,-9.14138E-4,7.216471E-4,-8.9192035E-4,-6.759277E-4,-4.1105805E-4,-3.9420312E-4,-2.1733012E-4,3.8919086E-4,1.7572715E-5,3.6342788E-4,1.4330458E-3,6.5204006E-4,9.529942E-4,3.386676E-4,9.828425E-4],"categories":[],"categories_nodes":[],"categories_segments":[],"categories_sizes":[],"default_left":[0,0,0,0,0,0,0,0,0,0,0,0,0,0,0,0,0,0,0,0,0,0,0,0,0,0,0,0,0,0,0,0,0,0,0,0,0,0,0,0,0,0,0,0,0,0,0],"id":0,"left_children":[1,3,5,7,9,11,13,-1,15,17,19,21,23,25,27,-1,29,31,33,35,37,39,41,43,45,-1,-1,-1,-1,-1,-1,-1,-1,-1,-1,-1,-1,-1,-1,-1,-1,-1,-1,-1,-1,-1,-1],"loss_changes":[1.2860558E-2,4.108888E-3,4.81623E-3,5.710451E-4,7.2573684E-4,7.083588E-4,8.7580923E-4,0E0,4.113419E-5,1.1918205E-4,9.369716E-5,1.6819802E-4,4.2819534E-5,6.9647795E-5,1.1939183E-4,0E0,1.5393762E-6,1.4403835E-5,4.8566493E-5,1.871778E-5,1.987115E-5,2.4495208E-5,2.3696834E-5,1.3742712E-5,7.4300915E-6,0E0,0E0,0E0,0E0,0E0,0E0,0E0,0E0,0E0,0E0,0E0,0E0,0E0,0E0,0E0,0E0,0E0,0E0,0E0,0E0,0E0,0E0],"parents":[2147483647,0,0,1,1,2,2,3,3,4,4,5,5,6,6,8,8,9,9,10,10,11,11,12,12,13,13,14,14,16,16,17,17,18,18,19,19,20,20,21,21,22,22,23,23,24,24],"right_children":[2,4,6,8,10,12,14,-1,16,18,20,22,24,26,28,-1,30,32,34,36,38,40,42,44,46,-1,-1,-1,-1,-1,-1,-1,-1,-1,-1,-1,-1,-1,-1,-1,-1,-1,-1,-1,-1,-1,-1],"split_conditions":[1.3187528E-5,-4.851915E-3,3.9527677E-3,-9.028409E-3,-1.6960949E-3,2.0145066E-3,7.820807E-3,-3.8041824E-3,9.1606984E-4,-2.8514639E-3,-9.6223503E-4,1.1120997E-3,2.8409436E-3,5.7035573E-3,1.0170862E-2,-2.2348345E-3,-1.2160055E-3,-1.445964E-3,-9.525955E-3,-3.8489327E-4,-4.562363E-4,-9.340355E-4,8.896426E-3,6.3997917E-3,1.1963602E-3,1.4448168E-3,2.0189437E-3,2.5981301E-3,3.8254987E-3,-8.703843E-4,-1.7646306E-4,-1.3697711E-3,-9.14138E-4,7.216471E-4,-8.9192035E-4,-6.759277E-4,-4.1105805E-4,-3.9420312E-4,-2.1733012E-4,3.8919086E-4,1.7572715E-5,3.6342788E-4,1.4330458E-3,6.5204006E-4,9.529942E-4,3.386676E-4,9.828425E-4],"split_indices":[3,3,3,3,3,3,3,0,2,3,3,3,3,3,3,0,0,0,1,0,3,4,2,8,4,0,0,0,0,0,0,0,0,0,0,0,0,0,0,0,0,0,0,0,0,0,0],"split_type":[0,0,0,0,0,0,0,0,0,0,0,0,0,0,0,0,0,0,0,0,0,0,0,0,0,0,0,0,0,0,0,0,0,0,0,0,0,0,0,0,0,0,0,0,0,0,0],"sum_hessian":[1.707E3,7.26E2,9.81E2,9.4E1,6.32E2,8.06E2,1.75E2,3.4E1,6E1,2.46E2,3.86E2,5.47E2,2.59E2,1.2E2,5.5E1,5.7E1,3E0,1.13E2,1.33E2,1.47E2,2.39E2,2.8E2,2.67E2,1.59E2,1E2,8E1,4E1,3.4E1,2.1E1,2E0,1E0,9.7E1,1.6E1,1E0,1.32E2,1.08E2,3.9E1,1.13E2,1.26E2,1.6E1,2.64E2,2.66E2,1E0,1.38E2,2.1E1,3E0,9.7E1],"tree_param":{"num_deleted":"0","num_feature":"10","num_nodes":"47","size_leaf_vector":"1"}},{"base_weights":[2.2123236E-6,-2.210964E-3,1.6963873E-3,-6.6013103E-3,-1.5629053E-3,1.040346E-3,5.5051884E-3,-8.865902E-3,-4.8658643E-3,-2.5318253E-3,-9.6219167E-4,5.5195595E-4,2.1399346E-3,4.5208517E-3,8.277935E-3,-3.344731E-3,-2.2846228E-3,-1.4808461E-3,-1.499936E-4,-3.0444784E-3,-1.9728276E-3,-1.2632541E-3,-5.371274E-4,1.9488414E-4,1.0445287E-3,1.8143975E-3,2.7333978E-3,3.8619912E-3,5.4872613E-3,1.980624E-3,2.828972E-3,-2.6015358E-4,-9.270485E-4,6.134E-4,-6.070037E-4,-4.4550258E-4,-2.751551E-4,-1.1986437E-4,-2.8210587E-4,6.6939334E-5,-5.1251776E-4,3.0451355E-4,1.2180889E-3,4.984762E-4,7.966977E-4,5.0019845E-4,8.4574893E-4,1.2033859E-3,7.362509E-4,7.102957E-4,1.7013719E-3],"categories":[],"categories_nodes":[],"categories_segments":[],"categories_sizes":[],"default_left":[0,0,0,0,0,0,0,0,0,0,0,0,0,0,0,0,0,0,0,0,0,0,0,0,0,0,0,0,0,0,0,0,0,0,0,0,0,0,0,0,0,0,0,0,0,0,0,0,0,0,0],"id":1,"left_children":[1,3,5,7,9,11,13,15,17,19,21,23,25,27,29,-1,-1,-1,-1,31,33,35,37,39,41,43,45,47,49,-1,-1,-1,-1,-1,-1,-1,-1,-1,-1,-1,-1,-1,-1,-1,-1,-1,-1,-1,-1,-1,-1],"loss_changes":[6.40791E-3,2.0979773E-3,2.4130445E-3,3.3021718E-4,3.7414604E-4,4.4294097E-4,3.5013957E-4,2.930034E-5,1.4716992E-5,6.477698E-5,5.0637842E-5,1.00753765E-4,4.4111977E-5,4.6938192E-5,7.24243E-6,0E0,0E0,0E0,0E0,9.952346E-6,2.8694718E-5,1.659576E-5,8.944182E-6,1.8337634E-5,1.730732E-5,1.7055834E-5,3.3456017E-6,4.237634E-6,1.0104035E-5,0E0,0E0,0E0,0E0,0E0,0E0,0E0,0E0,0E0,0E0,0E0,0E0,0E0,0E0,0E0,0E0,0E0,0E0,0E0,0E0,0E0,0E0],"parents":[2147483647,0,0,1,1,2,2,3,3,4,4,5,5,6,6,7,7,8,8,9,9,10,10,11,11,12,12,13,13,14,14,19,19,20,20,21,21,22,22,23,23,24,24,25,25,26,26,27,27,28,28],"right_children":[2,4,6,8,10,12,14,16,18,20,22,24,26,28,30,-1,-1,-1,-1,32,34,36,38,40,42,44,46,48,50,-1,-1,-1,-1,-1,-1,-1,-1,-1,-1,-1,-1,-1,-1,-1,-1,-1,-1,-1,-1,-1,-1],"split_conditions":[5.7548285E-5,-4.851915E-3,4.5749955E-3,-7.1689226E-3,-1.6960949E-3,2.2077113E-3,9.055216E-3,-1.1205908E-2,-5.902909E-4,-2.6736967E-3,-5.4136664E-4,1.3249479E-3,3.2603648E-3,6.5558515E-3,9.990018E-3,-3.344731E-3,-2.2846228E-3,-1.4808461E-3,-1.499936E-4,-7.906143E-3,-9.525955E-3,-6.7738816E-4,7.182993E-4,3.1010546E-3,8.896426E-3,5.7311617E-3,3.1766668E-4,8.132126E-3,1.3476387E-3,1.980624E-3,2.828972E-3,-2.6015358E-4,-9.270485E-4,6.134E-4,-6.070037E-4,-4.4550258E-4,-2.751551E-4,-1.1986437E-4,-2.8210587E-4,6.6939334E-5,-5.1251776E-4,3.0451355E-4,1.2180889E-3,4.984762E-4,7.966977E-4,5.0019845E-4,8.4574893E-4,1.2033859E-3,7.362509E-4,7.102957E-4,1.7013719E-3],"split_indices":[3,3,3,0,3,3,3,3,0,3,3,3,3,3,0,0,0,0,0,1,1,0,1,0,2,5,5,1,5,0,0,0,0,0,0,0,0,0,0,0,0,0,0,0,0,0,0,0,0,0,0],"split_type":[0,0,0,0,0,0,0,0,0,0,0,0,0,0,0,0,0,0,0,0,0,0,0,0,0,0,0,0,0,0,0,0,0,0,0,0,0,0,0,0,0,0,0,0,0,0,0,0,0,0,0],"sum_hessian":[1.707E3,7.4E2,9.67E2,9.4E1,6.46E2,8.26E2,1.41E2,3.9E1,5.5E1,2.46E2,4E2,5.73E2,2.53E2,1.06E2,3.5E1,1.1E1,2.8E1,5.4E1,1E0,1.26E2,1.2E2,2.33E2,1.67E2,3.33E2,2.4E2,1.66E2,8.7E1,6.6E1,4E1,1.7E1,1.8E1,3E0,1.23E2,1E0,1.19E2,1.4E2,9.3E1,1.26E2,4.1E1,3.29E2,4E0,2.39E2,1E0,1.43E2,2.3E1,8E0,7.9E1,5.8E1,8E0,3E0,3.7E1],"tree_param":{"num_deleted":"0","num_feature":"10","num_nodes":"51","size_leaf_vector":"1"}},{"base_weights":[3.4897241E-6,-1.4215988E-3,1.3397082E-3,-4.376794E-3,-9.429606E-4,8.544705E-4,3.9950977E-3,-6.1162277E-3,-3.0845944E-3,-1.5903845E-3,-5.055985E-4,5.205154E-4,1.5843784E-3,3.2665317E-3,5.928154E-3,-2.6161377E-3,-5.4589086E-3,-3.2144757E-3,-3.620225E-4,-2.007078E-3,-1.3352653E-3,-7.2829565E-4,-2.6539728E-4,2.776402E-4,7.944874E-4,1.3633627E-3,2.0438265E-3,2.6422318E-3,3.760974E-3,1.4268252E-3,2.1287962E-3,-1.7079625E-3,-9.429887E-4,-7.4398995E-5,-9.774967E-4,-6.9846143E-4,-5.3418335E-4,2.8503392E-4,-4.137362E-4,-1.9424617E-4,-4.187399E-4,-2.0811414E-4,-6.163015E-5,4.5866243E-4,6.733614E-5,2.3071122E-4,1.0353756E-3,5.156173E-4,3.3335353E-4,4.6571906E-4,7.335145E-4,2.5947872E-4,8.1021094E-4,1.2304913E-3,8.3347684E-4],"categories":[],"categories_nodes":[],"categories_segments":[],"categories_sizes":[],"default_left":[0,0,0,0,0,0,0,0,0,0,0,0,0,0,0,0,0,0,0,0,0,0,0,0,0,0,0,0,0,0,0,0,0,0,0,0,0,0,0,0,0,0,0,0,0,0,0,0,0,0,0,0,0,0,0],"id":2,"left_children":[1,3,5,7,9,11,13,15,17,19,21,23,25,27,29,-1,31,33,-1,35,37,39,41,43,45,47,49,51,53,-1,-1,-1,-1,-1,-1,-1,-1,-1,-1,-1,-1,-1,-1,-1,-1,-1,-1,-1,-1,-1,-1,-1,-1,-1,-1],"loss_changes":[3.254329E-3,1.1656389E-3,1.1330391E-3,2.3961882E-4,2.0108797E-4,1.8126145E-4,1.7217221E-4,3.456266E-5,1.2706092E-5,2.7829956E-5,2.2647851E-5,3.39815E-5,2.097513E-5,2.1239393E-5,1.5527126E-5,0E0,4.348927E-6,7.386261E-6,0E0,3.6359124E-6,1.9451225E-5,1.1016971E-5,5.173939E-6,1.7891189E-5,1.3641053E-5,1.251846E-5,1.0795047E-5,2.6523194E-6,6.6824723E-6,0E0,0E0,0E0,0E0,0E0,0E0,0E0,0E0,0E0,0E0,0E0,0E0,0E0,0E0,0E0,0E0,0E0,0E0,0E0,0E0,0E0,0E0,0E0,0E0,0E0,0E0],"parents":[2147483647,0,0,1,1,2,2,3,3,4,4,5,5,6,6,7,7,8,8,9,9,10,10,11,11,12,12,13,13,14,14,16,16,17,17,19,19,20,20,21,21,22,22,23,23,24,24,25,25,26,26,27,27,28,28],"right_children":[2,4,6,8,10,12,14,16,18,20,22,24,26,28,30,-1,32,34,-1,36,38,40,42,44,46,48,50,52,54,-1,-1,-1,-1,-1,-1,-1,-1,-1,-1,-1,-1,-1,-1,-1,-1,-1,-1,-1,-1,-1,-1,-1,-1,-1,-1],"split_conditions":[4.406199E-4,-4.063256E-3,4.6862606E-3,-6.960705E-3,-1.3867579E-3,2.3282785E-3,9.055216E-3,-1.2357861E-2,2.4238527E-3,-2.6736967E-3,-3.632009E-4,1.3807938E-3,3.5220012E-3,6.0145054E-3,1.1700001E-2,-2.6161377E-3,-5.5802204E-3,-1.6506525E-2,-3.620225E-4,-4.5701303E-3,-5.6791874E-3,1.7311461E-3,-1.650814E-3,-9.340355E-4,8.896426E-3,1.9510426E-3,2.8297864E-3,-8.58922E-4,8.2633905E-3,1.4268252E-3,2.1287962E-3,-1.7079625E-3,-9.429887E-4,-7.4398995E-5,-9.774967E-4,-6.9846143E-4,-5.3418335E-4,2.8503392E-4,-4.137362E-4,-1.9424617E-4,-4.187399E-4,-2.0811414E-4,-6.163015E-5,4.5866243E-4,6.733614E-5,2.3071122E-4,1.0353756E-3,5.156173E-4,3.3335353E-4,4.6571906E-4,7.335145E-4,2.5947872E-4,8.1021094E-4,1.2304913E-3,8.3347684E-4],"split_indices":[3,3,3,3,3,3,3,3,5,3,3,3,3,3,3,0,0,5,0,8,4,7,5,4,2,7,0,2,7,0,0,0,0,0,0,0,0,0,0,0,0,0,0,0,0,0,0,0,0,0,0,0,0,0,0],"split_type":[0,0,0,0,0,0,0,0,0,0,0,0,0,0,0,0,0,0,0,0,0,0,0,0,0,0,0,0,0,0,0,0,0,0,0,0,0,0,0,0,0,0,0,0,0,0,0,0,0,0,0,0,0,0,0],"sum_hessian":[1.707E3,8.26E2,8.81E2,1.14E2,7.12E2,7.46E2,1.35E2,4.7E1,6.7E1,2.86E2,4.26E2,5.13E2,2.33E2,1E2,3.5E1,7E0,4E1,6.2E1,5E0,1.06E2,1.8E2,2.2E2,2.06E2,2.73E2,2.4E2,1.6E2,7.3E1,4.7E1,5.3E1,2E1,1.5E1,3.5E1,5E0,1E0,6.1E1,4E1,6.6E1,3E0,1.77E2,1.98E2,2.2E1,2.4E1,1.82E2,1E1,2.63E2,2.39E2,1E0,6.4E1,9.6E1,3.5E1,3.8E1,2E0,4.5E1,3.7E1,1.6E1],"tree_param":{"num_deleted":"0","num_feature":"10","num_nodes":"55","size_leaf_vector":"1"}},{"base_weights":[3.382212E-6,-9.619541E-4,9.973765E-4,-3.6161009E-3,-6.875604E-4,6.5918703E-4,2.9878458E-3,-5.7974635E-3,-3.0737643E-3,-1.1489897E-3,-2.8162345E-4,4.1180765E-4,1.1690363E-3,2.192234E-3,3.917187E-3,-9.7372476E-4,-1.9290877E-3,-3.6091034E-3,-2.090764E-3,-1.5763649E-3,-9.1723446E-4,-5.5834366E-4,-1.6646167E-4,2.9358052E-4,6.631485E-4,7.1458204E-4,1.2974511E-3,2.4225768E-3,1.2168508E-3,3.207668E-3,4.8356624E-3,-1.1474927E-3,-5.949955E-4,-2.906687E-4,-7.3592685E-4,-5.0357304E-4,-2.575448E-4,4.7863493E-4,-2.803055E-4,-1.3480932E-4,-4.881297E-4,-4.297774E-5,-2.9689408E-4,8.303781E-5,8.800692E-4,1.3865453E-4,2.5092647E-4,3.0100145E-4,9.354932E-5,5.1913713E-4,3.4405553E-4,1.523065E-4,7.575788E-4,4.5376408E-4,7.664954E-6,1.00953E-3,3.5569593E-4,7.1994716E-4,1.5281887E-3],"categories":[],"categories_nodes":[],"categories_segments":[],"categories_sizes":[],"default_left":[0,0,0,0,0,0,0,0,0,0,0,0,0,0,0,0,0,0,0,0,0,0,0,0,0,0,0,0,0,0,0,0,0,0,0,0,0,0,0,0,0,0,0,0,0,0,0,0,0,0,0,0,0,0,0,0,0,0,0],"id":3,"left_children":[1,3,5,7,9,11,13,15,17,19,21,23,25,27,29,-1,-1,31,33,35,37,39,41,43,45,47,49,51,53,55,57,-1,-1,-1,-1,-1,-1,-1,-1,-1,-1,-1,-1,-1,-1,-1,-1,-1,-1,-1,-1,-1,-1,-1,-1,-1,-1,-1,-1],"loss_changes":[1.6398516E-3,6.2893354E-4,5.648277E-4,7.80056E-5,1.4709035E-4,9.045555E-5,8.161878E-5,3.3508404E-6,2.7712143E-5,3.5003177E-5,1.32914465E-5,1.4276673E-5,1.2787146E-5,1.2329809E-5,2.0331063E-5,0E0,0E0,7.1542454E-6,8.1917315E-6,7.951137E-6,1.1856173E-5,1.3594916E-5,5.550024E-6,1.3946403E-5,5.01085E-6,5.9671565E-6,9.883748E-6,9.336101E-6,5.2453033E-6,6.8333757E-6,1.6172417E-6,0E0,0E0,0E0,0E0,0E0,0E0,0E0,0E0,0E0,0E0,0E0,0E0,0E0,0E0,0E0,0E0,0E0,0E0,0E0,0E0,0E0,0E0,0E0,0E0,0E0,0E0,0E0,0E0],"parents":[2147483647,0,0,1,1,2,2,3,3,4,4,5,5,6,6,7,7,8,8,9,9,10,10,11,11,12,12,13,13,14,14,17,17,18,18,19,19,20,20,21,21,22,22,23,23,24,24,25,25,26,26,27,27,28,28,29,29,30,30],"right_children":[2,4,6,8,10,12,14,16,18,20,22,24,26,28,30,-1,-1,32,34,36,38,40,42,44,46,48,50,52,54,56,58,-1,-1,-1,-1,-1,-1,-1,-1,-1,-1,-1,-1,-1,-1,-1,-1,-1,-1,-1,-1,-1,-1,-1,-1,-1,-1,-1,-1],"split_conditions":[5.91293E-4,-5.277753E-3,4.552696E-3,-1.1205908E-2,-1.1631735E-3,2.419278E-3,7.820807E-3,-1.0780197E-2,-5.5802204E-3,-2.8514639E-3,-5.7527795E-4,1.7120726E-3,1.6372986E-3,7.0748664E-3,1.0797384E-2,-9.7372476E-4,-1.9290877E-3,-3.933903E-3,-4.3200906E-3,-1.445964E-3,-9.525955E-3,1.9185767E-3,3.0702464E-3,8.896426E-3,2.5549605E-3,2.2251476E-3,2.4899188E-3,3.5220012E-3,6.398663E-3,1.08733885E-2,8.319922E-3,-1.1474927E-3,-5.949955E-4,-2.906687E-4,-7.3592685E-4,-5.0357304E-4,-2.575448E-4,4.7863493E-4,-2.803055E-4,-1.3480932E-4,-4.881297E-4,-4.297774E-5,-2.9689408E-4,8.303781E-5,8.800692E-4,1.3865453E-4,2.5092647E-4,3.0100145E-4,9.354932E-5,5.1913713E-4,3.4405553E-4,1.523065E-4,7.575788E-4,4.5376408E-4,7.664954E-6,1.00953E-3,3.5569593E-4,7.1994716E-4,1.5281887E-3],"split_indices":[3,3,0,3,3,3,3,1,0,3,0,3,0,1,2,0,0,1,6,0,1,7,1,2,5,6,2,3,0,1,3,0,0,0,0,0,0,0,0,0,0,0,0,0,0,0,0,0,0,0,0,0,0,0,0,0,0,0,0],"split_type":[0,0,0,0,0,0,0,0,0,0,0,0,0,0,0,0,0,0,0,0,0,0,0,0,0,0,0,0,0,0,0,0,0,0,0,0,0,0,0,0,0,0,0,0,0,0,0,0,0,0,0,0,0,0,0,0,0,0,0],"sum_hessian":[1.707E3,8.66E2,8.41E2,8E1,7.86E2,7.2E2,1.21E2,1.4E1,6.6E1,3.67E2,4.19E2,4.86E2,2.34E2,6.7E1,5.4E1,4E0,1E1,4.1E1,2.5E1,1.27E2,2.4E2,1.22E2,2.97E2,3.32E2,1.54E2,5.3E1,1.81E2,5.3E1,1.4E1,3.3E1,2.1E1,3.5E1,6E0,7E0,1.8E1,1.1E2,1.7E1,1E0,2.39E2,1.12E2,1E1,2.9E2,7E0,3.31E2,1E0,7.3E1,8.1E1,3E1,2.3E1,4.4E1,1.37E2,3E0,5E1,1.1E1,3E0,3E1,3E0,3E0,1.8E1],"tree_param":{"num_deleted":"0","num_feature":"10","num_nodes":"59","size_leaf_vector":"1"}},{"base_weights":[2.6003538E-6,-8.676272E-4,5.610148E-4,-2.781889E-3,-6.495949E-4,2.863602E-4,1.7976251E-3,-4.2517455E-3,-2.3220791E-3,-1.0504578E-3,-4.1536838E-4,-6.251203E-6,4.7935927E-4,1.3335523E-3,2.726717E-3,-4.5322212E-3,-4.857307E-4,-2.9126694E-3,-1.7899422E-3,-1.4169419E-3,-8.818126E-4,-6.287874E-4,-2.8878142E-4,4.8066257E-4,-6.0156144E-5,4.576697E-4,1.7940166E-3,2.2196022E-3,1.247888E-3,2.3153075E-3,3.7648124E-3,-7.400308E-4,-1.5528344E-3,-8.9297706E-4,-2.1637444E-4,-7.07362E-5,-6.034364E-4,-6.11541E-5,-4.4687258E-4,-2.368493E-4,-5.467032E-4,-1.465829E-4,-2.517272E-4,4.4524606E-4,-9.070579E-5,9.499183E-5,4.895029E-4,-1.4296357E-5,-5.82848E-4,9.801106E-5,1.7991991E-4,-2.3283318E-4,6.816152E-4,2.7997667E-4,7.9127145E-4,-6.4017804E-5,3.9017122E-4,3.0723203E-4,7.234808E-4,4.2957562E-4,1.1987409E-3],"categories":[],"categories_nodes":[],"categories_segments":[],"categories_sizes":[],"default_left":[0,0,0,0,0,0,0,0,0,0,0,0,0,0,0,0,0,0,0,0,0,0,0,0,0,0,0,0,0,0,0,0,0,0,0,0,0,0,0,0,0,0,0,0,0,0,0,0,0,0,0,0,0,0,0,0,0,0,0,0,0],"id":4,"left_children":[1,3,5,7,9,11,13,15,17,19,21,23,25,27,29,31,-1,33,35,37,39,41,43,45,47,49,51,53,55,57,59,-1,-1,-1,-1,-1,-1,-1,-1,-1,-1,-1,-1,-1,-1,-1,-1,-1,-1,-1,-1,-1,-1,-1,-1,-1,-1,-1,-1,-1,-1],"loss_changes":[8.3048537E-4,2.7699664E-4,3.5305117E-4,3.60852E-5,5.5993238E-5,4.817509E-5,7.785414E-5,3.7377758E-6,1.1757307E-5,1.2409611E-5,1.0111544E-5,8.952914E-6,1.3835313E-5,6.94576E-6,1.7762417E-5,4.5208144E-6,0E0,1.2149976E-6,1.0197924E-5,5.6879217E-6,1.1932323E-5,3.746667E-6,6.2474046E-6,5.902304E-6,7.1331024E-6,9.237054E-6,1.15922285E-5,2.9150033E-6,9.438649E-6,3.3740944E-6,2.9003568E-6,0E0,0E0,0E0,0E0,0E0,0E0,0E0,0E0,0E0,0E0,0E0,0E0,0E0,0E0,0E0,0E0,0E0,0E0,0E0,0E0,0E0,0E0,0E0,0E0,0E0,0E0,0E0,0E0,0E0,0E0],"parents":[2147483647,0,0,1,1,2,2,3,3,4,4,5,5,6,6,7,7,8,8,9,9,10,10,11,11,12,12,13,13,14,14,15,15,17,17,18,18,19,19,20,20,21,21,22,22,23,23,24,24,25,25,26,26,27,27,28,28,29,29,30,30],"right_children":[2,4,6,8,10,12,14,16,18,20,22,24,26,28,30,32,-1,34,36,38,40,42,44,46,48,50,52,54,56,58,60,-1,-1,-1,-1,-1,-1,-1,-1,-1,-1,-1,-1,-1,-1,-1,-1,-1,-1,-1,-1,-1,-1,-1,-1,-1,-1,-1,-1,-1,-1],"split_conditions":[-2.0553917E-4,-5.798813E-3,3.715355E-3,-1.1205908E-2,-2.090592E-3,1.1120997E-3,7.4157417E-3,-5.973529E-3,-6.324645E-3,-3.7960187E-3,-1.2883842E-3,-9.57001E-4,9.018235E-3,1.7502345E-3,1.1700001E-2,-1.0780197E-2,-4.857307E-4,1.0374933E-3,-5.155213E-3,-5.716156E-3,-7.959455E-5,6.782748E-4,-3.935445E-3,-1.0320321E-3,8.007053E-3,2.0145066E-3,1.108598E-3,9.752698E-4,2.552241E-3,1.3476387E-3,7.1543716E-3,-7.400308E-4,-1.5528344E-3,-8.9297706E-4,-2.1637444E-4,-7.07362E-5,-6.034364E-4,-6.11541E-5,-4.4687258E-4,-2.368493E-4,-5.467032E-4,-1.465829E-4,-2.517272E-4,4.4524606E-4,-9.070579E-5,9.499183E-5,4.895029E-4,-1.4296357E-5,-5.82848E-4,9.801106E-5,1.7991991E-4,-2.3283318E-4,6.816152E-4,2.7997667E-4,7.9127145E-4,-6.4017804E-5,3.9017122E-4,3.0723203E-4,7.234808E-4,4.2957562E-4,1.1987409E-3],"split_indices":[3,3,3,3,3,3,3,0,8,3,5,1,5,7,3,1,0,9,8,1,7,9,2,6,5,3,4,1,1,5,7,0,0,0,0,0,0,0,0,0,0,0,0,0,0,0,0,0,0,0,0,0,0,0,0,0,0,0,0,0,0],"split_type":[0,0,0,0,0,0,0,0,0,0,0,0,0,0,0,0,0,0,0,0,0,0,0,0,0,0,0,0,0,0,0,0,0,0,0,0,0,0,0,0,0,0,0,0,0,0,0,0,0,0,0,0,0,0,0,0,0,0,0,0,0],"sum_hessian":[1.707E3,6.67E2,1.04E3,6.7E1,6E2,8.52E2,1.88E2,1.4E1,5.3E1,2.2E2,3.8E2,3.39E2,5.13E2,1.27E2,6.1E1,1.2E1,2E0,2.3E1,3E1,6.7E1,1.53E2,1.4E2,2.4E2,3.3E1,3.06E2,5.06E2,7E0,9E0,1.18E2,4.6E1,1.5E1,4E0,8E0,2.2E1,1E0,4E0,2.6E1,4E0,6.3E1,1.41E2,1.2E1,8.6E1,5.4E1,1E0,2.39E2,3E1,3E0,3.05E2,1E0,2.65E2,2.41E2,1E0,6E0,3E0,6E0,4E0,1.14E2,4E0,4.2E1,2E0,1.3E1],"tree_param":{"num_deleted":"0","num_feature":"10","num_nodes":"61","size_leaf_vector":"1"}},{"base_weights":[1.1604449E-6,-5.003427E-4,4.9393537E-4,-1.8900341E-3,-3.5293025E-4,3.3389567E-4,1.6831146E-3,-3.1614616E-3,-1.5771766E-3,-7.787113E-4,-2.2761234E-4,2.176775E-4,6.41833E-4,1.416786E-3,2.587183E-3,-1.2190379E-3,-2.3041165E-3,-2.1070696E-3,-1.2115958E-3,-8.1991905E-4,1.7884004E-4,-3.9449133E-4,-1.255167E-4,-2.1976428E-4,2.5584848E-4,2.7445747E-4,7.223378E-4,1.0255041E-3,1.7225116E-3,1.9328772E-4,8.2477723E-4,-2.1976932E-4,-7.816302E-4,-7.172571E-4,-3.9161285E-4,1.6976931E-4,-3.806255E-4,2.1153904E-4,-2.528034E-4,2.9895487E-4,-7.7941426E-5,4.423671E-4,-1.2282544E-4,-9.851039E-5,-1.567156E-5,-1.0076176E-5,-1.8888431E-4,1.8018634E-4,6.256323E-5,2.1815496E-4,6.037802E-6,3.3480313E-4,1.8247399E-4,1.2936177E-4,4.985639E-4,6.0904503E-4,3.866702E-4],"categories":[],"categories_nodes":[],"categories_segments":[],"categories_sizes":[],"default_left":[0,0,0,0,0,0,0,0,0,0,0,0,0,0,0,0,0,0,0,0,0,0,0,0,0,0,0,0,0,0,0,0,0,0,0,0,0,0,0,0,0,0,0,0,0,0,0,0,0,0,0,0,0,0,0,0,0],"id":5,"left_children":[1,3,5,7,9,11,13,15,17,19,21,23,25,27,29,-1,31,33,35,37,39,41,43,45,47,49,51,53,55,-1,-1,-1,-1,-1,-1,-1,-1,-1,-1,-1,-1,-1,-1,-1,-1,-1,-1,-1,-1,-1,-1,-1,-1,-1,-1,-1,-1],"loss_changes":[4.2234204E-4,1.728475E-4,1.634903E-4,2.7233647E-5,4.074834E-5,2.7094888E-5,2.0894018E-5,2.2371678E-6,1.0426229E-5,7.0124224E-6,1.0070831E-5,9.3066865E-6,5.9534505E-6,7.923169E-6,5.156311E-6,0E0,2.8267132E-6,2.7943097E-6,4.9849405E-6,6.3905245E-6,3.128255E-6,6.8809677E-6,5.482737E-6,3.4125628E-6,8.192466E-6,4.475918E-6,6.9566668E-6,1.3654866E-5,3.2527314E-6,0E0,0E0,0E0,0E0,0E0,0E0,0E0,0E0,0E0,0E0,0E0,0E0,0E0,0E0,0E0,0E0,0E0,0E0,0E0,0E0,0E0,0E0,0E0,0E0,0E0,0E0,0E0,0E0],"parents":[2147483647,0,0,1,1,2,2,3,3,4,4,5,5,6,6,7,7,8,8,9,9,10,10,11,11,12,12,13,13,14,14,16,16,17,17,18,18,19,19,20,20,21,21,22,22,23,23,24,24,25,25,26,26,27,27,28,28],"right_children":[2,4,6,8,10,12,14,16,18,20,22,24,26,28,30,-1,32,34,36,38,40,42,44,46,48,50,52,54,56,-1,-1,-1,-1,-1,-1,-1,-1,-1,-1,-1,-1,-1,-1,-1,-1,-1,-1,-1,-1,-1,-1,-1,-1,-1,-1,-1,-1],"split_conditions":[5.0379336E-4,-5.277753E-3,5.514864E-3,-1.1205908E-2,-2.161745E-3,2.6423857E-3,1.0170862E-2,-1.0511115E-2,-6.324645E-3,-9.6223503E-4,-1.0575429E-3,-1.0368451E-3,1.6372986E-3,7.419884E-3,-1.7369278E-3,-1.2190379E-3,-1.2741886E-2,3.0118972E-4,-9.827953E-3,-6.742757E-3,-3.51388E-4,-9.525955E-3,-1.1438169E-3,2.0536967E-3,1.7043576E-4,1.04572624E-4,2.3893071E-3,4.3154396E-3,1.0082077E-2,1.9328772E-4,8.2477723E-4,-2.1976932E-4,-7.816302E-4,-7.172571E-4,-3.9161285E-4,1.6976931E-4,-3.806255E-4,2.1153904E-4,-2.528034E-4,2.9895487E-4,-7.7941426E-5,4.423671E-4,-1.2282544E-4,-9.851039E-5,-1.567156E-5,-1.0076176E-5,-1.8888431E-4,1.8018634E-4,6.256323E-5,2.1815496E-4,6.037802E-6,3.3480313E-4,1.8247399E-4,1.2936177E-4,4.985639E-4,6.0904503E-4,3.866702E-4],"split_indices":[3,3,3,3,0,3,3,0,8,3,3,5,0,5,5,0,2,9,1,0,9,1,5,7,1,8,2,8,5,0,0,0,0,0,0,0,0,0,0,0,0,0,0,0,0,0,0,0,0,0,0,0,0,0,0,0,0],"split_type":[0,0,0,0,0,0,0,0,0,0,0,0,0,0,0,0,0,0,0,0,0,0,0,0,0,0,0,0,0,0,0,0,0,0,0,0,0,0,0,0,0,0,0,0,0,0,0,0,0,0,0,0,0,0,0,0,0],"sum_hessian":[1.707E3,8.46E2,8.61E2,8E1,7.66E2,7.6E2,1.01E2,1.4E1,6.6E1,1.73E2,5.93E2,5.53E2,2.07E2,8E1,2.1E1,5E0,9E0,2.5E1,4.1E1,1.66E2,7E0,2.24E2,3.69E2,4.4E1,5.09E2,3.8E1,1.69E2,3.7E1,4.3E1,2E0,1.9E1,2E0,7E0,1.7E1,8E0,1E0,4E1,2E0,1.64E2,2E0,5E0,1E0,2.23E2,9.7E1,2.72E2,3.1E1,1.3E1,6E1,4.49E2,1.3E1,2.5E1,3.6E1,1.33E2,2E1,1.7E1,2.3E1,2E1],"tree_param":{"num_deleted":"0","num_feature":"10","num_nodes":"57","size_leaf_vector":"1"}},{"base_weights":[9.714996E-7,-2.972334E-4,4.28737E-4,-1.2025288E-3,-1.8031718E-4,3.166409E-4,1.3478886E-3,-1.887347E-3,-8.9177367E-4,-3.5215027E-4,-5.638276E-5,2.071301E-4,5.7320565E-4,1.1995863E-3,2.3186293E-3,-2.0217684E-3,-3.4013984E-4,-7.0616195E-4,-1.2368428E-3,-3.772052E-4,3.726217E-4,-5.0007064E-5,-5.048053E-4,2.817194E-4,2.6522473E-5,-2.3481506E-4,5.920952E-4,1.4556712E-3,8.8387006E-4,7.921402E-5,7.627339E-4,-7.636892E-4,-4.7405084E-4,-2.3225855E-4,1.443039E-4,-4.363657E-4,-1.5843513E-4,-4.4183843E-4,-1.4770741E-4,2.0758444E-4,-1.1732516E-4,3.4442538E-4,7.5523253E-6,-2.6535563E-6,-7.98373E-5,7.258305E-5,3.159458E-4,2.0936364E-5,-1.9259952E-4,3.3418194E-4,1.53339E-4,5.4098584E-4,3.3645116E-4,6.7147805E-5,3.7511394E-4],"categories":[],"categories_nodes":[],"categories_segments":[],"categories_sizes":[],"default_left":[0,0,0,0,0,0,0,0,0,0,0,0,0,0,0,0,0,0,0,0,0,0,0,0,0,0,0,0,0,0,0,0,0,0,0,0,0,0,0,0,0,0,0,0,0,0,0,0,0,0,0,0,0,0,0],"id":6,"left_children":[1,3,5,7,9,11,13,15,17,19,21,23,25,27,29,31,33,35,37,39,41,43,-1,45,47,-1,49,51,53,-1,-1,-1,-1,-1,-1,-1,-1,-1,-1,-1,-1,-1,-1,-1,-1,-1,-1,-1,-1,-1,-1,-1,-1,-1,-1],"loss_changes":[2.1800293E-4,1.0636779E-4,7.19026E-5,2.2790162E-5,1.8997504E-5,1.7497849E-5,8.159797E-6,6.5915374E-6,4.3145483E-6,6.9320668E-6,5.3076315E-6,5.933416E-6,5.253023E-6,4.2111787E-6,3.4673285E-6,3.3802498E-6,1.7981008E-6,6.5604163E-6,4.0177474E-6,5.6421195E-6,3.473719E-6,4.614562E-6,0E0,9.318743E-6,3.804901E-6,0E0,7.2471157E-6,2.1594242E-6,7.703242E-6,0E0,0E0,0E0,0E0,0E0,0E0,0E0,0E0,0E0,0E0,0E0,0E0,0E0,0E0,0E0,0E0,0E0,0E0,0E0,0E0,0E0,0E0,0E0,0E0,0E0,0E0],"parents":[2147483647,0,0,1,1,2,2,3,3,4,4,5,5,6,6,7,7,8,8,9,9,10,10,11,11,12,12,13,13,14,14,15,15,16,16,17,17,18,18,19,19,20,20,21,21,23,23,24,24,26,26,27,27,28,28],"right_children":[2,4,6,8,10,12,14,16,18,20,22,24,26,28,30,32,34,36,38,40,42,44,-1,46,48,-1,50,52,54,-1,-1,-1,-1,-1,-1,-1,-1,-1,-1,-1,-1,-1,-1,-1,-1,-1,-1,-1,-1,-1,-1,-1,-1,-1,-1],"split_conditions":[1.1120997E-3,-4.063256E-3,6.5558515E-3,-9.028409E-3,-9.6223503E-4,2.5858954E-3,1.1556637E-2,-5.973529E-3,-2.772103E-3,7.606782E-4,1.0082077E-2,1.389116E-3,1.3807938E-3,8.2633905E-3,1.432705E-2,-1.1205908E-2,-1.1205908E-2,-8.906193E-3,-3.3077896E-3,-7.906143E-3,1.2337184E-3,1.7794184E-3,-5.048053E-4,7.4027292E-3,4.3508164E-3,-2.3481506E-4,1.0990724E-4,6.969422E-3,7.4693E-3,7.921402E-5,7.627339E-4,-7.636892E-4,-4.7405084E-4,-2.3225855E-4,1.443039E-4,-4.363657E-4,-1.5843513E-4,-4.4183843E-4,-1.4770741E-4,2.0758444E-4,-1.1732516E-4,3.4442538E-4,7.5523253E-6,-2.6535563E-6,-7.98373E-5,7.258305E-5,3.159458E-4,2.0936364E-5,-1.9259952E-4,3.3418194E-4,1.53339E-4,5.4098584E-4,3.3645116E-4,6.7147805E-5,3.7511394E-4],"split_indices":[3,3,3,3,3,0,0,0,6,0,5,9,3,7,2,3,3,8,4,1,2,7,0,8,4,0,9,0,0,0,0,0,0,0,0,0,0,0,0,0,0,0,0,0,0,0,0,0,0,0,0,0,0,0,0],"split_type":[0,0,0,0,0,0,0,0,0,0,0,0,0,0,0,0,0,0,0,0,0,0,0,0,0,0,0,0,0,0,0,0,0,0,0,0,0,0,0,0,0,0,0,0,0,0,0,0,0,0,0,0,0,0,0],"sum_hessian":[1.707E3,1.006E3,7.01E2,1.14E2,8.92E2,6.26E2,7.5E1,3.4E1,8E1,3.73E2,5.19E2,4.4E2,1.86E2,6.7E1,8E0,3.1E1,3E0,5.4E1,2.6E1,3.61E2,1.2E1,5.18E2,1E0,3.11E2,1.29E2,2E0,1.84E2,3.5E1,3.2E1,1E0,7E0,1.2E1,1.9E1,2E0,1E0,9E0,4.5E1,1.9E1,7E0,4E0,3.57E2,3E0,9E0,4.36E2,8.2E1,2.97E2,1.4E1,1.22E2,7E0,2.3E1,1.61E2,1.5E1,2E1,1.2E1,2E1],"tree_param":{"num_deleted":"0","num_feature":"10","num_nodes":"55","size_leaf_vector":"1"}},{"base_weights":[6.660632E-7,-2.3978132E-4,2.7710412E-4,-7.5739337E-4,-1.2893873E-4,1.7665494E-4,8.2977326E-4,-1.2474242E-3,-5.3819956E-4,-1.3624942E-4,5.239765E-4,1.5976421E-4,1.0951466E-3,6.932752E-4,1.4187065E-3,-8.4345666E-4,-1.1210472E-3,4.8486228E-4,-6.000989E-4,-3.0279384E-4,-8.96458E-5,-1.2055262E-4,1.8836865E-4,-2.5741998E-4,1.3507175E-3,1.1556693E-3,5.6483626E-4,1.1040401E-4,4.5161255E-4,-3.674274E-4,-1.0603477E-4,2.8364352E-4,-1.3333556E-4,-1.6349653E-4,-3.240516E-4,-1.0771198E-4,2.2970771E-5,-1.7872702E-5,-1.0762727E-4,-5.2460047E-5,2.13216E-4,-3.259001E-4,5.8328467E-5,6.931477E-4,2.1059717E-4,2.402279E-4,5.728451E-4,6.967948E-5,2.2991557E-4],"categories":[],"categories_nodes":[],"categories_segments":[],"categories_sizes":[],"default_left":[0,0,0,0,0,0,0,0,0,0,0,0,0,0,0,0,0,0,0,0,0,0,0,0,0,0,0,0,0,0,0,0,0,0,0,0,0,0,0,0,0,0,0,0,0,0,0,0,0],"id":7,"left_children":[1,3,5,7,9,11,13,15,17,19,-1,21,23,25,27,-1,29,31,33,35,37,39,41,-1,43,45,47,-1,-1,-1,-1,-1,-1,-1,-1,-1,-1,-1,-1,-1,-1,-1,-1,-1,-1,-1,-1,-1,-1],"loss_changes":[1.1359516E-4,5.2341693E-5,4.398798E-5,1.6621925E-5,1.0576369E-5,1.0281468E-5,8.8238085E-6,6.533781E-6,7.4469026E-6,5.8095575E-6,0E0,5.3388467E-6,7.1492186E-6,5.345566E-6,1.4493671E-6,0E0,3.3086872E-6,3.4166183E-6,2.2422246E-6,3.5268722E-6,4.7449466E-6,2.9235753E-6,4.8611437E-6,0E0,5.227006E-6,4.089221E-6,5.251377E-6,0E0,0E0,0E0,0E0,0E0,0E0,0E0,0E0,0E0,0E0,0E0,0E0,0E0,0E0,0E0,0E0,0E0,0E0,0E0,0E0,0E0,0E0],"parents":[2147483647,0,0,1,1,2,2,3,3,4,4,5,5,6,6,7,7,8,8,9,9,11,11,12,12,13,13,14,14,16,16,17,17,18,18,19,19,20,20,21,21,22,22,24,24,25,25,26,26],"right_children":[2,4,6,8,10,12,14,16,18,20,-1,22,24,26,28,-1,30,32,34,36,38,40,42,-1,44,46,48,-1,-1,-1,-1,-1,-1,-1,-1,-1,-1,-1,-1,-1,-1,-1,-1,-1,-1,-1,-1,-1,-1],"split_conditions":[7.474646E-4,-2.990853E-3,4.552696E-3,-4.9958937E-3,9.6898265E-3,8.352165E-3,1.0170862E-2,-6.6159293E-4,-4.5332834E-3,-2.0921752E-3,5.239765E-4,1.3677776E-4,1.108598E-3,5.8602868E-3,-1.7369278E-3,-8.4345666E-4,-5.973529E-3,-7.07563E-4,1.1324733E-3,-2.742298E-4,1.4131218E-3,3.4732027E-3,-1.8286891E-3,-2.5741998E-4,3.715355E-3,1.0807961E-3,7.419884E-3,1.1040401E-4,4.5161255E-4,-3.674274E-4,-1.0603477E-4,2.8364352E-4,-1.3333556E-4,-1.6349653E-4,-3.240516E-4,-1.0771198E-4,2.2970771E-5,-1.7872702E-5,-1.0762727E-4,-5.2460047E-5,2.13216E-4,-3.259001E-4,5.8328467E-5,6.931477E-4,2.1059717E-4,2.402279E-4,5.728451E-4,6.967948E-5,2.2991557E-4],"split_indices":[3,0,0,1,5,2,3,9,6,5,0,0,4,2,5,0,0,1,5,3,1,4,9,0,3,9,5,0,0,0,0,0,0,0,0,0,0,0,0,0,0,0,0,0,0,0,0,0,0],"split_type":[0,0,0,0,0,0,0,0,0,0,0,0,0,0,0,0,0,0,0,0,0,0,0,0,0,0,0,0,0,0,0,0,0,0,0,0,0,0,0,0,0,0,0,0,0,0,0,0,0],"sum_hessian":[1.707E3,9.13E2,7.94E2,1.6E2,7.53E2,6.73E2,1.21E2,4.8E1,1.12E2,7.51E2,2E0,6.62E2,1.1E1,1E2,2.1E1,2E0,4.6E1,6E0,1.06E2,1.63E2,5.88E2,6.1E1,6.01E2,1E0,1E1,2E1,8E1,2E0,1.9E1,4E1,6E0,4E0,2E0,9.7E1,9E0,1.42E2,2.1E1,5.3E2,5.8E1,5.8E1,3E0,2E0,5.99E2,3E0,7E0,1.5E1,5E0,3.1E1,4.9E1],"tree_param":{"num_deleted":"0","num_feature":"10","num_nodes":"49","size_leaf_vector":"1"}},{"base_weights":[9.778141E-7,-2.3080669E-4,1.4971083E-4,-9.037125E-4,-1.7842297E-4,6.5031134E-5,4.864978E-4,-6.747652E-4,-7.9631625E-4,-3.1516264E-4,-9.5496405E-5,-3.6868078E-6,1.7920691E-4,3.7261742E-4,7.909814E-4,-5.2141677E-5,-8.6594856E-4,-2.742647E-4,-1.1193427E-3,3.734174E-5,-2.0367949E-4,8.243353E-5,-6.740357E-5,8.8337174E-4,1.4079803E-4,-1.5248817E-4,4.0558956E-4,1.7235415E-3,6.446034E-4,-1.2953136E-4,2.1995645E-4,-4.824941E-4,-2.0926372E-4,-8.7091525E-5,4.954106E-4,-6.018269E-4,-2.0981675E-4,-2.3316803E-4,2.1258093E-5,-5.6692676E-5,-5.003418E-4,1.5565462E-5,4.193605E-4,-3.1098461E-4,-1.1189931E-5,3.1430484E-4,-5.3360956E-5,3.895093E-5,5.0945906E-4,1.4158798E-4,1.207369E-5,6.136531E-5,5.827844E-4,1.671973E-4,5.478602E-4],"categories":[],"categories_nodes":[],"categories_segments":[],"categories_sizes":[],"default_left":[0,0,0,0,0,0,0,0,0,0,0,0,0,0,0,0,0,0,0,0,0,0,0,0,0,0,0,0,0,0,0,0,0,0,0,0,0,0,0,0,0,0,0,0,0,0,0,0,0,0,0,0,0,0,0],"id":8,"left_children":[1,3,5,7,9,11,13,-1,15,17,19,21,23,25,27,29,31,33,35,37,39,41,43,45,47,-1,49,51,53,-1,-1,-1,-1,-1,-1,-1,-1,-1,-1,-1,-1,-1,-1,-1,-1,-1,-1,-1,-1,-1,-1,-1,-1,-1,-1],"loss_changes":[5.891616E-5,2.3385292E-5,2.9656665E-5,5.145015E-6,7.011644E-6,6.536315E-6,6.9522866E-6,0E0,2.3385055E-6,7.3891097E-6,5.5834907E-6,2.864444E-6,8.341077E-6,4.679172E-6,6.533355E-6,1.8072412E-6,4.1288185E-6,7.398281E-6,2.6932803E-6,4.833129E-6,4.291898E-6,8.84849E-6,8.714421E-6,2.9763287E-6,4.8668444E-6,0E0,3.593961E-6,1.9320269E-6,4.13865E-6,0E0,0E0,0E0,0E0,0E0,0E0,0E0,0E0,0E0,0E0,0E0,0E0,0E0,0E0,0E0,0E0,0E0,0E0,0E0,0E0,0E0,0E0,0E0,0E0,0E0,0E0],"parents":[2147483647,0,0,1,1,2,2,3,3,4,4,5,5,6,6,8,8,9,9,10,10,11,11,12,12,13,13,14,14,15,15,16,16,17,17,18,18,19,19,20,20,21,21,22,22,23,23,24,24,26,26,27,27,28,28],"right_children":[2,4,6,8,10,12,14,-1,16,18,20,22,24,26,28,30,32,34,36,38,40,42,44,46,48,-1,50,52,54,-1,-1,-1,-1,-1,-1,-1,-1,-1,-1,-1,-1,-1,-1,-1,-1,-1,-1,-1,-1,-1,-1,-1,-1,-1,-1],"split_conditions":[-2.0553917E-4,-6.960705E-3,3.5220012E-3,-6.6159293E-4,-2.135694E-3,2.6907958E-3,7.820807E-3,-6.747652E-4,-3.0079484E-4,-7.959455E-5,-5.5070966E-4,1.0786839E-3,7.156371E-4,-2.5898218E-4,-1.6393326E-3,-9.899601E-3,-1.6014986E-2,-1.0044873E-4,-3.8503483E-4,-5.295978E-3,3.363573E-3,1.3951622E-3,-9.6563995E-4,2.0049475E-3,9.268506E-3,-1.5248817E-4,7.0748664E-3,2.6942082E-3,1.0669511E-2,-1.2953136E-4,2.1995645E-4,-4.824941E-4,-2.0926372E-4,-8.7091525E-5,4.954106E-4,-6.018269E-4,-2.0981675E-4,-2.3316803E-4,2.1258093E-5,-5.6692676E-5,-5.003418E-4,1.5565462E-5,4.193605E-4,-3.1098461E-4,-1.1189931E-5,3.1430484E-4,-5.3360956E-5,3.895093E-5,5.0945906E-4,1.4158798E-4,1.207369E-5,6.136531E-5,5.827844E-4,1.671973E-4,5.478602E-4],"split_indices":[3,3,3,9,3,5,3,0,9,7,1,1,2,5,8,3,5,7,9,2,2,6,0,6,2,0,1,0,8,0,0,0,0,0,0,0,0,0,0,0,0,0,0,0,0,0,0,0,0,0,0,0,0,0,0],"split_type":[0,0,0,0,0,0,0,0,0,0,0,0,0,0,0,0,0,0,0,0,0,0,0,0,0,0,0,0,0,0,0,0,0,0,0,0,0,0,0,0,0,0,0,0,0,0,0,0,0,0,0,0,0,0,0],"sum_hessian":[1.707E3,6.67E2,1.04E3,4.7E1,6.2E2,8.32E2,2.08E2,2E0,4.5E1,2.33E2,3.87E2,5.2E2,3.12E2,1.53E2,5.5E1,4E0,4.1E1,2.23E2,1E1,1.74E2,2.13E2,2.21E2,2.99E2,1.5E1,2.97E2,5E0,1.48E2,6E0,4.9E1,3E0,1E0,6E0,3.5E1,2.22E2,1E0,2E0,8E0,6E0,1.68E2,2.12E2,1E0,2.17E2,4E0,8E0,2.91E2,1.3E1,2E0,2.96E2,1E0,1.25E2,2.3E1,1E0,5E0,4.7E1,2E0],"tree_param":{"num_deleted":"0","num_feature":"10","num_nodes":"55","size_leaf_vector":"1"}},{"base_weights":[5.8733457E-7,-8.718988E-5,2.1586199E-4,-4.4766688E-4,-4.2049523E-5,1.5203585E-4,5.093302E-4,-1.0902032E-3,-3.6431392E-4,-1.5124498E-4,2.708528E-6,-3.8704203E-4,1.6231785E-4,1.2803035E-3,3.9407331E-4,-4.950749E-4,-1.549056E-3,-4.5816382E-4,-2.0608179E-5,1.1853296E-4,-1.9799244E-4,1.5380441E-5,-5.9304066E-4,-2.137592E-5,2.1248315E-4,-1.9993985E-4,1.7869706E-3,-6.496002E-5,6.118241E-4,-6.0097293E-5,-3.837494E-4,-5.535753E-4,-1.3209433E-4,-8.0431724E-5,-2.471887E-4,5.3735388E-5,-9.822072E-5,7.03963E-5,-1.00374455E-4,-1.5213524E-4,-4.5727636E-5,5.375484E-4,2.4762433E-6,-3.6150776E-4,1.8833164E-4,3.344443E-5,-5.0862203E-5,2.3526227E-4,5.5689437E-5,5.8225554E-4,8.338827E-5,-2.4387652E-4,9.372558E-6,5.680521E-4,1.5733033E-4],"categories":[],"categories_nodes":[],"categories_segments":[],"categories_sizes":[],"default_left":[0,0,0,0,0,0,0,0,0,0,0,0,0,0,0,0,0,0,0,0,0,0,0,0,0,0,0,0,0,0,0,0,0,0,0,0,0,0,0,0,0,0,0,0,0,0,0,0,0,0,0,0,0,0,0],"id":9,"left_children":[1,3,5,7,9,11,13,15,17,19,21,-1,23,25,27,29,31,33,35,37,39,41,43,45,47,-1,49,51,53,-1,-1,-1,-1,-1,-1,-1,-1,-1,-1,-1,-1,-1,-1,-1,-1,-1,-1,-1,-1,-1,-1,-1,-1,-1,-1],"loss_changes":[3.2293545E-5,1.9735458E-5,9.194378E-6,6.833061E-6,5.2787764E-6,6.2594218E-6,7.315146E-6,3.3292454E-6,3.893627E-6,3.9834586E-6,5.799421E-6,0E0,3.7458549E-6,1.2040966E-5,7.8362245E-6,1.5926396E-6,1.8147366E-6,6.3837724E-6,1.7130639E-6,2.5514755E-6,3.6977217E-6,9.505148E-6,1.2710389E-5,1.751161E-6,4.751645E-6,0E0,1.550392E-6,1.8962357E-6,4.9432892E-6,0E0,0E0,0E0,0E0,0E0,0E0,0E0,0E0,0E0,0E0,0E0,0E0,0E0,0E0,0E0,0E0,0E0,0E0,0E0,0E0,0E0,0E0,0E0,0E0,0E0,0E0],"parents":[2147483647,0,0,1,1,2,2,3,3,4,4,5,5,6,6,7,7,8,8,9,9,10,10,12,12,13,13,14,14,15,15,16,16,17,17,18,18,19,19,20,20,21,21,22,22,23,23,24,24,26,26,27,27,28,28],"right_children":[2,4,6,8,10,12,14,16,18,20,22,-1,24,26,28,30,32,34,36,38,40,42,44,46,48,-1,50,52,54,-1,-1,-1,-1,-1,-1,-1,-1,-1,-1,-1,-1,-1,-1,-1,-1,-1,-1,-1,-1,-1,-1,-1,-1,-1,-1],"split_conditions":[1.751449E-3,-3.7960187E-3,7.710591E-3,-1.1205908E-2,-1.1438169E-3,3.7837774E-5,1.0951124E-3,-9.827953E-3,-2.362289E-3,-2.2828374E-3,4.92498E-3,-3.8704203E-4,1.3476387E-3,-2.3898073E-3,5.514864E-3,9.5492974E-4,1.3126619E-3,-5.1713567E-3,1.0432005E-3,-9.6563995E-4,-1.3236217E-3,-7.906143E-3,2.6186518E-3,-1.0843538E-3,1.4236942E-4,-1.9993985E-4,8.896426E-3,2.419278E-3,-2.009336E-3,-6.0097293E-5,-3.837494E-4,-5.535753E-4,-1.3209433E-4,-8.0431724E-5,-2.471887E-4,5.3735388E-5,-9.822072E-5,7.03963E-5,-1.00374455E-4,-1.5213524E-4,-4.5727636E-5,5.375484E-4,2.4762433E-6,-3.6150776E-4,1.8833164E-4,3.344443E-5,-5.0862203E-5,2.3526227E-4,5.5689437E-5,5.8225554E-4,8.338827E-5,-2.4387652E-4,9.372558E-6,5.680521E-4,1.5733033E-4],"split_indices":[3,3,5,3,5,4,7,1,2,6,2,0,5,6,3,9,9,2,9,0,7,1,1,8,1,0,2,3,8,0,0,0,0,0,0,0,0,0,0,0,0,0,0,0,0,0,0,0,0,0,0,0,0,0,0],"split_type":[0,0,0,0,0,0,0,0,0,0,0,0,0,0,0,0,0,0,0,0,0,0,0,0,0,0,0,0,0,0,0,0,0,0,0,0,0,0,0,0,0,0,0,0,0,0,0,0,0,0,0,0,0,0,0],"sum_hessian":[1.707E3,1.213E3,4.94E2,1.34E2,1.079E3,4.07E2,8.7E1,1.4E1,1.2E2,3.13E2,7.66E2,2E0,4.05E2,1E1,7.7E1,7E0,7E0,9.4E1,2.6E1,4.6E1,2.67E2,7.51E2,1.5E1,8.7E1,3.18E2,2E0,8E0,2.5E1,5.2E1,6E0,1E0,5E0,2E0,6.3E1,3.1E1,1.6E1,1E1,3.7E1,9E0,3.3E1,2.34E2,2E0,7.49E2,1E1,5E0,4.6E1,4.1E1,1.3E1,3.05E2,7E0,1E0,2E0,2.3E1,2E0,5E1],"tree_param":{"num_deleted":"0","num_feature":"10","num_nodes":"55","size_leaf_vector":"1"}},{"base_weights":[1.069737E-7,-9.69628E-5,1.1709158E-4,-4.2917771E-4,-6.533942E-5,5.9768634E-5,2.995822E-4,-7.7394967E-4,-3.0345004E-4,1.0802768E-3,-7.064744E-5,-2.6318172E-4,6.926092E-5,1.9144177E-4,4.7051976E-4,-1.274026E-3,-2.927235E-4,2.1617427E-4,-4.0957588E-4,3.1080447E-6,4.300387E-4,-1.4796075E-4,-2.6521371E-5,4.5173138E-4,3.429751E-5,2.5956647E-4,-5.498243E-4,9.4162306E-4,3.1635113E-4,3.0373829E-5,-4.8915E-4,3.3570212E-4,-2.060911E-4,-1.4493894E-4,2.638348E-4,-2.2223651E-4,-3.9830047E-5,1.9649936E-4,-4.819167E-5,1.3996854E-5,-3.3741624E-5,1.10593006E-4,3.882933E-4,-1.2161521E-4,1.561687E-5,-9.6957236E-5,9.121082E-5,-2.9934518E-4,-6.45846E-5,-1.4544628E-5,3.0196045E-4,-1.4201795E-4,1.5071093E-4],"categories":[],"categories_nodes":[],"categories_segments":[],"categories_sizes":[],"default_left":[0,0,0,0,0,0,0,0,0,0,0,0,0,0,0,0,0,0,0,0,0,0,0,0,0,0,0,0,0,0,0,0,0,0,0,0,0,0,0,0,0,0,0,0,0,0,0,0,0,0,0,0,0],"id":10,"left_children":[1,3,5,7,9,11,13,15,17,19,21,-1,23,25,27,29,31,33,35,-1,-1,37,39,41,43,45,47,49,51,-1,-1,-1,-1,-1,-1,-1,-1,-1,-1,-1,-1,-1,-1,-1,-1,-1,-1,-1,-1,-1,-1,-1,-1],"loss_changes":[1.9406836E-5,9.784337E-6,8.089291E-6,3.276281E-6,5.2694545E-6,5.317504E-6,3.3296947E-6,4.680707E-6,3.4524192E-6,1.4966649E-6,2.899289E-6,0E0,7.820774E-6,5.9500476E-6,4.858799E-6,5.0675644E-6,7.4475674E-6,5.5270284E-6,4.5774605E-6,0E0,0E0,3.2508437E-6,3.4205343E-6,2.9532666E-6,4.2219035E-6,2.84525E-6,1.2839141E-6,1.1413777E-6,8.317709E-6,0E0,0E0,0E0,0E0,0E0,0E0,0E0,0E0,0E0,0E0,0E0,0E0,0E0,0E0,0E0,0E0,0E0,0E0,0E0,0E0,0E0,0E0,0E0,0E0],"parents":[2147483647,0,0,1,1,2,2,3,3,4,4,5,5,6,6,7,7,8,8,9,9,10,10,12,12,13,13,14,14,15,15,16,16,17,17,18,18,21,21,22,22,23,23,24,24,25,25,26,26,27,27,28,28],"right_children":[2,4,6,8,10,12,14,16,18,20,22,-1,24,26,28,30,32,34,36,-1,-1,38,40,42,44,46,48,50,52,-1,-1,-1,-1,-1,-1,-1,-1,-1,-1,-1,-1,-1,-1,-1,-1,-1,-1,-1,-1,-1,-1,-1,-1],"split_conditions":[7.3225796E-4,-5.277753E-3,3.715355E-3,-8.906193E-3,-7.906143E-3,-7.1959933E-3,1.1098571E-3,-1.2741886E-2,-1.2741886E-2,-1.9063391E-3,-1.3867579E-3,-2.6318172E-4,-7.07563E-4,1.0374933E-3,3.8344972E-3,-1.6506525E-2,-1.14557175E-2,-1.6014986E-2,-5.973529E-3,3.1080447E-6,4.300387E-4,-5.973529E-3,5.7648495E-4,-4.8773922E-4,5.8457255E-5,2.5786832E-4,2.4079047E-3,2.6399717E-3,5.642917E-3,3.0373829E-5,-4.8915E-4,3.3570212E-4,-2.060911E-4,-1.4493894E-4,2.638348E-4,-2.2223651E-4,-3.9830047E-5,1.9649936E-4,-4.819167E-5,1.3996854E-5,-3.3741624E-5,1.10593006E-4,3.882933E-4,-1.2161521E-4,1.561687E-5,-9.6957236E-5,9.121082E-5,-2.9934518E-4,-6.45846E-5,-1.4544628E-5,3.0196045E-4,-1.4201795E-4,1.5071093E-4],"split_indices":[0,3,3,8,1,6,9,2,2,0,3,0,1,9,8,5,2,5,0,0,0,0,1,6,4,5,8,1,8,0,0,0,0,0,0,0,0,0,0,0,0,0,0,0,0,0,0,0,0,0,0,0,0],"split_type":[0,0,0,0,0,0,0,0,0,0,0,0,0,0,0,0,0,0,0,0,0,0,0,0,0,0,0,0,0,0,0,0,0,0,0,0,0,0,0,0,0,0,0,0,0,0,0,0,0,0,0,0,0],"sum_hessian":[1.707E3,9.33E2,7.74E2,8E1,8.53E2,5.9E2,1.84E2,2E1,6E1,3E0,8.5E2,5E0,5.85E2,1.14E2,7E1,9E0,1.1E1,1E1,5E1,1E0,2E0,3.08E2,5.42E2,4.8E1,5.37E2,1.05E2,9E0,1.6E1,5.4E1,2E0,7E0,2E0,9E0,5E0,5E0,2.2E1,2.8E1,4E0,3.04E2,2.93E2,2.49E2,4.5E1,3E0,2E1,5.17E2,7E0,9.8E1,3E0,6E0,1E0,1.5E1,1E1,4.4E1],"tree_param":{"num_deleted":"0","num_feature":"10","num_nodes":"53","size_leaf_vector":"1"}},{"base_weights":[1.600749E-7,-1.0286435E-4,5.6042314E-5,-7.4152404E-4,-8.636902E-5,3.0246158E-5,2.4018655E-4,-5.36529E-4,-5.390001E-4,-6.917194E-5,-5.0506386E-4,-7.2397216E-4,3.6460962E-5,6.348731E-4,1.8227108E-4,-2.4703154E-4,-1.0151372E-3,-1.1025534E-4,2.2775012E-4,4.529391E-4,-7.305876E-4,-2.8867705E-4,-1.8236228E-6,3.538156E-4,2.129296E-5,-7.064083E-5,8.3819433E-4,-3.590699E-4,2.0391872E-4,6.8533445E-5,-1.4503264E-4,-4.2809974E-4,-7.9468824E-5,-2.6459888E-5,-1.351948E-4,5.4740933E-5,4.9602217E-4,-3.6407433E-5,2.62877E-4,-1.05168365E-4,-3.995944E-4,5.388914E-5,1.8596883E-4,5.521828E-6,4.0244794E-4,3.4445972E-4,7.004643E-5,5.241033E-5,3.8262998E-4],"categories":[],"categories_nodes":[],"categories_segments":[],"categories_sizes":[],"default_left":[0,0,0,0,0,0,0,0,0,0,0,0,0,0,0,0,0,0,0,0,0,0,0,0,0,0,0,0,0,0,0,0,0,0,0,0,0,0,0,0,0,0,0,0,0,0,0,0,0],"id":11,"left_children":[1,3,5,7,9,11,13,-1,15,17,19,21,23,25,27,29,31,33,35,37,39,-1,-1,41,43,-1,45,-1,47,-1,-1,-1,-1,-1,-1,-1,-1,-1,-1,-1,-1,-1,-1,-1,-1,-1,-1,-1,-1],"loss_changes":[9.839123E-6,6.2674335E-6,5.255972E-6,2.2163895E-6,4.1916564E-6,4.5871575E-6,2.9930325E-6,0E0,1.6954677E-6,6.917302E-6,5.3001177E-6,1.362655E-6,4.642438E-6,3.2056746E-6,3.826767E-6,1.2345163E-6,1.1669722E-6,3.6915462E-6,4.1525473E-6,1.3218913E-6,3.8754233E-6,0E0,0E0,1.9279273E-6,3.4930874E-6,0E0,2.3563744E-6,0E0,3.502727E-6,0E0,0E0,0E0,0E0,0E0,0E0,0E0,0E0,0E0,0E0,0E0,0E0,0E0,0E0,0E0,0E0,0E0,0E0,0E0,0E0],"parents":[2147483647,0,0,1,1,2,2,3,3,4,4,5,5,6,6,8,8,9,9,10,10,11,11,12,12,13,13,14,14,15,15,16,16,17,17,18,18,19,19,20,20,23,23,24,24,26,26,28,28],"right_children":[2,4,6,8,10,12,14,-1,16,18,20,22,24,26,28,30,32,34,36,38,40,-1,-1,42,44,-1,46,-1,48,-1,-1,-1,-1,-1,-1,-1,-1,-1,-1,-1,-1,-1,-1,-1,-1,-1,-1,-1,-1],"split_conditions":[-3.3499673E-4,-1.1205908E-2,4.6862606E-3,-1.0642264E-2,1.5564896E-3,-6.2628575E-3,4.090123E-3,-5.36529E-4,9.5492974E-4,1.6728509E-4,-2.7529313E-3,2.4985522E-3,-2.0854473E-3,3.5791844E-3,-8.58922E-4,-1.0780197E-2,1.3126619E-3,4.6450272E-4,1.9981815E-3,-2.5358982E-3,1.0374933E-3,-2.8867705E-4,-1.8236228E-6,-2.5575906E-3,9.268506E-3,-7.064083E-5,5.795274E-3,-3.590699E-4,1.1704247E-2,6.8533445E-5,-1.4503264E-4,-4.2809974E-4,-7.9468824E-5,-2.6459888E-5,-1.351948E-4,5.4740933E-5,4.9602217E-4,-3.6407433E-5,2.62877E-4,-1.05168365E-4,-3.995944E-4,5.388914E-5,1.8596883E-4,5.521828E-6,4.0244794E-4,3.4445972E-4,7.004643E-5,5.241033E-5,3.8262998E-4],"split_indices":[0,3,3,8,1,6,1,0,9,4,2,0,1,1,2,1,9,1,4,0,9,0,0,1,2,0,0,0,8,0,0,0,0,0,0,0,0,0,0,0,0,0,0,0,0,0,0,0,0],"split_type":[0,0,0,0,0,0,0,0,0,0,0,0,0,0,0,0,0,0,0,0,0,0,0,0,0,0,0,0,0,0,0,0,0,0,0,0,0,0,0,0,0,0,0,0,0,0,0,0,0],"sum_hessian":[1.707E3,6E2,1.107E3,1.4E1,5.86E2,9.72E2,1.35E2,1E0,1.3E1,5.64E2,2.2E1,7E0,9.65E2,1.6E1,1.19E2,9E0,4E0,4.96E2,6.8E1,4E0,1.8E1,5E0,2E0,4.3E1,9.22E2,3E0,1.3E1,1E0,1.18E2,3E0,6E0,2E0,2E0,4.67E2,2.9E1,6.7E1,1E0,2E0,2E0,1.2E1,6E0,2.7E1,1.6E1,9.21E2,1E0,8E0,5E0,1.16E2,2E0],"tree_param":{"num_deleted":"0","num_feature":"10","num_nodes":"49","size_leaf_vector":"1"}},{"base_weights":[-2.4136835E-8,-1.8804989E-4,2.0474468E-5,-2.1421598E-4,2.8149405E-4,-3.4361132E-5,7.157373E-5,-1.9636974E-4,-4.7114966E-4,-2.7870481E-5,-2.1412577E-4,2.3958345E-4,3.7914775E-5,-5.9377303E-4,-1.5532029E-4,2.3961638E-5,-9.678305E-5,1.856783E-4,3.5500512E-4,-7.532892E-5,9.432418E-5,-4.560496E-4,-1.2570569E-4,-1.0445072E-5,-1.0539608E-4,9.892151E-5,-8.424343E-8,-6.6231914E-5,-3.5591225E-7,-9.69122E-6,8.929473E-5,3.635598E-5,-6.382944E-5,-1.5914072E-4,3.253139E-5],"categories":[],"categories_nodes":[],"categories_segments":[],"categories_sizes":[],"default_left":[0,0,0,0,0,0,0,0,0,0,0,0,0,0,0,0,0,0,0,0,0,0,0,0,0,0,0,0,0,0,0,0,0,0,0],"id":12,"left_children":[1,3,5,7,-1,9,11,13,-1,15,-1,17,19,21,23,25,27,29,-1,31,33,-1,-1,-1,-1,-1,-1,-1,-1,-1,-1,-1,-1,-1,-1],"loss_changes":[6.5869367E-6,5.152384E-6,4.320432E-6,3.685349E-6,0E0,3.2609191E-6,4.5036318E-6,2.5831378E-6,0E0,2.6383698E-6,0E0,6.5465038E-6,4.26152E-6,1.7913844E-6,3.5305668E-6,3.1282843E-6,3.7571483E-6,3.1093882E-6,0E0,6.0216225E-6,3.9816196E-6,0E0,0E0,0E0,0E0,0E0,0E0,0E0,0E0,0E0,0E0,0E0,0E0,0E0,0E0],"parents":[2147483647,0,0,1,1,2,2,3,3,5,5,6,6,7,7,9,9,11,11,12,12,13,13,14,14,15,15,16,16,17,17,19,19,20,20],"right_children":[2,4,6,8,-1,10,12,14,-1,16,-1,18,20,22,24,26,28,30,-1,32,34,-1,-1,-1,-1,-1,-1,-1,-1,-1,-1,-1,-1,-1,-1],"split_conditions":[-3.3378005E-3,-8.35903E-4,1.2679361E-3,-8.956194E-4,2.8149405E-4,8.235704E-3,-1.2222715E-3,-1.1205908E-2,-4.7114966E-4,3.6805868E-4,-2.1412577E-4,8.007053E-3,1.037281E-3,-1.0642264E-2,-2.4045892E-3,-7.3726512E-3,2.3179501E-4,-3.9402135E-3,3.5500512E-4,8.640066E-4,-4.1502155E-4,-4.560496E-4,-1.2570569E-4,-1.0445072E-5,-1.0539608E-4,9.892151E-5,-8.424343E-8,-6.6231914E-5,-3.5591225E-7,-9.69122E-6,8.929473E-5,3.635598E-5,-6.382944E-5,-1.5914072E-4,3.253139E-5],"split_indices":[3,1,5,1,0,8,8,3,0,2,0,5,0,8,7,8,6,8,0,9,9,0,0,0,0,0,0,0,0,0,0,0,0,0,0],"split_type":[0,0,0,0,0,0,0,0,0,0,0,0,0,0,0,0,0,0,0,0,0,0,0,0,0,0,0,0,0,0,0,0,0,0,0],"sum_hessian":[1.707E3,1.67E2,1.54E3,1.64E2,3E0,7.43E2,7.97E2,1.63E2,1E0,7.37E2,6E0,1.32E2,6.65E2,1.4E1,1.49E2,4.21E2,3.16E2,1.26E2,6E0,2.21E2,4.44E2,1E0,1.3E1,9.3E1,5.6E1,3E1,3.91E2,1.37E2,1.79E2,4.3E1,8.3E1,9.1E1,1.3E2,9E0,4.35E2],"tree_param":{"num_deleted":"0","num_feature":"10","num_nodes":"35","size_leaf_vector":"1"}},{"base_weights":[-4.7860186E-7,-9.049469E-5,2.8944727E-5,-4.2320325E-4,-6.3884814E-5,7.692229E-4,2.488007E-5,-6.9330237E-4,-1.266539E-4,4.899198E-4,-8.121449E-5,-7.942374E-5,4.8326576E-4,-4.8199767E-4,3.1261414E-5,-8.866497E-4,3.25206E-5,3.872169E-5,-2.5685664E-4,-9.214263E-4,-6.560534E-5,-1.00842306E-4,-4.0047723E-4,2.5012723E-5,4.196167E-4,-1.4852143E-4,-3.7829374E-4,1.7162757E-4,-6.9550675E-5,-5.8199188E-5,-4.2554966E-4,-4.136262E-6,-5.7120047E-5,1.421654E-4,6.410904E-6,8.993928E-5,2.9959774E-4],"categories":[],"categories_nodes":[],"categories_segments":[],"categories_sizes":[],"default_left":[0,0,0,0,0,0,0,0,0,0,0,0,0,0,0,0,0,0,0,0,0,0,0,0,0,0,0,0,0,0,0,0,0,0,0,0,0],"id":13,"left_children":[1,3,5,7,9,11,13,15,17,-1,19,-1,-1,21,23,25,-1,27,-1,29,31,-1,-1,33,35,-1,-1,-1,-1,-1,-1,-1,-1,-1,-1,-1,-1],"loss_changes":[4.5263823E-6,3.7002167E-6,3.856426E-6,2.3952198E-6,1.1631009E-5,6.5182476E-6,4.161776E-6,2.5762329E-6,1.9635092E-6,0E0,5.0281687E-6,0E0,0E0,1.5417575E-6,3.0641486E-6,1.2812561E-6,0E0,2.152932E-6,0E0,2.2559097E-6,2.4676133E-6,0E0,0E0,2.0306782E-6,1.0882113E-6,0E0,0E0,0E0,0E0,0E0,0E0,0E0,0E0,0E0,0E0,0E0,0E0],"parents":[2147483647,0,0,1,1,2,2,3,3,4,4,5,5,6,6,7,7,8,8,10,10,13,13,14,14,15,15,17,17,19,19,20,20,23,23,24,24],"right_children":[2,4,6,8,10,12,14,16,18,-1,20,-1,-1,22,24,26,-1,28,-1,30,32,-1,-1,34,36,-1,-1,-1,-1,-1,-1,-1,-1,-1,-1,-1,-1],"split_conditions":[-1.1438169E-3,-6.9525503E-3,-3.935445E-3,1.9666925E-4,-6.4122193E-3,-5.6589344E-3,-2.9363942E-3,-9.079964E-3,6.7831203E-4,4.899198E-4,-5.4637827E-3,-7.942374E-5,4.8326576E-4,-1.4690869E-3,1.0170862E-2,-9.525955E-3,3.25206E-5,-1.0780197E-2,-2.5685664E-4,-5.716156E-3,3.8318709E-4,-1.00842306E-4,-4.0047723E-4,-7.3510967E-3,1.0669511E-2,-1.4852143E-4,-3.7829374E-4,1.7162757E-4,-6.9550675E-5,-5.8199188E-5,-4.2554966E-4,-4.136262E-6,-5.7120047E-5,1.421654E-4,6.410904E-6,8.993928E-5,2.9959774E-4],"split_indices":[5,7,2,9,7,2,2,4,8,0,7,0,0,0,3,1,0,1,0,1,7,0,0,1,8,0,0,0,0,0,0,0,0,0,0,0,0],"split_type":[0,0,0,0,0,0,0,0,0,0,0,0,0,0,0,0,0,0,0,0,0,0,0,0,0,0,0,0,0,0,0,0,0,0,0,0,0],"sum_hessian":[1.707E3,4.2E2,1.287E3,3E1,3.9E2,6E0,1.281E3,1.5E1,1.5E1,3E0,3.87E2,3E0,3E0,1.5E1,1.266E3,1.2E1,3E0,1.3E1,2E0,6E0,3.81E2,1.4E1,1E0,1.247E3,1.9E1,7E0,5E0,4E0,9E0,3E0,3E0,2.7E2,1.11E2,9E0,1.238E3,1.7E1,2E0],"tree_param":{"num_deleted":"0","num_feature":"10","num_nodes":"37","size_leaf_vector":"1"}},{"base_weights":[-4.8931327E-7,-1.1732318E-4,1.5083695E-5,-9.48736E-5,-3.5977399E-4,1.2297238E-5,1.4334514E-4,-1.424768E-4,2.1189025E-4,1.838334E-4,5.022236E-6,-1.1953134E-4,-8.849489E-4,5.911164E-4,-4.5955498E-5,1.14246235E-4,4.4733097E-4,-3.9381807E-4,1.1487896E-5,-7.117768E-5,-1.0524662E-5,2.0729984E-5,-3.4222082E-4,1.83644E-5,2.3465331E-4,-6.587984E-5,1.7198616E-4,6.0210685E-5,-1.1650961E-4,-8.278288E-5,-2.6542184E-4,6.783792E-5,1.1894462E-6],"categories":[],"categories_nodes":[],"categories_segments":[],"categories_sizes":[],"default_left":[0,0,0,0,0,0,0,0,0,0,0,0,0,0,0,0,0,0,0,0,0,0,0,0,0,0,0,0,0,0,0,0,0],"id":14,"left_children":[1,3,5,7,-1,9,-1,11,13,15,17,19,21,23,25,27,-1,29,31,-1,-1,-1,-1,-1,-1,-1,-1,-1,-1,-1,-1,-1,-1],"loss_changes":[3.109398E-6,4.768258E-6,1.9385188E-6,2.9215714E-6,0E0,1.870966E-6,0E0,2.8244756E-6,2.667275E-6,5.378769E-6,3.7179468E-6,1.6619315E-6,1.2989922E-6,1.0658005E-6,1.9538652E-6,2.6417208E-6,0E0,1.0868139E-6,2.288807E-6,0E0,0E0,0E0,0E0,0E0,0E0,0E0,0E0,0E0,0E0,0E0,0E0,0E0,0E0],"parents":[2147483647,0,0,1,1,2,2,3,3,5,5,7,7,8,8,9,9,10,10,11,11,12,12,13,13,14,14,15,15,17,17,18,18],"right_children":[2,4,6,8,-1,10,-1,12,14,16,18,20,22,24,26,28,-1,30,32,-1,-1,-1,-1,-1,-1,-1,-1,-1,-1,-1,-1,-1,-1],"split_conditions":[-2.616182E-3,2.7517248E-3,1.1556637E-2,-1.5349351E-3,-3.5977399E-4,-3.2220483E-3,1.4334514E-4,2.0708293E-3,5.75684E-4,-1.3236217E-3,-2.527154E-3,1.9666925E-4,-4.700411E-3,-1.590021E-3,1.7481223E-3,5.2596647E-3,4.4733097E-4,4.9807793E-3,-2.0854473E-3,-7.117768E-5,-1.0524662E-5,2.0729984E-5,-3.4222082E-4,1.83644E-5,2.3465331E-4,-6.587984E-5,1.7198616E-4,6.0210685E-5,-1.1650961E-4,-8.278288E-5,-2.6542184E-4,6.783792E-5,1.1894462E-6],"split_indices":[0,2,0,6,0,6,0,9,9,7,6,9,0,1,9,2,0,2,1,0,0,0,0,0,0,0,0,0,0,0,0,0,0],"split_type":[0,0,0,0,0,0,0,0,0,0,0,0,0,0,0,0,0,0,0,0,0,0,0,0,0,0,0,0,0,0,0,0,0],"sum_hessian":[1.707E3,2E2,1.507E3,1.97E2,3E0,1.499E3,8E0,1.71E2,2.6E1,6E1,1.439E3,1.67E2,4E0,1E1,1.6E1,5.8E1,2E0,2.2E1,1.417E3,6.9E1,9.8E1,1E0,3E0,3E0,7E0,1.3E1,3E0,5E1,8E0,1.9E1,3E0,4.7E1,1.37E3],"tree_param":{"num_deleted":"0","num_feature":"10","num_nodes":"33","size_leaf_vector":"1"}},{"base_weights":[-4.2954332E-7,-2.8122475E-5,4.9591235E-5,-2.2878185E-5,-8.4371236E-4,2.1834603E-4,2.7976314E-5,-1.9098059E-5,-2.5271103E-4,-4.5101924E-4,8.070201E-6,1.2181135E-3,1.3808167E-4,1.5213257E-5,5.451825E-4,-3.7899386E-4,-1.4402015E-5,1.5548033E-4,6.026245E-4,-1.8296247E-4,2.8483378E-4,-2.9337083E-4,2.3556211E-5,3.9020454E-4,8.687257E-5,-1.6645406E-4,1.3522481E-4,-1.5633142E-6,-5.8640977E-5,9.402353E-5,-1.20721896E-4,-2.3171282E-5,1.7327414E-4,3.39772E-5,-1.8374975E-4,7.007493E-5,-9.103364E-7],"categories":[],"categories_nodes":[],"categories_segments":[],"categories_sizes":[],"default_left":[0,0,0,0,0,0,0,0,0,0,0,0,0,0,0,0,0,0,0,0,0,0,0,0,0,0,0,0,0,0,0,0,0,0,0,0,0],"id":15,"left_children":[1,3,5,7,9,11,13,15,-1,-1,-1,17,19,21,23,25,27,-1,-1,29,31,33,35,-1,-1,-1,-1,-1,-1,-1,-1,-1,-1,-1,-1,-1,-1],"loss_changes":[2.3673538E-6,4.6856053E-6,2.215293E-6,3.372887E-6,4.0607547E-6,5.3687536E-6,3.5629187E-6,1.8367363E-6,0E0,0E0,0E0,1.7255429E-6,3.1145182E-6,1.3688227E-6,2.1337992E-6,2.2928764E-6,1.7913133E-6,0E0,0E0,2.4135704E-6,4.814394E-6,1.8861018E-6,2.8824422E-6,0E0,0E0,0E0,0E0,0E0,0E0,0E0,0E0,0E0,0E0,0E0,0E0,0E0,0E0],"parents":[2147483647,0,0,1,1,2,2,3,3,4,4,5,5,6,6,7,7,11,11,12,12,13,13,14,14,15,15,16,16,19,19,20,20,21,21,22,22],"right_children":[2,4,6,8,10,12,14,16,-1,-1,-1,18,20,22,24,26,28,-1,-1,30,32,34,36,-1,-1,-1,-1,-1,-1,-1,-1,-1,-1,-1,-1,-1,-1],"split_conditions":[1.3807938E-3,2.907779E-3,7.544458E-5,1.0151554E-2,5.4455344E-3,6.5022334E-4,1.1704247E-2,-1.0642264E-2,-2.5271103E-4,-4.5101924E-4,8.070201E-6,3.3157505E-3,-4.779175E-4,1.5407614E-4,2.5711395E-3,-4.190322E-3,2.347853E-3,1.5548033E-4,6.026245E-4,2.1570139E-3,2.3545008E-3,1.8717721E-3,1.1864752E-3,3.9020454E-4,8.687257E-5,-1.6645406E-4,1.3522481E-4,-1.5633142E-6,-5.8640977E-5,9.402353E-5,-1.20721896E-4,-2.3171282E-5,1.7327414E-4,3.39772E-5,-1.8374975E-4,7.007493E-5,-9.103364E-7],"split_indices":[3,0,9,8,2,7,8,8,0,0,0,0,9,4,3,6,1,0,0,1,4,5,1,0,0,0,0,0,0,0,0,0,0,0,0,0,0],"split_type":[0,0,0,0,0,0,0,0,0,0,0,0,0,0,0,0,0,0,0,0,0,0,0,0,0,0,0,0,0,0,0,0,0,0,0,0,0],"sum_hessian":[1.707E3,1.099E3,6.08E2,1.093E3,6E0,6.8E1,5.4E2,1.089E3,4E0,3E0,3E0,4E0,6.4E1,5.28E2,1.2E1,1.3E1,1.076E3,3E0,1E0,2E1,4.4E1,1.3E1,5.15E2,2E0,1E1,1.1E1,2E0,1.025E3,5.1E1,6E0,1.4E1,2E1,2.4E1,6E0,7E0,5.7E1,4.58E2],"tree_param":{"num_deleted":"0","num_feature":"10","num_nodes":"37","size_leaf_vector":"1"}},{"base_weights":[-1.3287334E-8,-4.9547416E-5,2.2930186E-5,-3.8554615E-5,-8.8263326E-4,1.9370994E-4,7.975555E-6,-5.6019762E-5,5.706385E-4,-3.3085345E-4,6.579543E-5,1.590738E-4,5.1223085E-4,-3.207911E-4,1.2997422E-5,-3.9902163E-5,-6.8277656E-4,3.3021305E-4,2.7782063E-4,-1.11857626E-4,2.3483389E-4,6.1914837E-4,9.001127E-6,-2.3683253E-6,-6.194411E-5,2.7347627E-5,-2.7722193E-4,-2.222364E-4,1.3612809E-4,-1.0144678E-4,1.1671409E-4,3.9760827E-4,6.0383965E-5,3.0171272E-4,2.3340179E-5,-2.1228825E-5,9.7624115E-6],"categories":[],"categories_nodes":[],"categories_segments":[],"categories_sizes":[],"default_left":[0,0,0,0,0,0,0,0,0,0,0,0,0,0,0,0,0,0,0,0,0,0,0,0,0,0,0,0,0,0,0,0,0,0,0,0,0],"id":16,"left_children":[1,3,5,7,9,11,13,15,17,-1,-1,19,-1,-1,21,23,25,-1,27,29,31,33,35,-1,-1,-1,-1,-1,-1,-1,-1,-1,-1,-1,-1,-1,-1],"loss_changes":[1.9422525E-6,4.9204205E-6,2.9814667E-6,5.7241796E-6,1.940511E-6,4.6567784E-6,5.8295973E-6,5.2358014E-6,2.022417E-6,0E0,0E0,1.9351662E-6,0E0,0E0,2.5887723E-6,2.7122524E-6,2.5119598E-6,0E0,2.30749E-6,2.5119894E-6,2.4044134E-6,1.3866015E-6,2.0020118E-6,0E0,0E0,0E0,0E0,0E0,0E0,0E0,0E0,0E0,0E0,0E0,0E0,0E0,0E0],"parents":[2147483647,0,0,1,1,2,2,3,3,4,4,5,5,6,6,7,7,8,8,11,11,14,14,15,15,16,16,18,18,19,19,20,20,21,21,22,22],"right_children":[2,4,6,8,10,12,14,16,18,-1,-1,20,-1,-1,22,24,26,-1,28,30,32,34,36,-1,-1,-1,-1,-1,-1,-1,-1,-1,-1,-1,-1,-1,-1],"split_conditions":[-9.726621E-4,7.729903E-4,-6.433502E-4,2.1980042E-3,2.9760636E-3,8.318409E-3,-2.7490035E-3,6.356608E-3,5.0998367E-3,-3.3085345E-4,6.579543E-5,-1.5969612E-3,5.1223085E-4,-3.207911E-4,-2.4766587E-3,-5.7910755E-4,-7.880241E-3,3.3021305E-4,1.4873594E-3,-7.730108E-4,-3.7398115E-3,3.8231537E-4,8.5011125E-6,-2.3683253E-6,-6.194411E-5,2.7347627E-5,-2.7722193E-4,-2.222364E-4,1.3612809E-4,-1.0144678E-4,1.1671409E-4,3.9760827E-4,6.0383965E-5,3.0171272E-4,2.3340179E-5,-2.1228825E-5,9.7624115E-6],"split_indices":[6,7,6,4,3,5,3,5,8,0,0,0,0,0,0,1,4,0,0,6,3,1,5,0,0,0,0,0,0,0,0,0,0,0,0,0,0],"split_type":[0,0,0,0,0,0,0,0,0,0,0,0,0,0,0,0,0,0,0,0,0,0,0,0,0,0,0,0,0,0,0,0,0,0,0,0,0],"sum_hessian":[1.707E3,5.4E2,1.167E3,5.34E2,6E0,9.3E1,1.074E3,5.2E2,1.4E1,5E0,1E0,9.2E1,1E0,4E0,1.07E3,5.08E2,1.2E1,4E0,1E1,2E1,7.2E1,6E0,1.064E3,4.27E2,8.1E1,3E0,9E0,1E0,9E0,1.4E1,6E0,1E0,7.1E1,3E0,3E0,2.42E2,8.22E2],"tree_param":{"num_deleted":"0","num_feature":"10","num_nodes":"37","size_leaf_vector":"1"}},{"base_weights":[3.672619E-7,1.9000128E-5,-4.8039736E-5,6.1578085E-6,1.8617218E-4,-7.934804E-5,1.7405524E-4,1.0134654E-5,-5.613125E-4,-9.788765E-5,3.3478742E-4,-6.766995E-5,-5.0051045E-4,2.4539817E-4,5.7006153E-5,-2.2237318E-5,5.1615254E-5,3.767573E-5,-3.8388217E-4,4.617908E-5,-5.1785185E-4,1.9001284E-4,5.8081816E-4,-4.0353916E-5,-2.2254426E-4,-1.1555136E-4,1.028334E-4,-8.459085E-5,-3.106991E-6,4.7614387E-5,1.3140452E-6,1.1529186E-4,-4.4071086E-5,-2.004809E-4,8.0260885E-5,9.191562E-5,-2.6297936E-5,4.7500688E-4,1.17586E-4,-8.0967264E-5,-4.055966E-6,-1.0719838E-4,3.8033548E-5,1.4185936E-4,-2.9865403E-6],"categories":[],"categories_nodes":[],"categories_segments":[],"categories_sizes":[],"default_left":[0,0,0,0,0,0,0,0,0,0,0,0,0,0,0,0,0,0,0,0,0,0,0,0,0,0,0,0,0,0,0,0,0,0,0,0,0,0,0,0,0,0,0,0,0],"id":17,"left_children":[1,3,5,7,9,11,13,15,17,19,21,23,-1,-1,25,27,29,-1,-1,31,33,35,37,39,41,-1,43,-1,-1,-1,-1,-1,-1,-1,-1,-1,-1,-1,-1,-1,-1,-1,-1,-1,-1],"loss_changes":[1.5414626E-6,2.6481002E-6,3.3166848E-6,2.594172E-6,3.7477457E-6,7.6252554E-6,4.4003427E-6,1.5319497E-6,4.107864E-6,1.899503E-6,1.9555396E-6,1.7466986E-6,0E0,0E0,1.0730607E-6,1.9750748E-6,2.528729E-6,0E0,0E0,1.6233319E-6,1.1238772E-6,1.2547695E-6,3.3556266E-6,2.176779E-6,2.9644482E-6,0E0,1.966265E-6,0E0,0E0,0E0,0E0,0E0,0E0,0E0,0E0,0E0,0E0,0E0,0E0,0E0,0E0,0E0,0E0,0E0,0E0],"parents":[2147483647,0,0,1,1,2,2,3,3,4,4,5,5,6,6,7,7,8,8,9,9,10,10,11,11,14,14,15,15,16,16,19,19,20,20,21,21,22,22,23,23,24,24,26,26],"right_children":[2,4,6,8,10,12,14,16,18,20,22,24,-1,-1,26,28,30,-1,-1,32,34,36,38,40,42,-1,44,-1,-1,-1,-1,-1,-1,-1,-1,-1,-1,-1,-1,-1,-1,-1,-1,-1,-1],"split_conditions":[1.234483E-3,1.1098571E-3,3.3051893E-3,1.0961518E-3,1.3187528E-5,5.376689E-3,4.4811144E-4,1.0469183E-3,9.907298E-4,4.396934E-3,2.2251476E-3,2.818212E-3,-5.0051045E-4,2.4539817E-4,3.2702358E-3,-7.211987E-3,6.5022334E-4,3.767573E-5,-3.8388217E-4,-1.968436E-3,7.606782E-4,3.8344972E-3,9.928029E-4,1.3010874E-3,3.3591888E-3,-1.1555136E-4,5.4455344E-3,-8.459085E-5,-3.106991E-6,4.7614387E-5,1.3140452E-6,1.1529186E-4,-4.4071086E-5,-2.004809E-4,8.0260885E-5,9.191562E-5,-2.6297936E-5,4.7500688E-4,1.17586E-4,-8.0967264E-5,-4.055966E-6,-1.0719838E-4,3.8033548E-5,1.4185936E-4,-2.9865403E-6],"split_indices":[9,9,6,9,3,1,8,5,6,8,6,7,0,0,2,7,7,0,0,0,0,8,3,9,4,0,2,0,0,0,0,0,0,0,0,0,0,0,0,0,0,0,0,0,0],"split_type":[0,0,0,0,0,0,0,0,0,0,0,0,0,0,0,0,0,0,0,0,0,0,0,0,0,0,0,0,0,0,0,0,0,0,0,0,0,0,0,0,0,0,0,0,0],"sum_hessian":[1.707E3,1.233E3,4.74E2,1.146E3,8.7E1,4.16E2,5.8E1,1.139E3,7E0,3E1,5.7E1,4.14E2,2E0,8E0,5E1,6.4E2,4.99E2,4E0,3E0,2.3E1,7E0,3.7E1,2E1,3.53E2,6.1E1,4E0,4.6E1,2.7E1,6.13E2,1.52E2,3.47E2,8E0,1.5E1,6E0,1E0,2.6E1,1.1E1,2E0,1.8E1,3.6E1,3.17E2,4.4E1,1.7E1,1E1,3.6E1],"tree_param":{"num_deleted":"0","num_feature":"10","num_nodes":"45","size_leaf_vector":"1"}},{"base_weights":[1.6236629E-7,-3.6482077E-5,1.7135382E-5,-2.8623013E-5,-6.3192734E-4,4.9733504E-4,1.3811753E-5,-4.159026E-5,3.9460146E-4,-3.021915E-4,-2.957036E-5,1.6871285E-5,3.641255E-4,3.1839305E-4,8.736638E-6,-3.2158547E-5,-6.4120017E-4,2.9594352E-4,1.8213152E-4,3.0180992E-4,6.795353E-5,4.7504063E-6,3.840431E-4,-7.2105386E-6,-1.625835E-4,-1.51174E-5,-2.956822E-4,-9.817508E-5,1.6242045E-4,1.5486866E-4,-2.6140313E-5,4.093593E-6,-6.0263912E-5,3.238226E-5,2.727787E-4],"categories":[],"categories_nodes":[],"categories_segments":[],"categories_sizes":[],"default_left":[0,0,0,0,0,0,0,0,0,0,0,0,0,0,0,0,0,0,0,0,0,0,0,0,0,0,0,0,0,0,0,0,0,0,0],"id":18,"left_children":[1,3,5,7,9,11,13,15,17,-1,-1,-1,-1,19,21,23,25,-1,27,-1,29,31,33,-1,-1,-1,-1,-1,-1,-1,-1,-1,-1,-1,-1],"loss_changes":[1.0629443E-6,2.5135992E-6,1.8572651E-6,2.952522E-6,1.3021911E-6,2.4598176E-6,1.7918749E-6,2.920162E-6,1.8324281E-6,0E0,0E0,0E0,0E0,3.203669E-6,1.7081705E-6,2.1114147E-6,1.5781641E-6,0E0,2.5562458E-6,0E0,1.0878124E-6,2.0732368E-6,1.6420238E-6,0E0,0E0,0E0,0E0,0E0,0E0,0E0,0E0,0E0,0E0,0E0,0E0],"parents":[2147483647,0,0,1,1,2,2,3,3,4,4,5,5,6,6,7,7,8,8,13,13,14,14,15,15,16,16,18,18,20,20,21,21,22,22],"right_children":[2,4,6,8,10,12,14,16,18,-1,-1,-1,-1,20,22,24,26,-1,28,-1,30,32,34,-1,-1,-1,-1,-1,-1,-1,-1,-1,-1,-1,-1],"split_conditions":[-9.726621E-4,7.729903E-4,-9.4191544E-4,2.1641771E-3,-1.2937542E-3,1.2561046E-3,-7.6117553E-3,1.6925144E-3,2.3563085E-3,-3.021915E-4,-2.957036E-5,1.6871285E-5,3.641255E-4,-2.3634732E-4,1.1704247E-2,-9.93669E-4,2.5858954E-3,2.9594352E-4,-2.527154E-3,3.0180992E-4,-3.8535893E-4,8.235704E-3,8.896426E-3,-7.2105386E-6,-1.625835E-4,-1.51174E-5,-2.956822E-4,-9.817508E-5,1.6242045E-4,1.5486866E-4,-2.6140313E-5,4.093593E-6,-6.0263912E-5,3.238226E-5,2.727787E-4],"split_indices":[6,7,6,4,6,0,8,4,2,0,0,0,0,9,8,6,0,0,6,0,1,8,2,0,0,0,0,0,0,0,0,0,0,0,0],"split_type":[0,0,0,0,0,0,0,0,0,0,0,0,0,0,0,0,0,0,0,0,0,0,0,0,0,0,0,0,0,0,0,0,0,0,0],"sum_hessian":[1.707E3,5.4E2,1.167E3,5.34E2,6E0,7E0,1.16E3,5.19E2,1.5E1,3E0,3E0,5E0,2E0,1.8E1,1.142E3,5.12E2,7E0,3E0,1.2E1,4E0,1.4E1,1.131E3,1.1E1,5.05E2,7E0,3E0,4E0,5E0,7E0,3E0,1.1E1,1.085E3,4.6E1,8E0,3E0],"tree_param":{"num_deleted":"0","num_feature":"10","num_nodes":"35","size_leaf_vector":"1"}},{"base_weights":[4.6984766E-7,-4.8698244E-6,1.1519636E-4,-2.5542345E-6,-5.4238335E-4,4.0919206E-4,2.9977637E-5,-5.5084097E-6,2.2363215E-4,8.29419E-5,-1.2256439E-3,6.177339E-4,2.3027416E-5,-2.373241E-4,7.1929295E-5,-2.5027427E-6,-3.7385692E-4,-6.2206134E-5,2.1553562E-4,1.1702465E-5,-4.9805926E-4,2.5765516E-4,4.6987163E-5,-1.1246922E-4,4.1519536E-4,-3.5116478E-4,1.5680707E-4,1.2523797E-6,-4.376678E-5,-2.7591008E-5,-2.4194461E-4,-9.153129E-5,2.2709901E-4,-1.764483E-4,1.19364035E-4,1.5391177E-4,1.9148663E-5],"categories":[],"categories_nodes":[],"categories_segments":[],"categories_sizes":[],"default_left":[0,0,0,0,0,0,0,0,0,0,0,0,0,0,0,0,0,0,0,0,0,0,0,0,0,0,0,0,0,0,0,0,0,0,0,0,0],"id":19,"left_children":[1,3,5,7,9,11,13,15,17,-1,19,21,23,-1,25,27,29,-1,-1,-1,-1,-1,-1,-1,31,33,35,-1,-1,-1,-1,-1,-1,-1,-1,-1,-1],"loss_changes":[1.046885E-6,2.0311459E-6,1.8918327E-6,1.0883839E-6,4.255303E-6,1.3548106E-6,2.1235862E-6,1.7782273E-6,4.6274417E-6,0E0,2.262997E-6,1.0884783E-6,1.2480291E-6,0E0,2.1379196E-6,1.527727E-6,1.5111954E-6,0E0,0E0,0E0,0E0,0E0,0E0,0E0,1.2157604E-6,2.0092257E-6,1.5902224E-6,0E0,0E0,0E0,0E0,0E0,0E0,0E0,0E0,0E0,0E0],"parents":[2147483647,0,0,1,1,2,2,3,3,4,4,5,5,6,6,7,7,8,8,10,10,11,11,12,12,14,14,15,15,16,16,24,24,25,25,26,26],"right_children":[2,4,6,8,10,12,14,16,18,-1,20,22,24,-1,26,28,30,-1,-1,-1,-1,-1,-1,-1,32,34,36,-1,-1,-1,-1,-1,-1,-1,-1,-1,-1],"split_conditions":[6.5558515E-3,6.2153097E-3,6.3817427E-3,5.514864E-3,8.896426E-3,1.1791214E-3,4.468655E-3,2.8397515E-3,3.9289333E-3,8.29419E-5,3.8436465E-3,7.691432E-3,6.09643E-3,-2.373241E-4,7.820807E-3,4.090123E-3,1.5153848E-3,-6.2206134E-5,2.1553562E-4,1.1702465E-5,-4.9805926E-4,2.5765516E-4,4.6987163E-5,-1.1246922E-4,3.6780573E-3,5.875785E-3,5.35387E-3,1.2523797E-6,-4.376678E-5,-2.7591008E-5,-2.4194461E-4,-9.153129E-5,2.2709901E-4,-1.764483E-4,1.19364035E-4,1.5391177E-4,1.9148663E-5],"split_indices":[3,3,7,3,2,9,6,9,8,0,1,0,4,0,3,1,0,0,0,0,0,0,0,0,1,6,6,0,0,0,0,0,0,0,0,0,0],"split_type":[0,0,0,0,0,0,0,0,0,0,0,0,0,0,0,0,0,0,0,0,0,0,0,0,0,0,0,0,0,0,0,0,0,0,0,0,0],"sum_hessian":[1.707E3,1.632E3,7.5E1,1.626E3,6E0,1.6E1,5.9E1,1.606E3,2E1,3E0,3E0,1E1,6E0,2E0,5.7E1,1.594E3,1.2E1,1.1E1,9E0,1E0,2E0,6E0,4E0,3E0,3E0,9E0,4.8E1,1.524E3,7E1,8E0,4E0,1E0,2E0,7E0,2E0,9E0,3.9E1],"tree_param":{"num_deleted":"0","num_feature":"10","num_nodes":"37","size_leaf_vector":"1"}},{"base_weights":[1.2061723E-7],"categories":[],"categories_nodes":[],"categories_segments":[],"categories_sizes":[],"default_left":[0],"id":20,"left_children":[-1],"loss_changes":[0E0],"parents":[2147483647],"right_children":[-1],"split_conditions":[3.618517E-8],"split_indices":[0],"split_type":[0],"sum_hessian":[1.707E3],"tree_param":{"num_deleted":"0","num_feature":"10","num_nodes":"1","size_leaf_vector":"1"}},{"base_weights":[8.444916E-8],"categories":[],"categories_nodes":[],"categories_segments":[],"categories_sizes":[],"default_left":[0],"id":21,"left_children":[-1],"loss_changes":[0E0],"parents":[2147483647],"right_children":[-1],"split_conditions":[2.533475E-8],"split_indices":[0],"split_type":[0],"sum_hessian":[1.707E3],"tree_param":{"num_deleted":"0","num_feature":"10","num_nodes":"1","size_leaf_vector":"1"}},{"base_weights":[5.9145624E-8],"categories":[],"categories_nodes":[],"categories_segments":[],"categories_sizes":[],"default_left":[0],"id":22,"left_children":[-1],"loss_changes":[0E0],"parents":[2147483647],"right_children":[-1],"split_conditions":[1.7743687E-8],"split_indices":[0],"split_type":[0],"sum_hessian":[1.707E3],"tree_param":{"num_deleted":"0","num_feature":"10","num_nodes":"1","size_leaf_vector":"1"}},{"base_weights":[4.1440696E-8],"categories":[],"categories_nodes":[],"categories_segments":[],"categories_sizes":[],"default_left":[0],"id":23,"left_children":[-1],"loss_changes":[0E0],"parents":[2147483647],"right_children":[-1],"split_conditions":[1.2432209E-8],"split_indices":[0],"split_type":[0],"sum_hessian":[1.707E3],"tree_param":{"num_deleted":"0","num_feature":"10","num_nodes":"1","size_leaf_vector":"1"}},{"base_weights":[2.9030025E-8],"categories":[],"categories_nodes":[],"categories_segments":[],"categories_sizes":[],"default_left":[0],"id":24,"left_children":[-1],"loss_changes":[0E0],"parents":[2147483647],"right_children":[-1],"split_conditions":[8.709008E-9],"split_indices":[0],"split_type":[0],"sum_hessian":[1.707E3],"tree_param":{"num_deleted":"0","num_feature":"10","num_nodes":"1","size_leaf_vector":"1"}},{"base_weights":[2.0342156E-8],"categories":[],"categories_nodes":[],"categories_segments":[],"categories_sizes":[],"default_left":[0],"id":25,"left_children":[-1],"loss_changes":[0E0],"parents":[2147483647],"right_children":[-1],"split_conditions":[6.1026473E-9],"split_indices":[0],"split_type":[0],"sum_hessian":[1.707E3],"tree_param":{"num_deleted":"0","num_feature":"10","num_nodes":"1","size_leaf_vector":"1"}},{"base_weights":[1.4249914E-8],"categories":[],"categories_nodes":[],"categories_segments":[],"categories_sizes":[],"default_left":[0],"id":26,"left_children":[-1],"loss_changes":[0E0],"parents":[2147483647],"right_children":[-1],"split_conditions":[4.2749746E-9],"split_indices":[0],"split_type":[0],"sum_hessian":[1.707E3],"tree_param":{"num_deleted":"0","num_feature":"10","num_nodes":"1","size_leaf_vector":"1"}},{"base_weights":[9.988691E-9],"categories":[],"categories_nodes":[],"categories_segments":[],"categories_sizes":[],"default_left":[0],"id":27,"left_children":[-1],"loss_changes":[0E0],"parents":[2147483647],"right_children":[-1],"split_conditions":[2.9966074E-9],"split_indices":[0],"split_type":[0],"sum_hessian":[1.707E3],"tree_param":{"num_deleted":"0","num_feature":"10","num_nodes":"1","size_leaf_vector":"1"}},{"base_weights":[7.0208666E-9],"categories":[],"categories_nodes":[],"categories_segments":[],"categories_sizes":[],"default_left":[0],"id":28,"left_children":[-1],"loss_changes":[0E0],"parents":[2147483647],"right_children":[-1],"split_conditions":[2.10626E-9],"split_indices":[0],"split_type":[0],"sum_hessian":[1.707E3],"tree_param":{"num_deleted":"0","num_feature":"10","num_nodes":"1","size_leaf_vector":"1"}},{"base_weights":[4.9077507E-9],"categories":[],"categories_nodes":[],"categories_segments":[],"categories_sizes":[],"default_left":[0],"id":29,"left_children":[-1],"loss_changes":[0E0],"parents":[2147483647],"right_children":[-1],"split_conditions":[1.4723253E-9],"split_indices":[0],"split_type":[0],"sum_hessian":[1.707E3],"tree_param":{"num_deleted":"0","num_feature":"10","num_nodes":"1","size_leaf_vector":"1"}},{"base_weights":[3.4351828E-9],"categories":[],"categories_nodes":[],"categories_segments":[],"categories_sizes":[],"default_left":[0],"id":30,"left_children":[-1],"loss_changes":[0E0],"parents":[2147483647],"right_children":[-1],"split_conditions":[1.0305549E-9],"split_indices":[0],"split_type":[0],"sum_hessian":[1.707E3],"tree_param":{"num_deleted":"0","num_feature":"10","num_nodes":"1","size_leaf_vector":"1"}},{"base_weights":[2.4433309E-9],"categories":[],"categories_nodes":[],"categories_segments":[],"categories_sizes":[],"default_left":[0],"id":31,"left_children":[-1],"loss_changes":[0E0],"parents":[2147483647],"right_children":[-1],"split_conditions":[7.329993E-10],"split_indices":[0],"split_type":[0],"sum_hessian":[1.707E3],"tree_param":{"num_deleted":"0","num_feature":"10","num_nodes":"1","size_leaf_vector":"1"}},{"base_weights":[1.6872916E-9],"categories":[],"categories_nodes":[],"categories_segments":[],"categories_sizes":[],"default_left":[0],"id":32,"left_children":[-1],"loss_changes":[0E0],"parents":[2147483647],"right_children":[-1],"split_conditions":[5.0618754E-10],"split_indices":[0],"split_type":[0],"sum_hessian":[1.707E3],"tree_param":{"num_deleted":"0","num_feature":"10","num_nodes":"1","size_leaf_vector":"1"}},{"base_weights":[1.1820854E-9],"categories":[],"categories_nodes":[],"categories_segments":[],"categories_sizes":[],"default_left":[0],"id":33,"left_children":[-1],"loss_changes":[0E0],"parents":[2147483647],"right_children":[-1],"split_conditions":[3.5462563E-10],"split_indices":[0],"split_type":[0],"sum_hessian":[1.707E3],"tree_param":{"num_deleted":"0","num_feature":"10","num_nodes":"1","size_leaf_vector":"1"}},{"base_weights":[8.069433E-10],"categories":[],"categories_nodes":[],"categories_segments":[],"categories_sizes":[],"default_left":[0],"id":34,"left_children":[-1],"loss_changes":[0E0],"parents":[2147483647],"right_children":[-1],"split_conditions":[2.42083E-10],"split_indices":[0],"split_type":[0],"sum_hessian":[1.707E3],"tree_param":{"num_deleted":"0","num_feature":"10","num_nodes":"1","size_leaf_vector":"1"}},{"base_weights":[5.5521987E-10],"categories":[],"categories_nodes":[],"categories_segments":[],"categories_sizes":[],"default_left":[0],"id":35,"left_children":[-1],"loss_changes":[0E0],"parents":[2147483647],"right_children":[-1],"split_conditions":[1.6656597E-10],"split_indices":[0],"split_type":[0],"sum_hessian":[1.707E3],"tree_param":{"num_deleted":"0","num_feature":"10","num_nodes":"1","size_leaf_vector":"1"}},{"base_weights":[4.1474024E-10],"categories":[],"categories_nodes":[],"categories_segments":[],"categories_sizes":[],"default_left":[0],"id":36,"left_children":[-1],"loss_changes":[0E0],"parents":[2147483647],"right_children":[-1],"split_conditions":[1.2442208E-10],"split_indices":[0],"split_type":[0],"sum_hessian":[1.707E3],"tree_param":{"num_deleted":"0","num_feature":"10","num_nodes":"1","size_leaf_vector":"1"}},{"base_weights":[2.9055905E-10],"categories":[],"categories_nodes":[],"categories_segments":[],"categories_sizes":[],"default_left":[0],"id":37,"left_children":[-1],"loss_changes":[0E0],"parents":[2147483647],"right_children":[-1],"split_conditions":[8.716772E-11],"split_indices":[0],"split_type":[0],"sum_hessian":[1.707E3],"tree_param":{"num_deleted":"0","num_feature":"10","num_nodes":"1","size_leaf_vector":"1"}},{"base_weights":[2.4508007E-10],"categories":[],"categories_nodes":[],"categories_segments":[],"categories_sizes":[],"default_left":[0],"id":38,"left_children":[-1],"loss_changes":[0E0],"parents":[2147483647],"right_children":[-1],"split_conditions":[7.352402E-11],"split_indices":[0],"split_type":[0],"sum_hessian":[1.707E3],"tree_param":{"num_deleted":"0","num_feature":"10","num_nodes":"1","size_leaf_vector":"1"}},{"base_weights":[1.9995039E-10],"categories":[],"categories_nodes":[],"categories_segments":[],"categories_sizes":[],"default_left":[0],"id":39,"left_children":[-1],"loss_changes":[0E0],"parents":[2147483647],"right_children":[-1],"split_conditions":[5.998512E-11],"split_indices":[0],"split_type":[0],"sum_hessian":[1.707E3],"tree_param":{"num_deleted":"0","num_feature":"10","num_nodes":"1","size_leaf_vector":"1"}},{"base_weights":[1.5704439E-10],"categories":[],"categories_nodes":[],"categories_segments":[],"categories_sizes":[],"default_left":[0],"id":40,"left_children":[-1],"loss_changes":[0E0],"parents":[2147483647],"right_children":[-1],"split_conditions":[4.711332E-11],"split_indices":[0],"split_type":[0],"sum_hessian":[1.707E3],"tree_param":{"num_deleted":"0","num_feature":"10","num_nodes":"1","size_leaf_vector":"1"}},{"base_weights":[1.4221557E-10],"categories":[],"categories_nodes":[],"categories_segments":[],"categories_sizes":[],"default_left":[0],"id":41,"left_children":[-1],"loss_changes":[0E0],"parents":[2147483647],"right_children":[-1],"split_conditions":[4.2664674E-11],"split_indices":[0],"split_type":[0],"sum_hessian":[1.707E3],"tree_param":{"num_deleted":"0","num_feature":"10","num_nodes":"1","size_leaf_vector":"1"}},{"base_weights":[1.2923984E-10],"categories":[],"categories_nodes":[],"categories_segments":[],"categories_sizes":[],"default_left":[0],"id":42,"left_children":[-1],"loss_changes":[0E0],"parents":[2147483647],"right_children":[-1],"split_conditions":[3.8771954E-11],"split_indices":[0],"split_type":[0],"sum_hessian":[1.707E3],"tree_param":{"num_deleted":"0","num_feature":"10","num_nodes":"1","size_leaf_vector":"1"}},{"base_weights":[1.1529709E-10],"categories":[],"categories_nodes":[],"categories_segments":[],"categories_sizes":[],"default_left":[0],"id":43,"left_children":[-1],"loss_changes":[0E0],"parents":[2147483647],"right_children":[-1],"split_conditions":[3.458913E-11],"split_indices":[0],"split_type":[0],"sum_hessian":[1.707E3],"tree_param":{"num_deleted":"0","num_feature":"10","num_nodes":"1","size_leaf_vector":"1"}},{"base_weights":[1.0271752E-10],"categories":[],"categories_nodes":[],"categories_segments":[],"categories_sizes":[],"default_left":[0],"id":44,"left_children":[-1],"loss_changes":[0E0],"parents":[2147483647],"right_children":[-1],"split_conditions":[3.0815257E-11],"split_indices":[0],"split_type":[0],"sum_hessian":[1.707E3],"tree_param":{"num_deleted":"0","num_feature":"10","num_nodes":"1","size_leaf_vector":"1"}},{"base_weights":[9.0636366E-11],"categories":[],"categories_nodes":[],"categories_segments":[],"categories_sizes":[],"default_left":[0],"id":45,"left_children":[-1],"loss_changes":[0E0],"parents":[2147483647],"right_children":[-1],"split_conditions":[2.7190911E-11],"split_indices":[0],"split_type":[0],"sum_hessian":[1.707E3],"tree_param":{"num_deleted":"0","num_feature":"10","num_nodes":"1","size_leaf_vector":"1"}},{"base_weights":[8.712618E-11],"categories":[],"categories_nodes":[],"categories_segments":[],"categories_sizes":[],"default_left":[0],"id":46,"left_children":[-1],"loss_changes":[0E0],"parents":[2147483647],"right_children":[-1],"split_conditions":[2.6137856E-11],"split_indices":[0],"split_type":[0],"sum_hessian":[1.707E3],"tree_param":{"num_deleted":"0","num_feature":"10","num_nodes":"1","size_leaf_vector":"1"}},{"base_weights":[8.3560624E-11],"categories":[],"categories_nodes":[],"categories_segments":[],"categories_sizes":[],"default_left":[0],"id":47,"left_children":[-1],"loss_changes":[0E0],"parents":[2147483647],"right_children":[-1],"split_conditions":[2.5068189E-11],"split_indices":[0],"split_type":[0],"sum_hessian":[1.707E3],"tree_param":{"num_deleted":"0","num_feature":"10","num_nodes":"1","size_leaf_vector":"1"}},{"base_weights":[8.01399E-11],"categories":[],"categories_nodes":[],"categories_segments":[],"categories_sizes":[],"default_left":[0],"id":48,"left_children":[-1],"loss_changes":[0E0],"parents":[2147483647],"right_children":[-1],"split_conditions":[2.4041972E-11],"split_indices":[0],"split_type":[0],"sum_hessian":[1.707E3],"tree_param":{"num_deleted":"0","num_feature":"10","num_nodes":"1","size_leaf_vector":"1"}},{"base_weights":[7.713239E-11],"categories":[],"categories_nodes":[],"categories_segments":[],"categories_sizes":[],"default_left":[0],"id":49,"left_children":[-1],"loss_changes":[0E0],"parents":[2147483647],"right_children":[-1],"split_conditions":[2.3139718E-11],"split_indices":[0],"split_type":[0],"sum_hessian":[1.707E3],"tree_param":{"num_deleted":"0","num_feature":"10","num_nodes":"1","size_leaf_vector":"1"}},{"base_weights":[7.426546E-11],"categories":[],"categories_nodes":[],"categories_segments":[],"categories_sizes":[],"default_left":[0],"id":50,"left_children":[-1],"loss_changes":[0E0],"parents":[2147483647],"right_children":[-1],"split_conditions":[2.227964E-11],"split_indices":[0],"split_type":[0],"sum_hessian":[1.707E3],"tree_param":{"num_deleted":"0","num_feature":"10","num_nodes":"1","size_leaf_vector":"1"}},{"base_weights":[7.076806E-11],"categories":[],"categories_nodes":[],"categories_segments":[],"categories_sizes":[],"default_left":[0],"id":51,"left_children":[-1],"loss_changes":[0E0],"parents":[2147483647],"right_children":[-1],"split_conditions":[2.1230418E-11],"split_indices":[0],"split_type":[0],"sum_hessian":[1.707E3],"tree_param":{"num_deleted":"0","num_feature":"10","num_nodes":"1","size_leaf_vector":"1"}},{"base_weights":[6.794373E-11],"categories":[],"categories_nodes":[],"categories_segments":[],"categories_sizes":[],"default_left":[0],"id":52,"left_children":[-1],"loss_changes":[0E0],"parents":[2147483647],"right_children":[-1],"split_conditions":[2.0383119E-11],"split_indices":[0],"split_type":[0],"sum_hessian":[1.707E3],"tree_param":{"num_deleted":"0","num_feature":"10","num_nodes":"1","size_leaf_vector":"1"}},{"base_weights":[6.5170515E-11],"categories":[],"categories_nodes":[],"categories_segments":[],"categories_sizes":[],"default_left":[0],"id":53,"left_children":[-1],"loss_changes":[0E0],"parents":[2147483647],"right_children":[-1],"split_conditions":[1.9551156E-11],"split_indices":[0],"split_type":[0],"sum_hessian":[1.707E3],"tree_param":{"num_deleted":"0","num_feature":"10","num_nodes":"1","size_leaf_vector":"1"}},{"base_weights":[6.245268E-11],"categories":[],"categories_nodes":[],"categories_segments":[],"categories_sizes":[],"default_left":[0],"id":54,"left_children":[-1],"loss_changes":[0E0],"parents":[2147483647],"right_children":[-1],"split_conditions":[1.8735805E-11],"split_indices":[0],"split_type":[0],"sum_hessian":[1.707E3],"tree_param":{"num_deleted":"0","num_feature":"10","num_nodes":"1","size_leaf_vector":"1"}},{"base_weights":[5.967095E-11],"categories":[],"categories_nodes":[],"categories_segments":[],"categories_sizes":[],"default_left":[0],"id":55,"left_children":[-1],"loss_changes":[0E0],"parents":[2147483647],"right_children":[-1],"split_conditions":[1.7901285E-11],"split_indices":[0],"split_type":[0],"sum_hessian":[1.707E3],"tree_param":{"num_deleted":"0","num_feature":"10","num_nodes":"1","size_leaf_vector":"1"}},{"base_weights":[5.6855135E-11],"categories":[],"categories_nodes":[],"categories_segments":[],"categories_sizes":[],"default_left":[0],"id":56,"left_children":[-1],"loss_changes":[0E0],"parents":[2147483647],"right_children":[-1],"split_conditions":[1.7056542E-11],"split_indices":[0],"split_type":[0],"sum_hessian":[1.707E3],"tree_param":{"num_deleted":"0","num_feature":"10","num_nodes":"1","size_leaf_vector":"1"}},{"base_weights":[5.4375855E-11],"categories":[],"categories_nodes":[],"categories_segments":[],"categories_sizes":[],"default_left":[0],"id":57,"left_children":[-1],"loss_changes":[0E0],"parents":[2147483647],"right_children":[-1],"split_conditions":[1.6312757E-11],"split_indices":[0],"split_type":[0],"sum_hessian":[1.707E3],"tree_param":{"num_deleted":"0","num_feature":"10","num_nodes":"1","size_leaf_vector":"1"}},{"base_weights":[5.1990294E-11],"categories":[],"categories_nodes":[],"categories_segments":[],"categories_sizes":[],"default_left":[0],"id":58,"left_children":[-1],"loss_changes":[0E0],"parents":[2147483647],"right_children":[-1],"split_conditions":[1.559709E-11],"split_indices":[0],"split_type":[0],"sum_hessian":[1.707E3],"tree_param":{"num_deleted":"0","num_feature":"10","num_nodes":"1","size_leaf_vector":"1"}},{"base_weights":[4.9085024E-11],"categories":[],"categories_nodes":[],"categories_segments":[],"categories_sizes":[],"default_left":[0],"id":59,"left_children":[-1],"loss_changes":[0E0],"parents":[2147483647],"right_children":[-1],"split_conditions":[1.4725507E-11],"split_indices":[0],"split_type":[0],"sum_hessian":[1.707E3],"tree_param":{"num_deleted":"0","num_feature":"10","num_nodes":"1","size_leaf_vector":"1"}},{"base_weights":[4.643535E-11],"categories":[],"categories_nodes":[],"categories_segments":[],"categories_sizes":[],"default_left":[0],"id":60,"left_children":[-1],"loss_changes":[0E0],"parents":[2147483647],"right_children":[-1],"split_conditions":[1.3930605E-11],"split_indices":[0],"split_type":[0],"sum_hessian":[1.707E3],"tree_param":{"num_deleted":"0","num_feature":"10","num_nodes":"1","size_leaf_vector":"1"}},{"base_weights":[4.5694122E-11],"categories":[],"categories_nodes":[],"categories_segments":[],"categories_sizes":[],"default_left":[0],"id":61,"left_children":[-1],"loss_changes":[0E0],"parents":[2147483647],"right_children":[-1],"split_conditions":[1.3708237E-11],"split_indices":[0],"split_type":[0],"sum_hessian":[1.707E3],"tree_param":{"num_deleted":"0","num_feature":"10","num_nodes":"1","size_leaf_vector":"1"}},{"base_weights":[4.4876214E-11],"categories":[],"categories_nodes":[],"categories_segments":[],"categories_sizes":[],"default_left":[0],"id":62,"left_children":[-1],"loss_changes":[0E0],"parents":[2147483647],"right_children":[-1],"split_conditions":[1.34628645E-11],"split_indices":[0],"split_type":[0],"sum_hessian":[1.707E3],"tree_param":{"num_deleted":"0","num_feature":"10","num_nodes":"1","size_leaf_vector":"1"}},{"base_weights":[4.403275E-11],"categories":[],"categories_nodes":[],"categories_segments":[],"categories_sizes":[],"default_left":[0],"id":63,"left_children":[-1],"loss_changes":[0E0],"parents":[2147483647],"right_children":[-1],"split_conditions":[1.3209826E-11],"split_indices":[0],"split_type":[0],"sum_hessian":[1.707E3],"tree_param":{"num_deleted":"0","num_feature":"10","num_nodes":"1","size_leaf_vector":"1"}},{"base_weights":[4.3240404E-11],"categories":[],"categories_nodes":[],"categories_segments":[],"categories_sizes":[],"default_left":[0],"id":64,"left_children":[-1],"loss_changes":[0E0],"parents":[2147483647],"right_children":[-1],"split_conditions":[1.2972122E-11],"split_indices":[0],"split_type":[0],"sum_hessian":[1.707E3],"tree_param":{"num_deleted":"0","num_feature":"10","num_nodes":"1","size_leaf_vector":"1"}},{"base_weights":[4.2465097E-11],"categories":[],"categories_nodes":[],"categories_segments":[],"categories_sizes":[],"default_left":[0],"id":65,"left_children":[-1],"loss_changes":[0E0],"parents":[2147483647],"right_children":[-1],"split_conditions":[1.273953E-11],"split_indices":[0],"split_type":[0],"sum_hessian":[1.707E3],"tree_param":{"num_deleted":"0","num_feature":"10","num_nodes":"1","size_leaf_vector":"1"}},{"base_weights":[4.1366036E-11],"categories":[],"categories_nodes":[],"categories_segments":[],"categories_sizes":[],"default_left":[0],"id":66,"left_children":[-1],"loss_changes":[0E0],"parents":[2147483647],"right_children":[-1],"split_conditions":[1.2409811E-11],"split_indices":[0],"split_type":[0],"sum_hessian":[1.707E3],"tree_param":{"num_deleted":"0","num_feature":"10","num_nodes":"1","size_leaf_vector":"1"}},{"base_weights":[4.050553E-11],"categories":[],"categories_nodes":[],"categories_segments":[],"categories_sizes":[],"default_left":[0],"id":67,"left_children":[-1],"loss_changes":[0E0],"parents":[2147483647],"right_children":[-1],"split_conditions":[1.2151659E-11],"split_indices":[0],"split_type":[0],"sum_hessian":[1.707E3],"tree_param":{"num_deleted":"0","num_feature":"10","num_nodes":"1","size_leaf_vector":"1"}},{"base_weights":[3.9674843E-11],"categories":[],"categories_nodes":[],"categories_segments":[],"categories_sizes":[],"default_left":[0],"id":68,"left_children":[-1],"loss_changes":[0E0],"parents":[2147483647],"right_children":[-1],"split_conditions":[1.1902454E-11],"split_indices":[0],"split_type":[0],"sum_hessian":[1.707E3],"tree_param":{"num_deleted":"0","num_feature":"10","num_nodes":"1","size_leaf_vector":"1"}},{"base_weights":[3.8895276E-11],"categories":[],"categories_nodes":[],"categories_segments":[],"categories_sizes":[],"default_left":[0],"id":69,"left_children":[-1],"loss_changes":[0E0],"parents":[2147483647],"right_children":[-1],"split_conditions":[1.1668584E-11],"split_indices":[0],"split_type":[0],"sum_hessian":[1.707E3],"tree_param":{"num_deleted":"0","num_feature":"10","num_nodes":"1","size_leaf_vector":"1"}},{"base_weights":[3.812849E-11],"categories":[],"categories_nodes":[],"categories_segments":[],"categories_sizes":[],"default_left":[0],"id":70,"left_children":[-1],"loss_changes":[0E0],"parents":[2147483647],"right_children":[-1],"split_conditions":[1.1438547E-11],"split_indices":[0],"split_type":[0],"sum_hessian":[1.707E3],"tree_param":{"num_deleted":"0","num_feature":"10","num_nodes":"1","size_leaf_vector":"1"}},{"base_weights":[3.7404302E-11],"categories":[],"categories_nodes":[],"categories_segments":[],"categories_sizes":[],"default_left":[0],"id":71,"left_children":[-1],"loss_changes":[0E0],"parents":[2147483647],"right_children":[-1],"split_conditions":[1.1221291E-11],"split_indices":[0],"split_type":[0],"sum_hessian":[1.707E3],"tree_param":{"num_deleted":"0","num_feature":"10","num_nodes":"1","size_leaf_vector":"1"}},{"base_weights":[3.6573616E-11],"categories":[],"categories_nodes":[],"categories_segments":[],"categories_sizes":[],"default_left":[0],"id":72,"left_children":[-1],"loss_changes":[0E0],"parents":[2147483647],"right_children":[-1],"split_conditions":[1.0972085E-11],"split_indices":[0],"split_type":[0],"sum_hessian":[1.707E3],"tree_param":{"num_deleted":"0","num_feature":"10","num_nodes":"1","size_leaf_vector":"1"}},{"base_weights":[3.577701E-11],"categories":[],"categories_nodes":[],"categories_segments":[],"categories_sizes":[],"default_left":[0],"id":73,"left_children":[-1],"loss_changes":[0E0],"parents":[2147483647],"right_children":[-1],"split_conditions":[1.0733104E-11],"split_indices":[0],"split_type":[0],"sum_hessian":[1.707E3],"tree_param":{"num_deleted":"0","num_feature":"10","num_nodes":"1","size_leaf_vector":"1"}},{"base_weights":[3.49591E-11],"categories":[],"categories_nodes":[],"categories_segments":[],"categories_sizes":[],"default_left":[0],"id":74,"left_children":[-1],"loss_changes":[0E0],"parents":[2147483647],"right_children":[-1],"split_conditions":[1.04877305E-11],"split_indices":[0],"split_type":[0],"sum_hessian":[1.707E3],"tree_param":{"num_deleted":"0","num_feature":"10","num_nodes":"1","size_leaf_vector":"1"}},{"base_weights":[3.436271E-11],"categories":[],"categories_nodes":[],"categories_segments":[],"categories_sizes":[],"default_left":[0],"id":75,"left_children":[-1],"loss_changes":[0E0],"parents":[2147483647],"right_children":[-1],"split_conditions":[1.0308814E-11],"split_indices":[0],"split_type":[0],"sum_hessian":[1.707E3],"tree_param":{"num_deleted":"0","num_feature":"10","num_nodes":"1","size_leaf_vector":"1"}},{"base_weights":[3.3642783E-11],"categories":[],"categories_nodes":[],"categories_segments":[],"categories_sizes":[],"default_left":[0],"id":76,"left_children":[-1],"loss_changes":[0E0],"parents":[2147483647],"right_children":[-1],"split_conditions":[1.0092835E-11],"split_indices":[0],"split_type":[0],"sum_hessian":[1.707E3],"tree_param":{"num_deleted":"0","num_feature":"10","num_nodes":"1","size_leaf_vector":"1"}},{"base_weights":[3.2897296E-11],"categories":[],"categories_nodes":[],"categories_segments":[],"categories_sizes":[],"default_left":[0],"id":77,"left_children":[-1],"loss_changes":[0E0],"parents":[2147483647],"right_children":[-1],"split_conditions":[9.869189E-12],"split_indices":[0],"split_type":[0],"sum_hessian":[1.707E3],"tree_param":{"num_deleted":"0","num_feature":"10","num_nodes":"1","size_leaf_vector":"1"}},{"base_weights":[3.213051E-11],"categories":[],"categories_nodes":[],"categories_segments":[],"categories_sizes":[],"default_left":[0],"id":78,"left_children":[-1],"loss_changes":[0E0],"parents":[2147483647],"right_children":[-1],"split_conditions":[9.639153E-12],"split_indices":[0],"split_type":[0],"sum_hessian":[1.707E3],"tree_param":{"num_deleted":"0","num_feature":"10","num_nodes":"1","size_leaf_vector":"1"}},{"base_weights":[3.1363724E-11],"categories":[],"categories_nodes":[],"categories_segments":[],"categories_sizes":[],"default_left":[0],"id":79,"left_children":[-1],"loss_changes":[0E0],"parents":[2147483647],"right_children":[-1],"split_conditions":[9.409118E-12],"split_indices":[0],"split_type":[0],"sum_hessian":[1.707E3],"tree_param":{"num_deleted":"0","num_feature":"10","num_nodes":"1","size_leaf_vector":"1"}},{"base_weights":[3.083123E-11],"categories":[],"categories_nodes":[],"categories_segments":[],"categories_sizes":[],"default_left":[0],"id":80,"left_children":[-1],"loss_changes":[0E0],"parents":[2147483647],"right_children":[-1],"split_conditions":[9.2493695E-12],"split_indices":[0],"split_type":[0],"sum_hessian":[1.707E3],"tree_param":{"num_deleted":"0","num_feature":"10","num_nodes":"1","size_leaf_vector":"1"}},{"base_weights":[3.0179463E-11],"categories":[],"categories_nodes":[],"categories_segments":[],"categories_sizes":[],"default_left":[0],"id":81,"left_children":[-1],"loss_changes":[0E0],"parents":[2147483647],"right_children":[-1],"split_conditions":[9.053839E-12],"split_indices":[0],"split_type":[0],"sum_hessian":[1.707E3],"tree_param":{"num_deleted":"0","num_feature":"10","num_nodes":"1","size_leaf_vector":"1"}},{"base_weights":[2.9421195E-11],"categories":[],"categories_nodes":[],"categories_segments":[],"categories_sizes":[],"default_left":[0],"id":82,"left_children":[-1],"loss_changes":[0E0],"parents":[2147483647],"right_children":[-1],"split_conditions":[8.826359E-12],"split_indices":[0],"split_type":[0],"sum_hessian":[1.707E3],"tree_param":{"num_deleted":"0","num_feature":"10","num_nodes":"1","size_leaf_vector":"1"}},{"base_weights":[2.8841846E-11],"categories":[],"categories_nodes":[],"categories_segments":[],"categories_sizes":[],"default_left":[0],"id":83,"left_children":[-1],"loss_changes":[0E0],"parents":[2147483647],"right_children":[-1],"split_conditions":[8.652554E-12],"split_indices":[0],"split_type":[0],"sum_hessian":[1.707E3],"tree_param":{"num_deleted":"0","num_feature":"10","num_nodes":"1","size_leaf_vector":"1"}},{"base_weights":[2.8279535E-11],"categories":[],"categories_nodes":[],"categories_segments":[],"categories_sizes":[],"default_left":[0],"id":84,"left_children":[-1],"loss_changes":[0E0],"parents":[2147483647],"right_children":[-1],"split_conditions":[8.483861E-12],"split_indices":[0],"split_type":[0],"sum_hessian":[1.707E3],"tree_param":{"num_deleted":"0","num_feature":"10","num_nodes":"1","size_leaf_vector":"1"}},{"base_weights":[2.7649065E-11],"categories":[],"categories_nodes":[],"categories_segments":[],"categories_sizes":[],"default_left":[0],"id":85,"left_children":[-1],"loss_changes":[0E0],"parents":[2147483647],"right_children":[-1],"split_conditions":[8.29472E-12],"split_indices":[0],"split_type":[0],"sum_hessian":[1.707E3],"tree_param":{"num_deleted":"0","num_feature":"10","num_nodes":"1","size_leaf_vector":"1"}},{"base_weights":[2.6933396E-11],"categories":[],"categories_nodes":[],"categories_segments":[],"categories_sizes":[],"default_left":[0],"id":86,"left_children":[-1],"loss_changes":[0E0],"parents":[2147483647],"right_children":[-1],"split_conditions":[8.080019E-12],"split_indices":[0],"split_type":[0],"sum_hessian":[1.707E3],"tree_param":{"num_deleted":"0","num_feature":"10","num_nodes":"1","size_leaf_vector":"1"}},{"base_weights":[2.6345526E-11],"categories":[],"categories_nodes":[],"categories_segments":[],"categories_sizes":[],"default_left":[0],"id":87,"left_children":[-1],"loss_changes":[0E0],"parents":[2147483647],"right_children":[-1],"split_conditions":[7.903659E-12],"split_indices":[0],"split_type":[0],"sum_hessian":[1.707E3],"tree_param":{"num_deleted":"0","num_feature":"10","num_nodes":"1","size_leaf_vector":"1"}},{"base_weights":[2.5757656E-11],"categories":[],"categories_nodes":[],"categories_segments":[],"categories_sizes":[],"default_left":[0],"id":88,"left_children":[-1],"loss_changes":[0E0],"parents":[2147483647],"right_children":[-1],"split_conditions":[7.727297E-12],"split_indices":[0],"split_type":[0],"sum_hessian":[1.707E3],"tree_param":{"num_deleted":"0","num_feature":"10","num_nodes":"1","size_leaf_vector":"1"}},{"base_weights":[2.5110148E-11],"categories":[],"categories_nodes":[],"categories_segments":[],"categories_sizes":[],"default_left":[0],"id":89,"left_children":[-1],"loss_changes":[0E0],"parents":[2147483647],"right_children":[-1],"split_conditions":[7.5330445E-12],"split_indices":[0],"split_type":[0],"sum_hessian":[1.707E3],"tree_param":{"num_deleted":"0","num_feature":"10","num_nodes":"1","size_leaf_vector":"1"}},{"base_weights":[2.430928E-11],"categories":[],"categories_nodes":[],"categories_segments":[],"categories_sizes":[],"default_left":[0],"id":90,"left_children":[-1],"loss_changes":[0E0],"parents":[2147483647],"right_children":[-1],"split_conditions":[7.292784E-12],"split_indices":[0],"split_type":[0],"sum_hessian":[1.707E3],"tree_param":{"num_deleted":"0","num_feature":"10","num_nodes":"1","size_leaf_vector":"1"}},{"base_weights":[2.375549E-11],"categories":[],"categories_nodes":[],"categories_segments":[],"categories_sizes":[],"default_left":[0],"id":91,"left_children":[-1],"loss_changes":[0E0],"parents":[2147483647],"right_children":[-1],"split_conditions":[7.1266474E-12],"split_indices":[0],"split_type":[0],"sum_hessian":[1.707E3],"tree_param":{"num_deleted":"0","num_feature":"10","num_nodes":"1","size_leaf_vector":"1"}},{"base_weights":[2.3508414E-11],"categories":[],"categories_nodes":[],"categories_segments":[],"categories_sizes":[],"default_left":[0],"id":92,"left_children":[-1],"loss_changes":[0E0],"parents":[2147483647],"right_children":[-1],"split_conditions":[7.0525244E-12],"split_indices":[0],"split_type":[0],"sum_hessian":[1.707E3],"tree_param":{"num_deleted":"0","num_feature":"10","num_nodes":"1","size_leaf_vector":"1"}},{"base_weights":[2.313354E-11],"categories":[],"categories_nodes":[],"categories_segments":[],"categories_sizes":[],"default_left":[0],"id":93,"left_children":[-1],"loss_changes":[0E0],"parents":[2147483647],"right_children":[-1],"split_conditions":[6.9400622E-12],"split_indices":[0],"split_type":[0],"sum_hessian":[1.707E3],"tree_param":{"num_deleted":"0","num_feature":"10","num_nodes":"1","size_leaf_vector":"1"}},{"base_weights":[2.2877944E-11],"categories":[],"categories_nodes":[],"categories_segments":[],"categories_sizes":[],"default_left":[0],"id":94,"left_children":[-1],"loss_changes":[0E0],"parents":[2147483647],"right_children":[-1],"split_conditions":[6.8633836E-12],"split_indices":[0],"split_type":[0],"sum_hessian":[1.707E3],"tree_param":{"num_deleted":"0","num_feature":"10","num_nodes":"1","size_leaf_vector":"1"}},{"base_weights":[2.2699028E-11],"categories":[],"categories_nodes":[],"categories_segments":[],"categories_sizes":[],"default_left":[0],"id":95,"left_children":[-1],"loss_changes":[0E0],"parents":[2147483647],"right_children":[-1],"split_conditions":[6.8097086E-12],"split_indices":[0],"split_type":[0],"sum_hessian":[1.707E3],"tree_param":{"num_deleted":"0","num_feature":"10","num_nodes":"1","size_leaf_vector":"1"}},{"base_weights":[2.2451952E-11],"categories":[],"categories_nodes":[],"categories_segments":[],"categories_sizes":[],"default_left":[0],"id":96,"left_children":[-1],"loss_changes":[0E0],"parents":[2147483647],"right_children":[-1],"split_conditions":[6.7355856E-12],"split_indices":[0],"split_type":[0],"sum_hessian":[1.707E3],"tree_param":{"num_deleted":"0","num_feature":"10","num_nodes":"1","size_leaf_vector":"1"}},{"base_weights":[2.2213396E-11],"categories":[],"categories_nodes":[],"categories_segments":[],"categories_sizes":[],"default_left":[0],"id":97,"left_children":[-1],"loss_changes":[0E0],"parents":[2147483647],"right_children":[-1],"split_conditions":[6.664019E-12],"split_indices":[0],"split_type":[0],"sum_hessian":[1.707E3],"tree_param":{"num_deleted":"0","num_feature":"10","num_nodes":"1","size_leaf_vector":"1"}},{"base_weights":[2.202596E-11],"categories":[],"categories_nodes":[],"categories_segments":[],"categories_sizes":[],"default_left":[0],"id":98,"left_children":[-1],"loss_changes":[0E0],"parents":[2147483647],"right_children":[-1],"split_conditions":[6.607788E-12],"split_indices":[0],"split_type":[0],"sum_hessian":[1.707E3],"tree_param":{"num_deleted":"0","num_feature":"10","num_nodes":"1","size_leaf_vector":"1"}},{"base_weights":[2.1812963E-11],"categories":[],"categories_nodes":[],"categories_segments":[],"categories_sizes":[],"default_left":[0],"id":99,"left_children":[-1],"loss_changes":[0E0],"parents":[2147483647],"right_children":[-1],"split_conditions":[6.543889E-12],"split_indices":[0],"split_type":[0],"sum_hessian":[1.707E3],"tree_param":{"num_deleted":"0","num_feature":"10","num_nodes":"1","size_leaf_vector":"1"}}]},"name":"gbtree"},"learner_model_param":{"base_score":"5.532056E-4","boost_from_average":"1","num_class":"0","num_feature":"10","num_target":"1"},"objective":{"name":"reg:squarederror","reg_loss_param":{"scale_pos_weight":"1"}}},"version":[2,0,3]}