{"learner":{"attributes":{},"feature_names":["lstm_13_Y_pred","lstm_22_Y_pred","lstm_10_Y_pred","lstm_16_Y_pred","lstm_19_Y_pred","lstm_7_Y_pred","lstm_28_Y_pred","lstm_25_Y_pred","lstm_4_Y_pred","lstm_1_Y_pred"],"feature_types":["float","float","float","float","float","float","float","float","float","float"],"gradient_booster":{"model":{"gbtree_model_param":{"num_parallel_tree":"1","num_trees":"100"},"iteration_indptr":[0,1,2,3,4,5,6,7,8,9,10,11,12,13,14,15,16,17,18,19,20,21,22,23,24,25,26,27,28,29,30,31,32,33,34,35,36,37,38,39,40,41,42,43,44,45,46,47,48,49,50,51,52,53,54,55,56,57,58,59,60,61,62,63,64,65,66,67,68,69,70,71,72,73,74,75,76,77,78,79,80,81,82,83,84,85,86,87,88,89,90,91,92,93,94,95,96,97,98,99,100],"tree_info":[0,0,0,0,0,0,0,0,0,0,0,0,0,0,0,0,0,0,0,0,0,0,0,0,0,0,0,0,0,0,0,0,0,0,0,0,0,0,0,0,0,0,0,0,0,0,0,0,0,0,0,0,0,0,0,0,0,0,0,0,0,0,0,0,0,0,0,0,0,0,0,0,0,0,0,0,0,0,0,0,0,0,0,0,0,0,0,0,0,0,0,0,0,0,0,0,0,0,0,0],"trees":[{"base_weights":[-3.0552207E-11,-2.6666005E-3,2.620198E-3,-8.778209E-3,-1.8366956E-3,1.5585652E-3,7.1978797E-3,-3.6451141E-3,-6.8856087E-3,-3.1803611E-3,-9.277919E-4,8.528415E-4,2.5676312E-3,5.4050437E-3,1.0002373E-2,-8.1548495E-3,-1.8758796E-3,-4.1059945E-3,-2.594114E-3,-1.456698E-3,-4.4012637E-4,4.686322E-4,1.2347868E-3,2.2721712E-3,3.490117E-3,1.4342379E-3,1.9336824E-3,2.546425E-3,3.7109416E-3,-2.6074436E-3,-1.1908864E-3,-1.3733807E-3,-1.0839488E-3,-8.9626457E-4,-6.947915E-4,-5.261395E-4,-3.6415624E-4,-1.9380327E-4,-7.17458E-5,1.5028697E-4,-5.7215476E-4,3.4731018E-4,5.939629E-4,-4.3178115E-5,6.88468E-4,4.5062008E-4,1.0676294E-3],"categories":[],"categories_nodes":[],"categories_segments":[],"categories_sizes":[],"default_left":[0,0,0,0,0,0,0,0,0,0,0,0,0,0,0,0,0,0,0,0,0,0,0,0,0,0,0,0,0,0,0,0,0,0,0,0,0,0,0,0,0,0,0,0,0,0,0],"id":0,"left_children":[1,3,5,7,9,11,13,-1,15,17,19,21,23,25,27,29,-1,31,33,35,37,39,41,43,45,-1,-1,-1,-1,-1,-1,-1,-1,-1,-1,-1,-1,-1,-1,-1,-1,-1,-1,-1,-1,-1,-1],"loss_changes":[1.194082E-2,4.279907E-3,4.177945E-3,5.609365E-4,9.093324E-4,4.970076E-4,7.604724E-4,0E0,2.8104987E-6,1.5268615E-4,1.1465323E-4,6.0174527E-5,7.0566544E-5,3.479165E-5,1.17272604E-4,8.170609E-6,0E0,1.0206713E-5,1.3544457E-5,1.3310986E-5,9.527808E-6,1.6929116E-5,9.597221E-6,1.2462959E-5,3.9347797E-6,0E0,0E0,0E0,0E0,0E0,0E0,0E0,0E0,0E0,0E0,0E0,0E0,0E0,0E0,0E0,0E0,0E0,0E0,0E0,0E0,0E0,0E0],"parents":[2147483647,0,0,1,1,2,2,3,3,4,4,5,5,6,6,8,8,9,9,10,10,11,11,12,12,13,13,14,14,15,15,17,17,18,18,19,19,20,20,21,21,22,22,23,23,24,24],"right_children":[2,4,6,8,10,12,14,-1,16,18,20,22,24,26,28,30,-1,32,34,36,38,40,42,44,46,-1,-1,-1,-1,-1,-1,-1,-1,-1,-1,-1,-1,-1,-1,-1,-1,-1,-1,-1,-1,-1,-1],"split_conditions":[5.0379336E-4,-4.427798E-3,4.2473413E-3,-9.028409E-3,-1.3867579E-3,1.9370262E-3,7.4157417E-3,-3.6451141E-3,-4.9958937E-3,-2.7490035E-3,-4.0957704E-4,1.2427233E-3,3.2603648E-3,5.7035573E-3,1.0170862E-2,-5.596414E-3,-1.8758796E-3,-3.5567135E-3,-2.090592E-3,-9.067394E-4,1.5407614E-4,8.608501E-3,2.466049E-3,-3.909111E-3,1.9650152E-3,1.4342379E-3,1.9336824E-3,2.546425E-3,3.7109416E-3,-2.6074436E-3,-1.1908864E-3,-1.3733807E-3,-1.0839488E-3,-8.9626457E-4,-6.947915E-4,-5.261395E-4,-3.6415624E-4,-1.9380327E-4,-7.17458E-5,1.5028697E-4,-5.7215476E-4,3.4731018E-4,5.939629E-4,-4.3178115E-5,6.88468E-4,4.5062008E-4,1.0676294E-3],"split_indices":[3,3,3,3,3,3,3,0,1,3,3,3,3,3,3,3,0,3,3,3,4,5,0,6,4,0,0,0,0,0,0,0,0,0,0,0,0,0,0,0,0,0,0,0,0,0,0],"split_type":[0,0,0,0,0,0,0,0,0,0,0,0,0,0,0,0,0,0,0,0,0,0,0,0,0,0,0,0,0,0,0,0,0,0,0,0,0,0,0,0,0,0,0,0,0,0,0],"sum_hessian":[1.707E3,8.46E2,8.61E2,1E2,7.46E2,7E2,1.61E2,3.4E1,6.6E1,3E2,4.46E2,4.13E2,2.87E2,1E2,6.1E1,1.8E1,4.8E1,1.14E2,1.86E2,2.13E2,2.33E2,2.07E2,2.06E2,2.2E2,6.7E1,6.6E1,3.4E1,4E1,2.1E1,1.5E1,3E0,5.4E1,6E1,7.3E1,1.13E2,9.3E1,1.2E2,1.14E2,1.19E2,2.05E2,2E0,1.89E2,1.7E1,2E0,2.18E2,3E0,6.4E1],"tree_param":{"num_deleted":"0","num_feature":"10","num_nodes":"47","size_leaf_vector":"1"}},{"base_weights":[-1.2970123E-6,-1.928722E-3,1.8059385E-3,-6.2370165E-3,-1.3275301E-3,1.1203014E-3,5.371087E-3,-2.5828234E-3,-4.9046157E-3,-2.43278E-3,-7.7785295E-4,5.8460806E-4,1.9327856E-3,4.1899346E-3,7.5273584E-3,-1.5557543E-3,-1.001253E-3,-2.9666524E-3,-2.0331074E-3,-1.2141615E-3,-3.9225214E-4,3.1537408E-4,9.1388874E-4,1.6691874E-3,2.784315E-3,1.1023139E-3,1.5821831E-3,1.9268447E-3,2.8212157E-3,-9.2415715E-4,-4.3810604E-4,-2.1075875E-4,-6.32358E-4,-4.1828767E-4,-3.0247652E-4,-5.6363514E-4,-1.12033966E-4,2.778419E-5,1.5909824E-4,2.667552E-4,8.782247E-4,4.2890562E-4,6.093737E-4,8.539131E-4,4.2991858E-4],"categories":[],"categories_nodes":[],"categories_segments":[],"categories_sizes":[],"default_left":[0,0,0,0,0,0,0,0,0,0,0,0,0,0,0,0,0,0,0,0,0,0,0,0,0,0,0,0,0,0,0,0,0,0,0,0,0,0,0,0,0,0,0,0,0],"id":1,"left_children":[1,3,5,7,9,11,13,-1,15,17,19,21,23,25,27,-1,-1,29,31,33,35,37,39,41,43,-1,-1,-1,-1,-1,-1,-1,-1,-1,-1,-1,-1,-1,-1,-1,-1,-1,-1,-1,-1],"loss_changes":[5.9529785E-3,2.1337427E-3,2.1499414E-3,2.7703308E-4,4.3978274E-4,3.2138458E-4,3.30118E-4,0E0,1.2220466E-5,4.5391615E-5,8.145708E-5,3.9428574E-5,6.134424E-5,3.3155084E-5,4.1170977E-5,0E0,0E0,1.282536E-5,1.2543693E-5,7.050752E-6,6.566712E-6,1.18258795E-5,7.395458E-6,1.6779988E-5,1.6235281E-6,0E0,0E0,0E0,0E0,0E0,0E0,0E0,0E0,0E0,0E0,0E0,0E0,0E0,0E0,0E0,0E0,0E0,0E0,0E0,0E0],"parents":[2147483647,0,0,1,1,2,2,3,3,4,4,5,5,6,6,8,8,9,9,10,10,11,11,12,12,13,13,14,14,17,17,18,18,19,19,20,20,21,21,22,22,23,23,24,24],"right_children":[2,4,6,8,10,12,14,-1,16,18,20,22,24,26,28,-1,-1,30,32,34,36,38,40,42,44,-1,-1,-1,-1,-1,-1,-1,-1,-1,-1,-1,-1,-1,-1,-1,-1,-1,-1,-1,-1],"split_conditions":[4.406199E-4,-4.427798E-3,4.5749955E-3,-9.028409E-3,-1.6960949E-3,2.0145066E-3,8.319922E-3,-2.5828234E-3,-4.046889E-3,-2.9275604E-3,-5.562082E-4,1.3249479E-3,3.5220012E-3,6.5558515E-3,1.1700001E-2,-1.5557543E-3,-1.001253E-3,-1.6333517E-3,-4.407067E-3,-8.699782E-4,-2.82522E-3,1.0387795E-3,8.896426E-3,2.632001E-3,2.5563948E-3,1.1023139E-3,1.5821831E-3,1.9268447E-3,2.8212157E-3,-9.2415715E-4,-4.3810604E-4,-2.1075875E-4,-6.32358E-4,-4.1828767E-4,-3.0247652E-4,-5.6363514E-4,-1.12033966E-4,2.778419E-5,1.5909824E-4,2.667552E-4,8.782247E-4,4.2890562E-4,6.093737E-4,8.539131E-4,4.2991858E-4],"split_indices":[3,3,3,3,3,3,3,0,4,3,3,3,3,3,3,0,0,4,7,4,4,4,2,4,9,0,0,0,0,0,0,0,0,0,0,0,0,0,0,0,0,0,0,0,0],"split_type":[0,0,0,0,0,0,0,0,0,0,0,0,0,0,0,0,0,0,0,0,0,0,0,0,0,0,0,0,0,0,0,0,0,0,0,0,0,0,0,0,0,0,0,0,0],"sum_hessian":[1.707E3,8.26E2,8.81E2,1E2,7.26E2,7.4E2,1.41E2,3.4E1,6.6E1,2.4E2,4.86E2,4.47E2,2.93E2,9.3E1,4.8E1,5.4E1,1.2E1,1E2,1.4E2,2.27E2,2.59E2,2.47E2,2E2,2.26E2,6.7E1,6.6E1,2.7E1,3.3E1,1.5E1,9.2E1,8E0,8E0,1.32E2,1.18E2,1.09E2,2E0,2.57E2,1.22E2,1.25E2,1.99E2,1E0,1.39E2,8.7E1,6.3E1,4E0],"tree_param":{"num_deleted":"0","num_feature":"10","num_nodes":"45","size_leaf_vector":"1"}},{"base_weights":[4.6496663E-7,-1.5366802E-3,1.1384528E-3,-5.149458E-3,-1.1621262E-3,6.198262E-4,3.5100048E-3,-7.50915E-3,-4.3986277E-3,-2.007068E-3,-7.3509384E-4,2.602153E-4,1.1468997E-3,2.4739895E-3,4.8406306E-3,-8.9926564E-4,-2.3917984E-3,-4.967061E-3,-9.806547E-4,-2.5580828E-3,-1.6302293E-3,-1.0352423E-3,-4.806566E-4,6.7507564E-5,5.681828E-4,9.1774866E-4,1.4700965E-3,1.6622529E-3,2.5855075E-3,4.2580543E-3,2.027749E-3,-1.5177592E-3,-2.8898477E-4,-7.886663E-4,9.7302865E-5,-4.0721527E-5,-5.061309E-4,-3.4418885E-4,-1.66663E-4,3.2179817E-4,-1.5345875E-4,5.622424E-5,-6.86583E-5,1.2309897E-4,2.5806366E-4,2.5234022E-4,4.7374182E-4,6.963146E-5,4.4900275E-4,6.099175E-4,1.5420908E-4,1.7958852E-4,7.875645E-4,3.3422714E-4,1.2875657E-3],"categories":[],"categories_nodes":[],"categories_segments":[],"categories_sizes":[],"default_left":[0,0,0,0,0,0,0,0,0,0,0,0,0,0,0,0,0,0,0,0,0,0,0,0,0,0,0,0,0,0,0,0,0,0,0,0,0,0,0,0,0,0,0,0,0,0,0,0,0,0,0,0,0,0,0],"id":2,"left_children":[1,3,5,7,9,11,13,15,17,19,21,23,25,27,29,-1,-1,31,-1,33,35,37,39,41,43,45,47,49,51,53,-1,-1,-1,-1,-1,-1,-1,-1,-1,-1,-1,-1,-1,-1,-1,-1,-1,-1,-1,-1,-1,-1,-1,-1,-1],"loss_changes":[2.9894724E-3,9.777778E-4,1.2056354E-3,8.744758E-5,2.366642E-4,1.5266144E-4,2.3064902E-4,7.4692653E-6,1.8442399E-5,4.171906E-5,3.3104734E-5,2.85079E-5,2.2868771E-5,4.8450893E-6,5.6163757E-5,0E0,0E0,7.6689175E-6,0E0,1.8812483E-5,1.11606205E-5,1.0166783E-5,1.2057877E-5,1.0597241E-5,8.175099E-6,8.502146E-6,4.061876E-6,5.3414587E-6,5.2922405E-6,1.706765E-6,0E0,0E0,0E0,0E0,0E0,0E0,0E0,0E0,0E0,0E0,0E0,0E0,0E0,0E0,0E0,0E0,0E0,0E0,0E0,0E0,0E0,0E0,0E0,0E0,0E0],"parents":[2147483647,0,0,1,1,2,2,3,3,4,4,5,5,6,6,7,7,8,8,9,9,10,10,11,11,12,12,13,13,14,14,17,17,19,19,20,20,21,21,22,22,23,23,24,24,25,25,26,26,27,27,28,28,29,29],"right_children":[2,4,6,8,10,12,14,16,18,20,22,24,26,28,30,-1,-1,32,-1,34,36,38,40,42,44,46,48,50,52,54,-1,-1,-1,-1,-1,-1,-1,-1,-1,-1,-1,-1,-1,-1,-1,-1,-1,-1,-1,-1,-1,-1,-1,-1,-1],"split_conditions":[1.3187528E-5,-5.798813E-3,3.9527677E-3,-1.1205908E-2,-2.090592E-3,1.7335229E-3,6.5558515E-3,-9.181365E-3,-4.9958937E-3,-3.5567135E-3,-9.6223503E-4,1.2755399E-3,2.6423857E-3,3.3223107E-3,1.1700001E-2,-8.9926564E-4,-2.3917984E-3,4.1453578E-3,-9.806547E-4,-8.35903E-4,-6.9525503E-3,-2.9978156E-4,-2.4766587E-3,1.0457896E-3,2.4419809E-3,3.3223107E-3,1.1963602E-3,2.3009144E-3,-1.4871769E-3,1.0927506E-3,2.027749E-3,-1.5177592E-3,-2.8898477E-4,-7.886663E-4,9.7302865E-5,-4.0721527E-5,-5.061309E-4,-3.4418885E-4,-1.66663E-4,3.2179817E-4,-1.5345875E-4,5.622424E-5,-6.86583E-5,1.2309897E-4,2.5806366E-4,2.5234022E-4,4.7374182E-4,6.963146E-5,4.4900275E-4,6.099175E-4,1.5420908E-4,1.7958852E-4,7.875645E-4,3.3422714E-4,1.2875657E-3],"split_indices":[3,3,3,3,3,3,3,7,1,3,3,4,3,4,3,0,0,8,0,1,7,0,0,1,2,4,4,7,5,0,0,0,0,0,0,0,0,0,0,0,0,0,0,0,0,0,0,0,0,0,0,0,0,0,0],"split_type":[0,0,0,0,0,0,0,0,0,0,0,0,0,0,0,0,0,0,0,0,0,0,0,0,0,0,0,0,0,0,0,0,0,0,0,0,0,0,0,0,0,0,0,0,0,0,0,0,0,0,0,0,0,0,0],"sum_hessian":[1.707E3,7.26E2,9.81E2,6.7E1,6.59E2,8.06E2,1.75E2,1.4E1,5.3E1,2.2E2,4.39E2,4.8E2,3.26E2,1E2,7.5E1,2E0,1.2E1,3.3E1,2E1,8.7E1,1.33E2,2E2,2.39E2,2.96E2,1.84E2,1.93E2,1.33E2,1.4E1,8.6E1,6E1,1.5E1,3.2E1,1E0,8.5E1,2E0,5E0,1.28E2,1.61E2,3.9E1,4E0,2.35E2,2.11E2,8.5E1,1.21E2,6.3E1,1.75E2,1.8E1,3E0,1.3E2,1E1,4E0,2E0,8.4E1,1E0,5.9E1],"tree_param":{"num_deleted":"0","num_feature":"10","num_nodes":"55","size_leaf_vector":"1"}},{"base_weights":[-6.38276E-8,-9.4891974E-4,9.3228073E-4,-3.0241276E-3,-6.220468E-4,6.473951E-4,3.198687E-3,-4.1643702E-3,-2.174778E-3,-1.0865747E-3,-3.3418374E-4,3.4229684E-4,1.1370862E-3,2.628342E-3,4.425748E-3,-6.5085897E-3,-3.6053918E-3,3.9029183E-5,-2.211121E-3,-1.4557781E-3,-9.209172E-4,-5.4010726E-4,-1.6991283E-4,2.5584004E-4,7.1862055E-4,8.895358E-4,1.5201523E-3,2.72336E-3,1.281651E-4,3.382267E-4,1.350984E-3,-2.0944274E-3,-4.79812E-4,-1.1144488E-3,-2.9427264E-4,-1.568474E-4,-6.765075E-4,-9.52532E-5,-4.9156236E-4,2.2125042E-4,-2.825448E-4,-1.5132887E-4,-6.513377E-4,-3.491214E-5,-1.6538835E-4,-4.3611167E-4,8.189447E-5,-1.9259093E-4,2.322582E-4,2.518837E-4,7.436761E-4,1.1050971E-4,4.6760603E-4,4.3605745E-4,8.48358E-4],"categories":[],"categories_nodes":[],"categories_segments":[],"categories_sizes":[],"default_left":[0,0,0,0,0,0,0,0,0,0,0,0,0,0,0,0,0,0,0,0,0,0,0,0,0,0,0,0,0,0,0,0,0,0,0,0,0,0,0,0,0,0,0,0,0,0,0,0,0,0,0,0,0,0,0],"id":3,"left_children":[1,3,5,7,9,11,13,15,17,19,21,23,25,27,29,31,33,-1,35,37,39,41,43,45,47,49,51,53,-1,-1,-1,-1,-1,-1,-1,-1,-1,-1,-1,-1,-1,-1,-1,-1,-1,-1,-1,-1,-1,-1,-1,-1,-1,-1,-1],"loss_changes":[1.5118851E-3,5.726637E-4,5.5449386E-4,1.0231696E-4,9.7653974E-5,1.1420355E-4,5.5553042E-5,3.9431674E-5,5.9837475E-6,1.578452E-5,1.5265796E-5,1.5238093E-5,2.6527268E-5,1.3058481E-5,2.3390166E-6,7.4040727E-6,8.131901E-6,0E0,3.7872815E-6,1.7162558E-5,7.4877025E-6,1.0601201E-5,5.1222214E-6,1.1737564E-5,7.1509203E-6,1.22805795E-5,4.4855115E-6,4.5149645E-6,0E0,0E0,0E0,0E0,0E0,0E0,0E0,0E0,0E0,0E0,0E0,0E0,0E0,0E0,0E0,0E0,0E0,0E0,0E0,0E0,0E0,0E0,0E0,0E0,0E0,0E0,0E0],"parents":[2147483647,0,0,1,1,2,2,3,3,4,4,5,5,6,6,7,7,8,8,9,9,10,10,11,11,12,12,13,13,14,14,15,15,16,16,18,18,19,19,20,20,21,21,22,22,23,23,24,24,25,25,26,26,27,27],"right_children":[2,4,6,8,10,12,14,16,18,20,22,24,26,28,30,32,34,-1,36,38,40,42,44,46,48,50,52,54,-1,-1,-1,-1,-1,-1,-1,-1,-1,-1,-1,-1,-1,-1,-1,-1,-1,-1,-1,-1,-1,-1,-1,-1,-1,-1,-1],"split_conditions":[5.0379336E-4,-4.063256E-3,5.7035573E-3,-6.960705E-3,-1.4262758E-3,2.2272952E-3,9.269303E-3,-1.2357861E-2,-1.6506525E-2,-2.7652765E-3,-4.6925992E-4,2.1641771E-3,3.5220012E-3,9.990018E-3,-1.9930005E-3,-8.503739E-3,-4.353568E-3,3.9029183E-5,-6.8838308E-3,-4.190322E-3,-3.7398115E-3,3.8177343E-3,2.126054E-3,-1.2137163E-3,-6.9822483E-3,9.018235E-3,2.8441474E-4,-4.300475E-5,1.281651E-4,3.382267E-4,1.350984E-3,-2.0944274E-3,-4.79812E-4,-1.1144488E-3,-2.9427264E-4,-1.568474E-4,-6.765075E-4,-9.52532E-5,-4.9156236E-4,2.2125042E-4,-2.825448E-4,-1.5132887E-4,-6.513377E-4,-3.491214E-5,-1.6538835E-4,-4.3611167E-4,8.189447E-5,-1.9259093E-4,2.322582E-4,2.518837E-4,7.436761E-4,1.1050971E-4,4.6760603E-4,4.3605745E-4,8.48358E-4],"split_indices":[3,3,3,3,3,3,3,3,5,4,3,4,3,0,5,1,1,0,6,6,3,2,2,9,8,5,0,9,0,0,0,0,0,0,0,0,0,0,0,0,0,0,0,0,0,0,0,0,0,0,0,0,0,0,0],"split_type":[0,0,0,0,0,0,0,0,0,0,0,0,0,0,0,0,0,0,0,0,0,0,0,0,0,0,0,0,0,0,0,0,0,0,0,0,0,0,0,0,0,0,0,0,0,0,0,0,0,0,0,0,0,0,0],"sum_hessian":[1.707E3,8.46E2,8.61E2,1.14E2,7.32E2,7.66E2,9.5E1,4.7E1,6.7E1,2.79E2,4.53E2,4.73E2,2.93E2,6.7E1,2.8E1,7E0,4E1,1E0,6.6E1,8.4E1,1.95E2,2E2,2.53E2,3.86E2,8.7E1,1.8E2,1.13E2,6.4E1,3E0,1E0,2.7E1,6E0,1E0,3.8E1,2E0,2E0,6.4E1,1.2E1,7.2E1,2E0,1.93E2,1.97E2,3E0,2.23E2,3E1,3E0,3.83E2,3E0,8.4E1,1.76E2,4E0,4E0,1.09E2,6E0,5.8E1],"tree_param":{"num_deleted":"0","num_feature":"10","num_nodes":"55","size_leaf_vector":"1"}},{"base_weights":[-1.2551334E-6,-7.8377733E-4,5.7806756E-4,-2.6793855E-3,-5.872847E-4,3.1712602E-4,1.7712592E-3,-4.8777927E-3,-2.3471452E-3,-1.1167971E-3,-4.1560712E-4,7.480545E-5,5.391235E-4,1.3654128E-3,2.7952814E-3,-1.5558604E-3,-4.0784024E-4,-2.628895E-3,-5.0558813E-4,-1.1626373E-3,-9.477532E-5,-5.823209E-4,-2.383078E-4,7.64206E-4,4.106487E-5,5.1333924E-4,1.8060697E-3,1.0872062E-3,1.7641326E-3,2.4397974E-3,4.1041216E-3,-2.1355292E-4,-8.284526E-4,-4.911114E-4,-3.0743578E-4,-1.4857447E-4,7.336743E-5,-1.4931928E-4,-2.7427156E-4,-4.0223208E-4,-6.289012E-5,4.2880914E-4,1.195275E-4,-6.331896E-5,3.3403576E-5,1.1171194E-4,2.1464848E-4,1.4559888E-4,6.4962846E-4,-2.9308443E-5,3.4077148E-4,-7.519228E-5,5.428323E-4,5.3444066E-5,7.475655E-4,3.0242105E-4,1.3095358E-3],"categories":[],"categories_nodes":[],"categories_segments":[],"categories_sizes":[],"default_left":[0,0,0,0,0,0,0,0,0,0,0,0,0,0,0,0,0,0,0,0,0,0,0,0,0,0,0,0,0,0,0,0,0,0,0,0,0,0,0,0,0,0,0,0,0,0,0,0,0,0,0,0,0,0,0,0,0],"id":4,"left_children":[1,3,5,7,9,11,13,15,17,19,21,23,25,27,29,-1,-1,31,-1,33,35,37,39,41,43,45,47,49,51,53,55,-1,-1,-1,-1,-1,-1,-1,-1,-1,-1,-1,-1,-1,-1,-1,-1,-1,-1,-1,-1,-1,-1,-1,-1,-1,-1],"loss_changes":[7.747456E-4,2.692143E-4,3.0518722E-4,3.8218277E-5,5.95334E-5,4.337188E-5,6.932812E-5,1.6301783E-6,6.9446105E-6,7.43258E-6,1.46403545E-5,8.970538E-6,1.2825796E-5,1.2280609E-5,1.2785109E-5,0E0,0E0,8.457544E-6,0E0,8.3934865E-6,1.2082678E-6,6.7607107E-6,7.4322998E-6,3.8099433E-6,6.579773E-6,1.1531374E-5,2.7460064E-6,4.6118075E-6,5.1091047E-6,4.386049E-6,2.8722134E-6,0E0,0E0,0E0,0E0,0E0,0E0,0E0,0E0,0E0,0E0,0E0,0E0,0E0,0E0,0E0,0E0,0E0,0E0,0E0,0E0,0E0,0E0,0E0,0E0,0E0,0E0],"parents":[2147483647,0,0,1,1,2,2,3,3,4,4,5,5,6,6,7,7,8,8,9,9,10,10,11,11,12,12,13,13,14,14,17,17,19,19,20,20,21,21,22,22,23,23,24,24,25,25,26,26,27,27,28,28,29,29,30,30],"right_children":[2,4,6,8,10,12,14,16,18,20,22,24,26,28,30,-1,-1,32,-1,34,36,38,40,42,44,46,48,50,52,54,56,-1,-1,-1,-1,-1,-1,-1,-1,-1,-1,-1,-1,-1,-1,-1,-1,-1,-1,-1,-1,-1,-1,-1,-1,-1,-1],"split_conditions":[1.5407614E-4,-5.798813E-3,3.9527677E-3,-1.2357861E-2,-2.57257E-3,1.3807938E-3,8.319922E-3,-8.503739E-3,-4.9958937E-3,2.1110484E-3,-5.902909E-4,-5.284287E-4,9.271E-3,5.1212274E-3,1.3521817E-2,-1.5558604E-3,-4.0784024E-4,-3.51388E-4,-5.0558813E-4,-4.220646E-3,-5.296208E-3,1.3126619E-3,-5.9961956E-3,-1.4232565E-4,-9.695403E-4,2.4430277E-3,6.097853E-4,2.6011919E-3,3.7635723E-3,7.5450013E-3,-2.009336E-3,-2.1355292E-4,-8.284526E-4,-4.911114E-4,-3.0743578E-4,-1.4857447E-4,7.336743E-5,-1.4931928E-4,-2.7427156E-4,-4.0223208E-4,-6.289012E-5,4.2880914E-4,1.195275E-4,-6.331896E-5,3.3403576E-5,1.1171194E-4,2.1464848E-4,1.4559888E-4,6.4962846E-4,-2.9308443E-5,3.4077148E-4,-7.519228E-5,5.428323E-4,5.3444066E-5,7.475655E-4,3.0242105E-4,1.3095358E-3],"split_indices":[4,3,3,3,3,3,3,1,1,2,0,7,5,0,3,0,0,9,0,4,4,9,6,2,5,4,9,4,2,4,8,0,0,0,0,0,0,0,0,0,0,0,0,0,0,0,0,0,0,0,0,0,0,0,0,0,0],"split_type":[0,0,0,0,0,0,0,0,0,0,0,0,0,0,0,0,0,0,0,0,0,0,0,0,0,0,0,0,0,0,0,0,0,0,0,0,0,0,0,0,0,0,0,0,0,0,0,0,0,0,0,0,0,0,0,0,0],"sum_hessian":[1.707E3,7.26E2,9.81E2,6.7E1,6.59E2,8.06E2,1.75E2,7E0,6E1,1.6E2,4.99E2,3.86E2,4.2E2,1.27E2,4.8E1,6E0,1E0,4E1,2E1,1.53E2,7E0,2.56E2,2.43E2,1.7E1,3.69E2,4.13E2,7E0,7.7E1,5E1,4E1,8E0,3E0,3.7E1,3.2E1,1.21E2,3E0,4E0,2.06E2,5E1,5E0,2.38E2,5E0,1.2E1,8E1,2.89E2,2.45E2,1.68E2,2E0,5E0,3E0,7.4E1,1E0,4.9E1,1E0,3.9E1,1E0,7E0],"tree_param":{"num_deleted":"0","num_feature":"10","num_nodes":"57","size_leaf_vector":"1"}},{"base_weights":[-1.1371743E-6,-4.590993E-4,5.0953735E-4,-1.4940253E-3,-2.873556E-4,3.7004336E-4,1.7400567E-3,-3.0498304E-3,-1.2762086E-3,-5.120427E-4,-1.3369156E-4,2.5758432E-4,7.637963E-4,1.4808449E-3,2.7167525E-3,-1.160305E-3,-3.6314484E-3,-1.6423103E-3,-9.426667E-4,-5.4270495E-4,3.8189834E-4,-7.793437E-5,-7.185877E-4,-8.2455575E-5,3.3057458E-4,1.4986641E-3,6.9991493E-4,1.670115E-3,1.0461492E-3,2.6519294E-4,9.215108E-4,-4.4479402E-4,1.9359264E-5,-1.1831105E-3,-7.6337485E-5,-6.6516816E-4,-3.587198E-4,-2.000031E-4,-3.9733935E-4,-2.3683367E-4,-1.3753421E-4,1.8592087E-4,-2.9947207E-4,-1.3888063E-4,-4.5948736E-6,-2.4249873E-4,1.9729986E-4,5.043988E-5,-2.1312122E-4,4.3630975E-4,9.309353E-5,1.0017207E-4,5.549448E-4,-2.7832255E-4,2.1845366E-4,3.28533E-4,5.940343E-4,-2.1664217E-5,4.0824528E-4],"categories":[],"categories_nodes":[],"categories_segments":[],"categories_sizes":[],"default_left":[0,0,0,0,0,0,0,0,0,0,0,0,0,0,0,0,0,0,0,0,0,0,0,0,0,0,0,0,0,0,0,0,0,0,0,0,0,0,0,0,0,0,0,0,0,0,0,0,0,0,0,0,0,0,0,0,0,0,0],"id":5,"left_children":[1,3,5,7,9,11,13,15,17,19,21,23,25,27,29,31,33,35,37,39,41,43,45,47,49,51,53,55,57,-1,-1,-1,-1,-1,-1,-1,-1,-1,-1,-1,-1,-1,-1,-1,-1,-1,-1,-1,-1,-1,-1,-1,-1,-1,-1,-1,-1,-1,-1],"loss_changes":[3.996832E-4,1.5971626E-4,1.3804932E-4,3.948444E-5,2.6654925E-5,3.199561E-5,1.6736973E-5,1.227115E-5,1.2372402E-5,8.814066E-6,1.4978207E-5,1.40999655E-5,6.509108E-6,3.7652353E-6,7.693394E-6,2.0697548E-6,1.059573E-5,1.09562825E-5,5.6500903E-6,5.9581726E-6,4.229387E-6,1.0166505E-5,5.471891E-6,1.6012467E-5,1.0182837E-5,4.290414E-6,7.576149E-6,5.852853E-6,8.192283E-6,0E0,0E0,0E0,0E0,0E0,0E0,0E0,0E0,0E0,0E0,0E0,0E0,0E0,0E0,0E0,0E0,0E0,0E0,0E0,0E0,0E0,0E0,0E0,0E0,0E0,0E0,0E0,0E0,0E0,0E0],"parents":[2147483647,0,0,1,1,2,2,3,3,4,4,5,5,6,6,7,7,8,8,9,9,10,10,11,11,12,12,13,13,14,14,15,15,16,16,17,17,18,18,19,19,20,20,21,21,22,22,23,23,24,24,25,25,26,26,27,27,28,28],"right_children":[2,4,6,8,10,12,14,16,18,20,22,24,26,28,30,32,34,36,38,40,42,44,46,48,50,52,54,56,58,-1,-1,-1,-1,-1,-1,-1,-1,-1,-1,-1,-1,-1,-1,-1,-1,-1,-1,-1,-1,-1,-1,-1,-1,-1,-1,-1,-1,-1,-1],"split_conditions":[7.835156E-4,-3.8439594E-3,6.2153097E-3,-1.1205908E-2,-1.0934286E-3,3.3223107E-3,1.1872705E-2,-1.0780197E-2,-5.081054E-3,1.3211854E-3,1.1353083E-3,8.5011125E-6,2.6638731E-3,5.762445E-3,8.399505E-3,-7.7825375E-3,5.0998367E-3,-6.9822483E-3,-2.773378E-3,-2.7652765E-3,1.4687069E-3,-2.2138245E-3,3.392592E-3,2.0666346E-3,-3.2220483E-3,2.334848E-3,-6.283E-4,7.5450013E-3,6.61687E-3,2.6519294E-4,9.215108E-4,-4.4479402E-4,1.9359264E-5,-1.1831105E-3,-7.6337485E-5,-6.6516816E-4,-3.587198E-4,-2.000031E-4,-3.9733935E-4,-2.3683367E-4,-1.3753421E-4,1.8592087E-4,-2.9947207E-4,-1.3888063E-4,-4.5948736E-6,-2.4249873E-4,1.9729986E-4,5.043988E-5,-2.1312122E-4,4.3630975E-4,9.309353E-5,1.0017207E-4,5.549448E-4,-2.7832255E-4,2.1845366E-4,3.28533E-4,5.940343E-4,-2.1664217E-5,4.0824528E-4],"split_indices":[4,3,3,3,4,4,1,1,4,0,1,5,1,6,0,0,8,8,8,4,9,5,7,7,6,0,6,4,6,0,0,0,0,0,0,0,0,0,0,0,0,0,0,0,0,0,0,0,0,0,0,0,0,0,0,0,0,0,0],"split_type":[0,0,0,0,0,0,0,0,0,0,0,0,0,0,0,0,0,0,0,0,0,0,0,0,0,0,0,0,0,0,0,0,0,0,0,0,0,0,0,0,0,0,0,0,0,0,0,0,0,0,0,0,0,0,0,0,0,0,0],"sum_hessian":[1.707E3,9E2,8.07E2,1.27E2,7.73E2,7.26E2,8.1E1,1.4E1,1.13E2,3.13E2,4.6E2,5.66E2,1.6E2,6.6E1,1.5E1,4E0,1E1,5.2E1,6.1E1,3.03E2,1E1,4.21E2,3.9E1,1E2,4.66E2,1.1E1,1.49E2,4.4E1,2.2E1,3E0,1.2E1,3E0,1E0,9E0,1E0,2.1E1,3.1E1,3.7E1,2.4E1,7.5E1,2.28E2,9E0,1E0,5.8E1,3.63E2,3.7E1,2E0,7.2E1,2.8E1,7E0,4.59E2,3E0,8E0,2E0,1.47E2,1.7E1,2.7E1,5E0,1.7E1],"tree_param":{"num_deleted":"0","num_feature":"10","num_nodes":"59","size_leaf_vector":"1"}},{"base_weights":[-1.1033433E-6,-2.9176925E-4,4.1585058E-4,-1.0716467E-3,-1.7800096E-4,3.0913125E-4,1.2908134E-3,-2.2472069E-3,-9.0756733E-4,-4.1932482E-4,-1.0030784E-4,2.0839759E-4,5.2158965E-4,1.0899589E-3,1.9758954E-3,-8.9730043E-4,-2.6565092E-3,-1.1689358E-3,-6.6950126E-4,2.0812132E-4,-4.438295E-4,-1.8380293E-4,3.0700576E-6,1.9267097E-4,1.8233189E-3,-8.3673585E-5,5.519114E-4,1.1470268E-3,-3.0043886E-6,1.225804E-4,2.1706088E-3,-3.4471534E-4,1.6455353E-5,-8.636707E-4,-6.488683E-5,-4.1906963E-4,-1.3023532E-4,6.561289E-5,-2.3057168E-4,-1.4018251E-4,1.293589E-4,9.1319635E-5,-6.605028E-5,5.033453E-4,-2.4540482E-6,8.312598E-5,8.49982E-6,9.111848E-5,6.685819E-4,2.4810975E-4,1.4320554E-4,-6.4912536E-5,3.5242265E-4,2.3067306E-4,7.020448E-4],"categories":[],"categories_nodes":[],"categories_segments":[],"categories_sizes":[],"default_left":[0,0,0,0,0,0,0,0,0,0,0,0,0,0,0,0,0,0,0,0,0,0,0,0,0,0,0,0,0,0,0,0,0,0,0,0,0,0,0,0,0,0,0,0,0,0,0,0,0,0,0,0,0,0,0],"id":6,"left_children":[1,3,5,7,9,11,13,15,17,19,21,23,25,27,29,31,33,35,37,-1,39,41,43,45,47,-1,49,51,-1,-1,53,-1,-1,-1,-1,-1,-1,-1,-1,-1,-1,-1,-1,-1,-1,-1,-1,-1,-1,-1,-1,-1,-1,-1,-1],"loss_changes":[2.0712118E-4,8.9155634E-5,6.515054E-5,2.2649823E-5,1.6457234E-5,1.3310186E-5,8.304109E-6,5.9041195E-6,6.3108164E-6,6.144808E-6,5.7578063E-6,1.0493321E-5,5.032736E-6,3.8406433E-6,3.995854E-6,1.2615506E-6,5.3468902E-6,8.27168E-6,5.6238405E-6,0E0,4.509726E-6,6.617981E-6,5.6472654E-6,5.874179E-6,1.7865941E-6,0E0,3.584726E-6,2.4458423E-6,0E0,0E0,1.5276601E-6,0E0,0E0,0E0,0E0,0E0,0E0,0E0,0E0,0E0,0E0,0E0,0E0,0E0,0E0,0E0,0E0,0E0,0E0,0E0,0E0,0E0,0E0,0E0,0E0],"parents":[2147483647,0,0,1,1,2,2,3,3,4,4,5,5,6,6,7,7,8,8,9,9,10,10,11,11,12,12,13,13,14,14,15,15,16,16,17,17,18,18,20,20,21,21,22,22,23,23,24,24,26,26,27,27,30,30],"right_children":[2,4,6,8,10,12,14,16,18,20,22,24,26,28,30,32,34,36,38,-1,40,42,44,46,48,-1,50,52,-1,-1,54,-1,-1,-1,-1,-1,-1,-1,-1,-1,-1,-1,-1,-1,-1,-1,-1,-1,-1,-1,-1,-1,-1,-1,-1],"split_conditions":[1.1120997E-3,-3.8439594E-3,6.5558515E-3,-1.1205908E-2,-1.6960949E-3,2.8409436E-3,1.1872705E-2,-1.0780197E-2,-5.081054E-3,-1.015906E-2,1.5407614E-4,9.018235E-3,-2.5898218E-4,1.08733885E-2,8.063326E-3,-7.7825375E-3,5.0998367E-3,6.6233426E-4,-4.3200906E-3,2.0812132E-4,7.867891E-3,-5.7080574E-3,-3.2220483E-3,1.2506284E-3,3.1868704E-3,-8.3673585E-5,1.9510426E-3,3.6780573E-3,-3.0043886E-6,1.225804E-4,-2.009336E-3,-3.4471534E-4,1.6455353E-5,-8.636707E-4,-6.488683E-5,-4.1906963E-4,-1.3023532E-4,6.561289E-5,-2.3057168E-4,-1.4018251E-4,1.293589E-4,9.1319635E-5,-6.605028E-5,5.033453E-4,-2.4540482E-6,8.312598E-5,8.49982E-6,9.111848E-5,6.685819E-4,2.4810975E-4,1.4320554E-4,-6.4912536E-5,3.5242265E-4,2.3067306E-4,7.020448E-4],"split_indices":[3,3,3,3,3,3,1,1,4,5,4,5,5,1,2,0,8,9,6,0,8,8,6,9,0,0,7,1,0,0,8,0,0,0,0,0,0,0,0,0,0,0,0,0,0,0,0,0,0,0,0,0,0,0,0],"split_type":[0,0,0,0,0,0,0,0,0,0,0,0,0,0,0,0,0,0,0,0,0,0,0,0,0,0,0,0,0,0,0,0,0,0,0,0,0,0,0,0,0,0,0,0,0,0,0,0,0,0,0,0,0,0,0],"sum_hessian":[1.707E3,1.006E3,7.01E2,1.27E2,8.79E2,6.26E2,7.5E1,1.4E1,1.13E2,2.13E2,6.66E2,4.26E2,2E2,6E1,1.5E1,4E0,1E1,5.2E1,6.1E1,4E0,2.09E2,3.68E2,2.98E2,4.23E2,3E0,7E0,1.93E2,5.7E1,3E0,2E0,1.3E1,3E0,1E0,9E0,1E0,3.9E1,1.3E1,6E0,5.5E1,2.04E2,5E0,2.5E1,3.43E2,1E0,2.97E2,2.79E2,1.44E2,1E0,2E0,3.9E1,1.54E2,1E0,5.6E1,2E0,1.1E1],"tree_param":{"num_deleted":"0","num_feature":"10","num_nodes":"55","size_leaf_vector":"1"}},{"base_weights":[-3.9825675E-8,-2.9995138E-4,2.050229E-4,-1.0027122E-3,-2.2325652E-4,9.278222E-5,6.197799E-4,-2.0826021E-3,-8.4464945E-4,-4.179882E-4,-1.4573318E-4,6.183687E-5,4.7341094E-4,4.7972228E-4,1.087329E-3,-1.0728874E-3,-1.0223491E-3,-3.3959357E-5,-9.1642607E-4,2.4738655E-4,-4.3679413E-4,-1.3148184E-4,-7.0253847E-4,-2.673227E-4,8.965765E-5,2.939426E-4,1.6032122E-3,5.595002E-4,-2.225765E-5,7.6340715E-4,1.42031E-3,-3.9183433E-4,1.3987022E-5,1.4135233E-4,-3.8394428E-4,-3.2911016E-4,-1.6895201E-4,-6.166222E-4,-1.2191301E-4,-4.612846E-5,1.4056197E-4,7.906118E-5,-2.4764994E-4,3.5321907E-5,-1.2895632E-4,4.6758546E-4,2.4919347E-5,-8.064351E-5,1.2932015E-4,7.7450706E-5,5.27544E-4,1.4334069E-4,3.138666E-4,-5.4055297E-5,1.4446593E-4,3.6998195E-4,1.24341E-4,7.682099E-5,4.5569887E-4],"categories":[],"categories_nodes":[],"categories_segments":[],"categories_sizes":[],"default_left":[0,0,0,0,0,0,0,0,0,0,0,0,0,0,0,0,0,0,0,0,0,0,0,0,0,0,0,0,0,0,0,0,0,0,0,0,0,0,0,0,0,0,0,0,0,0,0,0,0,0,0,0,0,0,0,0,0,0,0],"id":7,"left_children":[1,3,5,7,9,11,13,15,17,19,21,23,25,27,29,31,-1,33,35,-1,37,39,41,43,45,47,49,51,53,55,57,-1,-1,-1,-1,-1,-1,-1,-1,-1,-1,-1,-1,-1,-1,-1,-1,-1,-1,-1,-1,-1,-1,-1,-1,-1,-1,-1,-1],"loss_changes":[1.05104664E-4,3.718146E-5,4.7193396E-5,9.847878E-6,9.4044335E-6,9.393678E-6,1.3622892E-5,7.048602E-6,3.518384E-6,4.5197703E-6,3.4784798E-6,6.8096597E-6,1.169456E-5,6.7403307E-6,4.200858E-6,1.6274953E-6,0E0,4.378956E-6,2.954992E-6,0E0,7.829924E-6,5.9540944E-6,1.5242399E-6,3.6805313E-6,6.495143E-6,4.2057495E-6,1.2167511E-6,5.265916E-6,1.996332E-6,3.915595E-6,2.2536042E-6,0E0,0E0,0E0,0E0,0E0,0E0,0E0,0E0,0E0,0E0,0E0,0E0,0E0,0E0,0E0,0E0,0E0,0E0,0E0,0E0,0E0,0E0,0E0,0E0,0E0,0E0,0E0,0E0],"parents":[2147483647,0,0,1,1,2,2,3,3,4,4,5,5,6,6,7,7,8,8,9,9,10,10,11,11,12,12,13,13,14,14,15,15,17,17,18,18,20,20,21,21,22,22,23,23,24,24,25,25,26,26,27,27,28,28,29,29,30,30],"right_children":[2,4,6,8,10,12,14,16,18,20,22,24,26,28,30,32,-1,34,36,-1,38,40,42,44,46,48,50,52,54,56,58,-1,-1,-1,-1,-1,-1,-1,-1,-1,-1,-1,-1,-1,-1,-1,-1,-1,-1,-1,-1,-1,-1,-1,-1,-1,-1,-1,-1],"split_conditions":[8.621393E-5,-5.798813E-3,3.5258136E-3,-1.1333132E-2,-2.161745E-3,7.091511E-3,7.4693E-3,-9.827953E-3,-1.7526008E-2,-6.742757E-3,4.374181E-3,-4.73937E-3,8.608501E-3,8.458022E-3,8.0727115E-3,-7.7825375E-3,-1.0223491E-3,-5.716156E-3,-4.9958937E-3,2.4738655E-4,-1.21816695E-2,3.4156898E-3,-8.401868E-3,6.380435E-4,-2.5358982E-3,2.7091391E-3,1.108598E-3,6.5558515E-3,1.08733885E-2,8.007053E-3,9.663893E-3,-3.9183433E-4,1.3987022E-5,1.4135233E-4,-3.8394428E-4,-3.2911016E-4,-1.6895201E-4,-6.166222E-4,-1.2191301E-4,-4.612846E-5,1.4056197E-4,7.906118E-5,-2.4764994E-4,3.5321907E-5,-1.2895632E-4,4.6758546E-4,2.4919347E-5,-8.064351E-5,1.2932015E-4,7.7450706E-5,5.27544E-4,1.4334069E-4,3.138666E-4,-5.4055297E-5,1.4446593E-4,3.6998195E-4,1.24341E-4,7.682099E-5,4.5569887E-4],"split_indices":[4,3,4,4,0,8,0,1,2,0,2,8,5,7,6,0,0,1,1,0,5,2,6,4,0,5,4,3,1,5,2,0,0,0,0,0,0,0,0,0,0,0,0,0,0,0,0,0,0,0,0,0,0,0,0,0,0,0,0],"split_type":[0,0,0,0,0,0,0,0,0,0,0,0,0,0,0,0,0,0,0,0,0,0,0,0,0,0,0,0,0,0,0,0,0,0,0,0,0,0,0,0,0,0,0,0,0,0,0,0,0,0,0,0,0,0,0,0,0,0,0],"sum_hessian":[1.707E3,6.93E2,1.014E3,6.7E1,6.26E2,7.99E2,2.15E2,7E0,6E1,1.77E2,4.49E2,7.4E2,5.9E1,1.67E2,4.8E1,5E0,2E0,5E0,5.5E1,2E0,1.75E2,4.39E2,1E1,5.7E1,6.83E2,5.2E1,7E0,1.44E2,2.3E1,2.6E1,2.2E1,4E0,1E0,4E0,1E0,3.5E1,2E1,2E0,1.73E2,4.24E2,1.5E1,1E0,9E0,1.7E1,4E1,2E0,6.81E2,1E1,4.2E1,1E0,6E0,1.25E2,1.9E1,1.8E1,5E0,1E1,1.6E1,2E0,2E1],"tree_param":{"num_deleted":"0","num_feature":"10","num_nodes":"59","size_leaf_vector":"1"}},{"base_weights":[-7.4258324E-8,-2.4143247E-4,1.4014132E-4,-6.715418E-4,-1.7102387E-4,5.7317542E-5,4.1665562E-4,-1.6328458E-3,-5.683076E-4,-3.6023642E-4,-1.1738955E-4,7.568714E-5,-3.6367177E-4,3.2549762E-4,7.820863E-4,-2.4419872E-4,-8.1787934E-4,-3.9180266E-4,-8.553058E-4,3.010571E-4,-3.921257E-4,-7.637692E-5,-4.1504292E-4,3.201232E-5,2.758177E-4,4.0467005E-4,-4.5371507E-4,5.109284E-4,1.9073757E-4,5.526933E-4,1.0173699E-3,-2.467238E-4,-2.9091318E-5,-3.2732607E-4,-1.5237209E-4,-9.0147456E-5,-2.3224801E-4,-2.899233E-5,2.0066305E-4,8.670751E-5,-1.8476618E-4,5.0675266E-5,-7.463866E-6,1.67449E-4,3.3969904E-5,-2.0786711E-4,1.2754132E-5,1.3134953E-4,4.7348664E-4,3.1325774E-4,4.0708088E-5,2.6907778E-4,8.923298E-5,6.145677E-5,3.2549916E-4],"categories":[],"categories_nodes":[],"categories_segments":[],"categories_sizes":[],"default_left":[0,0,0,0,0,0,0,0,0,0,0,0,0,0,0,0,0,0,0,0,0,0,0,0,0,0,0,0,0,0,0,0,0,0,0,0,0,0,0,0,0,0,0,0,0,0,0,0,0,0,0,0,0,0,0],"id":8,"left_children":[1,3,5,7,9,11,13,15,17,19,21,23,25,27,29,-1,-1,31,33,-1,35,37,39,41,43,-1,45,47,49,51,53,-1,-1,-1,-1,-1,-1,-1,-1,-1,-1,-1,-1,-1,-1,-1,-1,-1,-1,-1,-1,-1,-1,-1,-1],"loss_changes":[5.7836278E-5,1.8903123E-5,2.4733135E-5,7.805116E-6,5.447937E-6,6.469452E-6,8.0401005E-6,4.9436003E-6,3.7680747E-6,5.568736E-6,5.1320935E-6,6.974962E-6,6.0092125E-6,4.9252667E-6,2.0823554E-6,0E0,0E0,6.5220356E-6,1.9031322E-6,0E0,3.863239E-6,5.6976696E-6,7.389818E-6,5.121441E-6,6.5012255E-6,0E0,4.06477E-6,5.862694E-6,5.4016573E-6,2.1055803E-6,1.0415388E-6,0E0,0E0,0E0,0E0,0E0,0E0,0E0,0E0,0E0,0E0,0E0,0E0,0E0,0E0,0E0,0E0,0E0,0E0,0E0,0E0,0E0,0E0,0E0,0E0],"parents":[2147483647,0,0,1,1,2,2,3,3,4,4,5,5,6,6,7,7,8,8,9,9,10,10,11,11,12,12,13,13,14,14,17,17,18,18,20,20,21,21,22,22,23,23,24,24,26,26,27,27,28,28,29,29,30,30],"right_children":[2,4,6,8,10,12,14,16,18,20,22,24,26,28,30,-1,-1,32,34,-1,36,38,40,42,44,-1,46,48,50,52,54,-1,-1,-1,-1,-1,-1,-1,-1,-1,-1,-1,-1,-1,-1,-1,-1,-1,-1,-1,-1,-1,-1,-1,-1],"split_conditions":[-3.3731014E-4,-4.4470467E-3,3.225516E-3,-1.1333132E-2,-2.7652765E-3,2.9930733E-3,7.4693E-3,-9.827953E-3,-3.1222291E-3,-9.525955E-3,1.5242919E-3,2.1641771E-3,1.4638966E-3,3.6239251E-4,8.0727115E-3,-2.4419872E-4,-8.1787934E-4,-8.576203E-3,2.9627942E-3,3.010571E-4,-1.6085096E-3,3.9570257E-3,-1.590021E-3,3.8231537E-4,2.0955391E-3,4.0467005E-4,4.340492E-3,7.1806237E-3,1.5132204E-3,8.007053E-3,9.663893E-3,-2.467238E-4,-2.9091318E-5,-3.2732607E-4,-1.5237209E-4,-9.0147456E-5,-2.3224801E-4,-2.899233E-5,2.0066305E-4,8.670751E-5,-1.8476618E-4,5.0675266E-5,-7.463866E-6,1.67449E-4,3.3969904E-5,-2.0786711E-4,1.2754132E-5,1.3134953E-4,4.7348664E-4,3.1325774E-4,4.0708088E-5,2.6907778E-4,8.923298E-5,6.145677E-5,3.2549916E-4],"split_indices":[3,0,4,4,4,1,0,1,8,1,2,4,4,8,6,0,0,8,8,0,7,5,1,1,1,0,7,5,7,5,2,0,0,0,0,0,0,0,0,0,0,0,0,0,0,0,0,0,0,0,0,0,0,0,0],"split_type":[0,0,0,0,0,0,0,0,0,0,0,0,0,0,0,0,0,0,0,0,0,0,0,0,0,0,0,0,0,0,0,0,0,0,0,0,0,0,0,0,0,0,0,0,0,0,0,0,0,0,0,0,0,0,0],"sum_hessian":[1.707E3,6.27E2,1.08E3,8.7E1,5.4E2,8.32E2,2.48E2,7E0,8E1,1.18E2,4.22E2,7.98E2,3.4E1,2E2,4.8E1,5E0,2E0,5.1E1,2.9E1,2E0,1.16E2,3.72E2,5E1,6.56E2,1.42E2,1E0,3.3E1,8.3E1,1.17E2,2.6E1,2.2E1,2E1,3.1E1,1.6E1,1.3E1,9.5E1,2.1E1,3.63E2,9E0,1.1E1,3.9E1,1.92E2,4.64E2,5.1E1,9.1E1,2.2E1,1.1E1,7.9E1,4E0,6E0,1.11E2,1E1,1.6E1,2E0,2E1],"tree_param":{"num_deleted":"0","num_feature":"10","num_nodes":"55","size_leaf_vector":"1"}},{"base_weights":[1.7806727E-7,-1.3309799E-4,1.4879384E-4,-5.100943E-4,-9.2178125E-5,1.0647737E-4,4.6153192E-4,-7.964316E-4,-2.7654928E-4,-7.121376E-5,-4.7582752E-4,7.9404745E-5,2.929978E-4,8.7604247E-4,3.800784E-4,-1.5042108E-3,-6.2216236E-4,-1.7736561E-4,-4.1184606E-4,-2.1956864E-4,-1.5848978E-5,-3.523403E-4,-1.3191646E-3,2.0290984E-4,4.5856817E-5,5.6337647E-4,1.4138571E-4,5.4205675E-4,4.9276784E-4,1.0575286E-4,5.6267E-4,-6.669417E-4,-2.316035E-4,-8.8545894E-5,-3.307649E-4,3.1294112E-5,-1.06739426E-4,4.126723E-5,-8.465573E-5,-3.93781E-5,1.3363083E-5,-1.659938E-4,9.51179E-6,-4.107856E-5,-4.7414744E-4,1.6784803E-4,3.815854E-5,-1.2981739E-4,1.9798761E-5,-1.5015184E-4,2.1997049E-4,-5.1102025E-4,7.079979E-5,3.2283517E-4,1.997356E-5,9.918025E-5,-2.674762E-5,1.3806998E-4,2.9004217E-4],"categories":[],"categories_nodes":[],"categories_segments":[],"categories_sizes":[],"default_left":[0,0,0,0,0,0,0,0,0,0,0,0,0,0,0,0,0,0,0,0,0,0,0,0,0,0,0,0,0,0,0,0,0,0,0,0,0,0,0,0,0,0,0,0,0,0,0,0,0,0,0,0,0,0,0,0,0,0,0],"id":9,"left_children":[1,3,5,7,9,11,13,15,17,19,21,23,25,27,29,31,33,35,-1,37,39,41,43,45,47,49,51,-1,53,55,57,-1,-1,-1,-1,-1,-1,-1,-1,-1,-1,-1,-1,-1,-1,-1,-1,-1,-1,-1,-1,-1,-1,-1,-1,-1,-1,-1,-1],"loss_changes":[3.3850036E-5,1.3852383E-5,1.0643911E-5,5.6645404E-6,6.513088E-6,3.5770981E-6,2.9083185E-6,3.8745584E-6,5.193117E-6,6.345661E-6,3.909141E-6,2.57614E-6,3.609688E-6,4.460997E-6,4.047839E-6,1.9685012E-6,4.858589E-6,2.399369E-6,0E0,4.7348813E-6,3.936921E-6,2.9504845E-6,1.3283352E-6,3.5196513E-6,4.7705403E-6,6.149691E-6,1.06999705E-5,0E0,2.9117612E-6,1.5195421E-6,1.5835685E-6,0E0,0E0,0E0,0E0,0E0,0E0,0E0,0E0,0E0,0E0,0E0,0E0,0E0,0E0,0E0,0E0,0E0,0E0,0E0,0E0,0E0,0E0,0E0,0E0,0E0,0E0,0E0,0E0],"parents":[2147483647,0,0,1,1,2,2,3,3,4,4,5,5,6,6,7,7,8,8,9,9,10,10,11,11,12,12,13,13,14,14,15,15,16,16,17,17,19,19,20,20,21,21,22,22,23,23,24,24,25,25,26,26,28,28,29,29,30,30],"right_children":[2,4,6,8,10,12,14,16,18,20,22,24,26,28,30,32,34,36,-1,38,40,42,44,46,48,50,52,-1,54,56,58,-1,-1,-1,-1,-1,-1,-1,-1,-1,-1,-1,-1,-1,-1,-1,-1,-1,-1,-1,-1,-1,-1,-1,-1,-1,-1,-1,-1],"split_conditions":[7.835156E-4,-4.769968E-3,5.4014586E-3,-7.064216E-3,1.1353083E-3,6.4877756E-3,5.795274E-3,-1.1333132E-2,8.318409E-3,-2.2138245E-3,1.9976646E-3,1.335483E-3,1.0535903E-3,9.521656E-5,7.4693E-3,-8.017256E-3,-6.4122193E-3,-6.486889E-3,-4.1184606E-4,-7.3726512E-3,-1.1504628E-3,1.1098571E-3,-1.8660538E-3,2.8741546E-4,-6.040372E-4,-4.300475E-5,1.1098571E-3,5.4205675E-4,3.6239251E-4,5.906295E-3,1.3521817E-2,-6.669417E-4,-2.316035E-4,-8.8545894E-5,-3.307649E-4,3.1294112E-5,-1.06739426E-4,4.126723E-5,-8.465573E-5,-3.93781E-5,1.3363083E-5,-1.659938E-4,9.51179E-6,-4.107856E-5,-4.7414744E-4,1.6784803E-4,3.815854E-5,-1.2981739E-4,1.9798761E-5,-1.5015184E-4,2.1997049E-4,-5.1102025E-4,7.079979E-5,3.2283517E-4,1.997356E-5,9.918025E-5,-2.674762E-5,1.3806998E-4,2.9004217E-4],"split_indices":[4,4,0,5,1,8,0,4,5,5,9,1,9,6,0,6,7,1,0,8,4,9,8,2,0,9,9,0,8,8,3,0,0,0,0,0,0,0,0,0,0,0,0,0,0,0,0,0,0,0,0,0,0,0,0,0,0,0,0],"split_type":[0,0,0,0,0,0,0,0,0,0,0,0,0,0,0,0,0,0,0,0,0,0,0,0,0,0,0,0,0,0,0,0,0,0,0,0,0,0,0,0,0,0,0,0,0,0,0,0,0,0,0,0,0,0,0,0,0,0,0],"sum_hessian":[1.707E3,9E2,8.07E2,8.7E1,8.13E2,7.12E2,9.5E1,3.8E1,4.9E1,7.72E2,4.1E1,6.23E2,8.9E1,1.4E1,8.1E1,6E0,3.2E1,4.6E1,3E0,2.09E2,5.63E2,3.7E1,4E0,1.32E2,4.91E2,3.1E1,5.8E1,3E0,1.1E1,3.3E1,4.8E1,2E0,4E0,2E1,1.2E1,1.8E1,2.8E1,3.1E1,1.78E2,1.93E2,3.7E2,2.4E1,1.3E1,1E0,3E0,2.2E1,1.1E2,1.9E1,4.72E2,4E0,2.7E1,2E0,5.6E1,4E0,7E0,1.5E1,1.8E1,4E1,8E0],"tree_param":{"num_deleted":"0","num_feature":"10","num_nodes":"59","size_leaf_vector":"1"}},{"base_weights":[-7.1568695E-7,-6.961702E-5,1.5048221E-4,-3.3423927E-4,-3.4045483E-5,1.0647379E-4,3.4563744E-4,-1.0483217E-3,-2.8842944E-4,-2.7004508E-5,-5.115009E-4,-1.5014167E-4,1.4067929E-4,9.423179E-4,2.747111E-4,-6.560711E-4,-1.719757E-4,-2.3241727E-4,-8.834345E-4,-2.1445214E-5,-8.3003845E-4,-1.9603196E-4,8.222039E-5,1.6565788E-4,-1.28023E-4,8.561128E-4,1.2907384E-4,-1.4523219E-4,1.1545992E-3,-6.220235E-4,3.242283E-4,-2.3023217E-4,-5.490399E-5,-6.2784384E-5,-4.2310462E-4,-1.862551E-5,1.6124188E-5,-4.1242226E-4,1.0634354E-4,-4.784686E-6,3.369243E-4,3.6722329E-4,2.4036692E-5,-1.10397355E-4,4.4274868E-5,3.8606816E-4,1.4436432E-5,-1.3877288E-6,-4.6374215E-4,7.058407E-5,1.7523134E-4],"categories":[],"categories_nodes":[],"categories_segments":[],"categories_sizes":[],"default_left":[0,0,0,0,0,0,0,0,0,0,0,0,0,0,0,0,0,0,0,0,0,0,0,0,0,0,0,0,0,0,0,0,0,0,0,0,0,0,0,0,0,0,0,0,0,0,0,0,0,0,0],"id":10,"left_children":[1,3,5,7,9,11,13,15,17,19,21,23,25,27,29,-1,-1,31,33,35,37,-1,-1,39,-1,41,43,-1,45,47,49,-1,-1,-1,-1,-1,-1,-1,-1,-1,-1,-1,-1,-1,-1,-1,-1,-1,-1,-1,-1],"loss_changes":[1.7803972E-5,1.1039507E-5,4.5580327E-6,4.244601E-6,3.4689629E-6,3.8657377E-6,3.888529E-6,3.0735964E-6,4.1939084E-6,4.544716E-6,1.8516289E-6,4.612929E-6,3.1027312E-6,3.5869853E-6,4.153615E-6,0E0,0E0,3.0842857E-6,3.612271E-6,3.1080394E-6,5.0037806E-6,0E0,0E0,4.3647765E-6,0E0,1.6151466E-6,3.5687845E-6,0E0,1.255502E-6,2.8445586E-6,1.8273886E-6,0E0,0E0,0E0,0E0,0E0,0E0,0E0,0E0,0E0,0E0,0E0,0E0,0E0,0E0,0E0,0E0,0E0,0E0,0E0,0E0],"parents":[2147483647,0,0,1,1,2,2,3,3,4,4,5,5,6,6,7,7,8,8,9,9,10,10,11,11,12,12,13,13,14,14,17,17,18,18,19,19,20,20,23,23,25,25,26,26,28,28,29,29,30,30],"right_children":[2,4,6,8,10,12,14,16,18,20,22,24,26,28,30,-1,-1,32,34,36,38,-1,-1,40,-1,42,44,-1,46,48,50,-1,-1,-1,-1,-1,-1,-1,-1,-1,-1,-1,-1,-1,-1,-1,-1,-1,-1,-1,-1],"split_conditions":[1.473818E-3,-3.5924371E-3,5.834427E-3,-1.2357861E-2,1.4081039E-3,7.5782835E-4,2.9161759E-3,-8.017256E-3,1.641579E-3,7.419884E-3,6.4877756E-3,2.0765858E-3,-7.884409E-3,3.6780573E-3,5.084414E-3,-6.560711E-4,-1.719757E-4,-1.0642264E-2,5.71575E-4,5.5975E-4,1.004938E-3,-1.9603196E-4,8.222039E-5,3.9591156E-3,-1.28023E-4,1.6198494E-3,-4.3942668E-3,-1.4523219E-4,6.609861E-3,5.992178E-3,1.0726734E-2,-2.3023217E-4,-5.490399E-5,-6.2784384E-5,-4.2310462E-4,-1.862551E-5,1.6124188E-5,-4.1242226E-4,1.0634354E-4,-4.784686E-6,3.369243E-4,3.6722329E-4,2.4036692E-5,-1.10397355E-4,4.4274868E-5,3.8606816E-4,1.4436432E-5,-1.3877288E-6,-4.6374215E-4,7.058407E-5,1.7523134E-4],"split_indices":[0,4,4,3,0,5,6,6,9,5,8,2,8,1,7,0,0,8,8,4,0,0,0,8,0,2,8,0,1,1,4,0,0,0,0,0,0,0,0,0,0,0,0,0,0,0,0,0,0,0,0],"split_type":[0,0,0,0,0,0,0,0,0,0,0,0,0,0,0,0,0,0,0,0,0,0,0,0,0,0,0,0,0,0,0,0,0,0,0,0,0,0,0,0,0,0,0,0,0,0,0,0,0,0,0],"sum_hessian":[1.707E3,1.173E3,5.34E2,1.38E2,1.035E3,4.37E2,9.7E1,7E0,1.31E2,1.021E3,1.4E1,5.1E1,3.86E2,9E0,8.8E1,1E0,6E0,1.21E2,1E1,1.015E3,6E0,1.2E1,2E0,2.4E1,2.7E1,5E0,3.81E2,1E0,8E0,4E0,8.4E1,9E0,1.12E2,5E0,5E0,6.59E2,3.56E2,4E0,2E0,2.1E1,3E0,3E0,2E0,1.3E1,3.68E2,7E0,1E0,3E0,1E0,6.4E1,2E1],"tree_param":{"num_deleted":"0","num_feature":"10","num_nodes":"51","size_leaf_vector":"1"}},{"base_weights":[-1.3535905E-6,-4.111323E-5,1.4659556E-4,-2.3656555E-4,-1.824671E-5,3.9653142E-4,1.1947863E-4,-8.373308E-4,-1.9893356E-4,-2.7335007E-6,-3.7716771E-4,1.1924659E-3,2.5536356E-4,-2.0848125E-5,1.7182143E-4,-5.5766036E-4,-1.2775334E-4,-1.6290451E-4,-6.812364E-4,-3.2666543E-5,8.822241E-5,-7.774731E-4,-8.438171E-5,-2.3360366E-5,4.5885495E-4,3.2643919E-4,-2.8153582E-4,-3.864884E-4,6.3432046E-5,5.872449E-4,1.4336288E-4,-5.9470898E-5,1.7303134E-4,5.3351167E-5,-2.432551E-4,4.299517E-6,-3.916001E-5,-8.185769E-5,3.4887496E-5,-1.1444339E-5,-3.21198E-4,-6.504587E-5,1.8635142E-4,5.887247E-5,2.8145371E-4,2.663341E-6,-2.4971555E-4,1.8441808E-4,-1.0022861E-6,3.1400024E-4,1.6325006E-5,2.9566913E-4,3.8262697E-5],"categories":[],"categories_nodes":[],"categories_segments":[],"categories_sizes":[],"default_left":[0,0,0,0,0,0,0,0,0,0,0,0,0,0,0,0,0,0,0,0,0,0,0,0,0,0,0,0,0,0,0,0,0,0,0,0,0,0,0,0,0,0,0,0,0,0,0,0,0,0,0,0,0],"id":11,"left_children":[1,3,5,7,9,11,13,15,17,19,21,23,25,27,29,-1,-1,31,33,35,37,39,41,-1,-1,43,-1,45,47,49,51,-1,-1,-1,-1,-1,-1,-1,-1,-1,-1,-1,-1,-1,-1,-1,-1,-1,-1,-1,-1,-1,-1],"loss_changes":[1.0053175E-5,6.01585E-6,2.4060746E-6,3.021154E-6,6.7195647E-6,3.6281003E-6,2.4127726E-6,2.5711993E-6,2.21753E-6,3.1556376E-6,5.7945863E-6,2.259933E-6,2.9367363E-6,2.7979756E-6,2.741353E-6,0E0,0E0,3.4072307E-6,1.1463299E-6,4.0126965E-6,2.940556E-6,4.5111283E-6,2.93794E-6,0E0,0E0,2.2053023E-6,0E0,3.004362E-6,2.726113E-6,3.6149436E-6,2.8722206E-6,0E0,0E0,0E0,0E0,0E0,0E0,0E0,0E0,0E0,0E0,0E0,0E0,0E0,0E0,0E0,0E0,0E0,0E0,0E0,0E0,0E0,0E0],"parents":[2147483647,0,0,1,1,2,2,3,3,4,4,5,5,6,6,7,7,8,8,9,9,10,10,11,11,12,12,13,13,14,14,17,17,18,18,19,19,20,20,21,21,22,22,25,25,27,27,28,28,29,29,30,30],"right_children":[2,4,6,8,10,12,14,16,18,20,22,24,26,28,30,-1,-1,32,34,36,38,40,42,-1,-1,44,-1,46,48,50,52,-1,-1,-1,-1,-1,-1,-1,-1,-1,-1,-1,-1,-1,-1,-1,-1,-1,-1,-1,-1,-1,-1],"split_conditions":[2.4430277E-3,-3.2279156E-3,1.7502345E-3,-1.2357861E-2,2.6399717E-3,2.5142827E-3,3.225516E-3,-8.017256E-3,-2.3146868E-3,1.177216E-3,1.8147938E-3,9.752698E-4,1.6738139E-3,1.1371262E-3,-4.9672127E-3,-5.5766036E-4,-1.2775334E-4,-2.6736967E-3,-3.0079484E-4,3.8231537E-4,-4.2009316E-3,7.8655034E-4,3.2587834E-3,-2.3360366E-5,4.5885495E-4,1.5022196E-3,-2.8153582E-4,1.2942944E-3,1.4237687E-4,3.6265748E-3,6.7582726E-4,-5.9470898E-5,1.7303134E-4,5.3351167E-5,-2.432551E-4,4.299517E-6,-3.916001E-5,-8.185769E-5,3.4887496E-5,-1.1444339E-5,-3.21198E-4,-6.504587E-5,1.8635142E-4,5.887247E-5,2.8145371E-4,2.663341E-6,-2.4971555E-4,1.8441808E-4,-1.0022861E-6,3.1400024E-4,1.6325006E-5,2.9566913E-4,3.8262697E-5],"split_indices":[4,0,7,3,1,4,4,6,3,4,2,1,7,0,8,0,0,3,9,1,8,9,1,0,0,7,0,2,9,2,3,0,0,0,0,0,0,0,0,0,0,0,0,0,0,0,0,0,0,0,0,0,0],"split_type":[0,0,0,0,0,0,0,0,0,0,0,0,0,0,0,0,0,0,0,0,0,0,0,0,0,0,0,0,0,0,0,0,0,0,0,0,0,0,0,0,0,0,0,0,0,0,0,0,0,0,0,0,0],"sum_hessian":[1.707E3,1.346E3,3.61E2,1.4E2,1.206E3,3.4E1,3.27E2,7E0,1.33E2,1.157E3,4.9E1,4E0,3E1,8.9E1,2.38E2,1E0,6E0,1.25E2,8E0,8.71E2,2.86E2,2E1,2.9E1,1E0,3E0,2.9E1,1E0,1.6E1,7.3E1,1.4E1,2.24E2,1.2E2,5E0,1E0,7E0,5.89E2,2.82E2,2E1,2.66E2,6E0,1.4E1,2.5E1,4E0,2.5E1,4E0,9E0,7E0,7E0,6.6E1,7E0,7E0,3E0,2.21E2],"tree_param":{"num_deleted":"0","num_feature":"10","num_nodes":"53","size_leaf_vector":"1"}},{"base_weights":[-9.241119E-7,-8.750814E-5,4.3673623E-5,-7.477269E-5,-6.3819764E-4,5.6196254E-4,3.8535112E-5,-8.195412E-5,9.6009247E-4,1.48920235E-5,-2.548539E-4,-3.8422415E-5,3.475018E-4,1.5057772E-5,1.5097804E-4,-7.378009E-5,-2.4977012E-4,5.518761E-5,4.9327407E-4,1.6989814E-4,-1.04436685E-5,7.552313E-5,3.595873E-4,-1.3747747E-5,-7.981753E-5,2.2590403E-4,4.0765353E-5,-8.457184E-7,-1.5250493E-4,3.09299E-4,1.2183075E-5,2.730345E-4,7.5395685E-5],"categories":[],"categories_nodes":[],"categories_segments":[],"categories_sizes":[],"default_left":[0,0,0,0,0,0,0,0,0,0,0,0,0,0,0,0,0,0,0,0,0,0,0,0,0,0,0,0,0,0,0,0,0],"id":12,"left_children":[1,3,5,7,9,11,13,15,17,-1,-1,-1,-1,19,21,23,-1,-1,-1,25,27,29,31,-1,-1,-1,-1,-1,-1,-1,-1,-1,-1],"loss_changes":[6.599181E-6,4.026995E-6,2.9824703E-6,4.307383E-6,1.9317285E-6,4.675099E-6,2.9490911E-6,3.4112854E-6,1.8215078E-6,0E0,0E0,0E0,0E0,3.6582267E-6,3.0107776E-6,3.003182E-6,0E0,0E0,0E0,2.4959152E-6,3.0204524E-6,4.728374E-6,2.8111122E-6,0E0,0E0,0E0,0E0,0E0,0E0,0E0,0E0,0E0,0E0],"parents":[2147483647,0,0,1,1,2,2,3,3,4,4,5,5,6,6,7,7,8,8,13,13,14,14,15,15,19,19,20,20,21,21,22,22],"right_children":[2,4,6,8,10,12,14,16,18,-1,-1,-1,-1,20,22,24,-1,-1,-1,26,28,30,32,-1,-1,-1,-1,-1,-1,-1,-1,-1,-1],"split_conditions":[-3.5117147E-4,5.143024E-4,-3.2220483E-3,9.5358863E-4,-2.7529313E-3,-3.909111E-3,3.6416687E-3,5.690123E-3,-1.0730773E-3,1.48920235E-5,-2.548539E-4,-3.8422415E-5,3.475018E-4,2.3140386E-4,1.30748E-3,-7.959455E-5,-2.4977012E-4,5.518761E-5,4.9327407E-4,-2.2464693E-3,4.951604E-3,2.0807236E-3,1.3559759E-3,-1.3747747E-5,-7.981753E-5,2.2590403E-4,4.0765353E-5,-8.457184E-7,-1.5250493E-4,3.09299E-4,1.2183075E-5,2.730345E-4,7.5395685E-5],"split_indices":[4,1,6,7,2,6,3,2,0,0,0,0,0,1,9,7,0,0,0,0,4,7,9,0,0,0,0,0,0,0,0,0,0],"split_type":[0,0,0,0,0,0,0,0,0,0,0,0,0,0,0,0,0,0,0,0,0,0,0,0,0,0,0,0,0,0,0,0,0],"sum_hessian":[1.707E3,5.8E2,1.127E3,5.68E2,1.2E1,1E1,1.117E3,5.65E2,3E0,3E0,9E0,5E0,5E0,9.25E2,1.92E2,5.6E2,5E0,2E0,1E0,1.3E2,7.95E2,1.42E2,5E1,4.9E2,7E1,6E0,1.24E2,7.84E2,1.1E1,4E0,1.38E2,7E0,4.3E1],"tree_param":{"num_deleted":"0","num_feature":"10","num_nodes":"33","size_leaf_vector":"1"}},{"base_weights":[-2.7736183E-8,-1.4062454E-4,1.9455385E-5,-8.0852356E-4,-1.1678337E-4,-1.5203518E-4,3.1411666E-5,-9.336809E-5,-4.1035304E-4,-1.3413822E-4,1.7814762E-4,-9.250419E-5,-1.0494265E-3,2.7404208E-4,2.1316251E-5,-9.130782E-5,-4.2687228E-4,-1.3228398E-4,5.3508556E-4,-9.247333E-5,-5.063581E-4,3.9789933E-4,-3.3549123E-4,1.7842605E-4,1.7451785E-5,-4.1318166E-5,6.5830114E-5,-1.7250197E-4,-2.9889863E-5,1.0620593E-4,-5.294924E-5,2.981372E-4,8.593709E-5,-1.5719669E-4,8.369992E-5,-3.9343267E-5,1.1394237E-5],"categories":[],"categories_nodes":[],"categories_segments":[],"categories_sizes":[],"default_left":[0,0,0,0,0,0,0,0,0,0,0,0,0,0,0,0,0,0,0,0,0,0,0,0,0,0,0,0,0,0,0,0,0,0,0,0,0],"id":13,"left_children":[1,3,5,7,9,11,13,-1,-1,15,-1,17,19,21,23,25,27,29,-1,-1,-1,31,33,-1,35,-1,-1,-1,-1,-1,-1,-1,-1,-1,-1,-1,-1],"loss_changes":[4.6814E-6,3.2176654E-6,3.0824106E-6,1.521325E-6,2.5708214E-6,5.1383386E-6,3.4331933E-6,0E0,0E0,2.4435303E-6,0E0,7.176699E-6,2.3189014E-6,4.3612185E-6,2.9790447E-6,2.5400732E-6,1.1545949E-6,2.0405923E-6,0E0,0E0,0E0,2.8364757E-6,1.304494E-6,0E0,4.095739E-6,0E0,0E0,0E0,0E0,0E0,0E0,0E0,0E0,0E0,0E0,0E0,0E0],"parents":[2147483647,0,0,1,1,2,2,3,3,4,4,5,5,6,6,9,9,11,11,12,12,13,13,14,14,15,15,16,16,17,17,21,21,22,22,24,24],"right_children":[2,4,6,8,10,12,14,-1,-1,16,-1,18,20,22,24,26,28,30,-1,-1,-1,32,34,-1,36,-1,-1,-1,-1,-1,-1,-1,-1,-1,-1,-1,-1],"split_conditions":[-3.2297894E-3,-1.1333132E-2,-2.7490035E-3,-9.827953E-3,3.9591156E-3,-7.959455E-5,-2.2844598E-3,-9.336809E-5,-4.1035304E-4,-5.9678406E-4,1.7814762E-4,-9.386577E-4,-4.242711E-3,4.450567E-3,-2.9382557E-3,8.934364E-4,9.461455E-4,-6.0342066E-3,5.3508556E-4,-9.247333E-5,-5.063581E-4,-2.1471083E-3,-2.527154E-3,1.7842605E-4,-1.1438169E-3,-4.1318166E-5,6.5830114E-5,-1.7250197E-4,-2.9889863E-5,1.0620593E-4,-5.294924E-5,2.981372E-4,8.593709E-5,-1.5719669E-4,8.369992E-5,-3.9343267E-5,1.1394237E-5],"split_indices":[5,4,3,1,8,7,1,0,0,8,0,1,0,2,5,9,8,8,0,0,0,5,6,0,5,0,0,0,0,0,0,0,0,0,0,0,0],"split_type":[0,0,0,0,0,0,0,0,0,0,0,0,0,0,0,0,0,0,0,0,0,0,0,0,0,0,0,0,0,0,0,0,0,0,0,0,0],"sum_hessian":[1.707E3,2.07E2,1.5E3,6E0,2.01E2,9.7E1,1.403E3,4E0,2E0,1.97E2,4E0,9.2E1,5E0,5.5E1,1.348E3,1.73E2,2.4E1,9.1E1,1E0,3E0,2E0,4.6E1,9E0,8E0,1.34E3,1.51E2,2.2E1,1.6E1,8E0,7E0,8.4E1,6E0,4E1,7E0,2E0,1.62E2,1.178E3],"tree_param":{"num_deleted":"0","num_feature":"10","num_nodes":"37","size_leaf_vector":"1"}},{"base_weights":[-5.0375593E-8,-1.842548E-5,9.831468E-5,-6.2991253E-6,-2.329959E-4,2.8107638E-4,8.212092E-5,-2.2554794E-5,1.3712351E-4,-2.8071943E-4,-1.816716E-4,-2.8668705E-4,1.1339784E-4,-9.637178E-6,-4.261466E-4,2.8223917E-4,1.124778E-4,2.1108672E-4,-2.2966453E-4,1.5244332E-4,-4.473892E-4,9.046651E-4,7.9389065E-5,-2.2696862E-5,6.2254503E-6,-2.7335976E-4,-9.20173E-5,-1.3353859E-5,6.893554E-5,-1.07400316E-4,9.369159E-6,-3.1250696E-5,-2.1346456E-4,3.2341736E-4,-9.838039E-5,-2.3817454E-5,4.6591816E-5],"categories":[],"categories_nodes":[],"categories_segments":[],"categories_sizes":[],"default_left":[0,0,0,0,0,0,0,0,0,0,0,0,0,0,0,0,0,0,0,0,0,0,0,0,0,0,0,0,0,0,0,0,0,0,0,0,0],"id":14,"left_children":[1,3,5,7,9,-1,11,13,15,-1,17,19,21,23,25,-1,27,-1,29,-1,31,33,35,-1,-1,-1,-1,-1,-1,-1,-1,-1,-1,-1,-1,-1,-1],"loss_changes":[3.0889669E-6,3.7453506E-6,3.5761323E-6,3.1831644E-6,2.607194E-6,0E0,3.0893316E-6,6.3875755E-6,2.6473706E-6,0E0,3.2632092E-6,2.909692E-6,6.521136E-6,2.3869788E-6,1.921705E-6,0E0,2.5148252E-6,0E0,2.3549458E-6,0E0,1.5578453E-6,2.4907704E-6,2.8571073E-6,0E0,0E0,0E0,0E0,0E0,0E0,0E0,0E0,0E0,0E0,0E0,0E0,0E0,0E0],"parents":[2147483647,0,0,1,1,2,2,3,3,4,4,6,6,7,7,8,8,10,10,11,11,12,12,13,13,14,14,16,16,18,18,20,20,21,21,22,22],"right_children":[2,4,6,8,10,-1,12,14,16,-1,18,20,22,24,26,-1,28,-1,30,-1,32,34,36,-1,-1,-1,-1,-1,-1,-1,-1,-1,-1,-1,-1,-1,-1],"split_conditions":[2.5858954E-3,3.8828729E-3,1.1927201E-3,2.3545008E-3,-1.2160055E-3,2.8107638E-4,-4.300475E-5,2.6399717E-3,1.0211729E-3,-2.8071943E-4,4.9598515E-5,-2.2163726E-3,1.0990724E-4,-1.3629906E-3,4.804805E-4,2.8223917E-4,1.8373942E-3,2.1108672E-4,5.9709363E-3,1.5244332E-4,-3.1460822E-4,3.9106123E-3,7.496439E-4,-2.2696862E-5,6.2254503E-6,-2.7335976E-4,-9.20173E-5,-1.3353859E-5,6.893554E-5,-1.07400316E-4,9.369159E-6,-3.1250696E-5,-2.1346456E-4,3.2341736E-4,-9.838039E-5,-2.3817454E-5,4.6591816E-5],"split_indices":[0,2,2,4,0,0,9,1,7,0,0,8,9,4,3,0,2,0,8,0,9,0,9,0,0,0,0,0,0,0,0,0,0,0,0,0,0],"split_type":[0,0,0,0,0,0,0,0,0,0,0,0,0,0,0,0,0,0,0,0,0,0,0,0,0,0,0,0,0,0,0,0,0,0,0,0,0],"sum_hessian":[1.707E3,1.439E3,2.68E2,1.363E3,7.6E1,4E0,2.64E2,1.225E3,1.38E2,4E0,7.2E1,2E1,2.44E2,1.188E3,3.7E1,3E0,1.35E2,3E0,6.9E1,3E0,1.7E1,9E0,2.35E2,3.74E2,8.14E2,6E0,3.1E1,5.8E1,7.7E1,4.6E1,2.3E1,8E0,9E0,8E0,1E0,7.6E1,1.59E2],"tree_param":{"num_deleted":"0","num_feature":"10","num_nodes":"37","size_leaf_vector":"1"}},{"base_weights":[9.6431926E-8,-1.3325903E-5,9.287166E-5,-1.650207E-5,5.122225E-4,5.4339995E-4,6.604624E-5,-8.1494E-6,-2.8360644E-4,-1.4709088E-5,2.4030621E-4,3.8522462E-4,4.6149045E-5,3.4272284E-4,2.3943925E-5,-2.887035E-5,6.115302E-5,-1.0370668E-4,-6.745483E-4,-2.0561204E-4,4.997921E-4,-1.1139337E-4,1.4211464E-4,-3.7037432E-6,-8.226043E-5,9.804575E-5,8.321448E-6,1.6486221E-4,-8.267768E-5,-2.378772E-4,7.141126E-6,2.3659784E-4,5.8409943E-5,4.07227E-5,-1.2000916E-4,-6.663503E-5,5.1977328E-5],"categories":[],"categories_nodes":[],"categories_segments":[],"categories_sizes":[],"default_left":[0,0,0,0,0,0,0,0,0,0,0,0,0,0,0,0,0,0,0,0,0,0,0,0,0,0,0,0,0,0,0,0,0,0,0,0,0],"id":15,"left_children":[1,3,5,7,9,11,13,15,17,-1,-1,-1,-1,19,21,23,25,27,29,-1,31,33,35,-1,-1,-1,-1,-1,-1,-1,-1,-1,-1,-1,-1,-1,-1],"loss_changes":[2.128142E-6,2.5006134E-6,2.5746021E-6,3.3107758E-6,1.4980737E-6,3.2650373E-6,2.3797827E-6,2.0710588E-6,3.0949104E-6,0E0,0E0,0E0,0E0,4.702567E-6,2.8785605E-6,4.496536E-6,2.938164E-6,3.7445307E-6,1.1762245E-6,0E0,1.9615973E-6,6.0462353E-6,1.1274401E-6,0E0,0E0,0E0,0E0,0E0,0E0,0E0,0E0,0E0,0E0,0E0,0E0,0E0,0E0],"parents":[2147483647,0,0,1,1,2,2,3,3,4,4,5,5,6,6,7,7,8,8,13,13,14,14,15,15,16,16,17,17,18,18,20,20,21,21,22,22],"right_children":[2,4,6,8,10,12,14,16,18,-1,-1,-1,-1,20,22,24,26,28,30,-1,32,34,36,-1,-1,-1,-1,-1,-1,-1,-1,-1,-1,-1,-1,-1,-1],"split_conditions":[3.5258136E-3,1.1704247E-2,-4.9672127E-3,5.1217163E-3,2.9672794E-3,7.133186E-5,3.6780573E-3,2.7091391E-3,8.007053E-3,-1.4709088E-5,2.4030621E-4,3.8522462E-4,4.6149045E-5,-1.7884653E-3,5.1212274E-3,5.262155E-3,7.5719645E-4,3.3866614E-4,2.4430277E-3,-2.0561204E-4,1.1603385E-3,3.1001233E-3,-1.1877194E-3,-3.7037432E-6,-8.226043E-5,9.804575E-5,8.321448E-6,1.6486221E-4,-8.267768E-5,-2.378772E-4,7.141126E-6,2.3659784E-4,5.8409943E-5,4.07227E-5,-1.2000916E-4,-6.663503E-5,5.1977328E-5],"split_indices":[4,8,8,2,0,9,1,5,5,0,0,0,0,6,0,8,2,9,4,0,9,5,8,0,0,0,0,0,0,0,0,0,0,0,0,0,0],"split_type":[0,0,0,0,0,0,0,0,0,0,0,0,0,0,0,0,0,0,0,0,0,0,0,0,0,0,0,0,0,0,0,0,0,0,0,0,0],"sum_hessian":[1.707E3,1.492E3,2.15E2,1.484E3,8E0,1.1E1,2.04E2,1.44E3,4.4E1,3E0,5E0,3E0,8E0,2.6E1,1.78E2,1.109E3,3.31E2,3.1E1,1.3E1,3E0,2.3E1,8.3E1,9.5E1,1.04E3,6.9E1,3.6E1,2.95E2,6E0,2.5E1,1.1E1,2E0,1.1E1,1.2E1,4.5E1,3.8E1,7E0,8.8E1],"tree_param":{"num_deleted":"0","num_feature":"10","num_nodes":"37","size_leaf_vector":"1"}},{"base_weights":[3.7447435E-7,-4.8874714E-4,2.6746497E-6,-4.0643598E-4,-5.1445888E-5,-5.972175E-7,7.572143E-5,-3.9271548E-4,1.278182E-6,5.8216963E-5,-1.8619468E-4,1.7784663E-5,-4.1513893E-5,-6.8934974E-6,2.2665303E-5,-8.5888256E-5,-1.5979037E-6],"categories":[],"categories_nodes":[],"categories_segments":[],"categories_sizes":[],"default_left":[0,0,0,0,0,0,0,0,0,0,0,0,0,0,0,0,0],"id":16,"left_children":[1,3,5,-1,-1,7,-1,9,11,-1,-1,13,15,-1,-1,-1,-1],"loss_changes":[1.9229194E-6,1.965756E-6,1.3900103E-6,0E0,0E0,1.2359376E-6,0E0,1.1904009E-6,1.182456E-6,0E0,0E0,2.8462482E-6,4.126302E-6,0E0,0E0,0E0,0E0],"parents":[2147483647,0,0,1,1,2,2,5,5,7,7,8,8,11,11,12,12],"right_children":[2,4,6,-1,-1,8,-1,10,12,-1,-1,14,16,-1,-1,-1,-1],"split_conditions":[-1.2357861E-2,-8.017256E-3,1.0170862E-2,-4.0643598E-4,-5.1445888E-5,-1.8286891E-3,7.572143E-5,-1.0764059E-3,1.234483E-3,5.8216963E-5,-1.8619468E-4,1.2679361E-3,-1.0368451E-3,-6.8934974E-6,2.2665303E-5,-8.5888256E-5,-1.5979037E-6],"split_indices":[3,6,3,0,0,9,0,2,9,0,0,5,5,0,0,0,0],"split_type":[0,0,0,0,0,0,0,0,0,0,0,0,0,0,0,0,0],"sum_hessian":[1.707E3,7E0,1.7E3,1E0,6E0,1.679E3,2.1E1,7E0,1.672E3,2E0,5E0,1.207E3,4.65E2,7.08E2,4.99E2,5.9E1,4.06E2],"tree_param":{"num_deleted":"0","num_feature":"10","num_nodes":"17","size_leaf_vector":"1"}},{"base_weights":[-7.852033E-8,-1.8779519E-4,4.535665E-6,-3.408981E-4,1.681879E-4,2.0978955E-4,1.1866958E-6,-1.2059817E-4,-1.8082792E-4,2.5122904E-4,-3.4898334E-5,-8.4098894E-4,3.217767E-6,-2.7554596E-4,1.355606E-4,2.8472628E-5,-3.5537733E-4,2.3278371E-4,1.8159544E-6,1.1336555E-5,-2.09887E-4,-2.3914561E-4,1.1244698E-6],"categories":[],"categories_nodes":[],"categories_segments":[],"categories_sizes":[],"default_left":[0,0,0,0,0,0,0,0,0,0,0,0,0,0,0,0,0,0,0,0,0,0,0],"id":17,"left_children":[1,3,5,7,9,-1,11,13,-1,-1,-1,15,17,19,-1,-1,-1,-1,21,-1,-1,-1,-1],"loss_changes":[1.4802522E-6,2.291919E-6,3.880172E-6,1.6002632E-6,2.5727447E-6,0E0,2.8438776E-6,1.6324525E-6,0E0,0E0,0E0,1.3987337E-6,1.7945691E-6,1.8867308E-6,0E0,0E0,0E0,0E0,2.5595677E-6,0E0,0E0,0E0,0E0],"parents":[2147483647,0,0,1,1,2,2,3,3,4,4,6,6,7,7,11,11,12,12,13,13,18,18],"right_children":[2,4,6,8,10,-1,12,14,-1,-1,-1,16,18,20,-1,-1,-1,-1,22,-1,-1,-1,-1],"split_conditions":[-6.9525503E-3,-5.5802204E-3,-6.4122193E-3,-1.0561533E-2,-9.525955E-3,2.0978955E-4,-9.098377E-3,-7.674549E-3,-1.8082792E-4,2.5122904E-4,-3.4898334E-5,-7.906143E-3,-1.6506525E-2,-8.659255E-3,1.355606E-4,2.8472628E-5,-3.5537733E-4,2.3278371E-4,-1.21816695E-2,1.1336555E-5,-2.09887E-4,-2.3914561E-4,1.1244698E-6],"split_indices":[7,0,7,3,1,0,0,7,0,0,0,1,5,7,0,0,0,0,5,0,0,0,0],"split_type":[0,0,0,0,0,0,0,0,0,0,0,0,0,0,0,0,0,0,0,0,0,0,0],"sum_hessian":[1.707E3,4E1,1.667E3,2.8E1,1.2E1,7E0,1.66E3,1.6E1,1.2E1,3E0,9E0,3E0,1.657E3,1.3E1,3E0,1E0,2E0,2E0,1.655E3,8E0,5E0,3E0,1.652E3],"tree_param":{"num_deleted":"0","num_feature":"10","num_nodes":"23","size_leaf_vector":"1"}},{"base_weights":[-1.4271487E-7],"categories":[],"categories_nodes":[],"categories_segments":[],"categories_sizes":[],"default_left":[0],"id":18,"left_children":[-1],"loss_changes":[0E0],"parents":[2147483647],"right_children":[-1],"split_conditions":[-4.2814463E-8],"split_indices":[0],"split_type":[0],"sum_hessian":[1.707E3],"tree_param":{"num_deleted":"0","num_feature":"10","num_nodes":"1","size_leaf_vector":"1"}},{"base_weights":[-9.9903005E-8],"categories":[],"categories_nodes":[],"categories_segments":[],"categories_sizes":[],"default_left":[0],"id":19,"left_children":[-1],"loss_changes":[0E0],"parents":[2147483647],"right_children":[-1],"split_conditions":[-2.9970902E-8],"split_indices":[0],"split_type":[0],"sum_hessian":[1.707E3],"tree_param":{"num_deleted":"0","num_feature":"10","num_nodes":"1","size_leaf_vector":"1"}},{"base_weights":[-6.997964E-8],"categories":[],"categories_nodes":[],"categories_segments":[],"categories_sizes":[],"default_left":[0],"id":20,"left_children":[-1],"loss_changes":[0E0],"parents":[2147483647],"right_children":[-1],"split_conditions":[-2.0993893E-8],"split_indices":[0],"split_type":[0],"sum_hessian":[1.707E3],"tree_param":{"num_deleted":"0","num_feature":"10","num_nodes":"1","size_leaf_vector":"1"}},{"base_weights":[-4.8995776E-8],"categories":[],"categories_nodes":[],"categories_segments":[],"categories_sizes":[],"default_left":[0],"id":21,"left_children":[-1],"loss_changes":[0E0],"parents":[2147483647],"right_children":[-1],"split_conditions":[-1.4698734E-8],"split_indices":[0],"split_type":[0],"sum_hessian":[1.707E3],"tree_param":{"num_deleted":"0","num_feature":"10","num_nodes":"1","size_leaf_vector":"1"}},{"base_weights":[-3.427697E-8],"categories":[],"categories_nodes":[],"categories_segments":[],"categories_sizes":[],"default_left":[0],"id":22,"left_children":[-1],"loss_changes":[0E0],"parents":[2147483647],"right_children":[-1],"split_conditions":[-1.0283091E-8],"split_indices":[0],"split_type":[0],"sum_hessian":[1.707E3],"tree_param":{"num_deleted":"0","num_feature":"10","num_nodes":"1","size_leaf_vector":"1"}},{"base_weights":[-2.402605E-8],"categories":[],"categories_nodes":[],"categories_segments":[],"categories_sizes":[],"default_left":[0],"id":23,"left_children":[-1],"loss_changes":[0E0],"parents":[2147483647],"right_children":[-1],"split_conditions":[-7.2078152E-9],"split_indices":[0],"split_type":[0],"sum_hessian":[1.707E3],"tree_param":{"num_deleted":"0","num_feature":"10","num_nodes":"1","size_leaf_vector":"1"}},{"base_weights":[-1.6830791E-8],"categories":[],"categories_nodes":[],"categories_segments":[],"categories_sizes":[],"default_left":[0],"id":24,"left_children":[-1],"loss_changes":[0E0],"parents":[2147483647],"right_children":[-1],"split_conditions":[-5.0492375E-9],"split_indices":[0],"split_type":[0],"sum_hessian":[1.707E3],"tree_param":{"num_deleted":"0","num_feature":"10","num_nodes":"1","size_leaf_vector":"1"}},{"base_weights":[-1.1790069E-8],"categories":[],"categories_nodes":[],"categories_segments":[],"categories_sizes":[],"default_left":[0],"id":25,"left_children":[-1],"loss_changes":[0E0],"parents":[2147483647],"right_children":[-1],"split_conditions":[-3.537021E-9],"split_indices":[0],"split_type":[0],"sum_hessian":[1.707E3],"tree_param":{"num_deleted":"0","num_feature":"10","num_nodes":"1","size_leaf_vector":"1"}},{"base_weights":[-8.237629E-9],"categories":[],"categories_nodes":[],"categories_segments":[],"categories_sizes":[],"default_left":[0],"id":26,"left_children":[-1],"loss_changes":[0E0],"parents":[2147483647],"right_children":[-1],"split_conditions":[-2.471289E-9],"split_indices":[0],"split_type":[0],"sum_hessian":[1.707E3],"tree_param":{"num_deleted":"0","num_feature":"10","num_nodes":"1","size_leaf_vector":"1"}},{"base_weights":[-5.7524923E-9],"categories":[],"categories_nodes":[],"categories_segments":[],"categories_sizes":[],"default_left":[0],"id":27,"left_children":[-1],"loss_changes":[0E0],"parents":[2147483647],"right_children":[-1],"split_conditions":[-1.7257478E-9],"split_indices":[0],"split_type":[0],"sum_hessian":[1.707E3],"tree_param":{"num_deleted":"0","num_feature":"10","num_nodes":"1","size_leaf_vector":"1"}},{"base_weights":[-4.018303E-9],"categories":[],"categories_nodes":[],"categories_segments":[],"categories_sizes":[],"default_left":[0],"id":28,"left_children":[-1],"loss_changes":[0E0],"parents":[2147483647],"right_children":[-1],"split_conditions":[-1.2054909E-9],"split_indices":[0],"split_type":[0],"sum_hessian":[1.707E3],"tree_param":{"num_deleted":"0","num_feature":"10","num_nodes":"1","size_leaf_vector":"1"}},{"base_weights":[-2.8242324E-9],"categories":[],"categories_nodes":[],"categories_segments":[],"categories_sizes":[],"default_left":[0],"id":29,"left_children":[-1],"loss_changes":[0E0],"parents":[2147483647],"right_children":[-1],"split_conditions":[-8.4726975E-10],"split_indices":[0],"split_type":[0],"sum_hessian":[1.707E3],"tree_param":{"num_deleted":"0","num_feature":"10","num_nodes":"1","size_leaf_vector":"1"}},{"base_weights":[-1.944604E-9],"categories":[],"categories_nodes":[],"categories_segments":[],"categories_sizes":[],"default_left":[0],"id":30,"left_children":[-1],"loss_changes":[0E0],"parents":[2147483647],"right_children":[-1],"split_conditions":[-5.8338123E-10],"split_indices":[0],"split_type":[0],"sum_hessian":[1.707E3],"tree_param":{"num_deleted":"0","num_feature":"10","num_nodes":"1","size_leaf_vector":"1"}},{"base_weights":[-1.3247664E-9],"categories":[],"categories_nodes":[],"categories_segments":[],"categories_sizes":[],"default_left":[0],"id":31,"left_children":[-1],"loss_changes":[0E0],"parents":[2147483647],"right_children":[-1],"split_conditions":[-3.9742995E-10],"split_indices":[0],"split_type":[0],"sum_hessian":[1.707E3],"tree_param":{"num_deleted":"0","num_feature":"10","num_nodes":"1","size_leaf_vector":"1"}},{"base_weights":[-9.372417E-10],"categories":[],"categories_nodes":[],"categories_segments":[],"categories_sizes":[],"default_left":[0],"id":32,"left_children":[-1],"loss_changes":[0E0],"parents":[2147483647],"right_children":[-1],"split_conditions":[-2.8117253E-10],"split_indices":[0],"split_type":[0],"sum_hessian":[1.707E3],"tree_param":{"num_deleted":"0","num_feature":"10","num_nodes":"1","size_leaf_vector":"1"}},{"base_weights":[-6.725341E-10],"categories":[],"categories_nodes":[],"categories_segments":[],"categories_sizes":[],"default_left":[0],"id":33,"left_children":[-1],"loss_changes":[0E0],"parents":[2147483647],"right_children":[-1],"split_conditions":[-2.0176023E-10],"split_indices":[0],"split_type":[0],"sum_hessian":[1.707E3],"tree_param":{"num_deleted":"0","num_feature":"10","num_nodes":"1","size_leaf_vector":"1"}},{"base_weights":[-5.000826E-10],"categories":[],"categories_nodes":[],"categories_segments":[],"categories_sizes":[],"default_left":[0],"id":34,"left_children":[-1],"loss_changes":[0E0],"parents":[2147483647],"right_children":[-1],"split_conditions":[-1.5002478E-10],"split_indices":[0],"split_type":[0],"sum_hessian":[1.707E3],"tree_param":{"num_deleted":"0","num_feature":"10","num_nodes":"1","size_leaf_vector":"1"}},{"base_weights":[-3.6539322E-10],"categories":[],"categories_nodes":[],"categories_segments":[],"categories_sizes":[],"default_left":[0],"id":35,"left_children":[-1],"loss_changes":[0E0],"parents":[2147483647],"right_children":[-1],"split_conditions":[-1.0961797E-10],"split_indices":[0],"split_type":[0],"sum_hessian":[1.707E3],"tree_param":{"num_deleted":"0","num_feature":"10","num_nodes":"1","size_leaf_vector":"1"}},{"base_weights":[-3.0458275E-10],"categories":[],"categories_nodes":[],"categories_segments":[],"categories_sizes":[],"default_left":[0],"id":36,"left_children":[-1],"loss_changes":[0E0],"parents":[2147483647],"right_children":[-1],"split_conditions":[-9.137483E-11],"split_indices":[0],"split_type":[0],"sum_hessian":[1.707E3],"tree_param":{"num_deleted":"0","num_feature":"10","num_nodes":"1","size_leaf_vector":"1"}},{"base_weights":[-2.4908228E-10],"categories":[],"categories_nodes":[],"categories_segments":[],"categories_sizes":[],"default_left":[0],"id":37,"left_children":[-1],"loss_changes":[0E0],"parents":[2147483647],"right_children":[-1],"split_conditions":[-7.4724685E-11],"split_indices":[0],"split_type":[0],"sum_hessian":[1.707E3],"tree_param":{"num_deleted":"0","num_feature":"10","num_nodes":"1","size_leaf_vector":"1"}},{"base_weights":[-2.0057127E-10],"categories":[],"categories_nodes":[],"categories_segments":[],"categories_sizes":[],"default_left":[0],"id":38,"left_children":[-1],"loss_changes":[0E0],"parents":[2147483647],"right_children":[-1],"split_conditions":[-6.017138E-11],"split_indices":[0],"split_type":[0],"sum_hessian":[1.707E3],"tree_param":{"num_deleted":"0","num_feature":"10","num_nodes":"1","size_leaf_vector":"1"}},{"base_weights":[-1.5422857E-10],"categories":[],"categories_nodes":[],"categories_segments":[],"categories_sizes":[],"default_left":[0],"id":39,"left_children":[-1],"loss_changes":[0E0],"parents":[2147483647],"right_children":[-1],"split_conditions":[-4.6268576E-11],"split_indices":[0],"split_type":[0],"sum_hessian":[1.707E3],"tree_param":{"num_deleted":"0","num_feature":"10","num_nodes":"1","size_leaf_vector":"1"}},{"base_weights":[-1.4119958E-10],"categories":[],"categories_nodes":[],"categories_segments":[],"categories_sizes":[],"default_left":[0],"id":40,"left_children":[-1],"loss_changes":[0E0],"parents":[2147483647],"right_children":[-1],"split_conditions":[-4.2359876E-11],"split_indices":[0],"split_type":[0],"sum_hessian":[1.707E3],"tree_param":{"num_deleted":"0","num_feature":"10","num_nodes":"1","size_leaf_vector":"1"}},{"base_weights":[-1.2956253E-10],"categories":[],"categories_nodes":[],"categories_segments":[],"categories_sizes":[],"default_left":[0],"id":41,"left_children":[-1],"loss_changes":[0E0],"parents":[2147483647],"right_children":[-1],"split_conditions":[-3.886876E-11],"split_indices":[0],"split_type":[0],"sum_hessian":[1.707E3],"tree_param":{"num_deleted":"0","num_feature":"10","num_nodes":"1","size_leaf_vector":"1"}},{"base_weights":[-1.178424E-10],"categories":[],"categories_nodes":[],"categories_segments":[],"categories_sizes":[],"default_left":[0],"id":42,"left_children":[-1],"loss_changes":[0E0],"parents":[2147483647],"right_children":[-1],"split_conditions":[-3.535272E-11],"split_indices":[0],"split_type":[0],"sum_hessian":[1.707E3],"tree_param":{"num_deleted":"0","num_feature":"10","num_nodes":"1","size_leaf_vector":"1"}},{"base_weights":[-1.0705626E-10],"categories":[],"categories_nodes":[],"categories_segments":[],"categories_sizes":[],"default_left":[0],"id":43,"left_children":[-1],"loss_changes":[0E0],"parents":[2147483647],"right_children":[-1],"split_conditions":[-3.211688E-11],"split_indices":[0],"split_type":[0],"sum_hessian":[1.707E3],"tree_param":{"num_deleted":"0","num_feature":"10","num_nodes":"1","size_leaf_vector":"1"}},{"base_weights":[-9.617853E-11],"categories":[],"categories_nodes":[],"categories_segments":[],"categories_sizes":[],"default_left":[0],"id":44,"left_children":[-1],"loss_changes":[0E0],"parents":[2147483647],"right_children":[-1],"split_conditions":[-2.885356E-11],"split_indices":[0],"split_type":[0],"sum_hessian":[1.707E3],"tree_param":{"num_deleted":"0","num_feature":"10","num_nodes":"1","size_leaf_vector":"1"}},{"base_weights":[-9.224236E-11],"categories":[],"categories_nodes":[],"categories_segments":[],"categories_sizes":[],"default_left":[0],"id":45,"left_children":[-1],"loss_changes":[0E0],"parents":[2147483647],"right_children":[-1],"split_conditions":[-2.767271E-11],"split_indices":[0],"split_type":[0],"sum_hessian":[1.707E3],"tree_param":{"num_deleted":"0","num_feature":"10","num_nodes":"1","size_leaf_vector":"1"}},{"base_weights":[-8.78312E-11],"categories":[],"categories_nodes":[],"categories_segments":[],"categories_sizes":[],"default_left":[0],"id":46,"left_children":[-1],"loss_changes":[0E0],"parents":[2147483647],"right_children":[-1],"split_conditions":[-2.6349362E-11],"split_indices":[0],"split_type":[0],"sum_hessian":[1.707E3],"tree_param":{"num_deleted":"0","num_feature":"10","num_nodes":"1","size_leaf_vector":"1"}},{"base_weights":[-8.417512E-11],"categories":[],"categories_nodes":[],"categories_segments":[],"categories_sizes":[],"default_left":[0],"id":47,"left_children":[-1],"loss_changes":[0E0],"parents":[2147483647],"right_children":[-1],"split_conditions":[-2.5252536E-11],"split_indices":[0],"split_type":[0],"sum_hessian":[1.707E3],"tree_param":{"num_deleted":"0","num_feature":"10","num_nodes":"1","size_leaf_vector":"1"}},{"base_weights":[-8.0089844E-11],"categories":[],"categories_nodes":[],"categories_segments":[],"categories_sizes":[],"default_left":[0],"id":48,"left_children":[-1],"loss_changes":[0E0],"parents":[2147483647],"right_children":[-1],"split_conditions":[-2.4026954E-11],"split_indices":[0],"split_type":[0],"sum_hessian":[1.707E3],"tree_param":{"num_deleted":"0","num_feature":"10","num_nodes":"1","size_leaf_vector":"1"}},{"base_weights":[-7.608871E-11],"categories":[],"categories_nodes":[],"categories_segments":[],"categories_sizes":[],"default_left":[0],"id":49,"left_children":[-1],"loss_changes":[0E0],"parents":[2147483647],"right_children":[-1],"split_conditions":[-2.2826614E-11],"split_indices":[0],"split_type":[0],"sum_hessian":[1.707E3],"tree_param":{"num_deleted":"0","num_feature":"10","num_nodes":"1","size_leaf_vector":"1"}},{"base_weights":[-7.2227085E-11],"categories":[],"categories_nodes":[],"categories_segments":[],"categories_sizes":[],"default_left":[0],"id":50,"left_children":[-1],"loss_changes":[0E0],"parents":[2147483647],"right_children":[-1],"split_conditions":[-2.1668126E-11],"split_indices":[0],"split_type":[0],"sum_hessian":[1.707E3],"tree_param":{"num_deleted":"0","num_feature":"10","num_nodes":"1","size_leaf_vector":"1"}},{"base_weights":[-6.926217E-11],"categories":[],"categories_nodes":[],"categories_segments":[],"categories_sizes":[],"default_left":[0],"id":51,"left_children":[-1],"loss_changes":[0E0],"parents":[2147483647],"right_children":[-1],"split_conditions":[-2.0778653E-11],"split_indices":[0],"split_type":[0],"sum_hessian":[1.707E3],"tree_param":{"num_deleted":"0","num_feature":"10","num_nodes":"1","size_leaf_vector":"1"}},{"base_weights":[-6.6282355E-11],"categories":[],"categories_nodes":[],"categories_segments":[],"categories_sizes":[],"default_left":[0],"id":52,"left_children":[-1],"loss_changes":[0E0],"parents":[2147483647],"right_children":[-1],"split_conditions":[-1.9884707E-11],"split_indices":[0],"split_type":[0],"sum_hessian":[1.707E3],"tree_param":{"num_deleted":"0","num_feature":"10","num_nodes":"1","size_leaf_vector":"1"}},{"base_weights":[-6.3173675E-11],"categories":[],"categories_nodes":[],"categories_segments":[],"categories_sizes":[],"default_left":[0],"id":53,"left_children":[-1],"loss_changes":[0E0],"parents":[2147483647],"right_children":[-1],"split_conditions":[-1.8952104E-11],"split_indices":[0],"split_type":[0],"sum_hessian":[1.707E3],"tree_param":{"num_deleted":"0","num_feature":"10","num_nodes":"1","size_leaf_vector":"1"}},{"base_weights":[-5.9747624E-11],"categories":[],"categories_nodes":[],"categories_segments":[],"categories_sizes":[],"default_left":[0],"id":54,"left_children":[-1],"loss_changes":[0E0],"parents":[2147483647],"right_children":[-1],"split_conditions":[-1.7924287E-11],"split_indices":[0],"split_type":[0],"sum_hessian":[1.707E3],"tree_param":{"num_deleted":"0","num_feature":"10","num_nodes":"1","size_leaf_vector":"1"}},{"base_weights":[-5.6727335E-11],"categories":[],"categories_nodes":[],"categories_segments":[],"categories_sizes":[],"default_left":[0],"id":55,"left_children":[-1],"loss_changes":[0E0],"parents":[2147483647],"right_children":[-1],"split_conditions":[-1.7018201E-11],"split_indices":[0],"split_type":[0],"sum_hessian":[1.707E3],"tree_param":{"num_deleted":"0","num_feature":"10","num_nodes":"1","size_leaf_vector":"1"}},{"base_weights":[-5.3467425E-11],"categories":[],"categories_nodes":[],"categories_segments":[],"categories_sizes":[],"default_left":[0],"id":56,"left_children":[-1],"loss_changes":[0E0],"parents":[2147483647],"right_children":[-1],"split_conditions":[-1.6040228E-11],"split_indices":[0],"split_type":[0],"sum_hessian":[1.707E3],"tree_param":{"num_deleted":"0","num_feature":"10","num_nodes":"1","size_leaf_vector":"1"}},{"base_weights":[-5.0737876E-11],"categories":[],"categories_nodes":[],"categories_segments":[],"categories_sizes":[],"default_left":[0],"id":57,"left_children":[-1],"loss_changes":[0E0],"parents":[2147483647],"right_children":[-1],"split_conditions":[-1.5221364E-11],"split_indices":[0],"split_type":[0],"sum_hessian":[1.707E3],"tree_param":{"num_deleted":"0","num_feature":"10","num_nodes":"1","size_leaf_vector":"1"}},{"base_weights":[-4.7892246E-11],"categories":[],"categories_nodes":[],"categories_segments":[],"categories_sizes":[],"default_left":[0],"id":58,"left_children":[-1],"loss_changes":[0E0],"parents":[2147483647],"right_children":[-1],"split_conditions":[-1.4367675E-11],"split_indices":[0],"split_type":[0],"sum_hessian":[1.707E3],"tree_param":{"num_deleted":"0","num_feature":"10","num_nodes":"1","size_leaf_vector":"1"}},{"base_weights":[-4.6869862E-11],"categories":[],"categories_nodes":[],"categories_segments":[],"categories_sizes":[],"default_left":[0],"id":59,"left_children":[-1],"loss_changes":[0E0],"parents":[2147483647],"right_children":[-1],"split_conditions":[-1.4060959E-11],"split_indices":[0],"split_type":[0],"sum_hessian":[1.707E3],"tree_param":{"num_deleted":"0","num_feature":"10","num_nodes":"1","size_leaf_vector":"1"}},{"base_weights":[-4.566004E-11],"categories":[],"categories_nodes":[],"categories_segments":[],"categories_sizes":[],"default_left":[0],"id":60,"left_children":[-1],"loss_changes":[0E0],"parents":[2147483647],"right_children":[-1],"split_conditions":[-1.3698013E-11],"split_indices":[0],"split_type":[0],"sum_hessian":[1.707E3],"tree_param":{"num_deleted":"0","num_feature":"10","num_nodes":"1","size_leaf_vector":"1"}},{"base_weights":[-4.4416144E-11],"categories":[],"categories_nodes":[],"categories_segments":[],"categories_sizes":[],"default_left":[0],"id":61,"left_children":[-1],"loss_changes":[0E0],"parents":[2147483647],"right_children":[-1],"split_conditions":[-1.3324844E-11],"split_indices":[0],"split_type":[0],"sum_hessian":[1.707E3],"tree_param":{"num_deleted":"0","num_feature":"10","num_nodes":"1","size_leaf_vector":"1"}},{"base_weights":[-4.3192477E-11],"categories":[],"categories_nodes":[],"categories_segments":[],"categories_sizes":[],"default_left":[0],"id":62,"left_children":[-1],"loss_changes":[0E0],"parents":[2147483647],"right_children":[-1],"split_conditions":[-1.2957743E-11],"split_indices":[0],"split_type":[0],"sum_hessian":[1.707E3],"tree_param":{"num_deleted":"0","num_feature":"10","num_nodes":"1","size_leaf_vector":"1"}},{"base_weights":[-4.2000764E-11],"categories":[],"categories_nodes":[],"categories_segments":[],"categories_sizes":[],"default_left":[0],"id":63,"left_children":[-1],"loss_changes":[0E0],"parents":[2147483647],"right_children":[-1],"split_conditions":[-1.260023E-11],"split_indices":[0],"split_type":[0],"sum_hessian":[1.707E3],"tree_param":{"num_deleted":"0","num_feature":"10","num_nodes":"1","size_leaf_vector":"1"}},{"base_weights":[-4.0813308E-11],"categories":[],"categories_nodes":[],"categories_segments":[],"categories_sizes":[],"default_left":[0],"id":64,"left_children":[-1],"loss_changes":[0E0],"parents":[2147483647],"right_children":[-1],"split_conditions":[-1.2243993E-11],"split_indices":[0],"split_type":[0],"sum_hessian":[1.707E3],"tree_param":{"num_deleted":"0","num_feature":"10","num_nodes":"1","size_leaf_vector":"1"}},{"base_weights":[-3.9581123E-11],"categories":[],"categories_nodes":[],"categories_segments":[],"categories_sizes":[],"default_left":[0],"id":65,"left_children":[-1],"loss_changes":[0E0],"parents":[2147483647],"right_children":[-1],"split_conditions":[-1.18743375E-11],"split_indices":[0],"split_type":[0],"sum_hessian":[1.707E3],"tree_param":{"num_deleted":"0","num_feature":"10","num_nodes":"1","size_leaf_vector":"1"}},{"base_weights":[-3.86056E-11],"categories":[],"categories_nodes":[],"categories_segments":[],"categories_sizes":[],"default_left":[0],"id":66,"left_children":[-1],"loss_changes":[0E0],"parents":[2147483647],"right_children":[-1],"split_conditions":[-1.1581681E-11],"split_indices":[0],"split_type":[0],"sum_hessian":[1.707E3],"tree_param":{"num_deleted":"0","num_feature":"10","num_nodes":"1","size_leaf_vector":"1"}},{"base_weights":[-3.789632E-11],"categories":[],"categories_nodes":[],"categories_segments":[],"categories_sizes":[],"default_left":[0],"id":67,"left_children":[-1],"loss_changes":[0E0],"parents":[2147483647],"right_children":[-1],"split_conditions":[-1.1368897E-11],"split_indices":[0],"split_type":[0],"sum_hessian":[1.707E3],"tree_param":{"num_deleted":"0","num_feature":"10","num_nodes":"1","size_leaf_vector":"1"}},{"base_weights":[-3.6730168E-11],"categories":[],"categories_nodes":[],"categories_segments":[],"categories_sizes":[],"default_left":[0],"id":68,"left_children":[-1],"loss_changes":[0E0],"parents":[2147483647],"right_children":[-1],"split_conditions":[-1.1019051E-11],"split_indices":[0],"split_type":[0],"sum_hessian":[1.707E3],"tree_param":{"num_deleted":"0","num_feature":"10","num_nodes":"1","size_leaf_vector":"1"}},{"base_weights":[-3.5462838E-11],"categories":[],"categories_nodes":[],"categories_segments":[],"categories_sizes":[],"default_left":[0],"id":69,"left_children":[-1],"loss_changes":[0E0],"parents":[2147483647],"right_children":[-1],"split_conditions":[-1.0638852E-11],"split_indices":[0],"split_type":[0],"sum_hessian":[1.707E3],"tree_param":{"num_deleted":"0","num_feature":"10","num_nodes":"1","size_leaf_vector":"1"}},{"base_weights":[-3.4382948E-11],"categories":[],"categories_nodes":[],"categories_segments":[],"categories_sizes":[],"default_left":[0],"id":70,"left_children":[-1],"loss_changes":[0E0],"parents":[2147483647],"right_children":[-1],"split_conditions":[-1.0314884E-11],"split_indices":[0],"split_type":[0],"sum_hessian":[1.707E3],"tree_param":{"num_deleted":"0","num_feature":"10","num_nodes":"1","size_leaf_vector":"1"}},{"base_weights":[-3.3346718E-11],"categories":[],"categories_nodes":[],"categories_segments":[],"categories_sizes":[],"default_left":[0],"id":71,"left_children":[-1],"loss_changes":[0E0],"parents":[2147483647],"right_children":[-1],"split_conditions":[-1.0004016E-11],"split_indices":[0],"split_type":[0],"sum_hessian":[1.707E3],"tree_param":{"num_deleted":"0","num_feature":"10","num_nodes":"1","size_leaf_vector":"1"}},{"base_weights":[-3.2407407E-11],"categories":[],"categories_nodes":[],"categories_segments":[],"categories_sizes":[],"default_left":[0],"id":72,"left_children":[-1],"loss_changes":[0E0],"parents":[2147483647],"right_children":[-1],"split_conditions":[-9.722222E-12],"split_indices":[0],"split_type":[0],"sum_hessian":[1.707E3],"tree_param":{"num_deleted":"0","num_feature":"10","num_nodes":"1","size_leaf_vector":"1"}},{"base_weights":[-3.137011E-11],"categories":[],"categories_nodes":[],"categories_segments":[],"categories_sizes":[],"default_left":[0],"id":73,"left_children":[-1],"loss_changes":[0E0],"parents":[2147483647],"right_children":[-1],"split_conditions":[-9.411034E-12],"split_indices":[0],"split_type":[0],"sum_hessian":[1.707E3],"tree_param":{"num_deleted":"0","num_feature":"10","num_nodes":"1","size_leaf_vector":"1"}},{"base_weights":[-3.0349858E-11],"categories":[],"categories_nodes":[],"categories_segments":[],"categories_sizes":[],"default_left":[0],"id":74,"left_children":[-1],"loss_changes":[0E0],"parents":[2147483647],"right_children":[-1],"split_conditions":[-9.104958E-12],"split_indices":[0],"split_type":[0],"sum_hessian":[1.707E3],"tree_param":{"num_deleted":"0","num_feature":"10","num_nodes":"1","size_leaf_vector":"1"}},{"base_weights":[-2.963845E-11],"categories":[],"categories_nodes":[],"categories_segments":[],"categories_sizes":[],"default_left":[0],"id":75,"left_children":[-1],"loss_changes":[0E0],"parents":[2147483647],"right_children":[-1],"split_conditions":[-8.891536E-12],"split_indices":[0],"split_type":[0],"sum_hessian":[1.707E3],"tree_param":{"num_deleted":"0","num_feature":"10","num_nodes":"1","size_leaf_vector":"1"}},{"base_weights":[-2.854791E-11],"categories":[],"categories_nodes":[],"categories_segments":[],"categories_sizes":[],"default_left":[0],"id":76,"left_children":[-1],"loss_changes":[0E0],"parents":[2147483647],"right_children":[-1],"split_conditions":[-8.564373E-12],"split_indices":[0],"split_type":[0],"sum_hessian":[1.707E3],"tree_param":{"num_deleted":"0","num_feature":"10","num_nodes":"1","size_leaf_vector":"1"}},{"base_weights":[-2.7481862E-11],"categories":[],"categories_nodes":[],"categories_segments":[],"categories_sizes":[],"default_left":[0],"id":77,"left_children":[-1],"loss_changes":[0E0],"parents":[2147483647],"right_children":[-1],"split_conditions":[-8.244559E-12],"split_indices":[0],"split_type":[0],"sum_hessian":[1.707E3],"tree_param":{"num_deleted":"0","num_feature":"10","num_nodes":"1","size_leaf_vector":"1"}},{"base_weights":[-2.6635203E-11],"categories":[],"categories_nodes":[],"categories_segments":[],"categories_sizes":[],"default_left":[0],"id":78,"left_children":[-1],"loss_changes":[0E0],"parents":[2147483647],"right_children":[-1],"split_conditions":[-7.990561E-12],"split_indices":[0],"split_type":[0],"sum_hessian":[1.707E3],"tree_param":{"num_deleted":"0","num_feature":"10","num_nodes":"1","size_leaf_vector":"1"}},{"base_weights":[-2.5808775E-11],"categories":[],"categories_nodes":[],"categories_segments":[],"categories_sizes":[],"default_left":[0],"id":79,"left_children":[-1],"loss_changes":[0E0],"parents":[2147483647],"right_children":[-1],"split_conditions":[-7.742633E-12],"split_indices":[0],"split_type":[0],"sum_hessian":[1.707E3],"tree_param":{"num_deleted":"0","num_feature":"10","num_nodes":"1","size_leaf_vector":"1"}},{"base_weights":[-2.4769353E-11],"categories":[],"categories_nodes":[],"categories_segments":[],"categories_sizes":[],"default_left":[0],"id":80,"left_children":[-1],"loss_changes":[0E0],"parents":[2147483647],"right_children":[-1],"split_conditions":[-7.430806E-12],"split_indices":[0],"split_type":[0],"sum_hessian":[1.707E3],"tree_param":{"num_deleted":"0","num_feature":"10","num_nodes":"1","size_leaf_vector":"1"}},{"base_weights":[-2.369585E-11],"categories":[],"categories_nodes":[],"categories_segments":[],"categories_sizes":[],"default_left":[0],"id":81,"left_children":[-1],"loss_changes":[0E0],"parents":[2147483647],"right_children":[-1],"split_conditions":[-7.1087554E-12],"split_indices":[0],"split_type":[0],"sum_hessian":[1.707E3],"tree_param":{"num_deleted":"0","num_feature":"10","num_nodes":"1","size_leaf_vector":"1"}},{"base_weights":[-2.3397657E-11],"categories":[],"categories_nodes":[],"categories_segments":[],"categories_sizes":[],"default_left":[0],"id":82,"left_children":[-1],"loss_changes":[0E0],"parents":[2147483647],"right_children":[-1],"split_conditions":[-7.0192975E-12],"split_indices":[0],"split_type":[0],"sum_hessian":[1.707E3],"tree_param":{"num_deleted":"0","num_feature":"10","num_nodes":"1","size_leaf_vector":"1"}},{"base_weights":[-2.3082421E-11],"categories":[],"categories_nodes":[],"categories_segments":[],"categories_sizes":[],"default_left":[0],"id":83,"left_children":[-1],"loss_changes":[0E0],"parents":[2147483647],"right_children":[-1],"split_conditions":[-6.924727E-12],"split_indices":[0],"split_type":[0],"sum_hessian":[1.707E3],"tree_param":{"num_deleted":"0","num_feature":"10","num_nodes":"1","size_leaf_vector":"1"}},{"base_weights":[-2.2826825E-11],"categories":[],"categories_nodes":[],"categories_segments":[],"categories_sizes":[],"default_left":[0],"id":84,"left_children":[-1],"loss_changes":[0E0],"parents":[2147483647],"right_children":[-1],"split_conditions":[-6.8480477E-12],"split_indices":[0],"split_type":[0],"sum_hessian":[1.707E3],"tree_param":{"num_deleted":"0","num_feature":"10","num_nodes":"1","size_leaf_vector":"1"}},{"base_weights":[-2.260531E-11],"categories":[],"categories_nodes":[],"categories_segments":[],"categories_sizes":[],"default_left":[0],"id":85,"left_children":[-1],"loss_changes":[0E0],"parents":[2147483647],"right_children":[-1],"split_conditions":[-6.781593E-12],"split_indices":[0],"split_type":[0],"sum_hessian":[1.707E3],"tree_param":{"num_deleted":"0","num_feature":"10","num_nodes":"1","size_leaf_vector":"1"}},{"base_weights":[-2.2341195E-11],"categories":[],"categories_nodes":[],"categories_segments":[],"categories_sizes":[],"default_left":[0],"id":86,"left_children":[-1],"loss_changes":[0E0],"parents":[2147483647],"right_children":[-1],"split_conditions":[-6.7023587E-12],"split_indices":[0],"split_type":[0],"sum_hessian":[1.707E3],"tree_param":{"num_deleted":"0","num_feature":"10","num_nodes":"1","size_leaf_vector":"1"}},{"base_weights":[-2.2094118E-11],"categories":[],"categories_nodes":[],"categories_segments":[],"categories_sizes":[],"default_left":[0],"id":87,"left_children":[-1],"loss_changes":[0E0],"parents":[2147483647],"right_children":[-1],"split_conditions":[-6.6282357E-12],"split_indices":[0],"split_type":[0],"sum_hessian":[1.707E3],"tree_param":{"num_deleted":"0","num_feature":"10","num_nodes":"1","size_leaf_vector":"1"}},{"base_weights":[-2.176291E-11],"categories":[],"categories_nodes":[],"categories_segments":[],"categories_sizes":[],"default_left":[0],"id":88,"left_children":[-1],"loss_changes":[0E0],"parents":[2147483647],"right_children":[-1],"split_conditions":[-6.528873E-12],"split_indices":[0],"split_type":[0],"sum_hessian":[1.707E3],"tree_param":{"num_deleted":"0","num_feature":"10","num_nodes":"1","size_leaf_vector":"1"}},{"base_weights":[-2.1516898E-11],"categories":[],"categories_nodes":[],"categories_segments":[],"categories_sizes":[],"default_left":[0],"id":89,"left_children":[-1],"loss_changes":[0E0],"parents":[2147483647],"right_children":[-1],"split_conditions":[-6.4550696E-12],"split_indices":[0],"split_type":[0],"sum_hessian":[1.707E3],"tree_param":{"num_deleted":"0","num_feature":"10","num_nodes":"1","size_leaf_vector":"1"}},{"base_weights":[-2.1261302E-11],"categories":[],"categories_nodes":[],"categories_segments":[],"categories_sizes":[],"default_left":[0],"id":90,"left_children":[-1],"loss_changes":[0E0],"parents":[2147483647],"right_children":[-1],"split_conditions":[-6.378391E-12],"split_indices":[0],"split_type":[0],"sum_hessian":[1.707E3],"tree_param":{"num_deleted":"0","num_feature":"10","num_nodes":"1","size_leaf_vector":"1"}},{"base_weights":[-2.1039786E-11],"categories":[],"categories_nodes":[],"categories_segments":[],"categories_sizes":[],"default_left":[0],"id":91,"left_children":[-1],"loss_changes":[0E0],"parents":[2147483647],"right_children":[-1],"split_conditions":[-6.311936E-12],"split_indices":[0],"split_type":[0],"sum_hessian":[1.707E3],"tree_param":{"num_deleted":"0","num_feature":"10","num_nodes":"1","size_leaf_vector":"1"}},{"base_weights":[-2.0710707E-11],"categories":[],"categories_nodes":[],"categories_segments":[],"categories_sizes":[],"default_left":[0],"id":92,"left_children":[-1],"loss_changes":[0E0],"parents":[2147483647],"right_children":[-1],"split_conditions":[-6.2132127E-12],"split_indices":[0],"split_type":[0],"sum_hessian":[1.707E3],"tree_param":{"num_deleted":"0","num_feature":"10","num_nodes":"1","size_leaf_vector":"1"}},{"base_weights":[-2.0549895E-11],"categories":[],"categories_nodes":[],"categories_segments":[],"categories_sizes":[],"default_left":[0],"id":93,"left_children":[-1],"loss_changes":[0E0],"parents":[2147483647],"right_children":[-1],"split_conditions":[-6.1649687E-12],"split_indices":[0],"split_type":[0],"sum_hessian":[1.707E3],"tree_param":{"num_deleted":"0","num_feature":"10","num_nodes":"1","size_leaf_vector":"1"}},{"base_weights":[-2.0336897E-11],"categories":[],"categories_nodes":[],"categories_segments":[],"categories_sizes":[],"default_left":[0],"id":94,"left_children":[-1],"loss_changes":[0E0],"parents":[2147483647],"right_children":[-1],"split_conditions":[-6.1010693E-12],"split_indices":[0],"split_type":[0],"sum_hessian":[1.707E3],"tree_param":{"num_deleted":"0","num_feature":"10","num_nodes":"1","size_leaf_vector":"1"}},{"base_weights":[-2.0108993E-11],"categories":[],"categories_nodes":[],"categories_segments":[],"categories_sizes":[],"default_left":[0],"id":95,"left_children":[-1],"loss_changes":[0E0],"parents":[2147483647],"right_children":[-1],"split_conditions":[-6.032698E-12],"split_indices":[0],"split_type":[0],"sum_hessian":[1.707E3],"tree_param":{"num_deleted":"0","num_feature":"10","num_nodes":"1","size_leaf_vector":"1"}},{"base_weights":[-1.992475E-11],"categories":[],"categories_nodes":[],"categories_segments":[],"categories_sizes":[],"default_left":[0],"id":96,"left_children":[-1],"loss_changes":[0E0],"parents":[2147483647],"right_children":[-1],"split_conditions":[-5.977425E-12],"split_indices":[0],"split_type":[0],"sum_hessian":[1.707E3],"tree_param":{"num_deleted":"0","num_feature":"10","num_nodes":"1","size_leaf_vector":"1"}},{"base_weights":[-1.961058E-11],"categories":[],"categories_nodes":[],"categories_segments":[],"categories_sizes":[],"default_left":[0],"id":97,"left_children":[-1],"loss_changes":[0E0],"parents":[2147483647],"right_children":[-1],"split_conditions":[-5.8831746E-12],"split_indices":[0],"split_type":[0],"sum_hessian":[1.707E3],"tree_param":{"num_deleted":"0","num_feature":"10","num_nodes":"1","size_leaf_vector":"1"}},{"base_weights":[-1.9372025E-11],"categories":[],"categories_nodes":[],"categories_segments":[],"categories_sizes":[],"default_left":[0],"id":98,"left_children":[-1],"loss_changes":[0E0],"parents":[2147483647],"right_children":[-1],"split_conditions":[-5.8116077E-12],"split_indices":[0],"split_type":[0],"sum_hessian":[1.707E3],"tree_param":{"num_deleted":"0","num_feature":"10","num_nodes":"1","size_leaf_vector":"1"}},{"base_weights":[-1.9095128E-11],"categories":[],"categories_nodes":[],"categories_segments":[],"categories_sizes":[],"default_left":[0],"id":99,"left_children":[-1],"loss_changes":[0E0],"parents":[2147483647],"right_children":[-1],"split_conditions":[-5.7285387E-12],"split_indices":[0],"split_type":[0],"sum_hessian":[1.707E3],"tree_param":{"num_deleted":"0","num_feature":"10","num_nodes":"1","size_leaf_vector":"1"}}]},"name":"gbtree"},"learner_model_param":{"base_score":"5.538053E-4","boost_from_average":"1","num_class":"0","num_feature":"10","num_target":"1"},"objective":{"name":"reg:squarederror","reg_loss_param":{"scale_pos_weight":"1"}}},"version":[2,0,3]}