{"learner":{"attributes":{},"feature_names":["lstm_13_Y_pred","lstm_22_Y_pred","lstm_10_Y_pred","lstm_16_Y_pred","lstm_19_Y_pred","lstm_7_Y_pred","lstm_28_Y_pred","lstm_25_Y_pred","lstm_4_Y_pred","lstm_1_Y_pred"],"feature_types":["float","float","float","float","float","float","float","float","float","float"],"gradient_booster":{"model":{"gbtree_model_param":{"num_parallel_tree":"1","num_trees":"100"},"iteration_indptr":[0,1,2,3,4,5,6,7,8,9,10,11,12,13,14,15,16,17,18,19,20,21,22,23,24,25,26,27,28,29,30,31,32,33,34,35,36,37,38,39,40,41,42,43,44,45,46,47,48,49,50,51,52,53,54,55,56,57,58,59,60,61,62,63,64,65,66,67,68,69,70,71,72,73,74,75,76,77,78,79,80,81,82,83,84,85,86,87,88,89,90,91,92,93,94,95,96,97,98,99,100],"tree_info":[0,0,0,0,0,0,0,0,0,0,0,0,0,0,0,0,0,0,0,0,0,0,0,0,0,0,0,0,0,0,0,0,0,0,0,0,0,0,0,0,0,0,0,0,0,0,0,0,0,0,0,0,0,0,0,0,0,0,0,0,0,0,0,0,0,0,0,0,0,0,0,0,0,0,0,0,0,0,0,0,0,0,0,0,0,0,0,0,0,0,0,0,0,0,0,0,0,0,0,0],"trees":[{"base_weights":[-2.8268884E-11,-2.0430605E-3,2.2410993E-3,-5.9105875E-3,-1.3533771E-3,1.2596684E-3,6.619444E-3,-2.3136118E-3,-1.30998E-3,-2.188831E-3,-5.7174015E-4,7.4255234E-4,2.2999E-3,5.238156E-3,2.79945E-3,-2.7506922E-3,-1.7742731E-3,-8.8702596E-4,-2.4213098E-4,4.318397E-4,1.120679E-3,1.9310262E-3,2.9136196E-3,1.2995707E-3,1.7284217E-3,-9.024883E-4,-7.294653E-4,-5.9467135E-4,-4.5659216E-4,-2.767356E-4,-8.6329865E-6,-1.2575249E-4,-3.426379E-5,8.509614E-5,1.8692305E-4,3.4463982E-4,-1.6543292E-4,5.3878856E-4,7.004896E-4,8.944057E-4,4.7637204E-5],"categories":[],"categories_nodes":[],"categories_segments":[],"categories_sizes":[],"default_left":[0,0,0,0,0,0,0,0,0,0,0,0,0,0,0,0,0,0,0,0,0,0,0,0,0,0,0,0,0,0,0,0,0,0,0,0,0,0,0,0,0],"id":0,"left_children":[1,3,5,7,9,11,13,-1,-1,15,17,19,21,23,-1,25,27,29,31,33,35,37,39,-1,-1,-1,-1,-1,-1,-1,-1,-1,-1,-1,-1,-1,-1,-1,-1,-1,-1],"loss_changes":[7.825E-3,2.3766283E-3,3.4937523E-3,3.4181587E-4,4.95045E-4,3.5708514E-4,5.0929375E-4,0E0,0E0,8.060259E-5,4.0730127E-5,5.2033545E-5,4.440488E-5,2.2936147E-5,0E0,5.3457916E-6,8.211529E-6,6.0847524E-6,4.3456757E-6,6.822909E-6,1.0084623E-5,3.4991535E-6,1.4640507E-5,0E0,0E0,0E0,0E0,0E0,0E0,0E0,0E0,0E0,0E0,0E0,0E0,0E0,0E0,0E0,0E0,0E0,0E0],"parents":[2147483647,0,0,1,1,2,2,3,3,4,4,5,5,6,6,9,9,10,10,11,11,12,12,13,13,15,15,16,16,17,17,18,18,19,19,20,20,21,21,22,22],"right_children":[2,4,6,8,10,12,14,-1,-1,16,18,20,22,24,-1,26,28,30,32,34,36,38,40,-1,-1,-1,-1,-1,-1,-1,-1,-1,-1,-1,-1,-1,-1,-1,-1,-1,-1],"split_conditions":[1.7793849E-4,-3.4884717E-3,3.6743283E-3,-5.9961956E-3,-1.0900237E-3,1.5399959E-3,6.61687E-3,-2.3136118E-3,-1.30998E-3,-1.9688047E-3,-4.1723717E-4,8.4277056E-4,2.334686E-3,4.8151407E-3,2.79945E-3,-2.3898073E-3,-1.5566479E-3,6.714415E-3,-1.2478791E-4,5.243309E-4,3.2313429E-3,3.4732027E-3,6.733665E-3,1.2995707E-3,1.7284217E-3,-9.024883E-4,-7.294653E-4,-5.9467135E-4,-4.5659216E-4,-2.767356E-4,-8.6329865E-6,-1.2575249E-4,-3.426379E-5,8.509614E-5,1.8692305E-4,3.4463982E-4,-1.6543292E-4,5.3878856E-4,7.004896E-4,8.944057E-4,4.7637204E-5],"split_indices":[6,6,6,6,6,6,6,0,0,6,6,6,6,6,0,6,6,5,6,6,7,4,4,0,0,0,0,0,0,0,0,0,0,0,0,0,0,0,0,0,0],"split_type":[0,0,0,0,0,0,0,0,0,0,0,0,0,0,0,0,0,0,0,0,0,0,0,0,0,0,0,0,0,0,0,0,0,0,0,0,0,0,0,0,0],"sum_hessian":[1.707E3,8.93E2,8.14E2,1.34E2,7.59E2,6.66E2,1.48E2,6E1,7.4E1,3.66E2,3.93E2,4.46E2,2.2E2,1E2,4.8E1,1.53E2,2.13E2,2E2,1.93E2,2.46E2,2E2,1.4E2,8E1,4E1,6E1,8E1,7.3E1,1.13E2,1E2,1.92E2,8E0,8E1,1.13E2,1.4E2,1.06E2,1.97E2,3E0,1.09E2,3.1E1,7.8E1,2E0],"tree_param":{"num_deleted":"0","num_feature":"10","num_nodes":"41","size_leaf_vector":"1"}},{"base_weights":[9.998795E-7,-1.5195174E-3,1.4950569E-3,-4.53693E-3,-1.0770848E-3,8.6421234E-4,4.856299E-3,-1.6737239E-3,-3.3914642E-3,-1.7381181E-3,-5.523627E-4,5.1819277E-4,1.8122032E-3,4.0069288E-3,2.1313075E-3,-1.0302236E-3,-1.699381E-4,-2.2401141E-3,-1.4625776E-3,-9.970082E-4,-3.9414098E-4,2.7382554E-4,8.6304854E-4,1.4816271E-3,2.1481179E-3,1.0386225E-3,1.3677811E-3,-7.3173625E-4,-5.7135825E-4,-4.5857573E-4,-2.8463898E-4,-2.1511431E-4,-3.258094E-4,-1.6790265E-4,-7.560546E-5,4.011042E-5,1.2556226E-4,2.6653413E-4,-5.8542293E-5,-4.962349E-5,4.4992552E-4,5.760055E-4,7.482527E-4],"categories":[],"categories_nodes":[],"categories_segments":[],"categories_sizes":[],"default_left":[0,0,0,0,0,0,0,0,0,0,0,0,0,0,0,0,0,0,0,0,0,0,0,0,0,0,0,0,0,0,0,0,0,0,0,0,0,0,0,0,0,0,0],"id":1,"left_children":[1,3,5,7,9,11,13,-1,15,17,19,21,23,25,-1,-1,-1,27,29,31,33,35,37,39,41,-1,-1,-1,-1,-1,-1,-1,-1,-1,-1,-1,-1,-1,-1,-1,-1,-1,-1],"loss_changes":[3.882403E-3,1.1258598E-3,1.8236063E-3,1.10003166E-4,2.5571545E-4,2.37534E-4,2.3121643E-4,0E0,4.555506E-6,4.1954336E-5,2.8733004E-5,4.476463E-5,1.8360093E-5,1.4610938E-5,0E0,0E0,0E0,2.9680086E-6,5.8071746E-6,1.9129366E-6,7.0815004E-6,6.311364E-6,6.1130704E-6,3.2630924E-6,2.6311027E-6,0E0,0E0,0E0,0E0,0E0,0E0,0E0,0E0,0E0,0E0,0E0,0E0,0E0,0E0,0E0,0E0,0E0,0E0],"parents":[2147483647,0,0,1,1,2,2,3,3,4,4,5,5,6,6,8,8,9,9,10,10,11,11,12,12,13,13,17,17,18,18,19,19,20,20,21,21,22,22,23,23,24,24],"right_children":[2,4,6,8,10,12,14,-1,16,18,20,22,24,26,-1,-1,-1,28,30,32,34,36,38,40,42,-1,-1,-1,-1,-1,-1,-1,-1,-1,-1,-1,-1,-1,-1,-1,-1,-1,-1],"split_conditions":[7.1132556E-5,-3.909111E-3,3.8873963E-3,-6.2628575E-3,-1.3678651E-3,1.7432999E-3,8.0727115E-3,-1.6737239E-3,-1.6656145E-4,-2.3474712E-3,-9.726621E-4,9.294823E-4,2.334686E-3,5.4950267E-3,2.1313075E-3,-1.0302236E-3,-1.699381E-4,-2.772103E-3,3.6281124E-3,-8.50562E-4,-5.1095895E-4,4.6794116E-4,5.7890536E-3,-1.8286891E-3,3.3051893E-3,1.0386225E-3,1.3677811E-3,-7.3173625E-4,-5.7135825E-4,-4.5857573E-4,-2.8463898E-4,-2.1511431E-4,-3.258094E-4,-1.6790265E-4,-7.560546E-5,4.011042E-5,1.2556226E-4,2.6653413E-4,-5.8542293E-5,-4.962349E-5,4.4992552E-4,5.760055E-4,7.482527E-4],"split_indices":[6,6,6,6,6,6,6,0,1,6,6,6,6,6,0,0,0,6,5,7,6,6,2,9,6,0,0,0,0,0,0,0,0,0,0,0,0,0,0,0,0,0,0],"split_type":[0,0,0,0,0,0,0,0,0,0,0,0,0,0,0,0,0,0,0,0,0,0,0,0,0,0,0,0,0,0,0,0,0,0,0,0,0,0,0,0,0,0,0],"sum_hessian":[1.707E3,8.46E2,8.61E2,1.07E2,7.39E2,7.26E2,1.35E2,5.4E1,5.3E1,3.26E2,4.13E2,5.33E2,1.93E2,1E2,3.5E1,5.2E1,1E0,1.13E2,2.13E2,1.07E2,3.06E2,3.13E2,2.2E2,1E2,9.3E1,5.4E1,4.6E1,6.7E1,4.6E1,1.87E2,2.6E1,2.8E1,7.9E1,1.4E2,1.66E2,1.6E2,1.53E2,2.15E2,5E0,1E0,9.9E1,6E1,3.3E1],"tree_param":{"num_deleted":"0","num_feature":"10","num_nodes":"43","size_leaf_vector":"1"}},{"base_weights":[1.2451629E-6,-6.2097824E-4,1.8235702E-3,-2.040447E-3,-1.5456826E-4,1.1324501E-3,3.5874075E-3,-3.6983779E-3,-1.5160267E-3,-5.7957653E-4,2.0466054E-4,8.875618E-4,1.5913338E-3,2.8654032E-3,1.468329E-3,-1.2960439E-3,-9.2321885E-4,-5.585587E-4,-1.286131E-3,-7.8828767E-4,-3.554784E-4,5.2397678E-5,4.2112582E-4,7.654451E-4,1.125926E-3,1.3534554E-3,1.8604847E-3,4.2826502E-4,8.764672E-4,-4.1560334E-4,-2.8531457E-4,-2.2973197E-4,-4.904321E-4,-1.750467E-4,-8.416739E-5,-1.9202842E-5,4.5110344E-5,1.3297111E-4,-8.976333E-5,2.3390772E-4,2.583505E-5,7.328017E-5,3.6219246E-4,4.2372048E-4,-7.709135E-5,1.7459097E-4,5.7102623E-4],"categories":[],"categories_nodes":[],"categories_segments":[],"categories_sizes":[],"default_left":[0,0,0,0,0,0,0,0,0,0,0,0,0,0,0,0,0,0,0,0,0,0,0,0,0,0,0,0,0,0,0,0,0,0,0,0,0,0,0,0,0,0,0,0,0,0,0],"id":2,"left_children":[1,3,5,7,9,11,13,15,17,19,21,23,25,27,-1,-1,-1,-1,29,31,33,35,37,39,41,43,45,-1,-1,-1,-1,-1,-1,-1,-1,-1,-1,-1,-1,-1,-1,-1,-1,-1,-1,-1,-1],"loss_changes":[1.9378223E-3,8.4314187E-4,5.2621274E-4,2.6827073E-4,1.4668683E-4,3.3873395E-5,1.0110391E-4,1.5663216E-5,1.6766367E-5,2.0299354E-5,1.7149898E-5,5.163558E-6,4.3966575E-6,2.3693428E-6,0E0,0E0,0E0,0E0,3.602705E-6,3.0743395E-6,3.4919885E-6,3.510783E-6,3.5570301E-6,1.2878518E-6,4.5841734E-6,6.15359E-6,1.527209E-6,0E0,0E0,0E0,0E0,0E0,0E0,0E0,0E0,0E0,0E0,0E0,0E0,0E0,0E0,0E0,0E0,0E0,0E0,0E0,0E0],"parents":[2147483647,0,0,1,1,2,2,3,3,4,4,5,5,6,6,7,7,8,8,9,9,10,10,11,11,12,12,13,13,18,18,19,19,20,20,21,21,22,22,23,23,24,24,25,25,26,26],"right_children":[2,4,6,8,10,12,14,16,18,20,22,24,26,28,-1,-1,-1,-1,30,32,34,36,38,40,42,44,46,-1,-1,-1,-1,-1,-1,-1,-1,-1,-1,-1,-1,-1,-1,-1,-1,-1,-1,-1,-1],"split_conditions":[1.3167579E-3,-1.8427502E-3,4.3011513E-3,-4.921017E-3,-2.1353178E-4,2.334686E-3,7.4891504E-3,-7.395055E-3,-2.8466303E-3,-9.726621E-4,5.9194677E-4,1.9110385E-3,3.3051893E-3,3.1252615E-3,1.468329E-3,-1.2960439E-3,-9.2321885E-4,-5.585587E-4,-4.8667565E-4,1.037728E-3,-1.4656037E-3,1.7793849E-4,4.2473413E-3,7.710591E-3,-1.3032928E-3,6.733665E-3,7.181093E-4,4.2826502E-4,8.764672E-4,-4.1560334E-4,-2.8531457E-4,-2.2973197E-4,-4.904321E-4,-1.750467E-4,-8.416739E-5,-1.9202842E-5,4.5110344E-5,1.3297111E-4,-8.976333E-5,2.3390772E-4,2.583505E-5,7.328017E-5,3.6219246E-4,4.2372048E-4,-7.709135E-5,1.7459097E-4,5.7102623E-4],"split_indices":[6,6,6,6,6,6,6,6,6,6,6,6,6,1,0,0,0,0,0,7,5,6,3,5,5,4,3,0,0,0,0,0,0,0,0,0,0,0,0,0,0,0,0,0,0,0,0],"split_type":[0,0,0,0,0,0,0,0,0,0,0,0,0,0,0,0,0,0,0,0,0,0,0,0,0,0,0,0,0,0,0,0,0,0,0,0,0,0,0,0,0,0,0,0,0,0,0],"sum_hessian":[1.707E3,1.273E3,4.34E2,3.14E2,9.59E2,3.13E2,1.21E2,7.4E1,2.4E2,4.39E2,5.2E2,2.06E2,1.07E2,8E1,4.1E1,3.4E1,4E1,9.3E1,1.47E2,2.26E2,2.13E2,3.06E2,2.14E2,1.39E2,6.7E1,6E1,4.7E1,4E0,7.6E1,1.11E2,3.6E1,2.22E2,4E0,5.1E1,1.62E2,1.4E2,1.66E2,2.08E2,6E0,1.36E2,3E0,6E0,6.1E1,5.8E1,2E0,2E0,4.5E1],"tree_param":{"num_deleted":"0","num_feature":"10","num_nodes":"47","size_leaf_vector":"1"}},{"base_weights":[9.7203E-7,-4.0819342E-4,1.3893973E-3,-1.3982914E-3,-7.138708E-5,9.829826E-4,2.8989867E-3,-2.6184546E-3,-1.0423125E-3,-3.9156806E-4,1.6590992E-4,7.9464907E-4,1.6360031E-3,7.072493E-4,3.8073114E-3,-3.202293E-3,-2.223331E-3,-1.4328315E-3,-9.1861107E-4,-5.359841E-4,-2.5004617E-4,3.6762754E-5,3.1718297E-4,7.619543E-4,1.948203E-3,8.344608E-5,1.6729356E-3,7.7685446E-4,1.2935901E-3,-1.0050065E-3,-4.4352538E-4,-7.3804805E-4,-5.075822E-4,-4.6098107E-4,-2.643137E-4,-2.7776157E-4,8.0032674E-5,-1.4380083E-4,-2.3031473E-4,-9.4575946E-5,-1.3804938E-5,4.0083846E-6,1.2352323E-4,6.388426E-5,1.2431525E-4,1.7844015E-4,2.59951E-4,-1.5103143E-5,7.073944E-4,1.8539603E-4,5.140086E-4],"categories":[],"categories_nodes":[],"categories_segments":[],"categories_sizes":[],"default_left":[0,0,0,0,0,0,0,0,0,0,0,0,0,0,0,0,0,0,0,0,0,0,0,0,0,0,0,0,0,0,0,0,0,0,0,0,0,0,0,0,0,0,0,0,0,0,0,0,0,0,0],"id":3,"left_children":[1,3,5,7,9,11,13,15,17,19,21,23,25,-1,27,29,31,33,35,37,39,41,43,45,47,-1,49,-1,-1,-1,-1,-1,-1,-1,-1,-1,-1,-1,-1,-1,-1,-1,-1,-1,-1,-1,-1,-1,-1,-1,-1],"loss_changes":[9.7087445E-4,4.4008234E-4,2.3580942E-4,1.427788E-4,7.497927E-5,3.6579528E-5,3.1355827E-5,1.0181917E-5,1.1292112E-5,8.449948E-6,1.1065527E-5,7.6049473E-6,2.9447692E-6,0E0,6.65657E-6,2.1778687E-6,1.8782885E-6,2.1390442E-6,1.976965E-6,2.3493267E-6,2.832583E-6,2.688459E-6,2.5561603E-6,3.608875E-6,5.032476E-6,0E0,1.7559214E-6,0E0,0E0,0E0,0E0,0E0,0E0,0E0,0E0,0E0,0E0,0E0,0E0,0E0,0E0,0E0,0E0,0E0,0E0,0E0,0E0,0E0,0E0,0E0,0E0],"parents":[2147483647,0,0,1,1,2,2,3,3,4,4,5,5,6,6,7,7,8,8,9,9,10,10,11,11,12,12,14,14,15,15,16,16,17,17,18,18,19,19,20,20,21,21,22,22,23,23,24,24,26,26],"right_children":[2,4,6,8,10,12,14,16,18,20,22,24,26,-1,28,30,32,34,36,38,40,42,44,46,48,-1,50,-1,-1,-1,-1,-1,-1,-1,-1,-1,-1,-1,-1,-1,-1,-1,-1,-1,-1,-1,-1,-1,-1,-1,-1],"split_conditions":[1.4456101E-3,-1.7698221E-3,5.4950267E-3,-4.921017E-3,-2.1353178E-4,3.6743283E-3,9.084638E-3,-7.732205E-3,-3.4884717E-3,-9.726621E-4,5.9194677E-4,9.3058385E-3,2.1570139E-3,7.072493E-4,5.5696107E-3,2.6907958E-3,1.0763407E-3,2.2319444E-3,8.896426E-3,2.1110484E-3,2.7091391E-3,5.582832E-3,1.846917E-3,1.9110385E-3,1.108598E-3,8.344608E-5,-7.2132796E-4,7.7685446E-4,1.2935901E-3,-1.0050065E-3,-4.4352538E-4,-7.3804805E-4,-5.075822E-4,-4.6098107E-4,-2.643137E-4,-2.7776157E-4,8.0032674E-5,-1.4380083E-4,-2.3031473E-4,-9.4575946E-5,-1.3804938E-5,4.0083846E-6,1.2352323E-4,6.388426E-5,1.2431525E-4,1.7844015E-4,2.59951E-4,-1.5103143E-5,7.073944E-4,1.8539603E-4,5.140086E-4],"split_indices":[6,6,6,6,6,6,6,6,6,6,6,8,1,0,8,5,9,8,2,2,5,5,5,6,4,0,5,0,0,0,0,0,0,0,0,0,0,0,0,0,0,0,0,0,0,0,0,0,0,0,0],"split_type":[0,0,0,0,0,0,0,0,0,0,0,0,0,0,0,0,0,0,0,0,0,0,0,0,0,0,0,0,0,0,0,0,0,0,0,0,0,0,0,0,0,0,0,0,0,0,0,0,0,0,0],"sum_hessian":[1.707E3,1.319E3,3.88E2,3.34E2,9.85E2,3.07E2,8.1E1,7.4E1,2.6E2,4.19E2,5.66E2,2.4E2,6.7E1,5.3E1,2.8E1,2.7E1,4.7E1,6E1,2E2,2.06E2,2.13E2,3.06E2,2.6E2,2.35E2,5E0,2E0,6.5E1,1E1,1.8E1,2.4E1,3E0,3E1,1.7E1,4.9E1,1.1E1,1.99E2,1E0,1.68E2,3.8E1,1.61E2,5.2E1,2.89E2,1.7E1,1.27E2,1.33E2,9.3E1,1.42E2,1E0,4E0,3E0,6.2E1],"tree_param":{"num_deleted":"0","num_feature":"10","num_nodes":"51","size_leaf_vector":"1"}},{"base_weights":[1.2116121E-6,-3.6422815E-4,7.8805105E-4,-1.440092E-3,-2.077653E-4,4.7769173E-4,1.777979E-3,-2.162829E-3,-1.1523855E-3,-4.63394E-4,3.0429092E-6,3.5541758E-4,7.119146E-4,3.890038E-4,2.3822326E-3,-4.0587806E-4,-2.380445E-3,-1.1896582E-3,3.4236145E-5,-5.935665E-4,-3.0220556E-4,-1.16915566E-4,9.272201E-5,1.7085492E-4,4.009888E-4,4.88916E-4,6.8015273E-4,2.1163796E-3,1.0606272E-3,-7.275073E-4,-1.5645962E-4,-4.355806E-4,-3.0380322E-4,-2.4380168E-5,-1.836162E-4,-1.0064532E-4,3.543232E-5,3.2097448E-4,-3.7907408E-5,1.8542401E-5,1.242023E-4,1.4153602E-4,1.1606261E-5,2.0169796E-4,1.0528841E-4,1.2333727E-4,2.3132203E-4,6.444437E-4,9.35053E-5],"categories":[],"categories_nodes":[],"categories_segments":[],"categories_sizes":[],"default_left":[0,0,0,0,0,0,0,0,0,0,0,0,0,0,0,0,0,0,0,0,0,0,0,0,0,0,0,0,0,0,0,0,0,0,0,0,0,0,0,0,0,0,0,0,0,0,0,0,0],"id":4,"left_children":[1,3,5,7,9,11,13,15,17,19,21,23,25,-1,27,-1,29,31,-1,33,35,37,39,41,43,-1,45,47,-1,-1,-1,-1,-1,-1,-1,-1,-1,-1,-1,-1,-1,-1,-1,-1,-1,-1,-1,-1,-1],"loss_changes":[4.914095E-4,1.9614508E-4,1.6567114E-4,2.8282142E-5,5.4967815E-5,1.1603683E-5,3.4427736E-5,4.0055747E-6,5.234033E-6,9.493466E-6,6.0351913E-6,2.2360364E-6,3.0018637E-6,0E0,9.686162E-6,0E0,1.30423E-6,3.403533E-6,0E0,2.3559187E-6,2.949031E-6,2.8247734E-6,3.162656E-6,2.2090562E-6,2.7368187E-6,0E0,3.058507E-6,2.082219E-6,0E0,0E0,0E0,0E0,0E0,0E0,0E0,0E0,0E0,0E0,0E0,0E0,0E0,0E0,0E0,0E0,0E0,0E0,0E0,0E0,0E0],"parents":[2147483647,0,0,1,1,2,2,3,3,4,4,5,5,6,6,7,7,8,8,9,9,10,10,11,11,12,12,14,14,16,16,17,17,19,19,20,20,21,21,22,22,23,23,24,24,26,26,27,27],"right_children":[2,4,6,8,10,12,14,16,18,20,22,24,26,-1,28,-1,30,32,-1,34,36,38,40,42,44,-1,46,48,-1,-1,-1,-1,-1,-1,-1,-1,-1,-1,-1,-1,-1,-1,-1,-1,-1,-1,-1,-1,-1],"split_conditions":[9.457879E-4,-3.2220483E-3,4.045589E-3,-7.1959933E-3,-7.4388646E-4,2.0495635E-3,6.1702E-3,-1.0511115E-2,8.0285594E-4,-1.5566479E-3,7.1132556E-5,1.2350455E-4,1.8883906E-3,3.890038E-4,1.8116299E-2,-4.0587806E-4,6.8042874E-3,-4.5332834E-3,3.4236145E-5,-7.987693E-3,7.091511E-3,-3.7398115E-3,2.5858954E-3,1.5287511E-3,7.5719645E-4,4.88916E-4,1.5804134E-3,1.3328847E-2,1.0606272E-3,-7.275073E-4,-1.5645962E-4,-4.355806E-4,-3.0380322E-4,-2.4380168E-5,-1.836162E-4,-1.0064532E-4,3.543232E-5,3.2097448E-4,-3.7907408E-5,1.8542401E-5,1.242023E-4,1.4153602E-4,1.1606261E-5,2.0169796E-4,1.0528841E-4,1.2333727E-4,2.3132203E-4,6.444437E-4,9.35053E-5],"split_indices":[6,6,6,6,6,6,6,0,1,6,6,5,7,0,2,0,5,6,0,5,8,3,0,7,2,0,5,8,0,0,0,0,0,0,0,0,0,0,0,0,0,0,0,0,0,0,0,0,0],"split_type":[0,0,0,0,0,0,0,0,0,0,0,0,0,0,0,0,0,0,0,0,0,0,0,0,0,0,0,0,0,0,0,0,0,0,0,0,0,0,0,0,0,0,0,0,0,0,0,0,0],"sum_hessian":[1.707E3,1.166E3,5.41E2,1.47E2,1.019E3,4.13E2,1.28E2,4E1,1.07E2,4.6E2,5.59E2,2.73E2,1.4E2,7.3E1,5.5E1,1E1,3E1,1.04E2,3E0,2.53E2,2.07E2,2.39E2,3.2E2,5.5E1,2.18E2,3E0,1.37E2,4.7E1,8E0,2.9E1,1E0,3.9E1,6.5E1,9E0,2.44E2,1.92E2,1.5E1,1E0,2.38E2,2.93E2,2.7E1,1.6E1,3.9E1,3.2E1,1.86E2,3.6E1,1.01E2,4.6E1,1E0],"tree_param":{"num_deleted":"0","num_feature":"10","num_nodes":"49","size_leaf_vector":"1"}},{"base_weights":[1.8135206E-6,-2.0549167E-4,7.052609E-4,-8.697288E-4,-7.185358E-5,5.2454957E-4,1.649907E-3,-1.3701399E-3,-6.4312044E-4,-2.6814113E-4,5.9411053E-5,3.800596E-4,8.15362E-4,1.3787904E-3,2.4074863E-3,-1.8763102E-3,-1.2041641E-3,-1.11903646E-4,-6.676552E-4,-2.5289564E-4,-9.7182504E-4,-3.7317794E-5,1.223781E-4,3.5416492E-4,1.2489248E-3,9.4892684E-4,6.4747717E-4,1.0352256E-4,4.2486988E-4,2.737739E-4,8.115494E-4,-6.8732E-4,-2.6169943E-4,-4.317911E-4,-2.550806E-4,7.8982746E-5,-1.6587062E-4,-1.8493306E-4,-2.886082E-4,-1.003463E-4,-3.0417219E-5,-3.5243572E-4,9.7779026E-5,-1.5215021E-5,3.3956903E-4,3.924277E-5,-1.7095284E-4,1.1010268E-4,-1.2549585E-4,-4.7535974E-5,4.6862735E-4,4.882938E-4,2.5625594E-4,-9.017504E-5,2.1389793E-4],"categories":[],"categories_nodes":[],"categories_segments":[],"categories_sizes":[],"default_left":[0,0,0,0,0,0,0,0,0,0,0,0,0,0,0,0,0,0,0,0,0,0,0,0,0,0,0,0,0,0,0,0,0,0,0,0,0,0,0,0,0,0,0,0,0,0,0,0,0,0,0,0,0,0,0],"id":5,"left_children":[1,3,5,7,9,11,13,15,17,19,21,23,25,27,29,31,33,35,37,39,41,43,45,47,49,51,53,-1,-1,-1,-1,-1,-1,-1,-1,-1,-1,-1,-1,-1,-1,-1,-1,-1,-1,-1,-1,-1,-1,-1,-1,-1,-1,-1,-1],"loss_changes":[2.4921962E-4,1.1711045E-4,6.5540036E-5,2.4179652E-5,2.8358103E-5,1.3472505E-5,9.4149145E-6,3.4534314E-6,1.9324216E-6,4.4852786E-6,4.0244486E-6,4.529953E-6,1.8073333E-6,1.3691242E-6,4.206355E-6,4.2475294E-6,3.269808E-6,1.4691942E-6,1.6230333E-6,5.3186523E-6,2.753436E-6,4.1462945E-6,2.4090218E-6,2.296636E-6,2.8919785E-6,2.339213E-6,3.3820816E-6,0E0,0E0,0E0,0E0,0E0,0E0,0E0,0E0,0E0,0E0,0E0,0E0,0E0,0E0,0E0,0E0,0E0,0E0,0E0,0E0,0E0,0E0,0E0,0E0,0E0,0E0,0E0,0E0],"parents":[2147483647,0,0,1,1,2,2,3,3,4,4,5,5,6,6,7,7,8,8,9,9,10,10,11,11,12,12,13,13,14,14,15,15,16,16,17,17,18,18,19,19,20,20,21,21,22,22,23,23,24,24,25,25,26,26],"right_children":[2,4,6,8,10,12,14,16,18,20,22,24,26,28,30,32,34,36,38,40,42,44,46,48,50,52,54,-1,-1,-1,-1,-1,-1,-1,-1,-1,-1,-1,-1,-1,-1,-1,-1,-1,-1,-1,-1,-1,-1,-1,-1,-1,-1,-1,-1],"split_conditions":[1.4456101E-3,-2.3474712E-3,5.875785E-3,-5.4809963E-3,-5.7331193E-4,3.3051893E-3,1.1414784E-2,-8.184111E-3,-1.00240465E-2,1.2971014E-3,2.6372634E-4,9.066086E-3,3.6051087E-3,-2.773378E-3,5.159937E-4,1.6464703E-3,6.9572404E-4,-3.8486384E-3,1.6219243E-3,4.4811144E-4,4.125692E-3,4.552696E-3,6.561801E-3,6.09643E-3,1.108598E-3,1.3613887E-3,1.3732091E-3,1.0352256E-4,4.2486988E-4,2.737739E-4,8.115494E-4,-6.8732E-4,-2.6169943E-4,-4.317911E-4,-2.550806E-4,7.8982746E-5,-1.6587062E-4,-1.8493306E-4,-2.886082E-4,-1.003463E-4,-3.0417219E-5,-3.5243572E-4,9.7779026E-5,-1.5215021E-5,3.3956903E-4,3.924277E-5,-1.7095284E-4,1.1010268E-4,-1.2549585E-4,-4.7535974E-5,4.6862735E-4,4.882938E-4,2.5625594E-4,-9.017504E-5,2.1389793E-4],"split_indices":[6,6,6,6,6,6,4,6,2,7,6,8,8,8,8,5,9,8,9,8,0,0,2,4,4,3,0,0,0,0,0,0,0,0,0,0,0,0,0,0,0,0,0,0,0,0,0,0,0,0,0,0,0,0,0],"split_type":[0,0,0,0,0,0,0,0,0,0,0,0,0,0,0,0,0,0,0,0,0,0,0,0,0,0,0,0,0,0,0,0,0,0,0,0,0,0,0,0,0,0,0,0,0,0,0,0,0,0,0,0,0,0,0],"sum_hessian":[1.707E3,1.319E3,3.88E2,2.2E2,1.099E3,3.27E2,6.1E1,6.7E1,1.53E2,4.4E2,6.59E2,2.2E2,1.07E2,4.7E1,1.4E1,1.4E1,5.3E1,7E0,1.46E2,4.32E2,8E0,2.6E2,3.99E2,2.15E2,5E0,5.7E1,5E1,2E0,4.5E1,3E0,1.1E1,9E0,5E0,3E1,2.3E1,4E0,3E0,1.27E2,1.9E1,2.8E2,1.52E2,7E0,1E0,2.58E2,2E0,3.95E2,4E0,2.12E2,3E0,1E0,4E0,5E0,5.2E1,3E0,4.7E1],"tree_param":{"num_deleted":"0","num_feature":"10","num_nodes":"55","size_leaf_vector":"1"}},{"base_weights":[1.5613725E-6,-1.3162533E-4,5.602121E-4,-5.3264905E-4,-1.3000489E-5,4.2209137E-4,1.2260134E-3,-9.6298003E-4,-3.9651842E-4,-1.1923406E-4,8.0702834E-5,3.162813E-4,6.213417E-4,1.006972E-3,1.757595E-3,-1.2382421E-3,-7.8234833E-4,-4.66095E-4,-2.7245397E-4,-2.694412E-4,-8.470343E-5,3.233167E-5,1.836804E-4,2.9181037E-4,9.813824E-4,3.8917715E-4,5.7688705E-4,1.991536E-4,1.1378962E-3,2.1217468E-4,5.883732E-4,-1.4456488E-4,-4.1451503E-4,-2.6668498E-4,-1.3798873E-4,-1.4294144E-4,1.6666845E-4,3.2406613E-5,-9.3409646E-5,-1.9430835E-4,-6.7866284E-5,-2.2144961E-6,-4.9055936E-5,-8.446538E-6,2.997403E-5,2.2127067E-4,4.4092798E-5,9.98633E-5,-8.146999E-6,3.4176654E-5,4.159896E-4,7.581372E-5,2.0156594E-4,3.7362988E-4,1.1179017E-4],"categories":[],"categories_nodes":[],"categories_segments":[],"categories_sizes":[],"default_left":[0,0,0,0,0,0,0,0,0,0,0,0,0,0,0,0,0,0,0,0,0,0,0,0,0,0,0,0,0,0,0,0,0,0,0,0,0,0,0,0,0,0,0,0,0,0,0,0,0,0,0,0,0,0,0],"id":6,"left_children":[1,3,5,7,9,11,13,15,17,19,21,23,25,27,29,31,33,35,37,39,41,43,45,47,49,-1,51,-1,53,-1,-1,-1,-1,-1,-1,-1,-1,-1,-1,-1,-1,-1,-1,-1,-1,-1,-1,-1,-1,-1,-1,-1,-1,-1,-1],"loss_changes":[1.2715724E-4,6.5641565E-5,2.9737668E-5,1.8071245E-5,1.06210555E-5,5.5801393E-6,4.7506983E-6,2.7603455E-6,1.9533145E-6,2.5705513E-6,2.818371E-6,2.6595171E-6,2.0761036E-6,1.1314005E-6,1.821445E-6,2.3726861E-6,1.2407254E-6,1.8866849E-6,1.351269E-6,1.3738604E-6,2.4852345E-6,1.5847933E-6,3.571352E-6,2.314483E-6,1.9512586E-6,0E0,2.6018843E-6,0E0,1.9224244E-6,0E0,0E0,0E0,0E0,0E0,0E0,0E0,0E0,0E0,0E0,0E0,0E0,0E0,0E0,0E0,0E0,0E0,0E0,0E0,0E0,0E0,0E0,0E0,0E0,0E0,0E0],"parents":[2147483647,0,0,1,1,2,2,3,3,4,4,5,5,6,6,7,7,8,8,9,9,10,10,11,11,12,12,13,13,14,14,15,15,16,16,17,17,18,18,19,19,20,20,21,21,22,22,23,23,24,24,26,26,28,28],"right_children":[2,4,6,8,10,12,14,16,18,20,22,24,26,28,30,32,34,36,38,40,42,44,46,48,50,-1,52,-1,54,-1,-1,-1,-1,-1,-1,-1,-1,-1,-1,-1,-1,-1,-1,-1,-1,-1,-1,-1,-1,-1,-1,-1,-1,-1,-1],"split_conditions":[1.7432999E-3,-1.8427502E-3,6.1702E-3,-4.921017E-3,-4.505925E-5,3.6743283E-3,1.1414784E-2,-7.732205E-3,-1.00687146E-4,-3.8486384E-3,2.6416183E-3,9.3058385E-3,1.3613887E-3,2.788473E-3,5.159937E-4,-1.1333132E-2,1.3126619E-3,1.2546815E-3,2.5786832E-4,-3.1210408E-3,9.03558E-4,1.108598E-3,7.156371E-4,6.0524717E-3,3.1868704E-3,3.8917715E-4,5.084414E-3,1.991536E-4,9.990018E-3,2.1217468E-4,5.883732E-4,-1.4456488E-4,-4.1451503E-4,-2.6668498E-4,-1.3798873E-4,-1.4294144E-4,1.6666845E-4,3.2406613E-5,-9.3409646E-5,-1.9430835E-4,-6.7866284E-5,-2.2144961E-6,-4.9055936E-5,-8.446538E-6,2.997403E-5,2.2127067E-4,4.4092798E-5,9.98633E-5,-8.146999E-6,3.4176654E-5,4.159896E-4,7.581372E-5,2.0156594E-4,3.7362988E-4,1.1179017E-4],"split_indices":[6,6,6,6,6,6,4,6,5,8,5,8,3,0,8,4,9,3,5,4,9,4,2,5,0,0,7,0,0,0,0,0,0,0,0,0,0,0,0,0,0,0,0,0,0,0,0,0,0,0,0,0,0,0,0],"split_type":[0,0,0,0,0,0,0,0,0,0,0,0,0,0,0,0,0,0,0,0,0,0,0,0,0,0,0,0,0,0,0,0,0,0,0,0,0,0,0,0,0,0,0,0,0,0,0,0,0,0,0,0,0,0,0],"sum_hessian":[1.707E3,1.379E3,3.28E2,3.14E2,1.065E3,2.73E2,5.5E1,7.4E1,2.4E2,4.99E2,5.66E2,1.8E2,9.3E1,4.1E1,1.4E1,2.7E1,4.7E1,1.52E2,8.8E1,9.2E1,4.07E2,3.86E2,1.8E2,1.75E2,5E0,4E0,8.9E1,1.3E1,2.8E1,3E0,1.1E1,5E0,2.2E1,3.4E1,1.3E1,1.51E2,1E0,8E0,8E1,8E0,8.4E1,2.06E2,2.01E2,2.04E2,1.82E2,1E1,1.7E2,1.55E2,2E1,2E0,3E0,2.1E1,6.8E1,2.4E1,4E0],"tree_param":{"num_deleted":"0","num_feature":"10","num_nodes":"55","size_leaf_vector":"1"}},{"base_weights":[2.0683428E-6,-1.3215147E-4,2.9105812E-4,-5.4516457E-4,-7.2094525E-5,1.8791719E-4,6.9905905E-4,-8.867367E-4,-4.616176E-4,-1.8604522E-4,-1.1508858E-5,-2.6365933E-6,2.2582467E-4,5.9258606E-4,3.8426902E-4,-2.8341328E-4,-9.7548176E-4,-4.2934009E-4,-3.373763E-4,-1.584929E-4,-4.583375E-4,-1.5759672E-4,1.6997556E-5,2.3297302E-4,-2.0276068E-5,1.6816115E-4,3.6919062E-4,6.3248473E-4,4.3646825E-5,3.2519165E-5,-2.775983E-4,-3.209798E-4,-7.0723356E-5,-1.9623192E-4,-1.0435091E-4,-1.2585353E-4,-4.168604E-5,-3.0423E-5,-1.6626625E-4,-1.1946969E-4,-2.3225677E-5,9.1489805E-5,1.9961523E-7,1.029374E-5,1.9894913E-4,5.9003596E-5,-2.881829E-5,3.781755E-4,1.01717465E-4,1.6197622E-4,2.791434E-4],"categories":[],"categories_nodes":[],"categories_segments":[],"categories_sizes":[],"default_left":[0,0,0,0,0,0,0,0,0,0,0,0,0,0,0,0,0,0,0,0,0,0,0,0,0,0,0,0,0,0,0,0,0,0,0,0,0,0,0,0,0,0,0,0,0,0,0,0,0,0,0],"id":7,"left_children":[1,3,5,7,9,11,13,15,17,19,21,23,25,27,-1,29,31,33,-1,35,37,39,41,43,-1,45,47,49,-1,-1,-1,-1,-1,-1,-1,-1,-1,-1,-1,-1,-1,-1,-1,-1,-1,-1,-1,-1,-1,-1,-1],"loss_changes":[6.628863E-5,2.8907318E-5,2.2676864E-5,3.8141916E-6,7.039713E-6,3.1355576E-6,5.9935082E-6,1.2227083E-6,2.1064516E-6,2.5831669E-6,2.7803605E-6,1.1328586E-6,2.9305647E-6,1.5848018E-6,0E0,1.3578469E-6,1.4246216E-6,1.915836E-6,0E0,1.58906E-6,1.0389444E-6,2.0721748E-6,2.628858E-6,1.3446361E-6,0E0,1.977981E-6,2.339153E-6,1.8697938E-6,0E0,0E0,0E0,0E0,0E0,0E0,0E0,0E0,0E0,0E0,0E0,0E0,0E0,0E0,0E0,0E0,0E0,0E0,0E0,0E0,0E0,0E0,0E0],"parents":[2147483647,0,0,1,1,2,2,3,3,4,4,5,5,6,6,7,7,8,8,9,9,10,10,11,11,12,12,13,13,15,15,16,16,17,17,19,19,20,20,21,21,22,22,23,23,25,25,26,26,27,27],"right_children":[2,4,6,8,10,12,14,16,18,20,22,24,26,28,-1,30,32,34,-1,36,38,40,42,44,-1,46,48,50,-1,-1,-1,-1,-1,-1,-1,-1,-1,-1,-1,-1,-1,-1,-1,-1,-1,-1,-1,-1,-1,-1,-1],"split_conditions":[9.457879E-4,-2.7027428E-3,4.8151407E-3,-7.732205E-3,-1.0900237E-3,-2.3677014E-3,1.1414784E-2,-1.7526008E-2,5.7890536E-3,-1.0044873E-4,-1.4333166E-3,-3.51388E-4,3.1844191E-3,1.0170862E-2,3.8426902E-4,-7.906143E-3,2.6907958E-3,-6.324645E-3,-3.373763E-4,-2.9132403E-3,4.5706704E-4,-8.35903E-4,-1.4828183E-3,1.5399959E-3,-2.0276068E-5,2.9789037E-3,2.0218445E-3,6.3068233E-3,4.3646825E-5,3.2519165E-5,-2.775983E-4,-3.209798E-4,-7.0723356E-5,-1.9623192E-4,-1.0435091E-4,-1.2585353E-4,-4.168604E-5,-3.0423E-5,-1.6626625E-4,-1.1946969E-4,-2.3225677E-5,9.1489805E-5,1.9961523E-7,1.029374E-5,1.9894913E-4,5.9003596E-5,-2.881829E-5,3.781755E-4,1.01717465E-4,1.6197622E-4,2.791434E-4],"split_indices":[6,7,6,6,6,8,4,2,2,7,5,9,1,3,0,1,5,8,0,6,9,1,2,6,0,4,4,8,0,0,0,0,0,0,0,0,0,0,0,0,0,0,0,0,0,0,0,0,0,0,0],"split_type":[0,0,0,0,0,0,0,0,0,0,0,0,0,0,0,0,0,0,0,0,0,0,0,0,0,0,0,0,0,0,0,0,0,0,0,0,0,0,0,0,0,0,0,0,0,0,0,0,0,0,0],"sum_hessian":[1.707E3,1.166E3,5.41E2,1.47E2,1.019E3,4.33E2,1.08E2,2.7E1,1.2E2,3.53E2,6.66E2,7.2E1,3.61E2,9.3E1,1.5E1,4E0,2.3E1,1.16E2,4E0,3.22E2,3.1E1,1.08E2,5.58E2,1.5E1,5.7E1,2.59E2,1.02E2,8.5E1,8E0,3E0,1E0,2E1,3E0,2.9E1,8.7E1,2.1E1,3.01E2,7E0,2.4E1,2.6E1,8.2E1,2.9E1,5.29E2,1.1E1,4E0,2.34E2,2.5E1,2E0,1E2,6.7E1,1.8E1],"tree_param":{"num_deleted":"0","num_feature":"10","num_nodes":"51","size_leaf_vector":"1"}},{"base_weights":[1.3764607E-6,-5.4511685E-5,3.6256894E-4,-2.3644172E-4,1.7796854E-5,2.6688562E-4,6.5339624E-4,-4.6296325E-4,-1.6990963E-4,1.1057282E-5,1.6792232E-4,-1.1318539E-4,2.9213744E-4,5.4845936E-4,1.1404601E-3,5.4792938E-5,-5.047711E-4,-2.1663436E-4,-2.7663367E-5,-3.5924466E-5,6.7156696E-5,4.9511E-4,2.161221E-4,5.717836E-4,-8.216696E-5,9.269882E-5,4.0016373E-4,-1.02220525E-4,1.6065143E-4,-2.01806E-4,-1.1753731E-4,-1.2079581E-5,-7.645562E-5,-1.8792387E-5,1.2774915E-4,-1.2303391E-5,2.0861604E-4,2.205342E-5,-1.1127769E-4,1.2435933E-4,3.6522342E-4,-6.630782E-5,7.5676704E-5,1.142485E-4,2.1737734E-4],"categories":[],"categories_nodes":[],"categories_segments":[],"categories_sizes":[],"default_left":[0,0,0,0,0,0,0,0,0,0,0,0,0,0,0,0,0,0,0,0,0,0,0,0,0,0,0,0,0,0,0,0,0,0,0,0,0,0,0,0,0,0,0,0,0],"id":8,"left_children":[1,3,5,7,9,11,13,15,17,19,-1,-1,21,23,25,27,29,31,33,35,37,39,41,43,-1,-1,-1,-1,-1,-1,-1,-1,-1,-1,-1,-1,-1,-1,-1,-1,-1,-1,-1,-1,-1],"loss_changes":[3.4498098E-5,1.9473748E-5,6.1980772E-6,6.2662075E-6,3.865431E-6,2.9405865E-6,2.2367185E-6,2.0840525E-6,2.1673868E-6,2.7645724E-6,0E0,0E0,2.4850715E-6,1.0772792E-6,1.0352242E-6,1.703545E-6,1.4059042E-6,1.6478816E-6,1.3273808E-6,2.1526716E-6,1.3579631E-6,2.1144479E-6,2.014424E-6,1.0954864E-6,0E0,0E0,0E0,0E0,0E0,0E0,0E0,0E0,0E0,0E0,0E0,0E0,0E0,0E0,0E0,0E0,0E0,0E0,0E0,0E0,0E0],"parents":[2147483647,0,0,1,1,2,2,3,3,4,4,5,5,6,6,7,7,8,8,9,9,12,12,13,13,14,14,15,15,16,16,17,17,18,18,19,19,20,20,21,21,22,22,23,23],"right_children":[2,4,6,8,10,12,14,16,18,20,-1,-1,22,24,26,28,30,32,34,36,38,40,42,44,-1,-1,-1,-1,-1,-1,-1,-1,-1,-1,-1,-1,-1,-1,-1,-1,-1,-1,-1,-1,-1],"split_conditions":[2.334686E-3,-1.4380086E-3,6.1702E-3,-4.190322E-3,4.7760047E-3,1.2211502E-4,1.8116299E-2,-1.6506525E-2,2.1297447E-3,4.321821E-4,1.6792232E-4,-1.1318539E-4,2.145227E-3,1.3328847E-2,1.3521817E-2,-7.906143E-3,-6.324645E-3,-5.1713567E-3,-1.5566479E-3,8.159447E-3,6.561801E-3,3.1868704E-3,3.9738044E-4,3.8344972E-3,-8.216696E-5,9.269882E-5,4.0016373E-4,-1.02220525E-4,1.6065143E-4,-2.01806E-4,-1.1753731E-4,-1.2079581E-5,-7.645562E-5,-1.8792387E-5,1.2774915E-4,-1.2303391E-5,2.0861604E-4,2.205342E-5,-1.1127769E-4,1.2435933E-4,3.6522342E-4,-6.630782E-5,7.5676704E-5,1.142485E-4,2.1737734E-4],"split_indices":[6,6,6,6,0,0,2,5,5,6,0,0,3,8,3,1,8,2,6,5,2,0,5,8,0,0,0,0,0,0,0,0,0,0,0,0,0,0,0,0,0,0,0,0,0],"split_type":[0,0,0,0,0,0,0,0,0,0,0,0,0,0,0,0,0,0,0,0,0,0,0,0,0,0,0,0,0,0,0,0,0,0,0,0,0,0,0,0,0,0,0,0,0],"sum_hessian":[1.707E3,1.479E3,2.28E2,4.2E2,1.059E3,1.73E2,5.5E1,9.4E1,3.26E2,1.047E3,1.2E1,6E0,1.67E2,4.7E1,8E0,7E0,8.7E1,2.45E2,8.1E1,5.7E2,4.77E2,4.4E1,1.23E2,4.6E1,1E0,2E0,6E0,4E0,3E0,3.3E1,5.4E1,4.4E1,2.01E2,7.6E1,5E0,5.67E2,3E0,4.71E2,6E0,4.1E1,3E0,9E0,1.14E2,2.2E1,2.4E1],"tree_param":{"num_deleted":"0","num_feature":"10","num_nodes":"45","size_leaf_vector":"1"}},{"base_weights":[1.6442193E-6,-3.2279848E-5,3.1076506E-4,-2.5188495E-4,6.850053E-7,2.7851886E-4,2.559253E-4,-5.493743E-4,-2.1597797E-4,-4.5933277E-5,5.4734082E-5,2.2605412E-4,4.217867E-4,-2.9990159E-4,-8.4868225E-4,-1.935773E-4,-2.0285857E-4,-8.554993E-5,3.0278166E-5,1.6361868E-5,1.2868633E-4,3.5203397E-4,6.555959E-5,8.580447E-5,2.1079835E-4,-1.533913E-4,9.1074166E-5,-4.6821802E-5,-3.5069248E-4,-5.2876654E-5,-2.2314097E-4,-2.1365062E-5,-1.654219E-4,1.6368504E-5,-1.6520919E-4,2.7019341E-5,-6.6563603E-6,4.3420067E-5,-2.2258592E-4,6.9577894E-5,1.929772E-4,-2.1557257E-4,4.279856E-5],"categories":[],"categories_nodes":[],"categories_segments":[],"categories_sizes":[],"default_left":[0,0,0,0,0,0,0,0,0,0,0,0,0,0,0,0,0,0,0,0,0,0,0,0,0,0,0,0,0,0,0,0,0,0,0,0,0,0,0,0,0,0,0],"id":9,"left_children":[1,3,5,7,9,11,-1,13,15,17,19,21,23,25,27,29,-1,31,33,35,37,39,41,-1,-1,-1,-1,-1,-1,-1,-1,-1,-1,-1,-1,-1,-1,-1,-1,-1,-1,-1,-1],"loss_changes":[1.7921206E-5,1.1148617E-5,2.7178285E-6,2.0284178E-6,3.378879E-6,1.1148122E-6,0E0,1.3135309E-6,1.735064E-6,2.176445E-6,1.7601135E-6,2.4032101E-6,1.400691E-6,1.8137328E-6,1.8140959E-6,1.5272781E-6,0E0,3.1256982E-6,3.514754E-6,1.1668968E-6,3.0693118E-6,2.1943479E-6,3.3672768E-6,0E0,0E0,0E0,0E0,0E0,0E0,0E0,0E0,0E0,0E0,0E0,0E0,0E0,0E0,0E0,0E0,0E0,0E0,0E0,0E0],"parents":[2147483647,0,0,1,1,2,2,3,3,4,4,5,5,7,7,8,8,9,9,10,10,11,11,12,12,13,13,14,14,15,15,17,17,18,18,19,19,20,20,21,21,22,22],"right_children":[2,4,6,8,10,12,-1,14,16,18,20,22,24,26,28,30,-1,32,34,36,38,40,42,-1,-1,-1,-1,-1,-1,-1,-1,-1,-1,-1,-1,-1,-1,-1,-1,-1,-1,-1,-1],"split_conditions":[3.3051893E-3,-2.045229E-3,1.8116299E-2,-8.017256E-3,1.3693273E-3,1.3559759E-3,2.559253E-4,-8.503739E-3,2.3131073E-3,-3.7895888E-4,1.1267997E-3,5.457919E-3,5.834427E-3,-5.7809316E-3,-3.1451285E-3,5.690123E-3,-2.0285857E-4,-5.374178E-4,2.419278E-3,1.6198494E-3,6.733665E-3,3.3691823E-3,5.7890536E-3,8.580447E-5,2.1079835E-4,-1.533913E-4,9.1074166E-5,-4.6821802E-5,-3.5069248E-4,-5.2876654E-5,-2.2314097E-4,-2.1365062E-5,-1.654219E-4,1.6368504E-5,-1.6520919E-4,2.7019341E-5,-6.6563603E-6,4.3420067E-5,-2.2258592E-4,6.9577894E-5,1.929772E-4,-2.1557257E-4,4.279856E-5],"split_indices":[6,7,2,6,5,9,0,1,9,8,6,5,4,0,0,2,0,8,3,2,4,5,2,0,0,0,0,0,0,0,0,0,0,0,0,0,0,0,0,0,0,0,0],"split_type":[0,0,0,0,0,0,0,0,0,0,0,0,0,0,0,0,0,0,0,0,0,0,0,0,0,0,0,0,0,0,0,0,0,0,0,0,0,0,0,0,0,0,0],"sum_hessian":[1.707E3,1.539E3,1.68E2,2E2,1.339E3,1.6E2,8E0,2E1,1.8E2,7.19E2,6.2E2,1.19E2,4.1E1,1.2E1,8E0,1.73E2,7E0,4.73E2,2.46E2,4.09E2,2.11E2,6.6E1,5.3E1,2.9E1,1.2E1,9E0,3E0,3E0,5E0,1.69E2,4E0,4.6E2,1.3E1,2.37E2,9E0,1.4E2,2.69E2,2.08E2,3E0,4.8E1,1.8E1,4E0,4.9E1],"tree_param":{"num_deleted":"0","num_feature":"10","num_nodes":"43","size_leaf_vector":"1"}},{"base_weights":[6.879347E-7,-9.666898E-5,6.209273E-5,-3.6425033E-4,-8.1578044E-5,3.501713E-5,2.5470875E-4,-5.554736E-4,-1.5279089E-4,-7.717683E-5,-2.9139104E-4,-1.648635E-4,4.767119E-5,2.2501714E-4,1.8767845E-4,7.02377E-5,-2.0064192E-4,7.649185E-6,-1.8643189E-4,2.315057E-4,-8.114058E-5,-1.5881722E-4,-1.0942362E-4,1.6508815E-5,1.1352359E-4,1.3071668E-4,1.7379255E-4,-2.2951643E-5,-2.3378899E-4,8.4182066E-5,-4.803681E-5,6.874339E-6,-1.354697E-4,3.7595517E-5,-1.3261814E-4,-6.157313E-5,6.145896E-5],"categories":[],"categories_nodes":[],"categories_segments":[],"categories_sizes":[],"default_left":[0,0,0,0,0,0,0,0,0,0,0,0,0,0,0,0,0,0,0,0,0,0,0,0,0,0,0,0,0,0,0,0,0,0,0,0,0],"id":10,"left_children":[1,3,5,7,9,11,13,15,17,19,-1,21,23,25,-1,-1,-1,-1,-1,-1,27,-1,29,31,33,-1,35,-1,-1,-1,-1,-1,-1,-1,-1,-1,-1],"loss_changes":[1.0216737E-5,2.6394378E-6,5.4566053E-6,1.3303875E-6,2.3802854E-6,2.3348166E-6,1.2798046E-6,1.7673592E-6,1.5198267E-6,2.1655344E-6,0E0,1.0535862E-6,1.7752593E-6,1.2302621E-6,0E0,0E0,0E0,0E0,0E0,0E0,1.956424E-6,0E0,1.0138667E-6,1.7763579E-6,1.877133E-6,0E0,1.2079599E-6,0E0,0E0,0E0,0E0,0E0,0E0,0E0,0E0,0E0,0E0],"parents":[2147483647,0,0,1,1,2,2,3,3,4,4,5,5,6,6,7,7,8,8,9,9,11,11,12,12,13,13,20,20,22,22,23,23,24,24,26,26],"right_children":[2,4,6,8,10,12,14,16,18,20,-1,22,24,26,-1,-1,-1,-1,-1,-1,28,-1,30,32,34,-1,36,-1,-1,-1,-1,-1,-1,-1,-1,-1,-1],"split_conditions":[-5.7331193E-4,-7.211987E-3,5.084414E-3,2.520308E-4,1.7311461E-3,-5.3263195E-3,1.8116299E-2,-1.1333132E-2,-2.616182E-3,-9.525955E-3,-2.9139104E-4,-5.0162524E-4,2.1804757E-3,-1.4518499E-3,1.8767845E-4,7.02377E-5,-2.0064192E-4,7.649185E-6,-1.8643189E-4,2.315057E-4,2.8397515E-3,-1.5881722E-4,-1.258295E-3,2.632001E-3,6.09643E-3,1.3071668E-4,-1.328513E-4,-2.2951643E-5,-2.3378899E-4,8.4182066E-5,-4.803681E-5,6.874339E-6,-1.354697E-4,3.7595517E-5,-1.3261814E-4,-6.157313E-5,6.145896E-5],"split_indices":[6,7,7,9,7,8,2,4,0,1,0,1,1,8,0,0,0,0,0,0,9,0,0,4,4,0,9,0,0,0,0,0,0,0,0,0,0],"split_type":[0,0,0,0,0,0,0,0,0,0,0,0,0,0,0,0,0,0,0,0,0,0,0,0,0,0,0,0,0,0,0,0,0,0,0,0,0],"sum_hessian":[1.707E3,6.6E2,1.047E3,3.4E1,6.26E2,9.19E2,1.28E2,1.7E1,1.7E1,6.24E2,2E0,5.4E1,8.65E2,1.2E2,8E0,2E0,1.5E1,1.3E1,4E0,2E0,6.22E2,6E0,4.8E1,5.88E2,2.77E2,2.2E1,9.8E1,6.19E2,3E0,5E0,4.3E1,5.81E2,7E0,2.72E2,5E0,7E0,9.1E1],"tree_param":{"num_deleted":"0","num_feature":"10","num_nodes":"37","size_leaf_vector":"1"}},{"base_weights":[9.875434E-8,-9.8420285E-5,3.3015265E-5,-5.2100608E-5,-5.843742E-5,1.2269546E-5,4.7466026E-5,-2.9407689E-5,-2.8340603E-4,3.335494E-5,-6.383037E-5,-7.2128634E-5,8.370275E-5,-1.8888526E-4,-5.3788513E-5,2.2565651E-5,2.1996567E-4,-3.0141377E-5,1.5260428E-4,-1.00923935E-5,-1.0515219E-4,1.1848198E-4,7.277036E-6,2.8298196E-4,6.0835678E-6,8.485564E-5,-1.5803304E-4,1.7010898E-4,2.6431148E-6],"categories":[],"categories_nodes":[],"categories_segments":[],"categories_sizes":[],"default_left":[0,0,0,0,0,0,0,0,0,0,0,0,0,0,0,0,0,0,0,0,0,0,0,0,0,0,0,0,0],"id":11,"left_children":[1,3,5,-1,7,9,-1,11,13,15,17,19,21,-1,-1,23,25,-1,27,-1,-1,-1,-1,-1,-1,-1,-1,-1,-1],"loss_changes":[5.5421274E-6,1.2775517E-6,3.32541E-6,0E0,1.8268145E-6,1.7671854E-6,0E0,1.2140836E-6,1.0405345E-6,1.7305846E-6,1.9106878E-6,1.9381655E-6,1.2670437E-6,0E0,0E0,1.6991585E-6,2.3561197E-6,0E0,2.08072E-6,0E0,0E0,0E0,0E0,0E0,0E0,0E0,0E0,0E0,0E0],"parents":[2147483647,0,0,1,1,2,2,4,4,5,5,7,7,8,8,9,9,10,10,11,11,12,12,15,15,16,16,18,18],"right_children":[2,4,6,-1,8,10,-1,12,14,16,18,20,22,-1,-1,24,26,-1,28,-1,-1,-1,-1,-1,-1,-1,-1,-1,-1],"split_conditions":[-1.4010295E-3,-2.7027428E-3,3.0273106E-3,-5.2100608E-5,-5.690418E-4,1.4072098E-3,4.7466026E-5,1.463931E-3,-1.5212558E-3,7.091511E-3,4.825603E-3,1.5389174E-3,2.0594262E-3,-1.8888526E-4,-5.3788513E-5,-3.7398115E-3,1.0720633E-2,-3.0141377E-5,2.4899188E-3,-1.00923935E-5,-1.0515219E-4,1.1848198E-4,7.277036E-6,2.8298196E-4,6.0835678E-6,8.485564E-5,-1.5803304E-4,1.7010898E-4,2.6431148E-6],"split_indices":[6,7,6,0,7,9,0,8,0,8,5,9,8,0,0,3,5,0,2,0,0,0,0,0,0,0,0,0,0],"split_type":[0,0,0,0,0,0,0,0,0,0,0,0,0,0,0,0,0,0,0,0,0,0,0,0,0,0,0,0,0],"sum_hessian":[1.707E3,4.27E2,1.28E3,1.47E2,2.8E2,1.099E3,1.81E2,2.49E2,3.1E1,8.61E2,2.38E2,1.81E2,6.8E1,6E0,2.5E1,8.15E2,4.6E1,2.04E2,3.4E1,1.6E2,2.1E1,1E1,5.8E1,1E0,8.14E2,4.3E1,3E0,8E0,2.6E1],"tree_param":{"num_deleted":"0","num_feature":"10","num_nodes":"29","size_leaf_vector":"1"}},{"base_weights":[1.4037394E-7,-2.3534521E-5,7.396007E-5,-1.12989765E-4,-7.077449E-6,-1.403722E-4,8.170945E-5,-1.391742E-4,1.9846614E-4,1.5134229E-4,-1.0362177E-5,5.9375725E-5,2.218302E-4,-1.1766661E-4,-1.809029E-4,1.9734548E-4,1.2558123E-5,-1.5339952E-5,3.2410747E-4,1.9514898E-4,3.4369397E-5,5.2374136E-4,1.4481167E-4,-2.1555305E-5,-7.698127E-5,-2.7431033E-6,-6.699593E-5,1.7483397E-4,-2.751767E-5,6.777214E-5,-2.1986853E-4,-4.2905605E-5,1.8630983E-5,4.2396925E-5,2.8631362E-4,-7.4408366E-5,5.9630514E-5],"categories":[],"categories_nodes":[],"categories_segments":[],"categories_sizes":[],"default_left":[0,0,0,0,0,0,0,0,0,0,0,0,0,0,0,0,0,0,0,0,0,0,0,0,0,0,0,0,0,0,0,0,0,0,0,0,0],"id":12,"left_children":[1,3,5,7,9,-1,11,13,15,-1,17,19,21,23,-1,-1,-1,25,27,29,31,33,35,-1,-1,-1,-1,-1,-1,-1,-1,-1,-1,-1,-1,-1,-1],"loss_changes":[2.9867672E-6,1.9041902E-6,1.7808729E-6,1.6668362E-6,1.843485E-6,0E0,1.2698904E-6,1.7845784E-6,1.1234581E-6,0E0,1.8163989E-6,1.1985856E-6,1.2263106E-6,1.120989E-6,0E0,0E0,0E0,1.380733E-6,1.774488E-6,1.7355358E-6,1.4896993E-6,1.6766439E-6,1.0243314E-6,0E0,0E0,0E0,0E0,0E0,0E0,0E0,0E0,0E0,0E0,0E0,0E0,0E0,0E0],"parents":[2147483647,0,0,1,1,2,2,3,3,4,4,6,6,7,7,8,8,10,10,11,11,12,12,13,13,17,17,18,18,19,19,20,20,21,21,22,22],"right_children":[2,4,6,8,10,-1,12,14,16,-1,18,20,22,24,-1,-1,-1,26,28,30,32,34,36,-1,-1,-1,-1,-1,-1,-1,-1,-1,-1,-1,-1,-1,-1],"split_conditions":[2.3051687E-3,-2.7652765E-3,1.5022196E-3,5.0998367E-3,-3.7398115E-3,-1.403722E-4,6.1702E-3,3.363573E-3,-6.386567E-3,1.5134229E-4,8.318409E-3,1.0745917E-3,4.6993047E-4,-2.7771927E-3,-1.809029E-4,1.9734548E-4,1.2558123E-5,2.5142827E-3,1.0951124E-3,4.759025E-3,1.8373942E-3,7.544458E-5,7.4524097E-3,-2.1555305E-5,-7.698127E-5,-2.7431033E-6,-6.699593E-5,1.7483397E-4,-2.751767E-5,6.777214E-5,-2.1986853E-4,-4.2905605E-5,1.8630983E-5,4.2396925E-5,2.8631362E-4,-7.4408366E-5,5.9630514E-5],"split_indices":[1,4,7,8,3,0,6,2,3,0,5,2,9,1,0,0,0,4,7,8,2,9,7,0,0,0,0,0,0,0,0,0,0,0,0,0,0],"split_type":[0,0,0,0,0,0,0,0,0,0,0,0,0,0,0,0,0,0,0,0,0,0,0,0,0,0,0,0,0,0,0,0,0,0,0,0,0],"sum_hessian":[1.707E3,1.293E3,4.14E2,2E2,1.093E3,5E0,4.09E2,1.85E2,1.5E1,6E0,1.087E3,3.54E2,5.5E1,1.78E2,7E0,3E0,1.2E1,1.072E3,1.5E1,5.4E1,3E2,1E1,4.5E1,1.35E2,4.3E1,1.042E3,3E1,9E0,6E0,5.3E1,1E0,4E1,2.6E2,6E0,4E0,5E0,4E1],"tree_param":{"num_deleted":"0","num_feature":"10","num_nodes":"37","size_leaf_vector":"1"}},{"base_weights":[1.8993138E-7,-1.3196067E-5,2.4585313E-5,-3.8950864E-5,3.3767574E-5,2.6328047E-4,2.8086873E-5,5.346576E-4,-8.504707E-6,-2.9654667E-4,3.390801E-5,-9.740408E-5,1.8999777E-4,-1.7501497E-4,1.1230706E-4,7.790326E-6,5.0915885E-5],"categories":[],"categories_nodes":[],"categories_segments":[],"categories_sizes":[],"default_left":[0,0,0,0,0,0,0,0,0,0,0,0,0,0,0,0,0],"id":13,"left_children":[1,-1,3,-1,5,7,9,11,-1,13,15,-1,-1,-1,-1,-1,-1],"loss_changes":[1.8418109E-6,0E0,1.5655346E-6,0E0,1.3485508E-6,1.9936967E-6,1.9300278E-6,1.3078895E-6,0E0,3.6823071E-6,1.0728938E-6,0E0,0E0,0E0,0E0,0E0,0E0],"parents":[2147483647,0,0,2,2,4,4,5,5,6,6,7,7,9,9,10,10],"right_children":[2,-1,4,-1,6,8,10,12,-1,14,16,-1,-1,-1,-1,-1,-1],"split_conditions":[-7.4388646E-4,-1.3196067E-5,-5.3263195E-3,-3.8950864E-5,-6.433502E-4,-5.9641898E-6,-5.972814E-4,-2.816021E-3,-8.504707E-6,1.9303672E-3,6.1702E-3,-9.740408E-5,1.8999777E-4,-1.7501497E-4,1.1230706E-4,7.790326E-6,5.0915885E-5],"split_indices":[6,0,8,0,6,0,6,2,0,8,6,0,0,0,0,0,0],"split_type":[0,0,0,0,0,0,0,0,0,0,0,0,0,0,0,0,0],"sum_hessian":[1.707E3,6.07E2,1.1E3,6.1E1,1.039E3,2.4E1,1.015E3,1.2E1,1.2E1,1.7E1,9.98E2,1E0,1.1E1,1.2E1,5E0,9.44E2,5.4E1],"tree_param":{"num_deleted":"0","num_feature":"10","num_nodes":"17","size_leaf_vector":"1"}},{"base_weights":[1.4929303E-7,-8.581951E-5,9.090397E-6,1.6484451E-5,-5.063025E-5,6.0867224E-5,5.2568876E-6,-3.148441E-5,1.8439129E-4,-4.3092118E-4,7.851425E-6,3.5523647E-4,-8.181029E-5,-4.31323E-6,-2.2838422E-4,-9.9492034E-5,1.4160248E-5,1.228708E-4,-1.2601298E-4,-1.4532289E-4,-1.405294E-5,3.5433794E-5,1.5670454E-6],"categories":[],"categories_nodes":[],"categories_segments":[],"categories_sizes":[],"default_left":[0,0,0,0,0,0,0,0,0,0,0,0,0,0,0,0,0,0,0,0,0,0,0],"id":14,"left_children":[1,3,5,7,-1,-1,9,-1,11,13,15,17,-1,-1,-1,19,21,-1,-1,-1,-1,-1,-1],"loss_changes":[1.3136445E-6,1.3690129E-6,1.1489974E-6,1.5077736E-6,0E0,0E0,1.7224056E-6,0E0,2.5177255E-6,1.2275376E-6,1.0246745E-6,1.1408695E-6,0E0,0E0,0E0,1.6796101E-6,1.3259921E-6,0E0,0E0,0E0,0E0,0E0,0E0],"parents":[2147483647,0,0,1,1,2,2,3,3,6,6,8,8,9,9,10,10,11,11,15,15,16,16],"right_children":[2,4,6,8,-1,-1,10,-1,12,14,16,18,-1,-1,-1,20,22,-1,-1,-1,-1,-1,-1],"split_conditions":[-2.990853E-3,-6.16489E-3,-3.7398115E-3,-4.4667367E-3,-5.063025E-5,6.0867224E-5,-3.5567135E-3,-3.148441E-5,-5.295978E-3,-2.666492E-3,-2.3474712E-3,-1.5884042E-3,-8.181029E-5,-4.31323E-6,-2.2838422E-4,-3.2297894E-3,-1.613331E-3,1.228708E-4,-1.2601298E-4,-1.4532289E-4,-1.405294E-5,3.5433794E-5,1.5670454E-6],"split_indices":[0,5,3,4,0,0,3,0,2,0,6,3,0,0,0,5,4,0,0,0,0,0,0],"split_type":[0,0,0,0,0,0,0,0,0,0,0,0,0,0,0,0,0,0,0,0,0,0,0],"sum_hessian":[1.707E3,1.6E2,1.547E3,7.2E1,8.8E1,2.9E1,1.518E3,4.2E1,3E1,8E0,1.51E3,2.2E1,8E0,4E0,4E0,8.3E1,1.427E3,2.1E1,1E0,9E0,7.4E1,1.12E2,1.315E3],"tree_param":{"num_deleted":"0","num_feature":"10","num_nodes":"23","size_leaf_vector":"1"}},{"base_weights":[-1.6556278E-7,-2.4702927E-5,2.8044898E-5,-6.993114E-6,-1.8479285E-4,5.4411514E-5,-2.7362303E-5,-1.6146763E-5,1.1450473E-4,-1.1340887E-4,-1.6167335E-4,-1.2841115E-4,1.951773E-5,-2.902619E-4,9.983493E-6,-3.8122914E-6,-1.4177372E-4,-2.8680064E-4,4.583271E-5,-6.421104E-5,1.02757316E-4,-3.2695094E-5,-1.4653352E-4,-2.9126146E-5,5.1725143E-5,-1.1151167E-4,6.414766E-5,4.1859217E-5,-1.0743388E-4,1.1727173E-5,-4.0450956E-5],"categories":[],"categories_nodes":[],"categories_segments":[],"categories_sizes":[],"default_left":[0,0,0,0,0,0,0,0,0,0,0,0,0,0,0,0,0,0,0,0,0,0,0,0,0,0,0,0,0,0,0],"id":15,"left_children":[1,3,5,7,9,11,13,15,-1,17,-1,19,-1,21,23,-1,-1,25,27,-1,-1,-1,-1,29,-1,-1,-1,-1,-1,-1,-1],"loss_changes":[1.1829882E-6,2.5900467E-6,1.1629047E-6,2.9377902E-6,2.2392153E-6,1.0575822E-6,2.526174E-6,1.2591958E-6,0E0,2.1392057E-6,0E0,1.2830375E-6,0E0,1.096409E-6,1.4407368E-6,0E0,0E0,1.6521874E-6,1.6017727E-6,0E0,0E0,0E0,0E0,1.324923E-6,0E0,0E0,0E0,0E0,0E0,0E0,0E0],"parents":[2147483647,0,0,1,1,2,2,3,3,4,4,5,5,6,6,7,7,9,9,11,11,13,13,14,14,17,17,18,18,23,23],"right_children":[2,4,6,8,10,12,14,16,-1,18,-1,20,-1,22,24,-1,-1,26,28,-1,-1,-1,-1,30,-1,-1,-1,-1,-1,-1,-1],"split_conditions":[6.635152E-4,1.779269E-3,1.2264475E-3,3.9570257E-3,1.1464842E-3,-4.73937E-3,1.30748E-3,8.42889E-3,1.1450473E-4,9.5492974E-4,-1.6167335E-4,3.5712663E-3,1.951773E-5,2.670627E-3,7.4027292E-3,-3.8122914E-6,-1.4177372E-4,1.0143686E-3,3.7635723E-3,-6.421104E-5,1.02757316E-4,-3.2695094E-5,-1.4653352E-4,1.9045994E-3,5.1725143E-5,-1.1151167E-4,6.414766E-5,4.1859217E-5,-1.0743388E-4,1.1727173E-5,-4.0450956E-5],"split_indices":[0,2,9,5,3,8,9,8,0,9,0,3,0,5,8,0,0,6,2,0,0,0,0,9,0,0,0,0,0,0,0],"split_type":[0,0,0,0,0,0,0,0,0,0,0,0,0,0,0,0,0,0,0,0,0,0,0,0,0,0,0,0,0,0,0],"sum_hessian":[1.707E3,9.13E2,7.94E2,8.23E2,9E1,5.38E2,2.56E2,8.05E2,1.8E1,7.6E1,1.4E1,2.9E1,5.09E2,3.1E1,2.25E2,8E2,5E0,3.6E1,4E1,2.5E1,4E0,1.7E1,1.4E1,1.82E2,4.3E1,3.1E1,5E0,3.3E1,7E0,1.11E2,7.1E1],"tree_param":{"num_deleted":"0","num_feature":"10","num_nodes":"31","size_leaf_vector":"1"}},{"base_weights":[-3.5233896E-7],"categories":[],"categories_nodes":[],"categories_segments":[],"categories_sizes":[],"default_left":[0],"id":16,"left_children":[-1],"loss_changes":[0E0],"parents":[2147483647],"right_children":[-1],"split_conditions":[-1.05701695E-7],"split_indices":[0],"split_type":[0],"sum_hessian":[1.707E3],"tree_param":{"num_deleted":"0","num_feature":"10","num_nodes":"1","size_leaf_vector":"1"}},{"base_weights":[-2.4671326E-7],"categories":[],"categories_nodes":[],"categories_segments":[],"categories_sizes":[],"default_left":[0],"id":17,"left_children":[-1],"loss_changes":[0E0],"parents":[2147483647],"right_children":[-1],"split_conditions":[-7.401398E-8],"split_indices":[0],"split_type":[0],"sum_hessian":[1.707E3],"tree_param":{"num_deleted":"0","num_feature":"10","num_nodes":"1","size_leaf_vector":"1"}},{"base_weights":[-1.7273888E-7],"categories":[],"categories_nodes":[],"categories_segments":[],"categories_sizes":[],"default_left":[0],"id":18,"left_children":[-1],"loss_changes":[0E0],"parents":[2147483647],"right_children":[-1],"split_conditions":[-5.1821665E-8],"split_indices":[0],"split_type":[0],"sum_hessian":[1.707E3],"tree_param":{"num_deleted":"0","num_feature":"10","num_nodes":"1","size_leaf_vector":"1"}},{"base_weights":[-1.2093344E-7],"categories":[],"categories_nodes":[],"categories_segments":[],"categories_sizes":[],"default_left":[0],"id":19,"left_children":[-1],"loss_changes":[0E0],"parents":[2147483647],"right_children":[-1],"split_conditions":[-3.628003E-8],"split_indices":[0],"split_type":[0],"sum_hessian":[1.707E3],"tree_param":{"num_deleted":"0","num_feature":"10","num_nodes":"1","size_leaf_vector":"1"}},{"base_weights":[-8.464936E-8],"categories":[],"categories_nodes":[],"categories_segments":[],"categories_sizes":[],"default_left":[0],"id":20,"left_children":[-1],"loss_changes":[0E0],"parents":[2147483647],"right_children":[-1],"split_conditions":[-2.5394808E-8],"split_indices":[0],"split_type":[0],"sum_hessian":[1.707E3],"tree_param":{"num_deleted":"0","num_feature":"10","num_nodes":"1","size_leaf_vector":"1"}},{"base_weights":[-5.926644E-8],"categories":[],"categories_nodes":[],"categories_segments":[],"categories_sizes":[],"default_left":[0],"id":21,"left_children":[-1],"loss_changes":[0E0],"parents":[2147483647],"right_children":[-1],"split_conditions":[-1.7779932E-8],"split_indices":[0],"split_type":[0],"sum_hessian":[1.707E3],"tree_param":{"num_deleted":"0","num_feature":"10","num_nodes":"1","size_leaf_vector":"1"}},{"base_weights":[-4.1522544E-8],"categories":[],"categories_nodes":[],"categories_segments":[],"categories_sizes":[],"default_left":[0],"id":22,"left_children":[-1],"loss_changes":[0E0],"parents":[2147483647],"right_children":[-1],"split_conditions":[-1.2456764E-8],"split_indices":[0],"split_type":[0],"sum_hessian":[1.707E3],"tree_param":{"num_deleted":"0","num_feature":"10","num_nodes":"1","size_leaf_vector":"1"}},{"base_weights":[-2.9048381E-8],"categories":[],"categories_nodes":[],"categories_segments":[],"categories_sizes":[],"default_left":[0],"id":23,"left_children":[-1],"loss_changes":[0E0],"parents":[2147483647],"right_children":[-1],"split_conditions":[-8.714514E-9],"split_indices":[0],"split_type":[0],"sum_hessian":[1.707E3],"tree_param":{"num_deleted":"0","num_feature":"10","num_nodes":"1","size_leaf_vector":"1"}},{"base_weights":[-2.0353474E-8],"categories":[],"categories_nodes":[],"categories_segments":[],"categories_sizes":[],"default_left":[0],"id":24,"left_children":[-1],"loss_changes":[0E0],"parents":[2147483647],"right_children":[-1],"split_conditions":[-6.1060423E-9],"split_indices":[0],"split_type":[0],"sum_hessian":[1.707E3],"tree_param":{"num_deleted":"0","num_feature":"10","num_nodes":"1","size_leaf_vector":"1"}},{"base_weights":[-1.4266254E-8],"categories":[],"categories_nodes":[],"categories_segments":[],"categories_sizes":[],"default_left":[0],"id":25,"left_children":[-1],"loss_changes":[0E0],"parents":[2147483647],"right_children":[-1],"split_conditions":[-4.2798765E-9],"split_indices":[0],"split_type":[0],"sum_hessian":[1.707E3],"tree_param":{"num_deleted":"0","num_feature":"10","num_nodes":"1","size_leaf_vector":"1"}},{"base_weights":[-9.991464E-9],"categories":[],"categories_nodes":[],"categories_segments":[],"categories_sizes":[],"default_left":[0],"id":26,"left_children":[-1],"loss_changes":[0E0],"parents":[2147483647],"right_children":[-1],"split_conditions":[-2.9974392E-9],"split_indices":[0],"split_type":[0],"sum_hessian":[1.707E3],"tree_param":{"num_deleted":"0","num_feature":"10","num_nodes":"1","size_leaf_vector":"1"}},{"base_weights":[-7.0144046E-9],"categories":[],"categories_nodes":[],"categories_segments":[],"categories_sizes":[],"default_left":[0],"id":27,"left_children":[-1],"loss_changes":[0E0],"parents":[2147483647],"right_children":[-1],"split_conditions":[-2.1043214E-9],"split_indices":[0],"split_type":[0],"sum_hessian":[1.707E3],"tree_param":{"num_deleted":"0","num_feature":"10","num_nodes":"1","size_leaf_vector":"1"}},{"base_weights":[-4.903515E-9],"categories":[],"categories_nodes":[],"categories_segments":[],"categories_sizes":[],"default_left":[0],"id":28,"left_children":[-1],"loss_changes":[0E0],"parents":[2147483647],"right_children":[-1],"split_conditions":[-1.4710545E-9],"split_indices":[0],"split_type":[0],"sum_hessian":[1.707E3],"tree_param":{"num_deleted":"0","num_feature":"10","num_nodes":"1","size_leaf_vector":"1"}},{"base_weights":[-3.4320247E-9],"categories":[],"categories_nodes":[],"categories_segments":[],"categories_sizes":[],"default_left":[0],"id":29,"left_children":[-1],"loss_changes":[0E0],"parents":[2147483647],"right_children":[-1],"split_conditions":[-1.0296074E-9],"split_indices":[0],"split_type":[0],"sum_hessian":[1.707E3],"tree_param":{"num_deleted":"0","num_feature":"10","num_nodes":"1","size_leaf_vector":"1"}},{"base_weights":[-2.4311586E-9],"categories":[],"categories_nodes":[],"categories_segments":[],"categories_sizes":[],"default_left":[0],"id":30,"left_children":[-1],"loss_changes":[0E0],"parents":[2147483647],"right_children":[-1],"split_conditions":[-7.2934764E-10],"split_indices":[0],"split_type":[0],"sum_hessian":[1.707E3],"tree_param":{"num_deleted":"0","num_feature":"10","num_nodes":"1","size_leaf_vector":"1"}},{"base_weights":[-1.6855892E-9],"categories":[],"categories_nodes":[],"categories_segments":[],"categories_sizes":[],"default_left":[0],"id":31,"left_children":[-1],"loss_changes":[0E0],"parents":[2147483647],"right_children":[-1],"split_conditions":[-5.056768E-10],"split_indices":[0],"split_type":[0],"sum_hessian":[1.707E3],"tree_param":{"num_deleted":"0","num_feature":"10","num_nodes":"1","size_leaf_vector":"1"}},{"base_weights":[-1.1869156E-9],"categories":[],"categories_nodes":[],"categories_segments":[],"categories_sizes":[],"default_left":[0],"id":32,"left_children":[-1],"loss_changes":[0E0],"parents":[2147483647],"right_children":[-1],"split_conditions":[-3.560747E-10],"split_indices":[0],"split_type":[0],"sum_hessian":[1.707E3],"tree_param":{"num_deleted":"0","num_feature":"10","num_nodes":"1","size_leaf_vector":"1"}},{"base_weights":[-8.123231E-10],"categories":[],"categories_nodes":[],"categories_segments":[],"categories_sizes":[],"default_left":[0],"id":33,"left_children":[-1],"loss_changes":[0E0],"parents":[2147483647],"right_children":[-1],"split_conditions":[-2.4369695E-10],"split_indices":[0],"split_type":[0],"sum_hessian":[1.707E3],"tree_param":{"num_deleted":"0","num_feature":"10","num_nodes":"1","size_leaf_vector":"1"}},{"base_weights":[-5.633239E-10],"categories":[],"categories_nodes":[],"categories_segments":[],"categories_sizes":[],"default_left":[0],"id":34,"left_children":[-1],"loss_changes":[0E0],"parents":[2147483647],"right_children":[-1],"split_conditions":[-1.6899718E-10],"split_indices":[0],"split_type":[0],"sum_hessian":[1.707E3],"tree_param":{"num_deleted":"0","num_feature":"10","num_nodes":"1","size_leaf_vector":"1"}},{"base_weights":[-4.1783346E-10],"categories":[],"categories_nodes":[],"categories_segments":[],"categories_sizes":[],"default_left":[0],"id":35,"left_children":[-1],"loss_changes":[0E0],"parents":[2147483647],"right_children":[-1],"split_conditions":[-1.2535005E-10],"split_indices":[0],"split_type":[0],"sum_hessian":[1.707E3],"tree_param":{"num_deleted":"0","num_feature":"10","num_nodes":"1","size_leaf_vector":"1"}},{"base_weights":[-2.909696E-10],"categories":[],"categories_nodes":[],"categories_segments":[],"categories_sizes":[],"default_left":[0],"id":36,"left_children":[-1],"loss_changes":[0E0],"parents":[2147483647],"right_children":[-1],"split_conditions":[-8.729088E-11],"split_indices":[0],"split_type":[0],"sum_hessian":[1.707E3],"tree_param":{"num_deleted":"0","num_feature":"10","num_nodes":"1","size_leaf_vector":"1"}},{"base_weights":[-2.3182477E-10],"categories":[],"categories_nodes":[],"categories_segments":[],"categories_sizes":[],"default_left":[0],"id":37,"left_children":[-1],"loss_changes":[0E0],"parents":[2147483647],"right_children":[-1],"split_conditions":[-6.954743E-11],"split_indices":[0],"split_type":[0],"sum_hessian":[1.707E3],"tree_param":{"num_deleted":"0","num_feature":"10","num_nodes":"1","size_leaf_vector":"1"}},{"base_weights":[-1.7651598E-10],"categories":[],"categories_nodes":[],"categories_segments":[],"categories_sizes":[],"default_left":[0],"id":38,"left_children":[-1],"loss_changes":[0E0],"parents":[2147483647],"right_children":[-1],"split_conditions":[-5.2954797E-11],"split_indices":[0],"split_type":[0],"sum_hessian":[1.707E3],"tree_param":{"num_deleted":"0","num_feature":"10","num_nodes":"1","size_leaf_vector":"1"}},{"base_weights":[-1.5711733E-10],"categories":[],"categories_nodes":[],"categories_segments":[],"categories_sizes":[],"default_left":[0],"id":39,"left_children":[-1],"loss_changes":[0E0],"parents":[2147483647],"right_children":[-1],"split_conditions":[-4.7135202E-11],"split_indices":[0],"split_type":[0],"sum_hessian":[1.707E3],"tree_param":{"num_deleted":"0","num_feature":"10","num_nodes":"1","size_leaf_vector":"1"}},{"base_weights":[-1.3838218E-10],"categories":[],"categories_nodes":[],"categories_segments":[],"categories_sizes":[],"default_left":[0],"id":40,"left_children":[-1],"loss_changes":[0E0],"parents":[2147483647],"right_children":[-1],"split_conditions":[-4.1514656E-11],"split_indices":[0],"split_type":[0],"sum_hessian":[1.707E3],"tree_param":{"num_deleted":"0","num_feature":"10","num_nodes":"1","size_leaf_vector":"1"}},{"base_weights":[-1.2254056E-10],"categories":[],"categories_nodes":[],"categories_segments":[],"categories_sizes":[],"default_left":[0],"id":41,"left_children":[-1],"loss_changes":[0E0],"parents":[2147483647],"right_children":[-1],"split_conditions":[-3.676217E-11],"split_indices":[0],"split_type":[0],"sum_hessian":[1.707E3],"tree_param":{"num_deleted":"0","num_feature":"10","num_nodes":"1","size_leaf_vector":"1"}},{"base_weights":[-1.06599916E-10],"categories":[],"categories_nodes":[],"categories_segments":[],"categories_sizes":[],"default_left":[0],"id":42,"left_children":[-1],"loss_changes":[0E0],"parents":[2147483647],"right_children":[-1],"split_conditions":[-3.1979978E-11],"split_indices":[0],"split_type":[0],"sum_hessian":[1.707E3],"tree_param":{"num_deleted":"0","num_feature":"10","num_nodes":"1","size_leaf_vector":"1"}},{"base_weights":[-9.162893E-11],"categories":[],"categories_nodes":[],"categories_segments":[],"categories_sizes":[],"default_left":[0],"id":43,"left_children":[-1],"loss_changes":[0E0],"parents":[2147483647],"right_children":[-1],"split_conditions":[-2.748868E-11],"split_indices":[0],"split_type":[0],"sum_hessian":[1.707E3],"tree_param":{"num_deleted":"0","num_feature":"10","num_nodes":"1","size_leaf_vector":"1"}},{"base_weights":[-8.658624E-11],"categories":[],"categories_nodes":[],"categories_segments":[],"categories_sizes":[],"default_left":[0],"id":44,"left_children":[-1],"loss_changes":[0E0],"parents":[2147483647],"right_children":[-1],"split_conditions":[-2.5975872E-11],"split_indices":[0],"split_type":[0],"sum_hessian":[1.707E3],"tree_param":{"num_deleted":"0","num_feature":"10","num_nodes":"1","size_leaf_vector":"1"}},{"base_weights":[-8.178903E-11],"categories":[],"categories_nodes":[],"categories_segments":[],"categories_sizes":[],"default_left":[0],"id":45,"left_children":[-1],"loss_changes":[0E0],"parents":[2147483647],"right_children":[-1],"split_conditions":[-2.453671E-11],"split_indices":[0],"split_type":[0],"sum_hessian":[1.707E3],"tree_param":{"num_deleted":"0","num_feature":"10","num_nodes":"1","size_leaf_vector":"1"}},{"base_weights":[-7.713985E-11],"categories":[],"categories_nodes":[],"categories_segments":[],"categories_sizes":[],"default_left":[0],"id":46,"left_children":[-1],"loss_changes":[0E0],"parents":[2147483647],"right_children":[-1],"split_conditions":[-2.3141955E-11],"split_indices":[0],"split_type":[0],"sum_hessian":[1.707E3],"tree_param":{"num_deleted":"0","num_feature":"10","num_nodes":"1","size_leaf_vector":"1"}},{"base_weights":[-7.2255306E-11],"categories":[],"categories_nodes":[],"categories_segments":[],"categories_sizes":[],"default_left":[0],"id":47,"left_children":[-1],"loss_changes":[0E0],"parents":[2147483647],"right_children":[-1],"split_conditions":[-2.1676593E-11],"split_indices":[0],"split_type":[0],"sum_hessian":[1.707E3],"tree_param":{"num_deleted":"0","num_feature":"10","num_nodes":"1","size_leaf_vector":"1"}},{"base_weights":[-6.822967E-11],"categories":[],"categories_nodes":[],"categories_segments":[],"categories_sizes":[],"default_left":[0],"id":48,"left_children":[-1],"loss_changes":[0E0],"parents":[2147483647],"right_children":[-1],"split_conditions":[-2.0468903E-11],"split_indices":[0],"split_type":[0],"sum_hessian":[1.707E3],"tree_param":{"num_deleted":"0","num_feature":"10","num_nodes":"1","size_leaf_vector":"1"}},{"base_weights":[-6.43345E-11],"categories":[],"categories_nodes":[],"categories_segments":[],"categories_sizes":[],"default_left":[0],"id":49,"left_children":[-1],"loss_changes":[0E0],"parents":[2147483647],"right_children":[-1],"split_conditions":[-1.9300351E-11],"split_indices":[0],"split_type":[0],"sum_hessian":[1.707E3],"tree_param":{"num_deleted":"0","num_feature":"10","num_nodes":"1","size_leaf_vector":"1"}},{"base_weights":[-6.021249E-11],"categories":[],"categories_nodes":[],"categories_segments":[],"categories_sizes":[],"default_left":[0],"id":50,"left_children":[-1],"loss_changes":[0E0],"parents":[2147483647],"right_children":[-1],"split_conditions":[-1.8063747E-11],"split_indices":[0],"split_type":[0],"sum_hessian":[1.707E3],"tree_param":{"num_deleted":"0","num_feature":"10","num_nodes":"1","size_leaf_vector":"1"}},{"base_weights":[-5.6318915E-11],"categories":[],"categories_nodes":[],"categories_segments":[],"categories_sizes":[],"default_left":[0],"id":51,"left_children":[-1],"loss_changes":[0E0],"parents":[2147483647],"right_children":[-1],"split_conditions":[-1.6895676E-11],"split_indices":[0],"split_type":[0],"sum_hessian":[1.707E3],"tree_param":{"num_deleted":"0","num_feature":"10","num_nodes":"1","size_leaf_vector":"1"}},{"base_weights":[-5.2766666E-11],"categories":[],"categories_nodes":[],"categories_segments":[],"categories_sizes":[],"default_left":[0],"id":52,"left_children":[-1],"loss_changes":[0E0],"parents":[2147483647],"right_children":[-1],"split_conditions":[-1.583E-11],"split_indices":[0],"split_type":[0],"sum_hessian":[1.707E3],"tree_param":{"num_deleted":"0","num_feature":"10","num_nodes":"1","size_leaf_vector":"1"}},{"base_weights":[-4.908556E-11],"categories":[],"categories_nodes":[],"categories_segments":[],"categories_sizes":[],"default_left":[0],"id":53,"left_children":[-1],"loss_changes":[0E0],"parents":[2147483647],"right_children":[-1],"split_conditions":[-1.4725669E-11],"split_indices":[0],"split_type":[0],"sum_hessian":[1.707E3],"tree_param":{"num_deleted":"0","num_feature":"10","num_nodes":"1","size_leaf_vector":"1"}},{"base_weights":[-4.5123825E-11],"categories":[],"categories_nodes":[],"categories_segments":[],"categories_sizes":[],"default_left":[0],"id":54,"left_children":[-1],"loss_changes":[0E0],"parents":[2147483647],"right_children":[-1],"split_conditions":[-1.3537148E-11],"split_indices":[0],"split_type":[0],"sum_hessian":[1.707E3],"tree_param":{"num_deleted":"0","num_feature":"10","num_nodes":"1","size_leaf_vector":"1"}},{"base_weights":[-4.36845E-11],"categories":[],"categories_nodes":[],"categories_segments":[],"categories_sizes":[],"default_left":[0],"id":55,"left_children":[-1],"loss_changes":[0E0],"parents":[2147483647],"right_children":[-1],"split_conditions":[-1.3105351E-11],"split_indices":[0],"split_type":[0],"sum_hessian":[1.707E3],"tree_param":{"num_deleted":"0","num_feature":"10","num_nodes":"1","size_leaf_vector":"1"}},{"base_weights":[-4.2624845E-11],"categories":[],"categories_nodes":[],"categories_segments":[],"categories_sizes":[],"default_left":[0],"id":56,"left_children":[-1],"loss_changes":[0E0],"parents":[2147483647],"right_children":[-1],"split_conditions":[-1.2787454E-11],"split_indices":[0],"split_type":[0],"sum_hessian":[1.707E3],"tree_param":{"num_deleted":"0","num_feature":"10","num_nodes":"1","size_leaf_vector":"1"}},{"base_weights":[-4.13458E-11],"categories":[],"categories_nodes":[],"categories_segments":[],"categories_sizes":[],"default_left":[0],"id":57,"left_children":[-1],"loss_changes":[0E0],"parents":[2147483647],"right_children":[-1],"split_conditions":[-1.240374E-11],"split_indices":[0],"split_type":[0],"sum_hessian":[1.707E3],"tree_param":{"num_deleted":"0","num_feature":"10","num_nodes":"1","size_leaf_vector":"1"}},{"base_weights":[-4.0286142E-11],"categories":[],"categories_nodes":[],"categories_segments":[],"categories_sizes":[],"default_left":[0],"id":58,"left_children":[-1],"loss_changes":[0E0],"parents":[2147483647],"right_children":[-1],"split_conditions":[-1.2085844E-11],"split_indices":[0],"split_type":[0],"sum_hessian":[1.707E3],"tree_param":{"num_deleted":"0","num_feature":"10","num_nodes":"1","size_leaf_vector":"1"}},{"base_weights":[-3.909709E-11],"categories":[],"categories_nodes":[],"categories_segments":[],"categories_sizes":[],"default_left":[0],"id":59,"left_children":[-1],"loss_changes":[0E0],"parents":[2147483647],"right_children":[-1],"split_conditions":[-1.1729127E-11],"split_indices":[0],"split_type":[0],"sum_hessian":[1.707E3],"tree_param":{"num_deleted":"0","num_feature":"10","num_nodes":"1","size_leaf_vector":"1"}},{"base_weights":[-3.8055004E-11],"categories":[],"categories_nodes":[],"categories_segments":[],"categories_sizes":[],"default_left":[0],"id":60,"left_children":[-1],"loss_changes":[0E0],"parents":[2147483647],"right_children":[-1],"split_conditions":[-1.1416501E-11],"split_indices":[0],"split_type":[0],"sum_hessian":[1.707E3],"tree_param":{"num_deleted":"0","num_feature":"10","num_nodes":"1","size_leaf_vector":"1"}},{"base_weights":[-3.694476E-11],"categories":[],"categories_nodes":[],"categories_segments":[],"categories_sizes":[],"default_left":[0],"id":61,"left_children":[-1],"loss_changes":[0E0],"parents":[2147483647],"right_children":[-1],"split_conditions":[-1.10834284E-11],"split_indices":[0],"split_type":[0],"sum_hessian":[1.707E3],"tree_param":{"num_deleted":"0","num_feature":"10","num_nodes":"1","size_leaf_vector":"1"}},{"base_weights":[-3.5570935E-11],"categories":[],"categories_nodes":[],"categories_segments":[],"categories_sizes":[],"default_left":[0],"id":62,"left_children":[-1],"loss_changes":[0E0],"parents":[2147483647],"right_children":[-1],"split_conditions":[-1.0671281E-11],"split_indices":[0],"split_type":[0],"sum_hessian":[1.707E3],"tree_param":{"num_deleted":"0","num_feature":"10","num_nodes":"1","size_leaf_vector":"1"}},{"base_weights":[-3.4687E-11],"categories":[],"categories_nodes":[],"categories_segments":[],"categories_sizes":[],"default_left":[0],"id":63,"left_children":[-1],"loss_changes":[0E0],"parents":[2147483647],"right_children":[-1],"split_conditions":[-1.04061005E-11],"split_indices":[0],"split_type":[0],"sum_hessian":[1.707E3],"tree_param":{"num_deleted":"0","num_feature":"10","num_nodes":"1","size_leaf_vector":"1"}},{"base_weights":[-3.3675798E-11],"categories":[],"categories_nodes":[],"categories_segments":[],"categories_sizes":[],"default_left":[0],"id":64,"left_children":[-1],"loss_changes":[0E0],"parents":[2147483647],"right_children":[-1],"split_conditions":[-1.010274E-11],"split_indices":[0],"split_type":[0],"sum_hessian":[1.707E3],"tree_param":{"num_deleted":"0","num_feature":"10","num_nodes":"1","size_leaf_vector":"1"}},{"base_weights":[-3.25368E-11],"categories":[],"categories_nodes":[],"categories_segments":[],"categories_sizes":[],"default_left":[0],"id":65,"left_children":[-1],"loss_changes":[0E0],"parents":[2147483647],"right_children":[-1],"split_conditions":[-9.76104E-12],"split_indices":[0],"split_type":[0],"sum_hessian":[1.707E3],"tree_param":{"num_deleted":"0","num_feature":"10","num_nodes":"1","size_leaf_vector":"1"}},{"base_weights":[-3.159589E-11],"categories":[],"categories_nodes":[],"categories_segments":[],"categories_sizes":[],"default_left":[0],"id":66,"left_children":[-1],"loss_changes":[0E0],"parents":[2147483647],"right_children":[-1],"split_conditions":[-9.478767E-12],"split_indices":[0],"split_type":[0],"sum_hessian":[1.707E3],"tree_param":{"num_deleted":"0","num_feature":"10","num_nodes":"1","size_leaf_vector":"1"}},{"base_weights":[-3.0670418E-11],"categories":[],"categories_nodes":[],"categories_segments":[],"categories_sizes":[],"default_left":[0],"id":67,"left_children":[-1],"loss_changes":[0E0],"parents":[2147483647],"right_children":[-1],"split_conditions":[-9.201126E-12],"split_indices":[0],"split_type":[0],"sum_hessian":[1.707E3],"tree_param":{"num_deleted":"0","num_feature":"10","num_nodes":"1","size_leaf_vector":"1"}},{"base_weights":[-2.980459E-11],"categories":[],"categories_nodes":[],"categories_segments":[],"categories_sizes":[],"default_left":[0],"id":68,"left_children":[-1],"loss_changes":[0E0],"parents":[2147483647],"right_children":[-1],"split_conditions":[-8.941377E-12],"split_indices":[0],"split_type":[0],"sum_hessian":[1.707E3],"tree_param":{"num_deleted":"0","num_feature":"10","num_nodes":"1","size_leaf_vector":"1"}},{"base_weights":[-2.8964317E-11],"categories":[],"categories_nodes":[],"categories_segments":[],"categories_sizes":[],"default_left":[0],"id":69,"left_children":[-1],"loss_changes":[0E0],"parents":[2147483647],"right_children":[-1],"split_conditions":[-8.689296E-12],"split_indices":[0],"split_type":[0],"sum_hessian":[1.707E3],"tree_param":{"num_deleted":"0","num_feature":"10","num_nodes":"1","size_leaf_vector":"1"}},{"base_weights":[-2.7932351E-11],"categories":[],"categories_nodes":[],"categories_segments":[],"categories_sizes":[],"default_left":[0],"id":70,"left_children":[-1],"loss_changes":[0E0],"parents":[2147483647],"right_children":[-1],"split_conditions":[-8.379706E-12],"split_indices":[0],"split_type":[0],"sum_hessian":[1.707E3],"tree_param":{"num_deleted":"0","num_feature":"10","num_nodes":"1","size_leaf_vector":"1"}},{"base_weights":[-2.6877485E-11],"categories":[],"categories_nodes":[],"categories_segments":[],"categories_sizes":[],"default_left":[0],"id":71,"left_children":[-1],"loss_changes":[0E0],"parents":[2147483647],"right_children":[-1],"split_conditions":[-8.063245E-12],"split_indices":[0],"split_type":[0],"sum_hessian":[1.707E3],"tree_param":{"num_deleted":"0","num_feature":"10","num_nodes":"1","size_leaf_vector":"1"}},{"base_weights":[-2.586309E-11],"categories":[],"categories_nodes":[],"categories_segments":[],"categories_sizes":[],"default_left":[0],"id":72,"left_children":[-1],"loss_changes":[0E0],"parents":[2147483647],"right_children":[-1],"split_conditions":[-7.758927E-12],"split_indices":[0],"split_type":[0],"sum_hessian":[1.707E3],"tree_param":{"num_deleted":"0","num_feature":"10","num_nodes":"1","size_leaf_vector":"1"}},{"base_weights":[-2.4985012E-11],"categories":[],"categories_nodes":[],"categories_segments":[],"categories_sizes":[],"default_left":[0],"id":73,"left_children":[-1],"loss_changes":[0E0],"parents":[2147483647],"right_children":[-1],"split_conditions":[-7.495504E-12],"split_indices":[0],"split_type":[0],"sum_hessian":[1.707E3],"tree_param":{"num_deleted":"0","num_feature":"10","num_nodes":"1","size_leaf_vector":"1"}},{"base_weights":[-2.4175625E-11],"categories":[],"categories_nodes":[],"categories_segments":[],"categories_sizes":[],"default_left":[0],"id":74,"left_children":[-1],"loss_changes":[0E0],"parents":[2147483647],"right_children":[-1],"split_conditions":[-7.2526876E-12],"split_indices":[0],"split_type":[0],"sum_hessian":[1.707E3],"tree_param":{"num_deleted":"0","num_feature":"10","num_nodes":"1","size_leaf_vector":"1"}},{"base_weights":[-2.3775192E-11],"categories":[],"categories_nodes":[],"categories_segments":[],"categories_sizes":[],"default_left":[0],"id":75,"left_children":[-1],"loss_changes":[0E0],"parents":[2147483647],"right_children":[-1],"split_conditions":[-7.132558E-12],"split_indices":[0],"split_type":[0],"sum_hessian":[1.707E3],"tree_param":{"num_deleted":"0","num_feature":"10","num_nodes":"1","size_leaf_vector":"1"}},{"base_weights":[-2.3511077E-11],"categories":[],"categories_nodes":[],"categories_segments":[],"categories_sizes":[],"default_left":[0],"id":76,"left_children":[-1],"loss_changes":[0E0],"parents":[2147483647],"right_children":[-1],"split_conditions":[-7.053323E-12],"split_indices":[0],"split_type":[0],"sum_hessian":[1.707E3],"tree_param":{"num_deleted":"0","num_feature":"10","num_nodes":"1","size_leaf_vector":"1"}},{"base_weights":[-2.3212881E-11],"categories":[],"categories_nodes":[],"categories_segments":[],"categories_sizes":[],"default_left":[0],"id":77,"left_children":[-1],"loss_changes":[0E0],"parents":[2147483647],"right_children":[-1],"split_conditions":[-6.963865E-12],"split_indices":[0],"split_type":[0],"sum_hessian":[1.707E3],"tree_param":{"num_deleted":"0","num_feature":"10","num_nodes":"1","size_leaf_vector":"1"}},{"base_weights":[-2.3016925E-11],"categories":[],"categories_nodes":[],"categories_segments":[],"categories_sizes":[],"default_left":[0],"id":78,"left_children":[-1],"loss_changes":[0E0],"parents":[2147483647],"right_children":[-1],"split_conditions":[-6.9050776E-12],"split_indices":[0],"split_type":[0],"sum_hessian":[1.707E3],"tree_param":{"num_deleted":"0","num_feature":"10","num_nodes":"1","size_leaf_vector":"1"}},{"base_weights":[-2.265057E-11],"categories":[],"categories_nodes":[],"categories_segments":[],"categories_sizes":[],"default_left":[0],"id":79,"left_children":[-1],"loss_changes":[0E0],"parents":[2147483647],"right_children":[-1],"split_conditions":[-6.7951716E-12],"split_indices":[0],"split_type":[0],"sum_hessian":[1.707E3],"tree_param":{"num_deleted":"0","num_feature":"10","num_nodes":"1","size_leaf_vector":"1"}},{"base_weights":[-2.2233632E-11],"categories":[],"categories_nodes":[],"categories_segments":[],"categories_sizes":[],"default_left":[0],"id":80,"left_children":[-1],"loss_changes":[0E0],"parents":[2147483647],"right_children":[-1],"split_conditions":[-6.67009E-12],"split_indices":[0],"split_type":[0],"sum_hessian":[1.707E3],"tree_param":{"num_deleted":"0","num_feature":"10","num_nodes":"1","size_leaf_vector":"1"}},{"base_weights":[-2.2004128E-11],"categories":[],"categories_nodes":[],"categories_segments":[],"categories_sizes":[],"default_left":[0],"id":81,"left_children":[-1],"loss_changes":[0E0],"parents":[2147483647],"right_children":[-1],"split_conditions":[-6.6012387E-12],"split_indices":[0],"split_type":[0],"sum_hessian":[1.707E3],"tree_param":{"num_deleted":"0","num_feature":"10","num_nodes":"1","size_leaf_vector":"1"}},{"base_weights":[-2.1757584E-11],"categories":[],"categories_nodes":[],"categories_segments":[],"categories_sizes":[],"default_left":[0],"id":82,"left_children":[-1],"loss_changes":[0E0],"parents":[2147483647],"right_children":[-1],"split_conditions":[-6.5272752E-12],"split_indices":[0],"split_type":[0],"sum_hessian":[1.707E3],"tree_param":{"num_deleted":"0","num_feature":"10","num_nodes":"1","size_leaf_vector":"1"}},{"base_weights":[-2.152808E-11],"categories":[],"categories_nodes":[],"categories_segments":[],"categories_sizes":[],"default_left":[0],"id":83,"left_children":[-1],"loss_changes":[0E0],"parents":[2147483647],"right_children":[-1],"split_conditions":[-6.458424E-12],"split_indices":[0],"split_type":[0],"sum_hessian":[1.707E3],"tree_param":{"num_deleted":"0","num_feature":"10","num_nodes":"1","size_leaf_vector":"1"}},{"base_weights":[-2.11367E-11],"categories":[],"categories_nodes":[],"categories_segments":[],"categories_sizes":[],"default_left":[0],"id":84,"left_children":[-1],"loss_changes":[0E0],"parents":[2147483647],"right_children":[-1],"split_conditions":[-6.34101E-12],"split_indices":[0],"split_type":[0],"sum_hessian":[1.707E3],"tree_param":{"num_deleted":"0","num_feature":"10","num_nodes":"1","size_leaf_vector":"1"}},{"base_weights":[-2.0934886E-11],"categories":[],"categories_nodes":[],"categories_segments":[],"categories_sizes":[],"default_left":[0],"id":85,"left_children":[-1],"loss_changes":[0E0],"parents":[2147483647],"right_children":[-1],"split_conditions":[-6.280466E-12],"split_indices":[0],"split_type":[0],"sum_hessian":[1.707E3],"tree_param":{"num_deleted":"0","num_feature":"10","num_nodes":"1","size_leaf_vector":"1"}},{"base_weights":[-2.072668E-11],"categories":[],"categories_nodes":[],"categories_segments":[],"categories_sizes":[],"default_left":[0],"id":86,"left_children":[-1],"loss_changes":[0E0],"parents":[2147483647],"right_children":[-1],"split_conditions":[-6.2180044E-12],"split_indices":[0],"split_type":[0],"sum_hessian":[1.707E3],"tree_param":{"num_deleted":"0","num_feature":"10","num_nodes":"1","size_leaf_vector":"1"}},{"base_weights":[-2.0377899E-11],"categories":[],"categories_nodes":[],"categories_segments":[],"categories_sizes":[],"default_left":[0],"id":87,"left_children":[-1],"loss_changes":[0E0],"parents":[2147483647],"right_children":[-1],"split_conditions":[-6.11337E-12],"split_indices":[0],"split_type":[0],"sum_hessian":[1.707E3],"tree_param":{"num_deleted":"0","num_feature":"10","num_nodes":"1","size_leaf_vector":"1"}},{"base_weights":[-2.0005688E-11],"categories":[],"categories_nodes":[],"categories_segments":[],"categories_sizes":[],"default_left":[0],"id":88,"left_children":[-1],"loss_changes":[0E0],"parents":[2147483647],"right_children":[-1],"split_conditions":[-6.0017065E-12],"split_indices":[0],"split_type":[0],"sum_hessian":[1.707E3],"tree_param":{"num_deleted":"0","num_feature":"10","num_nodes":"1","size_leaf_vector":"1"}},{"base_weights":[-1.9799615E-11],"categories":[],"categories_nodes":[],"categories_segments":[],"categories_sizes":[],"default_left":[0],"id":89,"left_children":[-1],"loss_changes":[0E0],"parents":[2147483647],"right_children":[-1],"split_conditions":[-5.939885E-12],"split_indices":[0],"split_type":[0],"sum_hessian":[1.707E3],"tree_param":{"num_deleted":"0","num_feature":"10","num_nodes":"1","size_leaf_vector":"1"}},{"base_weights":[-1.9553071E-11],"categories":[],"categories_nodes":[],"categories_segments":[],"categories_sizes":[],"default_left":[0],"id":90,"left_children":[-1],"loss_changes":[0E0],"parents":[2147483647],"right_children":[-1],"split_conditions":[-5.8659215E-12],"split_indices":[0],"split_type":[0],"sum_hessian":[1.707E3],"tree_param":{"num_deleted":"0","num_feature":"10","num_nodes":"1","size_leaf_vector":"1"}},{"base_weights":[-1.9260201E-11],"categories":[],"categories_nodes":[],"categories_segments":[],"categories_sizes":[],"default_left":[0],"id":91,"left_children":[-1],"loss_changes":[0E0],"parents":[2147483647],"right_children":[-1],"split_conditions":[-5.7780608E-12],"split_indices":[0],"split_type":[0],"sum_hessian":[1.707E3],"tree_param":{"num_deleted":"0","num_feature":"10","num_nodes":"1","size_leaf_vector":"1"}},{"base_weights":[-1.899502E-11],"categories":[],"categories_nodes":[],"categories_segments":[],"categories_sizes":[],"default_left":[0],"id":92,"left_children":[-1],"loss_changes":[0E0],"parents":[2147483647],"right_children":[-1],"split_conditions":[-5.6985063E-12],"split_indices":[0],"split_type":[0],"sum_hessian":[1.707E3],"tree_param":{"num_deleted":"0","num_feature":"10","num_nodes":"1","size_leaf_vector":"1"}},{"base_weights":[-1.866594E-11],"categories":[],"categories_nodes":[],"categories_segments":[],"categories_sizes":[],"default_left":[0],"id":93,"left_children":[-1],"loss_changes":[0E0],"parents":[2147483647],"right_children":[-1],"split_conditions":[-5.5997824E-12],"split_indices":[0],"split_type":[0],"sum_hessian":[1.707E3],"tree_param":{"num_deleted":"0","num_feature":"10","num_nodes":"1","size_leaf_vector":"1"}},{"base_weights":[-1.850087E-11],"categories":[],"categories_nodes":[],"categories_segments":[],"categories_sizes":[],"default_left":[0],"id":94,"left_children":[-1],"loss_changes":[0E0],"parents":[2147483647],"right_children":[-1],"split_conditions":[-5.550261E-12],"split_indices":[0],"split_type":[0],"sum_hessian":[1.707E3],"tree_param":{"num_deleted":"0","num_feature":"10","num_nodes":"1","size_leaf_vector":"1"}},{"base_weights":[-1.816114E-11],"categories":[],"categories_nodes":[],"categories_segments":[],"categories_sizes":[],"default_left":[0],"id":95,"left_children":[-1],"loss_changes":[0E0],"parents":[2147483647],"right_children":[-1],"split_conditions":[-5.448342E-12],"split_indices":[0],"split_type":[0],"sum_hessian":[1.707E3],"tree_param":{"num_deleted":"0","num_feature":"10","num_nodes":"1","size_leaf_vector":"1"}},{"base_weights":[-1.784697E-11],"categories":[],"categories_nodes":[],"categories_segments":[],"categories_sizes":[],"default_left":[0],"id":96,"left_children":[-1],"loss_changes":[0E0],"parents":[2147483647],"right_children":[-1],"split_conditions":[-5.3540913E-12],"split_indices":[0],"split_type":[0],"sum_hessian":[1.707E3],"tree_param":{"num_deleted":"0","num_feature":"10","num_nodes":"1","size_leaf_vector":"1"}},{"base_weights":[-1.7635038E-11],"categories":[],"categories_nodes":[],"categories_segments":[],"categories_sizes":[],"default_left":[0],"id":97,"left_children":[-1],"loss_changes":[0E0],"parents":[2147483647],"right_children":[-1],"split_conditions":[-5.2905115E-12],"split_indices":[0],"split_type":[0],"sum_hessian":[1.707E3],"tree_param":{"num_deleted":"0","num_feature":"10","num_nodes":"1","size_leaf_vector":"1"}},{"base_weights":[-1.7429497E-11],"categories":[],"categories_nodes":[],"categories_segments":[],"categories_sizes":[],"default_left":[0],"id":98,"left_children":[-1],"loss_changes":[0E0],"parents":[2147483647],"right_children":[-1],"split_conditions":[-5.2288495E-12],"split_indices":[0],"split_type":[0],"sum_hessian":[1.707E3],"tree_param":{"num_deleted":"0","num_feature":"10","num_nodes":"1","size_leaf_vector":"1"}},{"base_weights":[-1.7206915E-11],"categories":[],"categories_nodes":[],"categories_segments":[],"categories_sizes":[],"default_left":[0],"id":99,"left_children":[-1],"loss_changes":[0E0],"parents":[2147483647],"right_children":[-1],"split_conditions":[-5.1620748E-12],"split_indices":[0],"split_type":[0],"sum_hessian":[1.707E3],"tree_param":{"num_deleted":"0","num_feature":"10","num_nodes":"1","size_leaf_vector":"1"}}]},"name":"gbtree"},"learner_model_param":{"base_score":"5.639956E-4","boost_from_average":"1","num_class":"0","num_feature":"10","num_target":"1"},"objective":{"name":"reg:squarederror","reg_loss_param":{"scale_pos_weight":"1"}}},"version":[2,0,3]}